~o
<STREAMINFO> 1 39
<VECSIZE> 39<NULLD><MFCC_D_A_0><DIAGC>
~h "a"
<BEGINHMM>
<NUMSTATES> 5
<STATE> 2
<MEAN> 39
 -2.811472e+00 8.934342e+00 -8.806162e+00 4.775517e+00 -9.151758e-01 -1.649145e+01 -4.426443e+00 -1.075164e+01 -1.292614e+01 4.555545e+00 -5.726803e+00 -3.452952e+00 7.023520e+01 -9.145938e-02 -1.611807e+00 -1.624901e+00 -1.832549e+00 -6.369635e-01 -6.980584e-01 1.289397e+00 7.373025e-01 -5.558303e-02 1.101183e+00 1.287978e+00 4.516102e-01 1.347177e+00 -1.396347e-01 -1.380716e-01 -9.784120e-02 -3.675117e-01 -4.735393e-02 1.485614e-01 2.567197e-01 2.156709e-01 1.653124e-01 -4.560598e-02 1.152015e-02 2.734591e-02 1.962859e-01
<VARIANCE> 39
 9.144246e+00 3.992564e+01 3.746789e+01 5.873735e+01 4.727155e+01 8.664312e+01 4.873698e+01 7.666560e+01 1.007642e+02 5.783349e+01 7.625475e+01 3.557204e+01 1.461252e+01 3.765659e-01 9.833046e-01 1.098267e+00 3.249267e+00 1.479323e+00 4.102729e+00 3.066983e+00 4.619938e+00 3.244359e+00 2.483734e+00 3.197579e+00 2.021093e+00 6.531265e-01 5.343140e-02 2.848115e-01 3.170841e-01 6.073587e-01 2.927238e-01 1.032308e+00 5.755967e-01 7.468479e-01 5.586153e-01 5.831883e-01 7.417882e-01 3.023005e-01 2.362882e-01
<GCONST> 1.174024e+02
<STATE> 3
<MEAN> 39
 -4.904548e+00 1.462001e+00 -1.569594e+01 -5.909041e+00 -8.228859e+00 -1.397639e+01 1.864178e+00 -7.031950e+00 -1.271344e+01 5.019820e+00 -4.118674e+00 -2.889844e+00 7.465758e+01 -2.629657e-01 -5.669675e-02 -2.408583e-01 -2.733725e-01 -3.923492e-01 1.068517e+00 7.047426e-01 1.277049e-01 2.508968e-01 -3.596758e-01 1.370519e-01 2.833219e-01 -2.036579e-01 8.681666e-03 2.062624e-01 1.692438e-01 3.207679e-01 1.027286e-01 9.900457e-02 -1.504404e-01 -9.677567e-02 2.045872e-02 -1.122813e-01 -7.973967e-02 -1.618850e-02 -2.425229e-01
<VARIANCE> 39
 1.176791e+01 3.359507e+01 4.690600e+01 3.997449e+01 6.813558e+01 6.073174e+01 5.032687e+01 7.247849e+01 7.275730e+01 4.706230e+01 5.273273e+01 2.921923e+01 1.314478e+01 2.989658e-01 9.864188e-01 1.091688e+00 1.619749e+00 1.704865e+00 3.014145e+00 2.512073e+00 2.077626e+00 2.207794e+00 1.763182e+00 1.631323e+00 1.227053e+00 1.044013e+00 4.273438e-02 9.285831e-02 1.426980e-01 2.409238e-01 1.962967e-01 4.852251e-01 3.563919e-01 3.652017e-01 3.408725e-01 3.332177e-01 3.049116e-01 2.612757e-01 5.388569e-02
<GCONST> 1.035960e+02
<STATE> 4
<MEAN> 39
 -9.343492e+00 6.935635e+00 -1.237186e+01 2.959231e+00 -3.452757e+00 -2.911756e+00 6.343679e+00 -6.241930e+00 -6.560260e+00 5.988426e+00 9.948511e-02 1.068949e+00 6.378548e+01 -2.664633e-01 1.777234e-01 2.377164e-01 4.137438e-01 1.029110e-01 4.495296e-01 2.363990e-02 1.234376e-01 2.983311e-01 2.446084e-02 4.482486e-02 1.033396e-01 -5.655469e-01 -6.002064e-03 7.693565e-03 6.121268e-02 2.682683e-02 3.299917e-02 -4.608137e-02 -5.892145e-02 4.035665e-03 -1.531999e-02 -1.052374e-03 -2.177550e-02 -1.788420e-02 -1.065739e-02
<VARIANCE> 39
 3.331957e+01 2.918894e+01 3.079147e+01 4.437085e+01 3.874416e+01 9.594067e+01 3.000440e+01 5.497583e+01 8.832241e+01 5.521621e+01 3.275162e+01 3.156753e+01 9.020758e+01 1.896021e-01 6.080140e-01 6.049098e-01 8.630351e-01 1.019097e+00 1.582312e+00 1.084699e+00 1.404513e+00 1.424369e+00 1.429490e+00 1.071181e+00 9.805115e-01 4.768474e-01 2.876311e-02 8.218396e-02 1.076095e-01 1.188349e-01 1.724768e-01 2.347385e-01 1.848954e-01 2.424891e-01 2.484946e-01 2.196645e-01 1.854489e-01 1.742190e-01 4.431378e-02
<GCONST> 9.327421e+01
<TRANSP> 5
 0.000000e+00 1.000000e+00 0.000000e+00 0.000000e+00 0.000000e+00
 0.000000e+00 7.575408e-01 2.424593e-01 0.000000e+00 0.000000e+00
 0.000000e+00 0.000000e+00 8.377771e-01 1.622229e-01 0.000000e+00
 0.000000e+00 0.000000e+00 0.000000e+00 9.482591e-01 5.174086e-02
 0.000000e+00 0.000000e+00 0.000000e+00 0.000000e+00 0.000000e+00
<ENDHMM>
~h "b"
<BEGINHMM>
<NUMSTATES> 5
<STATE> 2
<MEAN> 39
 -9.564365e+00 1.408869e+01 -3.561711e+00 5.943830e+00 -4.692448e+00 -3.672904e+00 1.782453e+00 -5.294960e+00 -7.822653e+00 5.768853e-01 -7.718705e+00 -2.327805e+00 6.253405e+01 1.933461e+00 1.177512e+00 -4.212224e-01 -1.629130e+00 -1.826020e+00 -1.984949e+00 -9.838392e-01 -4.378515e-01 -7.069371e-01 -4.805382e-01 -7.494379e-01 -4.331395e-01 1.309242e+00 1.007577e-01 5.049414e-02 -1.773713e-01 -2.923466e-01 -3.807479e-01 -3.776990e-01 9.052506e-02 7.503223e-02 4.678579e-02 2.116920e-02 8.919103e-02 -1.949699e-03 1.334650e-01
<VARIANCE> 39
 4.466784e+01 5.370813e+01 8.184985e+01 7.813083e+01 5.195644e+01 5.901342e+01 4.188012e+01 3.560085e+01 3.634194e+01 2.719597e+01 3.103571e+01 3.418945e+01 5.182187e+01 3.384630e+00 3.098869e+00 2.411450e+00 5.183732e+00 5.924457e+00 8.198355e+00 3.096874e+00 3.616755e+00 3.462999e+00 2.597998e+00 2.423790e+00 2.514645e+00 4.312861e+00 4.724158e-01 5.000714e-01 3.389221e-01 6.716201e-01 6.344233e-01 1.038474e+00 6.263272e-01 5.218991e-01 5.283832e-01 4.606332e-01 4.732581e-01 4.321483e-01 4.909838e-01
<GCONST> 1.298406e+02
<STATE> 3
<MEAN> 39
 -1.536191e+00 1.402832e+01 -1.146042e+01 -3.085879e+00 -1.420726e+01 -1.267912e+01 -4.716557e-01 -5.333113e+00 -8.846840e+00 1.133495e-01 -8.513908e+00 -2.271878e+00 6.974161e+01 1.220000e+00 1.047388e+00 -2.955020e-01 -7.615407e-01 -1.770422e+00 -1.479710e+00 -6.955004e-02 -1.724656e-02 -3.413561e-01 -4.447476e-01 -2.208826e-01 -2.062694e-01 2.952415e-01 -6.001394e-01 -3.599295e-01 2.145999e-01 5.459469e-01 6.914503e-01 7.814698e-01 4.208249e-01 2.031434e-01 2.030357e-01 1.699440e-01 3.309534e-01 1.022793e-01 -4.131404e-01
<VARIANCE> 39
 1.465968e+01 7.440860e+01 7.399503e+01 4.672179e+01 7.658607e+01 7.096450e+01 4.675766e+01 5.924521e+01 4.439277e+01 3.199801e+01 3.341727e+01 4.867933e+01 2.332110e+01 2.307781e+00 3.252295e+00 3.340800e+00 6.083904e+00 6.161245e+00 7.501984e+00 2.842648e+00 4.882534e+00 3.083527e+00 2.973653e+00 2.555875e+00 2.401061e+00 3.712218e+00 2.771180e-01 3.996765e-01 3.601340e-01 3.939573e-01 4.158295e-01 6.449354e-01 5.180303e-01 5.276394e-01 5.054613e-01 4.632861e-01 5.319488e-01 4.343436e-01 1.481931e-01
<GCONST> 1.263905e+02
<STATE> 4
<MEAN> 39
 -1.870924e+00 1.452940e+01 -1.164109e+01 1.947101e+00 -1.011352e+01 -7.087784e+00 8.311312e-01 -6.571865e+00 -9.091277e+00 -1.727585e+00 -8.988552e+00 -3.346968e+00 6.626354e+01 -4.011129e-01 4.115717e-01 6.827289e-01 3.504871e-01 2.048589e-01 3.958647e-01 3.872519e-01 2.248446e-01 1.951972e-01 5.607023e-02 1.321532e-01 1.252500e-01 -6.194885e-01 -4.311576e-01 -4.490840e-01 1.042208e-01 -1.185607e-01 2.063263e-01 5.905086e-02 8.383164e-02 1.742466e-01 1.767055e-01 3.171509e-01 3.067268e-01 2.007648e-01 2.102817e-01
<VARIANCE> 39
 1.156001e+01 3.821932e+01 5.172635e+01 5.404654e+01 6.428696e+01 8.257372e+01 3.200512e+01 4.797010e+01 4.559563e+01 3.674306e+01 3.245397e+01 4.004380e+01 2.173316e+01 1.662655e+00 1.843084e+00 2.530259e+00 3.411146e+00 2.415355e+00 3.984318e+00 2.005165e+00 3.167130e+00 2.435320e+00 2.545073e+00 2.388733e+00 2.084062e+00 2.000509e+00 2.501184e-01 2.916320e-01 3.010583e-01 5.808451e-01 4.806128e-01 7.266479e-01 3.765927e-01 5.002139e-01 4.355997e-01 4.752204e-01 4.407797e-01 3.363654e-01 3.354066e-01
<GCONST> 1.191412e+02
<TRANSP> 5
 0.000000e+00 1.000000e+00 0.000000e+00 0.000000e+00 0.000000e+00
 0.000000e+00 6.644552e-01 3.355448e-01 0.000000e+00 0.000000e+00
 0.000000e+00 0.000000e+00 2.735113e-01 7.264886e-01 0.000000e+00
 0.000000e+00 0.000000e+00 0.000000e+00 6.191070e-01 3.808930e-01
 0.000000e+00 0.000000e+00 0.000000e+00 0.000000e+00 0.000000e+00
<ENDHMM>
~h "d"
<BEGINHMM>
<NUMSTATES> 5
<STATE> 2
<MEAN> 39
 -5.329404e+00 1.134016e+01 -6.890513e+00 8.223729e+00 -3.938612e+00 -1.439750e+01 -4.830493e+00 -7.317176e+00 -7.449340e+00 5.160887e+00 -4.720605e+00 -1.407135e+00 6.637502e+01 -2.306945e-01 1.964742e-01 7.591955e-03 1.733053e-01 1.429936e-01 8.973975e-01 3.578841e-01 3.184536e-01 3.589882e-01 6.483699e-02 1.382694e-01 2.208990e-01 -7.264140e-01 -1.371149e-01 -1.933379e-01 -1.079099e-01 -1.804320e-01 -8.666240e-02 8.963576e-02 1.887357e-01 1.136356e-01 1.396682e-01 9.053631e-02 6.907094e-02 7.909375e-02 6.002989e-02
<VARIANCE> 39
 1.457544e+01 3.853816e+01 4.458474e+01 4.420421e+01 6.138210e+01 8.321071e+01 6.284161e+01 4.989503e+01 5.918029e+01 4.899935e+01 5.404672e+01 3.903015e+01 3.139133e+01 9.662867e-01 2.336889e+00 1.950534e+00 2.837995e+00 2.749577e+00 7.041786e+00 3.752889e+00 2.485927e+00 2.709571e+00 3.287935e+00 2.807480e+00 1.967761e+00 2.372095e+00 1.684859e-01 4.085170e-01 3.062585e-01 4.653136e-01 4.510811e-01 1.244865e+00 6.267897e-01 4.470873e-01 4.706703e-01 6.267099e-01 5.019105e-01 3.421954e-01 3.514913e-01
<GCONST> 1.232369e+02
<STATE> 3
<MEAN> 39
 -7.103611e+00 1.400440e+01 -5.345167e+00 8.185656e+00 -3.148230e+00 -6.313992e+00 -1.030756e+00 -6.266463e+00 -6.324512e+00 4.319254e+00 -5.025778e+00 -9.161095e-01 6.242567e+01 -7.475310e-01 -3.238902e-01 -6.930266e-02 -8.780815e-02 6.478206e-02 1.300794e+00 1.071258e+00 7.265209e-01 6.117905e-01 6.193156e-02 2.780244e-01 4.782319e-01 -6.488515e-01 -1.570577e-01 -2.934926e-01 -4.269151e-02 -2.097822e-01 -8.021517e-03 -3.119279e-01 -5.981002e-02 9.249974e-02 -2.514263e-02 7.404814e-02 8.161311e-02 7.504280e-02 2.809916e-01
<VARIANCE> 39
 2.492301e+01 4.095463e+01 7.336674e+01 4.790526e+01 4.506610e+01 4.214301e+01 5.001670e+01 3.722131e+01 3.757131e+01 4.009167e+01 4.519448e+01 4.126735e+01 2.965048e+01 1.932775e+00 1.983461e+00 2.036767e+00 2.059543e+00 2.095623e+00 3.136600e+00 2.339885e+00 2.020405e+00 2.611467e+00 2.405610e+00 1.886046e+00 1.803673e+00 1.911090e+00 3.409716e-01 3.847453e-01 3.453311e-01 4.212518e-01 3.671972e-01 4.280129e-01 4.437158e-01 3.542923e-01 3.802315e-01 4.200618e-01 3.231481e-01 3.181026e-01 2.417487e-01
<GCONST> 1.168215e+02
<STATE> 4
<MEAN> 39
 -1.314885e+01 9.106485e+00 -6.156528e+00 9.931870e+00 -2.148489e+00 -1.636412e-01 5.309298e+00 -6.670491e-01 8.984052e-01 9.033083e+00 -4.063306e-01 2.846198e+00 5.746245e+01 -4.810545e-01 -1.773799e-01 -3.336559e-02 -9.449534e-02 2.067516e-01 4.286280e-01 4.228843e-01 4.037847e-01 2.648629e-01 7.922433e-02 1.211421e-01 1.607415e-01 -1.943478e-01 -3.404975e-02 -6.362344e-02 7.292970e-02 -1.412483e-01 -3.272757e-02 -2.173562e-01 -1.093460e-01 -3.292443e-02 -1.102917e-01 -2.758017e-02 -4.675125e-02 -3.815353e-02 1.872826e-01
<VARIANCE> 39
 2.883334e+01 5.729412e+01 3.352621e+01 4.166357e+01 3.715532e+01 4.733279e+01 5.722294e+01 4.094727e+01 4.588315e+01 4.314911e+01 3.241957e+01 2.514712e+01 3.653804e+01 1.053940e+00 1.398870e+00 1.085101e+00 1.420626e+00 1.436572e+00 1.945457e+00 1.598698e+00 1.525486e+00 1.559737e+00 1.636212e+00 1.376450e+00 1.332511e+00 8.078501e-01 1.806706e-01 2.135206e-01 1.846379e-01 2.944773e-01 2.565916e-01 3.268567e-01 3.071072e-01 2.554298e-01 2.639757e-01 2.618375e-01 2.272844e-01 2.218110e-01 1.472504e-01
<GCONST> 1.047575e+02
<TRANSP> 5
 0.000000e+00 1.000000e+00 0.000000e+00 0.000000e+00 0.000000e+00
 0.000000e+00 6.797909e-01 3.202091e-01 0.000000e+00 0.000000e+00
 0.000000e+00 0.000000e+00 4.727711e-01 5.272289e-01 0.000000e+00
 0.000000e+00 0.000000e+00 0.000000e+00 7.749545e-01 2.250455e-01
 0.000000e+00 0.000000e+00 0.000000e+00 0.000000e+00 0.000000e+00
<ENDHMM>
~h "f"
<BEGINHMM>
<NUMSTATES> 5
<STATE> 2
<MEAN> 39
 -2.468107e+01 1.192874e+01 -7.104150e+00 4.921510e+00 6.024066e+00 -2.037238e+00 4.686379e+00 -2.087401e+00 -2.558866e+00 5.723284e+00 -2.415736e+00 1.428999e+00 6.595240e+01 -1.679935e+00 -3.456154e-01 -3.033288e-01 -9.189440e-01 4.398756e-01 -1.957543e-01 1.391302e-01 2.493004e-01 1.330163e-01 -3.910105e-02 6.329168e-02 2.396636e-01 7.921669e-01 3.618826e-01 -9.920236e-02 -6.154804e-02 -3.386893e-02 -2.135073e-01 -4.761666e-02 -1.238183e-01 -1.126264e-01 -1.094431e-01 -9.688941e-02 -3.625751e-02 -2.481137e-02 2.396890e-02
<VARIANCE> 39
 6.994520e+01 3.169749e+01 3.643539e+01 3.945954e+01 2.964639e+01 2.031163e+01 4.875948e+01 3.969333e+01 3.269152e+01 2.529510e+01 2.805763e+01 2.460202e+01 4.927965e+01 3.625923e+00 1.247463e+00 1.209770e+00 1.887051e+00 1.574497e+00 1.614186e+00 1.926212e+00 1.792996e+00 1.716707e+00 1.575881e+00 1.416577e+00 1.446498e+00 1.383388e+00 5.150311e-01 1.976817e-01 2.097144e-01 3.481143e-01 3.080069e-01 2.930758e-01 3.388039e-01 3.431121e-01 2.670993e-01 2.814853e-01 2.270843e-01 2.356191e-01 2.189030e-01
<GCONST> 1.078232e+02
<STATE> 3
<MEAN> 39
 -2.729572e+01 7.704746e+00 -8.897794e+00 -1.487036e+00 5.256371e+00 -2.838665e+00 4.113627e+00 -1.183503e+00 -3.905740e+00 4.465128e+00 -2.848338e+00 2.898762e+00 6.840089e+01 2.602756e+00 1.328263e-01 -5.882179e-01 -1.271608e+00 -1.696120e+00 -8.517825e-01 -8.559749e-01 -1.035352e+00 -1.181922e+00 -1.082944e+00 -5.701606e-01 -4.469164e-01 3.994794e-01 1.454140e+00 7.205790e-01 -1.478143e-01 -1.979917e-01 -6.213836e-01 -3.101811e-01 -3.044419e-01 -6.123219e-01 -3.674988e-01 -1.481819e-01 -1.059513e-01 -3.550308e-01 3.856966e-02
<VARIANCE> 39
 2.124008e+01 3.128108e+01 3.107068e+01 5.977996e+01 2.372165e+01 2.942135e+01 4.684155e+01 3.250735e+01 3.582764e+01 4.005717e+01 3.684187e+01 2.228251e+01 2.465470e+01 6.086196e+00 2.922880e+00 1.818583e+00 2.839174e+00 2.139214e+00 2.315555e+00 2.560572e+00 2.332367e+00 1.831569e+00 1.734042e+00 1.510404e+00 1.550806e+00 1.627945e+00 3.653526e-01 4.187486e-01 5.686787e-01 5.989067e-01 4.482694e-01 4.863546e-01 4.195941e-01 5.220382e-01 3.657128e-01 3.374011e-01 3.496972e-01 3.509769e-01 1.791524e-01
<GCONST> 1.152596e+02
<STATE> 4
<MEAN> 39
 -1.343901e+01 1.389504e+01 -9.962117e+00 -5.350873e+00 -2.911572e+00 -6.862960e+00 -3.576879e-01 -5.754051e+00 -8.788528e+00 5.425421e-01 -5.653371e+00 -9.523332e-01 6.881042e+01 6.233061e+00 2.202916e+00 -1.668937e+00 -2.281627e+00 -3.066784e+00 -1.548004e+00 -1.375168e+00 -2.701665e+00 -1.492913e+00 -5.750280e-01 -5.427420e-01 -1.420925e+00 9.274169e-01 -2.062099e-01 -1.914093e-01 -4.242607e-01 2.221606e-01 3.405129e-01 2.154954e-01 2.818139e-01 3.590663e-02 5.047039e-01 6.167835e-01 2.560879e-01 5.607604e-02 6.430302e-02
<VARIANCE> 39
 6.024037e+01 3.690535e+01 2.810239e+01 4.284156e+01 4.324377e+01 3.404274e+01 4.154830e+01 3.575624e+01 2.918121e+01 4.218031e+01 2.961481e+01 2.848029e+01 1.485007e+01 2.516771e+00 3.194386e+00 6.617598e+00 4.589677e+00 3.203137e+00 4.148571e+00 4.059296e+00 3.975846e+00 3.519256e+00 2.863403e+00 3.472200e+00 2.829376e+00 1.241890e+00 1.162660e+00 9.058194e-01 4.507946e-01 4.994966e-01 6.731591e-01 5.463372e-01 3.760685e-01 6.075601e-01 5.718628e-01 4.385087e-01 4.229118e-01 4.487362e-01 1.280518e-01
<GCONST> 1.242880e+02
<TRANSP> 5
 0.000000e+00 1.000000e+00 0.000000e+00 0.000000e+00 0.000000e+00
 0.000000e+00 8.677915e-01 1.322085e-01 0.000000e+00 0.000000e+00
 0.000000e+00 0.000000e+00 6.600494e-01 3.399506e-01 0.000000e+00
 0.000000e+00 0.000000e+00 0.000000e+00 4.376325e-01 5.623675e-01
 0.000000e+00 0.000000e+00 0.000000e+00 0.000000e+00 0.000000e+00
<ENDHMM>
~h "g"
<BEGINHMM>
<NUMSTATES> 5
<STATE> 2
<MEAN> 39
 -9.218828e+00 1.848219e+01 -3.511659e+00 8.954720e+00 -1.197295e-01 -8.951299e-01 3.335995e+00 -6.267665e+00 -7.033532e+00 5.972865e-01 -8.276571e+00 -6.313125e-01 5.902469e+01 2.318127e-02 -3.422225e-01 -1.062374e+00 -1.953357e+00 1.047299e-01 3.629232e-01 3.706618e-01 -1.094720e+00 -5.777710e-01 -1.038003e-01 -8.841102e-02 4.117021e-01 9.308041e-01 1.643244e-01 -8.909936e-02 -1.675255e-01 -2.358569e-01 1.138081e-01 -1.289908e-01 -3.296160e-01 -5.352721e-01 -1.733072e-01 1.686471e-01 9.955624e-02 5.600631e-03 3.115647e-01
<VARIANCE> 39
 2.050292e+01 3.134807e+01 3.342943e+01 6.858380e+01 5.050172e+01 6.186874e+01 6.122670e+01 4.429704e+01 4.574076e+01 3.853445e+01 3.911837e+01 3.950739e+01 2.091746e+01 2.938987e+00 3.557815e+00 4.156852e+00 7.201927e+00 3.387854e+00 5.136729e+00 6.630291e+00 5.364580e+00 3.408723e+00 4.135465e+00 2.815175e+00 3.087910e+00 1.500313e+00 3.884707e-01 4.870303e-01 7.582463e-01 1.392374e+00 5.660949e-01 9.007673e-01 1.071318e+00 8.780838e-01 6.190943e-01 6.862214e-01 4.231123e-01 5.016112e-01 2.518216e-01
<GCONST> 1.309492e+02
<STATE> 3
<MEAN> 39
 -5.477701e+00 1.461595e+01 -1.131147e+01 5.180649e-01 4.402038e+00 -3.897557e+00 -5.825292e+00 -2.277308e+01 -1.003445e+01 4.976150e+00 -7.316855e+00 -2.632353e+00 6.831113e+01 6.724700e-01 -5.888937e-01 -2.113287e-01 1.352884e+00 7.287587e-01 -2.480740e+00 -2.347332e+00 -1.200371e+00 6.001243e-01 9.307159e-01 -6.223642e-01 -1.524882e+00 9.809898e-01 -1.260628e-01 -9.442787e-02 3.699247e-01 4.952235e-01 -2.684232e-01 -5.066890e-01 8.674379e-02 9.034601e-01 2.227098e-01 -2.220156e-01 -2.700211e-01 -1.090260e-01 -1.557105e-01
<VARIANCE> 39
 3.402251e+01 3.282934e+01 4.939094e+01 9.837008e+01 9.539731e+01 8.879261e+01 1.028373e+02 7.916536e+01 8.523990e+01 6.581142e+01 7.252570e+01 6.649327e+01 9.110406e+00 1.866339e+00 2.613096e+00 3.355607e+00 4.192140e+00 3.073027e+00 6.108976e+00 4.481374e+00 1.059262e+01 5.312778e+00 4.930732e+00 3.257463e+00 3.159895e+00 5.269713e-01 3.876923e-01 4.704784e-01 6.661801e-01 8.227539e-01 5.931946e-01 8.531704e-01 1.153186e+00 9.746801e-01 8.855894e-01 1.116477e+00 4.846209e-01 8.299795e-01 8.292881e-02
<GCONST> 1.342543e+02
<STATE> 4
<MEAN> 39
 -6.250487e+00 9.027664e+00 -4.388408e+00 1.115088e+01 -3.302256e+00 -2.469103e+01 -7.909412e+00 -7.136053e+00 -9.770464e+00 5.387051e-01 -1.361208e+01 -7.081119e+00 7.180172e+01 -1.606670e-02 -8.686596e-02 1.864493e-01 -2.299763e-01 -7.220687e-01 1.544892e-01 5.636739e-01 7.302656e-01 -5.115074e-01 -3.777937e-01 2.093142e-01 3.074693e-01 -1.382622e-01 4.827034e-02 1.004778e-02 -2.146781e-01 -2.325246e-01 8.672308e-02 3.392254e-01 9.890091e-02 -2.329203e-01 -5.577236e-02 1.973056e-01 2.617976e-01 7.715368e-02 -7.200905e-03
<VARIANCE> 39
 1.078443e+01 3.069052e+01 5.198495e+01 5.914220e+01 1.386440e+02 1.087030e+02 8.962856e+01 1.116384e+02 8.429613e+01 6.201242e+01 3.692270e+01 6.626916e+01 9.464508e+00 6.411372e-01 1.338477e+00 2.384356e+00 1.741236e+00 2.970279e+00 8.274425e+00 3.872150e+00 7.336483e+00 2.455640e+00 3.729415e+00 2.837724e+00 2.043488e+00 7.513657e-01 7.095863e-02 2.745968e-01 2.015295e-01 2.522269e-01 3.748346e-01 1.090200e+00 6.242195e-01 7.972983e-01 4.502252e-01 4.695394e-01 4.300273e-01 4.092386e-01 1.423775e-01
<GCONST> 1.207082e+02
<TRANSP> 5
 0.000000e+00 1.000000e+00 0.000000e+00 0.000000e+00 0.000000e+00
 0.000000e+00 8.502985e-01 1.497015e-01 0.000000e+00 0.000000e+00
 0.000000e+00 0.000000e+00 8.605477e-01 1.394524e-01 0.000000e+00
 0.000000e+00 0.000000e+00 0.000000e+00 9.236248e-01 7.637519e-02
 0.000000e+00 0.000000e+00 0.000000e+00 0.000000e+00 0.000000e+00
<ENDHMM>
~h "k"
<BEGINHMM>
<NUMSTATES> 5
<STATE> 2
<MEAN> 39
 -9.089517e+00 9.884518e+00 -5.869666e+00 4.356557e+00 -3.042847e+00 -1.345330e+01 -4.100729e+00 -7.949551e+00 -9.415138e+00 5.087147e+00 -7.437895e+00 -3.420174e+00 6.714508e+01 -1.065227e+00 8.190244e-02 6.529489e-01 8.357889e-01 5.562091e-01 1.385367e+00 3.133183e-01 2.930306e-01 9.707359e-01 1.216545e-01 7.100970e-02 4.478188e-01 -9.978456e-01 4.187329e-02 8.850514e-03 -1.610666e-01 -8.878124e-02 -1.189605e-01 2.926460e-01 1.916632e-01 1.499335e-02 1.507674e-01 -3.271735e-03 1.684569e-01 2.239451e-01 -4.322750e-02
<VARIANCE> 39
 2.042107e+01 3.832087e+01 3.771132e+01 6.010112e+01 6.877614e+01 1.393083e+02 8.316075e+01 5.946785e+01 7.864883e+01 5.955879e+01 4.582501e+01 5.795213e+01 3.597007e+01 1.078017e+00 2.204062e+00 2.152766e+00 2.647268e+00 2.547498e+00 8.499362e+00 4.575315e+00 3.814828e+00 3.339263e+00 3.066179e+00 3.177041e+00 2.538216e+00 3.555412e+00 2.759113e-01 5.599670e-01 4.142159e-01 6.534933e-01 4.032859e-01 1.085678e+00 5.661201e-01 6.448628e-01 6.332647e-01 7.444368e-01 5.014707e-01 4.272899e-01 6.398884e-01
<GCONST> 1.301342e+02
<STATE> 3
<MEAN> 39
 -1.260335e+01 1.131705e+01 -5.488919e+00 6.322504e+00 -2.231216e+00 -5.029115e+00 -9.361563e-01 -7.219328e+00 -5.193328e+00 4.957620e+00 -5.567784e+00 8.311100e-02 6.162950e+01 -7.005883e-01 -3.882725e-01 -2.431049e-01 -8.166889e-01 8.285939e-02 1.016305e+00 4.592838e-01 1.448560e-01 4.397546e-01 5.641593e-01 6.240115e-01 5.410830e-01 7.136101e-02 8.897456e-02 -2.807372e-01 -1.516142e-01 -7.876715e-01 -5.690485e-02 -1.883929e-01 -1.332821e-02 -1.027560e-01 -2.427012e-01 1.949497e-01 1.482167e-01 -2.138736e-03 7.528834e-01
<VARIANCE> 39
 2.058290e+01 2.504733e+01 2.969174e+01 4.414388e+01 4.083181e+01 4.858538e+01 5.824041e+01 5.066205e+01 4.375985e+01 3.691956e+01 3.299799e+01 3.482257e+01 2.816210e+01 2.864831e+00 2.618231e+00 2.742051e+00 6.671940e+00 2.476485e+00 6.142604e+00 4.436830e+00 4.106408e+00 3.277319e+00 3.321995e+00 2.545347e+00 2.149019e+00 3.665108e+00 3.493737e-01 4.224333e-01 3.737286e-01 9.634028e-01 4.717352e-01 5.405191e-01 6.006271e-01 6.431690e-01 5.305965e-01 5.104150e-01 4.166571e-01 3.578253e-01 6.057969e-01
<GCONST> 1.254241e+02
<STATE> 4
<MEAN> 39
 -1.498246e+01 6.429828e+00 -8.565408e+00 -2.221364e+00 -3.890377e+00 -1.079414e+00 4.711949e+00 -5.043591e+00 -3.860246e+00 8.061516e+00 -1.826788e+00 4.135286e+00 6.566172e+01 5.741815e-02 -9.064639e-01 -3.077386e-01 -1.043758e+00 -5.662069e-02 -4.220644e-02 1.996284e-01 -7.068640e-03 6.874399e-03 4.094556e-01 3.146767e-01 -8.963799e-02 1.287672e+00 1.798226e-01 5.490231e-02 -6.641843e-04 3.277804e-01 -2.475281e-02 -2.006340e-01 -9.279994e-02 4.789927e-02 6.048872e-02 -2.203029e-01 -1.968398e-01 -2.774701e-01 -6.008423e-02
<VARIANCE> 39
 2.981887e+01 4.085836e+01 6.918432e+01 1.164249e+02 6.104386e+01 1.131539e+02 8.807027e+01 7.201408e+01 7.575564e+01 5.678176e+01 5.202459e+01 4.932273e+01 4.045312e+01 2.922782e+00 3.224849e+00 2.684381e+00 9.240770e+00 3.702651e+00 6.370511e+00 5.327336e+00 4.668521e+00 3.774733e+00 4.154157e+00 5.165321e+00 4.321911e+00 3.372257e+00 4.575972e-01 4.885944e-01 5.447495e-01 1.473397e+00 5.585586e-01 8.184287e-01 8.014307e-01 7.973636e-01 7.492057e-01 7.999012e-01 8.124443e-01 6.495063e-01 6.639615e-01
<GCONST> 1.396822e+02
<TRANSP> 5
 0.000000e+00 1.000000e+00 0.000000e+00 0.000000e+00 0.000000e+00
 0.000000e+00 5.684342e-01 4.315658e-01 0.000000e+00 0.000000e+00
 0.000000e+00 0.000000e+00 6.153791e-01 3.846209e-01 0.000000e+00
 0.000000e+00 0.000000e+00 0.000000e+00 7.369092e-01 2.630908e-01
 0.000000e+00 0.000000e+00 0.000000e+00 0.000000e+00 0.000000e+00
<ENDHMM>
~h "l"
<BEGINHMM>
<NUMSTATES> 5
<STATE> 2
<MEAN> 39
 -1.713892e+00 7.760367e+00 -1.393732e+01 -6.412179e+00 -1.932974e+01 -8.372816e+00 6.566276e+00 -3.006483e+00 -8.914324e+00 -1.988666e+00 -4.504128e+00 5.514651e-01 7.368222e+01 1.865441e-01 8.186852e-01 7.704722e-01 -9.030772e-02 -1.114836e+00 -2.497187e-01 2.968021e-01 1.460536e-01 -4.383895e-01 -4.182063e-01 1.786025e-02 1.933810e-01 -5.840480e-01 -5.043976e-02 -6.235848e-03 6.470741e-02 1.033686e-01 1.664624e-01 -3.217832e-02 -1.629390e-01 -1.378219e-01 9.931010e-03 7.455377e-02 7.558494e-03 -4.329064e-02 -1.442755e-02
<VARIANCE> 39
 8.674342e+00 5.889268e+01 8.966259e+01 7.027834e+01 7.367947e+01 8.043304e+01 6.070384e+01 8.873052e+01 7.279130e+01 4.211375e+01 4.777089e+01 3.202472e+01 2.267638e+01 2.133248e-01 6.623887e-01 9.677652e-01 1.121527e+00 1.394264e+00 2.076463e+00 2.098701e+00 1.814190e+00 1.997240e+00 1.729112e+00 1.879115e+00 1.401115e+00 1.917489e-01 3.152383e-02 8.571348e-02 1.166559e-01 1.520858e-01 2.095537e-01 2.350799e-01 2.879051e-01 2.713002e-01 2.853244e-01 2.719937e-01 2.531988e-01 2.322767e-01 2.550333e-02
<GCONST> 9.893943e+01
<STATE> 3
<MEAN> 39
 -1.091835e+00 1.609509e+01 -2.165517e+00 -1.618119e+00 -2.173709e+01 -1.251341e+01 2.189636e+00 -3.001913e+00 -9.970505e+00 -2.134529e+00 -5.006029e+00 1.267650e+00 6.876125e+01 -1.069014e-01 3.158746e-01 2.781492e-01 5.156695e-01 6.235433e-01 4.546375e-01 -5.698577e-02 -7.018235e-01 -2.686042e-01 -8.545202e-02 1.013374e-01 2.738726e-01 -4.653161e-01 -7.789505e-02 -1.732528e-01 -1.523207e-01 4.832227e-02 3.702593e-01 3.461589e-02 -8.621085e-02 -1.411835e-01 1.542699e-02 2.292591e-01 1.610700e-01 1.650871e-02 9.122024e-02
<VARIANCE> 39
 7.122831e+00 3.809398e+01 9.744657e+01 9.264627e+01 7.024936e+01 5.815924e+01 5.723227e+01 6.959929e+01 7.141804e+01 3.608361e+01 5.208796e+01 3.681242e+01 2.122896e+01 1.473021e-01 5.092105e-01 5.579762e-01 7.690383e-01 1.117390e+00 1.332936e+00 1.294891e+00 1.490733e+00 1.672813e+00 1.404640e+00 1.358744e+00 1.296537e+00 2.551483e-01 2.472319e-02 9.005609e-02 9.254929e-02 1.302231e-01 1.949098e-01 2.299397e-01 2.915423e-01 2.754002e-01 2.441279e-01 2.753440e-01 2.440939e-01 2.460194e-01 4.634722e-02
<GCONST> 9.439973e+01
<STATE> 4
<MEAN> 39
 -3.679005e+00 1.188369e+01 -6.531123e+00 -2.256356e+00 -1.521359e+01 -1.252210e+01 2.833832e+00 -1.082387e+01 -1.509625e+01 4.435071e-01 -3.356844e+00 1.254956e+00 6.976939e+01 -4.955266e-01 -4.418569e-01 1.017635e-01 8.625795e-01 1.732619e+00 -3.022265e-01 -9.139506e-01 -7.124307e-01 1.635262e-01 1.201104e+00 3.873462e-01 -3.970641e-01 -1.079418e-02 -5.969596e-02 -9.910819e-02 2.459849e-02 1.578270e-01 9.330760e-02 -2.882065e-01 -1.820547e-01 2.845007e-01 3.193295e-01 1.029178e-01 -1.861259e-01 -2.226597e-01 2.706110e-02
<VARIANCE> 39
 1.217114e+01 4.760704e+01 5.776272e+01 8.842402e+01 1.068058e+02 1.038799e+02 7.191426e+01 8.380657e+01 8.655679e+01 5.672612e+01 6.804240e+01 4.721591e+01 3.129637e+01 2.937804e-01 1.029988e+00 9.651916e-01 1.307914e+00 1.894373e+00 3.191770e+00 2.744357e+00 3.448343e+00 3.201352e+00 3.150146e+00 2.533277e+00 2.902854e+00 7.712942e-01 4.958101e-02 1.272350e-01 1.516160e-01 2.243900e-01 3.360118e-01 4.762276e-01 4.297946e-01 4.785712e-01 4.573907e-01 4.897066e-01 4.605113e-01 4.275833e-01 7.849737e-02
<GCONST> 1.142180e+02
<TRANSP> 5
 0.000000e+00 1.000000e+00 0.000000e+00 0.000000e+00 0.000000e+00
 0.000000e+00 7.380561e-01 2.619439e-01 0.000000e+00 0.000000e+00
 0.000000e+00 0.000000e+00 7.104405e-01 2.895596e-01 0.000000e+00
 0.000000e+00 0.000000e+00 0.000000e+00 7.178973e-01 2.821027e-01
 0.000000e+00 0.000000e+00 0.000000e+00 0.000000e+00 0.000000e+00
<ENDHMM>
~h "m"
<BEGINHMM>
<NUMSTATES> 5
<STATE> 2
<MEAN> 39
 -7.572803e+00 1.251502e+01 -7.535532e+00 7.178030e+00 -1.773666e+00 -2.287143e+00 1.195508e+00 -6.657085e+00 -6.337173e+00 3.511955e+00 -4.244236e+00 -4.776099e-01 6.263009e+01 3.134911e-01 7.642698e-01 5.382561e-01 8.133658e-01 4.252648e-01 4.188051e-01 -2.557354e-01 -5.492933e-01 -5.102822e-01 -4.486061e-01 -6.695453e-01 -4.872743e-01 -6.181155e-01 6.985134e-02 3.318818e-02 4.207958e-02 -1.035878e-01 -1.023973e-01 -2.553345e-01 -2.404991e-01 -1.608465e-01 -1.062773e-01 3.544416e-02 -2.744812e-02 -1.236527e-01 1.817803e-01
<VARIANCE> 39
 4.588877e+01 4.286841e+01 4.352712e+01 5.328903e+01 3.385904e+01 5.573948e+01 5.072367e+01 5.738588e+01 6.777847e+01 3.138382e+01 3.504021e+01 4.395111e+01 5.908918e+01 1.158582e+00 1.137515e+00 1.457407e+00 1.271601e+00 1.146515e+00 2.885584e+00 2.628712e+00 3.031668e+00 2.790917e+00 2.047796e+00 1.672293e+00 1.744102e+00 1.325163e+00 1.771441e-01 1.703751e-01 1.577656e-01 1.802773e-01 1.929720e-01 3.157914e-01 3.533181e-01 4.546493e-01 3.849151e-01 3.304369e-01 2.766040e-01 3.034945e-01 9.209821e-02
<GCONST> 1.102596e+02
<STATE> 3
<MEAN> 39
 -4.887476e+00 1.526669e+01 -6.650975e+00 7.490249e+00 -1.374476e+00 -2.907362e+00 -1.289413e+00 -9.811637e+00 -9.484999e+00 1.390387e+00 -6.085551e+00 -1.951612e+00 6.337600e+01 5.563104e-01 8.056462e-01 4.759263e-01 4.732386e-01 1.193815e-01 -1.455142e-01 -6.913003e-01 -7.982324e-01 -6.728725e-01 -2.598663e-01 -5.227637e-01 -5.181964e-01 -2.370413e-01 -4.858110e-02 -2.274886e-01 -1.849929e-01 -2.593296e-01 -1.568905e-01 -3.008642e-01 -5.251326e-02 1.894188e-01 2.018738e-01 2.632027e-01 2.128996e-01 9.415100e-02 2.194618e-01
<VARIANCE> 39
 3.116794e+01 3.371252e+01 3.983315e+01 5.647665e+01 3.318482e+01 4.787911e+01 4.286888e+01 4.560522e+01 6.373095e+01 3.073377e+01 2.917080e+01 4.627116e+01 3.918029e+01 1.489187e+00 9.821755e-01 1.077909e+00 9.016366e-01 1.181535e+00 3.021171e+00 2.970932e+00 3.207949e+00 2.656138e+00 1.795517e+00 1.422459e+00 1.829714e+00 1.433492e+00 9.171640e-02 1.307112e-01 2.090782e-01 2.117890e-01 1.781853e-01 3.117819e-01 2.915201e-01 3.708248e-01 3.214899e-01 3.097748e-01 2.409850e-01 2.377645e-01 7.767858e-02
<GCONST> 1.061379e+02
<STATE> 4
<MEAN> 39
 -3.821381e+00 1.547935e+01 -5.944309e+00 8.739022e+00 -6.040005e-01 -4.760604e+00 -3.803205e+00 -1.319879e+01 -1.178033e+01 2.991674e+00 -7.141028e+00 -5.604486e+00 6.383380e+01 6.839293e-02 -1.311385e-01 -1.370197e-01 6.488963e-02 -7.447772e-02 -6.890814e-01 -2.396028e-01 1.994490e-01 2.894218e-01 2.502002e-01 1.483121e-02 2.465250e-01 8.300160e-02 -1.829839e-01 -2.998846e-01 -3.706180e-02 -3.012840e-02 -4.413667e-02 -3.904056e-01 1.001281e-01 2.943374e-01 2.096133e-01 1.032981e-01 1.654829e-01 1.864845e-01 1.685515e-01
<VARIANCE> 39
 1.941331e+01 2.887746e+01 2.659088e+01 3.587058e+01 3.235954e+01 6.028506e+01 4.838511e+01 4.530376e+01 6.194132e+01 2.732585e+01 2.717390e+01 7.031506e+01 2.355763e+01 7.712176e-01 1.203068e+00 9.852732e-01 1.127970e+00 1.031173e+00 4.437163e+00 1.973867e+00 1.959769e+00 1.874468e+00 1.682870e+00 1.474257e+00 1.924179e+00 1.387041e+00 9.116844e-02 1.755341e-01 2.392476e-01 2.042088e-01 1.676549e-01 6.409282e-01 3.668677e-01 3.942989e-01 3.762417e-01 3.213362e-01 2.556981e-01 2.999910e-01 1.125369e-01
<GCONST> 1.055239e+02
<TRANSP> 5
 0.000000e+00 1.000000e+00 0.000000e+00 0.000000e+00 0.000000e+00
 0.000000e+00 3.021235e-01 6.978766e-01 0.000000e+00 0.000000e+00
 0.000000e+00 0.000000e+00 3.439740e-01 6.560261e-01 0.000000e+00
 0.000000e+00 0.000000e+00 0.000000e+00 6.712331e-01 3.287669e-01
 0.000000e+00 0.000000e+00 0.000000e+00 0.000000e+00 0.000000e+00
<ENDHMM>
~h "n"
<BEGINHMM>
<NUMSTATES> 5
<STATE> 2
<MEAN> 39
 -5.640511e+00 7.443985e+00 -7.885003e+00 5.059050e+00 -5.367278e+00 -1.930824e+01 -4.211131e+00 -7.062304e+00 -8.594790e+00 5.183972e+00 -6.423019e+00 -4.468511e+00 7.198271e+01 6.335898e-02 7.185784e-01 2.007693e-01 2.742330e-01 3.604940e-01 5.870016e-01 1.154875e-01 -3.612985e-01 -4.163418e-01 -2.767578e-01 -1.307550e-01 -3.318593e-02 -5.539832e-01 2.798006e-02 1.083478e-01 8.926032e-02 1.210873e-01 -4.282174e-03 2.247725e-01 -2.307718e-02 -4.609116e-02 1.320575e-03 -7.202672e-02 -7.254982e-02 1.046913e-02 -1.580628e-01
<VARIANCE> 39
 1.004232e+01 3.696114e+01 3.526496e+01 5.215679e+01 8.215240e+01 1.089859e+02 5.843021e+01 8.009645e+01 7.484363e+01 5.663468e+01 5.967742e+01 4.426984e+01 1.781147e+01 3.277086e-01 1.138135e+00 1.162492e+00 1.696017e+00 1.169649e+00 3.004188e+00 1.854123e+00 2.276023e+00 1.956088e+00 2.017139e+00 1.590561e+00 1.497073e+00 6.952215e-01 4.722042e-02 1.337547e-01 1.343971e-01 2.220635e-01 1.866907e-01 4.250840e-01 2.849686e-01 3.139352e-01 3.037772e-01 3.226343e-01 2.727921e-01 2.360625e-01 7.409744e-02
<GCONST> 1.048470e+02
<STATE> 3
<MEAN> 39
 -3.980428e+00 1.496168e+01 -4.164701e+00 8.889339e+00 -3.072839e+00 -1.094957e+01 -4.346464e+00 -9.324558e+00 -1.019300e+01 2.319646e+00 -7.577497e+00 -4.255030e+00 6.591741e+01 3.118930e-02 7.885238e-01 3.856715e-01 4.675130e-01 7.452745e-02 8.710372e-01 1.079953e-01 -1.454318e-01 -4.211774e-03 -2.238498e-01 -2.115180e-01 -1.118347e-02 -8.678104e-01 -1.128773e-01 -1.642020e-01 -2.026402e-02 -6.846654e-02 -4.092081e-02 -9.890789e-02 9.085519e-02 1.676219e-01 1.560745e-01 9.137286e-02 9.126071e-02 5.859282e-02 7.583954e-02
<VARIANCE> 39
 7.970280e+00 2.453121e+01 2.450446e+01 4.690407e+01 5.979373e+01 6.194997e+01 4.161281e+01 4.799726e+01 5.994907e+01 3.712832e+01 3.982496e+01 5.241117e+01 1.466586e+01 2.869388e-01 7.203657e-01 8.209519e-01 1.315031e+00 1.038679e+00 1.889735e+00 1.638896e+00 1.689219e+00 1.490653e+00 1.479782e+00 1.369934e+00 1.186669e+00 3.988917e-01 3.697495e-02 8.736130e-02 1.067482e-01 1.975867e-01 1.696324e-01 3.100249e-01 2.583218e-01 2.539544e-01 2.427198e-01 2.422009e-01 2.125800e-01 1.824159e-01 4.586216e-02
<GCONST> 9.397504e+01
<STATE> 4
<MEAN> 39
 -1.156184e+01 1.151802e+01 -5.222255e+00 1.137387e+01 -1.179946e+00 -3.015622e-01 3.563863e+00 -3.128172e+00 -2.278390e+00 6.153799e+00 -2.216780e+00 1.435704e+00 5.763458e+01 -3.408439e-01 -7.123362e-02 6.906348e-03 1.234721e-01 1.201834e-01 4.696693e-01 4.033907e-01 3.299752e-01 2.688185e-01 2.314333e-02 1.170975e-01 2.059074e-01 -3.679183e-01 -4.860008e-03 -6.408601e-02 -1.419326e-02 -5.693977e-02 -1.363503e-02 -9.244865e-02 -2.444307e-02 1.749223e-02 -1.589538e-02 1.013181e-02 4.207731e-04 -1.150696e-02 8.013933e-02
<VARIANCE> 39
 3.006019e+01 5.295336e+01 2.704827e+01 4.148347e+01 3.817199e+01 7.530907e+01 5.401934e+01 4.796802e+01 6.586945e+01 3.950688e+01 3.785183e+01 3.378843e+01 3.369831e+01 4.199500e-01 9.661257e-01 8.392968e-01 9.195876e-01 9.682474e-01 1.644774e+00 1.306450e+00 1.461051e+00 1.498110e+00 1.407754e+00 1.398085e+00 1.194872e+00 4.728381e-01 6.877527e-02 1.296581e-01 1.400182e-01 1.747594e-01 1.695887e-01 2.554304e-01 2.235564e-01 2.482458e-01 2.515463e-01 2.483727e-01 2.335469e-01 2.033411e-01 5.900387e-02
<GCONST> 9.778172e+01
<TRANSP> 5
 0.000000e+00 1.000000e+00 0.000000e+00 0.000000e+00 0.000000e+00
 0.000000e+00 7.283646e-01 2.716354e-01 0.000000e+00 0.000000e+00
 0.000000e+00 0.000000e+00 7.414541e-01 2.585459e-01 0.000000e+00
 0.000000e+00 0.000000e+00 0.000000e+00 8.235874e-01 1.764126e-01
 0.000000e+00 0.000000e+00 0.000000e+00 0.000000e+00 0.000000e+00
<ENDHMM>
~h "p"
<BEGINHMM>
<NUMSTATES> 5
<STATE> 2
<MEAN> 39
 -1.340265e+01 1.142578e+01 -6.502460e+00 1.076515e+01 -8.865308e-01 1.700842e+00 3.950541e+00 -4.201318e+00 -2.934449e+00 6.205547e+00 -1.098939e+00 2.909819e+00 5.462651e+01 -3.559200e-01 -2.787267e-01 1.036543e-01 2.265548e-02 2.581859e-02 4.231308e-02 2.125199e-01 4.378503e-01 2.478284e-01 1.150134e-01 2.053634e-01 2.126906e-01 -1.101795e-01 6.948649e-02 -1.286700e-01 4.664273e-02 -1.740151e-01 -3.879175e-02 -2.038239e-01 -6.944058e-02 -2.594703e-03 -9.857364e-02 4.858023e-03 3.013208e-04 -2.481948e-02 2.941245e-01
<VARIANCE> 39
 1.805923e+01 2.759136e+01 1.833491e+01 2.409886e+01 1.972194e+01 2.640681e+01 3.120765e+01 3.456501e+01 3.406531e+01 3.674269e+01 2.548217e+01 1.835786e+01 1.739129e+01 4.958244e-01 1.349174e+00 8.589932e-01 1.512834e+00 1.128650e+00 2.148140e+00 1.517353e+00 1.599097e+00 1.546479e+00 2.091067e+00 1.603837e+00 1.195067e+00 1.464093e+00 9.286565e-02 2.116834e-01 1.767003e-01 3.119929e-01 2.027512e-01 3.252968e-01 2.679081e-01 3.014198e-01 2.843673e-01 3.423999e-01 2.853349e-01 2.215984e-01 2.942091e-01
<GCONST> 9.881570e+01
<STATE> 3
<MEAN> 39
 -1.565236e+01 3.811482e+00 -3.062961e+00 3.958314e+00 -3.467605e+00 -3.749961e+00 3.958294e+00 2.456293e-01 -2.862028e+00 6.543337e+00 4.841613e-01 4.284693e+00 6.374458e+01 2.922579e-01 -1.675035e+00 -5.466864e-01 -1.915996e+00 -8.495672e-01 -4.221351e-01 6.788768e-01 6.503338e-01 1.906935e-01 6.178386e-01 4.616902e-01 8.259039e-02 1.942615e+00 2.651409e-01 2.838669e-01 -2.934588e-01 1.139114e-01 -1.268879e-01 3.163429e-01 3.040926e-01 -2.349028e-02 8.704618e-02 -2.563857e-01 -3.214742e-01 -2.833974e-01 -2.045008e-01
<VARIANCE> 39
 3.462111e+01 6.917260e+01 5.815831e+01 7.305563e+01 3.492412e+01 5.116502e+01 3.685458e+01 3.830737e+01 5.287161e+01 6.171081e+01 3.726034e+01 2.424574e+01 6.347662e+01 2.789449e+00 3.405274e+00 6.601734e+00 5.397386e+00 2.875517e+00 6.299468e+00 5.335788e+00 4.021488e+00 3.861446e+00 4.074378e+00 3.498430e+00 2.700794e+00 5.422148e+00 4.752960e-01 7.526718e-01 1.052171e+00 9.640339e-01 5.455743e-01 1.051727e+00 7.953897e-01 6.862382e-01 7.232772e-01 1.032539e+00 6.740484e-01 4.634038e-01 1.000404e+00
<GCONST> 1.364502e+02
<STATE> 4
<MEAN> 39
 -1.018807e+01 4.063292e+00 -9.914280e+00 3.373628e-01 -8.961916e+00 -7.591993e-02 1.071409e+01 2.394208e+00 -1.289947e+00 3.053842e+00 -2.877772e+00 1.212956e+00 6.589449e+01 1.436334e+00 1.057588e+00 -7.740631e-01 -8.358454e-01 -1.337301e+00 -6.212825e-01 -8.753337e-03 -2.779689e-01 -4.720044e-01 -1.398799e+00 -1.283537e+00 -9.336895e-01 8.529546e-01 4.935843e-02 1.583708e-01 5.249534e-02 -1.391297e-02 -1.124613e-02 -3.177446e-01 -3.684098e-01 -1.508082e-01 -1.234150e-01 4.849175e-02 7.241955e-02 8.907717e-02 4.620923e-02
<VARIANCE> 39
 2.906994e+01 7.400909e+01 2.978969e+01 8.117418e+01 5.882530e+01 6.963161e+01 5.047717e+01 4.780509e+01 4.701857e+01 7.044017e+01 5.520618e+01 4.341956e+01 7.261626e+01 2.522313e+00 4.510762e+00 2.808047e+00 2.781640e+00 3.422718e+00 3.830469e+00 3.947214e+00 4.036736e+00 4.183969e+00 5.600665e+00 3.379198e+00 2.887742e+00 1.184176e+00 3.832778e-01 8.345513e-01 3.462991e-01 4.841675e-01 4.589614e-01 5.564001e-01 7.137991e-01 6.623812e-01 6.400457e-01 8.367454e-01 5.126817e-01 5.197921e-01 1.821857e-01
<GCONST> 1.301617e+02
<TRANSP> 5
 0.000000e+00 1.000000e+00 0.000000e+00 0.000000e+00 0.000000e+00
 0.000000e+00 8.164787e-01 1.835214e-01 0.000000e+00 0.000000e+00
 0.000000e+00 0.000000e+00 7.297154e-01 2.702846e-01 0.000000e+00
 0.000000e+00 0.000000e+00 0.000000e+00 7.643563e-01 2.356437e-01
 0.000000e+00 0.000000e+00 0.000000e+00 0.000000e+00 0.000000e+00
<ENDHMM>
~h "r"
<BEGINHMM>
<NUMSTATES> 5
<STATE> 2
<MEAN> 39
 -3.550892e+00 1.211212e+01 -1.373679e+01 -4.363842e+00 -5.344332e+00 -6.373278e+00 -1.088811e+00 -1.277304e+01 -1.129118e+01 2.551959e+00 -5.250940e+00 -1.600729e+00 6.948882e+01 1.490233e+00 -7.677533e-02 -2.145162e+00 -1.524837e+00 -3.550858e-01 -1.079402e-01 -1.617714e-02 -1.031172e+00 -3.964517e-01 8.690261e-01 1.001403e+00 6.232342e-02 1.171667e+00 -3.738093e-01 -5.414766e-01 -6.142832e-02 3.275711e-01 2.018574e-01 -6.051786e-02 -2.839058e-02 3.791987e-01 3.743216e-01 3.068030e-01 9.922075e-02 -5.026991e-02 4.891621e-02
<VARIANCE> 39
 2.551186e+01 7.136511e+01 4.906395e+01 7.340348e+01 5.478630e+01 7.819559e+01 8.567728e+01 9.345471e+01 7.930486e+01 6.094695e+01 5.556183e+01 4.970781e+01 2.737276e+01 2.742129e+00 3.460171e+00 2.912589e+00 4.021974e+00 3.236694e+00 4.617907e+00 3.780209e+00 5.002571e+00 4.584521e+00 5.670907e+00 4.680456e+00 3.758837e+00 1.969989e+00 5.863913e-01 6.313318e-01 4.665114e-01 8.524228e-01 4.971057e-01 6.050472e-01 6.033759e-01 9.127169e-01 7.413327e-01 8.129848e-01 6.509966e-01 6.117184e-01 3.366216e-01
<GCONST> 1.353695e+02
<STATE> 3
<MEAN> 39
 -6.283624e-01 1.092070e+01 -1.916411e+01 -6.959181e+00 -3.364342e+00 -6.611203e+00 -2.878917e+00 -1.791730e+01 -1.129975e+01 7.495296e+00 -2.039057e+00 -2.536009e+00 7.249265e+01 2.159478e-01 -1.451927e+00 -1.334300e+00 6.988057e-01 4.687957e-01 -5.530952e-01 -3.565563e-01 6.999186e-02 1.118189e+00 1.391317e+00 3.114519e-01 -6.775558e-01 6.902737e-01 -4.117166e-01 -2.314797e-01 5.385424e-01 5.887688e-01 -4.715906e-02 -1.733033e-01 8.714308e-02 6.239871e-01 2.979849e-01 -3.939959e-01 -4.531512e-01 -6.877259e-02 -1.601988e-01
<VARIANCE> 39
 1.449832e+01 4.190693e+01 5.302662e+01 7.308773e+01 5.398058e+01 6.904427e+01 8.866352e+01 1.348162e+02 1.050341e+02 5.017459e+01 5.973931e+01 5.837539e+01 1.402935e+01 5.406263e-01 1.659112e+00 1.525522e+00 2.538046e+00 2.251473e+00 3.152922e+00 2.781945e+00 4.600615e+00 3.171541e+00 3.712316e+00 3.179455e+00 2.787555e+00 5.461287e-01 1.993062e-01 2.516245e-01 2.415718e-01 3.248163e-01 3.670821e-01 3.894591e-01 5.124252e-01 5.221839e-01 4.852737e-01 5.748366e-01 4.650327e-01 4.685307e-01 7.599810e-02
<GCONST> 1.189473e+02
<STATE> 4
<MEAN> 39
 -2.061981e+00 5.350622e+00 -1.861598e+01 -2.277298e-01 -4.015923e+00 -1.188131e+01 -5.904056e+00 -1.595770e+01 -7.382321e+00 9.576941e+00 -2.073300e+00 -3.287155e+00 7.219099e+01 -2.745915e-01 -2.024286e-01 2.251952e-01 5.954396e-01 -1.418200e-01 -1.333386e-01 2.322722e-01 7.166336e-01 3.425776e-01 -1.488712e-01 -2.334673e-01 -1.776844e-02 -2.318436e-01 -9.343394e-02 1.484171e-01 2.214383e-01 3.824025e-02 -2.217542e-02 1.136845e-01 4.816545e-02 3.737899e-02 -7.110058e-02 -1.778783e-01 -2.302626e-02 9.950940e-02 -1.400692e-01
<VARIANCE> 39
 1.637937e+01 4.410408e+01 4.065875e+01 5.177061e+01 6.546560e+01 9.109860e+01 7.240961e+01 1.406329e+02 1.154715e+02 7.565737e+01 7.334328e+01 6.045254e+01 2.234351e+01 4.295130e-01 1.702483e+00 1.378221e+00 1.828018e+00 1.308509e+00 3.147500e+00 2.398765e+00 2.818098e+00 2.934303e+00 2.687819e+00 2.127376e+00 1.821614e+00 8.692345e-01 6.902210e-02 1.604663e-01 1.761389e-01 2.071063e-01 2.180939e-01 4.165036e-01 3.644680e-01 3.885413e-01 4.262644e-01 4.254763e-01 3.221177e-01 2.968228e-01 8.688326e-02
<GCONST> 1.129645e+02
<TRANSP> 5
 0.000000e+00 1.000000e+00 0.000000e+00 0.000000e+00 0.000000e+00
 0.000000e+00 5.276889e-01 4.723111e-01 0.000000e+00 0.000000e+00
 0.000000e+00 0.000000e+00 5.368511e-01 4.631489e-01 0.000000e+00
 0.000000e+00 0.000000e+00 0.000000e+00 7.941196e-01 2.058804e-01
 0.000000e+00 0.000000e+00 0.000000e+00 0.000000e+00 0.000000e+00
<ENDHMM>
~h "s"
<BEGINHMM>
<NUMSTATES> 5
<STATE> 2
<MEAN> 39
 -1.943812e+01 8.222558e+00 2.754437e+00 -1.744681e+00 8.277056e-01 -4.697889e+00 -1.336290e+00 -4.776897e+00 -3.855293e+00 6.786995e+00 -3.899536e+00 6.462585e-01 6.794823e+01 -3.832134e+00 -5.915141e-01 2.320786e+00 -2.538300e+00 1.287882e+00 7.672186e-01 4.248112e-01 4.850129e-01 7.045798e-01 8.415124e-01 5.062060e-01 1.718488e-01 1.392462e+00 -1.237982e-01 2.314616e-01 -2.647431e-01 1.783682e-01 -1.058172e-01 -1.947750e-01 2.106650e-01 3.923928e-02 -1.029461e-02 -1.011806e-01 -2.001122e-02 -7.871564e-02 -2.801785e-03
<VARIANCE> 39
 6.016171e+01 3.677030e+01 7.425125e+01 1.083784e+02 5.425249e+01 7.902734e+01 1.010350e+02 7.666709e+01 5.765989e+01 4.958229e+01 4.295442e+01 3.531485e+01 4.407590e+01 2.940387e+00 2.723956e+00 3.325817e+00 5.060904e+00 4.134326e+00 5.200206e+00 4.199820e+00 4.034471e+00 4.591163e+00 3.129303e+00 2.517952e+00 2.083786e+00 2.103050e+00 7.188054e-01 3.297800e-01 7.815919e-01 1.058349e+00 5.554593e-01 6.674914e-01 6.677510e-01 6.561904e-01 6.573582e-01 5.658551e-01 4.499789e-01 3.484667e-01 3.618626e-01
<GCONST> 1.333220e+02
<STATE> 3
<MEAN> 39
 -3.198183e+01 8.868675e+00 6.276497e+00 -6.121614e+00 3.703374e+00 -2.748029e+00 2.821263e+00 -2.789516e+00 -1.887014e+00 8.230077e+00 -2.068003e+00 7.533578e-01 7.032761e+01 -4.000171e-01 -3.827192e-02 -1.128761e-01 2.418857e-01 -1.332973e-01 1.039181e-01 2.998848e-01 1.498992e-01 1.751679e-01 2.332370e-02 1.253902e-01 2.370822e-02 -2.079612e-01 7.018287e-01 -2.122431e-03 -1.683275e-01 2.782768e-01 -2.464658e-01 -1.521467e-01 -2.870630e-01 -2.184929e-01 -1.374490e-01 -9.314609e-02 -1.036918e-01 -6.931396e-02 -9.659977e-02
<VARIANCE> 39
 2.804411e+01 4.831548e+01 3.941909e+01 1.163750e+02 5.001532e+01 3.869924e+01 7.889249e+01 5.272377e+01 4.025340e+01 2.923889e+01 2.255085e+01 2.163531e+01 3.384856e+01 2.545530e+00 1.051500e+00 1.119138e+00 1.769762e+00 2.049379e+00 1.600878e+00 2.054380e+00 1.886336e+00 1.465609e+00 1.310562e+00 1.240016e+00 1.066193e+00 1.014106e+00 3.788248e-01 2.095056e-01 2.482219e-01 3.480790e-01 3.681410e-01 3.140208e-01 4.082780e-01 3.499610e-01 3.276207e-01 2.662383e-01 2.506835e-01 2.298214e-01 1.441257e-01
<GCONST> 1.088443e+02
<STATE> 4
<MEAN> 39
 -2.297982e+01 9.201821e+00 5.084532e+00 -2.264530e+00 -9.896959e-01 -6.822965e+00 -2.753759e+00 -7.342663e+00 -4.659646e+00 6.767507e+00 -3.440126e+00 -1.050046e+00 7.022200e+01 4.977016e+00 7.733219e-01 -1.351697e+00 1.293044e+00 -1.859735e+00 -2.317446e+00 -2.389831e+00 -1.789693e+00 -1.507275e+00 -9.147135e-01 -7.879579e-01 -9.793044e-01 5.333602e-01 3.274083e-01 1.759307e-02 -5.549331e-01 -9.126730e-02 -2.042745e-02 -1.904317e-01 2.368847e-01 2.680899e-01 5.254377e-02 -4.312685e-02 -2.845519e-02 -2.995427e-02 2.065174e-01
<VARIANCE> 39
 7.857601e+01 4.538231e+01 4.727995e+01 1.119919e+02 4.805532e+01 6.816081e+01 9.011024e+01 6.840609e+01 4.962357e+01 3.698003e+01 2.923344e+01 3.253372e+01 2.802973e+01 3.557399e+00 3.624551e+00 4.647747e+00 3.981307e+00 4.809789e+00 5.521244e+00 4.742873e+00 4.210918e+00 3.084706e+00 2.937624e+00 2.509570e+00 2.499883e+00 1.754645e+00 1.460517e+00 6.323782e-01 4.840595e-01 5.315670e-01 7.266309e-01 1.105202e+00 1.263594e+00 1.081502e+00 7.213024e-01 5.284156e-01 4.549213e-01 4.372817e-01 2.103025e-01
<GCONST> 1.338258e+02
<TRANSP> 5
 0.000000e+00 1.000000e+00 0.000000e+00 0.000000e+00 0.000000e+00
 0.000000e+00 7.179604e-01 2.820396e-01 0.000000e+00 0.000000e+00
 0.000000e+00 0.000000e+00 8.767954e-01 1.232046e-01 0.000000e+00
 0.000000e+00 0.000000e+00 0.000000e+00 7.137504e-01 2.862495e-01
 0.000000e+00 0.000000e+00 0.000000e+00 0.000000e+00 0.000000e+00
<ENDHMM>
~h "t"
<BEGINHMM>
<NUMSTATES> 5
<STATE> 2
<MEAN> 39
 -5.153575e+00 1.605776e+01 -3.037299e+00 3.084496e+00 -5.316533e+00 -1.496469e+01 -2.100226e+00 -9.527346e+00 -1.457814e+01 7.873995e-01 -8.211446e+00 -7.217997e-01 6.581116e+01 9.874393e-02 5.500147e-01 -3.376078e-01 -1.299433e-01 -4.031829e-01 5.308070e-01 5.506003e-01 4.963884e-01 3.561965e-01 -4.606384e-01 -3.619896e-01 1.191518e-01 -6.484856e-01 -1.448071e-01 -5.387682e-02 8.408265e-02 8.750597e-02 3.285418e-02 1.721145e-01 5.730149e-02 2.987088e-02 1.303712e-01 7.227468e-02 9.317543e-02 4.152509e-02 -8.698086e-02
<VARIANCE> 39
 1.966386e+01 3.399804e+01 2.291681e+01 6.913546e+01 6.712522e+01 7.811867e+01 5.721422e+01 6.450114e+01 9.314639e+01 6.334859e+01 5.103186e+01 3.250075e+01 1.864633e+01 4.621366e-01 5.910712e-01 9.176894e-01 1.325794e+00 1.441361e+00 2.218039e+00 1.399109e+00 1.498930e+00 1.949333e+00 1.357747e+00 1.233943e+00 1.273163e+00 4.675052e-01 5.410670e-02 1.007647e-01 1.194324e-01 1.840745e-01 1.998507e-01 2.682696e-01 2.367782e-01 2.441758e-01 2.828117e-01 2.516561e-01 2.116948e-01 2.042713e-01 3.475035e-02
<GCONST> 9.886781e+01
<STATE> 3
<MEAN> 39
 -6.494351e+00 1.845125e+01 -3.757624e+00 6.104900e+00 -5.831295e+00 -6.644106e+00 1.673638e+00 -5.067321e+00 -8.241635e+00 -2.476302e+00 -9.181050e+00 1.151928e+00 6.048085e+01 -8.043805e-01 -2.205450e-01 -1.204783e-01 8.738013e-01 1.938616e-01 1.315724e+00 5.606539e-01 5.080404e-01 1.060065e+00 2.664405e-01 5.709594e-01 4.433169e-01 -1.270182e+00 -1.102644e-01 -1.736125e-01 -3.499874e-02 1.896777e-02 1.205948e-01 4.439861e-02 1.646610e-02 -7.659417e-03 3.934501e-02 1.682092e-01 1.625419e-01 5.257346e-02 1.637365e-02
<VARIANCE> 39
 3.358162e+01 2.567046e+01 1.588137e+01 4.434832e+01 5.629278e+01 3.828262e+01 3.646999e+01 3.918575e+01 5.333408e+01 4.782396e+01 4.475927e+01 2.383824e+01 1.979284e+01 6.971652e-01 8.674329e-01 6.866810e-01 1.269239e+00 1.686835e+00 2.459466e+00 1.421883e+00 1.874590e+00 2.304588e+00 1.149404e+00 1.469853e+00 1.182409e+00 5.362248e-01 6.786519e-02 9.286010e-02 1.062069e-01 1.582398e-01 1.957331e-01 2.968615e-01 2.308608e-01 2.804152e-01 2.590194e-01 2.152849e-01 2.429461e-01 2.010046e-01 5.917593e-02
<GCONST> 9.693347e+01
<STATE> 4
<MEAN> 39
 -1.397540e+01 1.362020e+01 -3.210918e+00 9.873302e+00 -2.002494e+00 9.953355e-01 5.684232e+00 -1.174896e+00 -1.375398e+00 4.193007e+00 -3.126879e+00 3.441420e+00 5.538827e+01 -3.897493e-01 -2.935410e-01 -1.876757e-01 3.498625e-01 2.262170e-01 8.140811e-01 3.806557e-01 1.714169e-01 3.873459e-01 2.439814e-01 3.791618e-01 2.276992e-01 -5.674744e-01 6.306331e-02 -7.414895e-02 3.968561e-02 -1.746511e-01 -7.644124e-02 -2.569646e-01 -1.146242e-01 -1.014643e-01 -1.854644e-01 -3.234770e-03 -2.331648e-02 -5.681838e-02 2.439085e-01
<VARIANCE> 39
 2.981308e+01 1.964981e+01 2.645444e+01 4.095182e+01 3.611435e+01 3.759737e+01 3.071054e+01 3.860403e+01 4.663420e+01 4.060596e+01 2.523090e+01 1.827812e+01 2.045463e+01 6.986482e-01 1.031109e+00 1.019549e+00 1.576065e+00 1.553360e+00 1.894148e+00 1.622299e+00 1.673389e+00 1.980863e+00 1.714375e+00 1.537340e+00 1.261338e+00 7.298387e-01 1.064382e-01 1.743750e-01 2.145350e-01 3.234943e-01 2.687517e-01 3.289144e-01 2.849869e-01 3.067411e-01 3.562800e-01 2.863155e-01 2.105806e-01 2.133827e-01 1.768301e-01
<GCONST> 1.011866e+02
<TRANSP> 5
 0.000000e+00 1.000000e+00 0.000000e+00 0.000000e+00 0.000000e+00
 0.000000e+00 7.877988e-01 2.122013e-01 0.000000e+00 0.000000e+00
 0.000000e+00 0.000000e+00 6.896130e-01 3.103870e-01 0.000000e+00
 0.000000e+00 0.000000e+00 0.000000e+00 7.804027e-01 2.195973e-01
 0.000000e+00 0.000000e+00 0.000000e+00 0.000000e+00 0.000000e+00
<ENDHMM>
~h "v"
<BEGINHMM>
<NUMSTATES> 5
<STATE> 2
<MEAN> 39
 -1.239907e+01 1.232671e+01 -9.188613e+00 6.051606e+00 -4.255005e+00 3.271080e+00 1.123143e+01 3.058040e+00 1.190296e+00 5.639037e+00 -1.488507e+00 3.579522e+00 5.597915e+01 6.716689e-01 -2.351844e-01 -6.621587e-01 -8.460369e-01 -8.870283e-01 2.640033e-01 9.108171e-01 7.815022e-01 -2.917255e-01 -1.085683e+00 -6.560286e-01 -1.463028e-02 5.568582e-01 4.474119e-01 -2.852511e-01 -3.033117e-01 -4.482100e-01 -4.913512e-01 -2.265115e-01 1.057343e-01 6.089366e-02 -3.052950e-01 -3.940663e-01 -9.509316e-02 2.570577e-02 6.404217e-01
<VARIANCE> 39
 3.042512e+01 2.052840e+01 3.185230e+01 5.024504e+01 5.835921e+01 7.587664e+01 6.483492e+01 4.108892e+01 3.009082e+01 3.354586e+01 3.423816e+01 2.160075e+01 3.905291e+01 4.626029e+00 1.620099e+00 3.417869e+00 5.555756e+00 7.321266e+00 2.995139e+00 3.166130e+00 2.951361e+00 3.110153e+00 3.712329e+00 2.021317e+00 1.541157e+00 3.757381e+00 5.116824e-01 2.344057e-01 3.749613e-01 6.965879e-01 9.218800e-01 3.741678e-01 5.026450e-01 4.915448e-01 3.991065e-01 4.512298e-01 2.822131e-01 2.428918e-01 4.386011e-01
<GCONST> 1.230063e+02
<STATE> 3
<MEAN> 39
 1.502962e+00 2.024074e+00 -2.001732e+01 -5.440160e+00 -2.182555e+01 -2.602545e+00 1.215260e+01 6.844284e+00 -5.021228e+00 -7.476562e+00 -5.310970e+00 2.889544e+00 7.229293e+01 7.264398e-01 -5.033643e-01 -3.922632e-01 -4.104735e-01 -7.061070e-01 -5.270659e-01 -4.041478e-01 -1.277083e-01 -7.225373e-01 -1.034958e+00 -1.116694e-01 -3.499148e-02 1.510794e+00 -4.399390e-01 3.253597e-01 3.111879e-01 3.100643e-01 4.854147e-01 2.216161e-02 -3.076790e-01 -2.689903e-01 9.764472e-02 4.059173e-01 1.412238e-01 -1.366034e-02 -4.123332e-01
<VARIANCE> 39
 1.233648e+01 5.710920e+01 3.253079e+01 2.318919e+01 7.545224e+01 4.871498e+01 6.412894e+01 7.917509e+01 3.942512e+01 4.709161e+01 4.842042e+01 3.752039e+01 2.343127e+01 3.304743e+00 3.415228e+00 2.418646e+00 2.573395e+00 4.950269e+00 1.855422e+00 2.759557e+00 3.373486e+00 2.622761e+00 3.326721e+00 1.726755e+00 1.623051e+00 3.818160e+00 3.266515e-01 3.954631e-01 3.537900e-01 4.778209e-01 6.287583e-01 3.450579e-01 3.848155e-01 4.310020e-01 4.326920e-01 3.971733e-01 2.575202e-01 2.256290e-01 3.427828e-01
<GCONST> 1.201990e+02
<STATE> 4
<MEAN> 39
 -4.457058e+00 9.265786e+00 -1.417278e+01 -6.515896e+00 -1.652709e+01 -8.363811e+00 5.509293e+00 -2.060022e+00 -1.059984e+01 -6.163756e+00 -6.851551e+00 4.909351e-01 7.214285e+01 -7.003668e-01 7.766931e-01 8.168327e-01 1.686044e-02 6.191282e-01 -3.855560e-01 -3.014015e-01 -8.567079e-01 -4.825639e-01 3.377986e-01 -1.522397e-01 -2.108955e-01 -2.830811e-01 7.007665e-02 -6.991319e-02 -2.559881e-02 4.143421e-02 -3.705270e-02 6.271457e-02 6.133119e-03 3.873165e-02 7.492899e-02 1.837842e-02 1.701970e-02 7.997844e-03 -7.786235e-02
<VARIANCE> 39
 4.200587e+01 4.965202e+01 5.109981e+01 2.837773e+01 1.057835e+02 5.381784e+01 3.523946e+01 7.676200e+01 5.057422e+01 4.439162e+01 3.657931e+01 4.430723e+01 1.323315e+01 4.025432e+00 2.903871e+00 2.339664e+00 1.744120e+00 7.565705e+00 3.722737e+00 2.379783e+00 3.254610e+00 2.061198e+00 2.648684e+00 2.377431e+00 2.022456e+00 1.209871e+00 7.914327e-01 4.549461e-01 4.397172e-01 3.547498e-01 1.502632e+00 8.122992e-01 4.723393e-01 6.013177e-01 3.930022e-01 4.352708e-01 4.758059e-01 3.664385e-01 2.661067e-01
<GCONST> 1.247724e+02
<TRANSP> 5
 0.000000e+00 1.000000e+00 0.000000e+00 0.000000e+00 0.000000e+00
 0.000000e+00 7.887955e-01 2.112045e-01 0.000000e+00 0.000000e+00
 0.000000e+00 0.000000e+00 8.133034e-01 1.866966e-01 0.000000e+00
 0.000000e+00 0.000000e+00 0.000000e+00 8.850732e-01 1.149268e-01
 0.000000e+00 0.000000e+00 0.000000e+00 0.000000e+00 0.000000e+00
<ENDHMM>
~h "w"
<BEGINHMM>
<NUMSTATES> 5
<STATE> 2
<MEAN> 39
 -4.537540e+00 1.109508e+01 -1.371668e+01 -1.300949e+00 -1.730466e+01 -5.840292e+00 8.249969e+00 7.107689e-01 -2.327032e+00 -5.177755e-01 -7.603484e+00 -1.031504e+00 6.519591e+01 -3.260597e-01 3.972949e-01 1.255083e-01 4.932677e-01 4.064402e-01 3.076496e-01 -9.593024e-04 1.201371e-01 3.036847e-01 2.658536e-01 1.335175e-01 2.362635e-01 -9.082981e-01 -6.193252e-02 -1.432126e-02 1.176098e-01 2.077998e-02 9.844685e-02 8.373443e-03 -4.138332e-02 -2.841154e-02 -3.922129e-02 1.876072e-02 2.531451e-02 -4.631871e-03 -8.110636e-03
<VARIANCE> 39
 2.816926e+01 5.536898e+01 6.966511e+01 4.373059e+01 5.203606e+01 5.458630e+01 4.839569e+01 4.651122e+01 4.186398e+01 4.166226e+01 4.087737e+01 3.781911e+01 8.065244e+01 6.659654e-01 1.200803e+00 1.247561e+00 1.084566e+00 1.694409e+00 2.232378e+00 1.793641e+00 1.927117e+00 1.796539e+00 1.585952e+00 1.354772e+00 1.283475e+00 1.000368e+00 9.304363e-02 1.827642e-01 1.769574e-01 2.132100e-01 2.336279e-01 3.621424e-01 3.239139e-01 3.219914e-01 3.101321e-01 2.723289e-01 2.671968e-01 2.296111e-01 1.277992e-01
<GCONST> 1.067680e+02
<STATE> 3
<MEAN> 39
 -4.767925e+00 2.108752e+01 -4.049665e+00 4.424266e+00 -1.343390e+01 -8.456800e+00 2.549239e+00 -1.013358e+00 -2.510434e+00 1.600045e+00 -7.159244e+00 -8.755687e-01 5.889329e+01 3.782910e-01 -5.458403e-02 -4.070345e-01 -6.064826e-01 1.494948e-02 -3.829487e-01 8.711296e-02 -5.272329e-02 -6.430074e-01 -6.932088e-01 -7.301432e-01 -1.302333e-01 6.133448e-01 2.296828e-02 -3.312211e-01 -1.548281e-01 -1.449248e-01 9.381687e-02 1.948639e-04 6.259069e-02 -2.255129e-01 -4.100564e-01 -9.296033e-02 8.299682e-02 2.470689e-01 3.346041e-01
<VARIANCE> 39
 3.617872e+01 3.252202e+01 3.351631e+01 4.538104e+01 5.714074e+01 7.349184e+01 4.264144e+01 3.640339e+01 3.208845e+01 2.395814e+01 3.355434e+01 2.316124e+01 2.017331e+01 1.230640e+00 1.591783e+00 1.680647e+00 2.400534e+00 2.837854e+00 3.099898e+00 3.710778e+00 2.632427e+00 2.771961e+00 2.131303e+00 2.255151e+00 1.781993e+00 1.323848e+00 1.881332e-01 2.673146e-01 1.752497e-01 3.342004e-01 6.394671e-01 5.636144e-01 5.866060e-01 5.796225e-01 5.003963e-01 3.761156e-01 5.140312e-01 4.208601e-01 1.157475e-01
<GCONST> 1.147541e+02
<STATE> 4
<MEAN> 39
 -4.881812e+00 1.520642e+01 -8.575864e+00 6.620657e-01 -1.061856e+01 -8.609254e+00 4.424001e+00 -5.386032e+00 -9.337995e+00 2.302645e-01 -6.951254e+00 3.117954e+00 6.470808e+01 -4.633784e-01 -1.254504e+00 3.125869e-02 5.391470e-01 1.728677e+00 -2.682352e-02 -8.506708e-01 -1.540147e+00 -8.946232e-01 9.550014e-01 9.426104e-01 5.239061e-01 8.935582e-01 -1.008793e-01 1.056551e-01 2.817309e-01 3.008579e-01 8.057456e-02 -5.816643e-02 -3.018444e-01 1.876459e-02 3.377891e-01 3.263154e-01 9.245379e-02 -2.648619e-01 -1.712408e-01
<VARIANCE> 39
 4.471057e+01 4.022389e+01 3.294374e+01 4.373536e+01 7.136028e+01 1.031123e+02 4.997532e+01 8.392976e+01 8.047712e+01 5.996370e+01 7.669482e+01 3.752358e+01 4.588238e+01 9.792449e-01 2.942629e+00 1.975953e+00 2.350920e+00 3.533650e+00 3.866782e+00 4.584275e+00 4.081636e+00 4.920836e+00 4.540731e+00 3.567744e+00 3.450640e+00 1.395434e+00 1.793655e-01 4.051949e-01 2.770146e-01 4.596520e-01 5.842903e-01 5.649538e-01 7.576153e-01 7.854304e-01 7.609152e-01 9.147204e-01 8.041711e-01 5.284476e-01 2.000203e-01
<GCONST> 1.289132e+02
<TRANSP> 5
 0.000000e+00 1.000000e+00 0.000000e+00 0.000000e+00 0.000000e+00
 0.000000e+00 8.953921e-01 1.046079e-01 0.000000e+00 0.000000e+00
 0.000000e+00 0.000000e+00 7.092770e-01 2.907230e-01 0.000000e+00
 0.000000e+00 0.000000e+00 0.000000e+00 7.379203e-01 2.620797e-01
 0.000000e+00 0.000000e+00 0.000000e+00 0.000000e+00 0.000000e+00
<ENDHMM>
~h "y"
<BEGINHMM>
<NUMSTATES> 5
<STATE> 2
<MEAN> 39
 -5.841836e+00 7.856864e+00 -4.189956e+00 6.195031e+00 2.799425e-01 -1.864708e+01 -5.936645e+00 -1.138955e+01 -1.383504e+01 7.776079e-01 -8.686822e+00 -4.223615e+00 7.138124e+01 -5.958542e-01 -1.671502e-01 1.315470e+00 2.132720e+00 9.921162e-01 -9.467662e-01 -8.470341e-01 7.867330e-01 7.045076e-01 -1.030318e-01 -9.562234e-01 -9.997070e-01 -3.917106e-01 1.239270e-02 6.285149e-02 7.428654e-02 -5.949674e-02 -4.260008e-01 3.629936e-02 2.846697e-01 3.591564e-01 1.552272e-01 -1.860063e-01 -2.586998e-02 1.238894e-01 -1.039285e-01
<VARIANCE> 39
 2.501498e+01 2.996578e+01 5.188577e+01 7.675149e+01 8.505602e+01 1.128124e+02 6.730421e+01 6.192218e+01 8.054800e+01 4.313313e+01 7.002641e+01 4.476401e+01 2.175533e+01 6.105510e-01 9.601437e-01 1.559525e+00 2.491127e+00 2.761981e+00 3.330456e+00 3.052249e+00 3.809881e+00 3.361468e+00 2.791019e+00 2.787285e+00 2.481585e+00 5.386368e-01 7.831251e-02 1.172520e-01 2.170871e-01 4.649175e-01 3.479614e-01 5.689523e-01 5.076717e-01 6.715561e-01 6.419426e-01 4.984659e-01 5.571792e-01 5.122970e-01 6.133822e-02
<GCONST> 1.175593e+02
<STATE> 3
<MEAN> 39
 -7.591729e+00 9.602390e+00 5.320413e+00 1.609020e+01 1.400387e+00 -2.392924e+01 -8.315545e+00 -3.412642e+00 -9.677413e+00 -1.138852e+00 -1.260027e+01 -5.710252e+00 6.836530e+01 -3.894432e-02 7.071020e-02 2.318986e-01 1.845379e-01 8.912984e-02 -3.986685e-01 -6.186131e-01 1.855215e-01 4.020418e-01 4.019624e-01 -1.329746e-01 -1.570144e-01 -1.389342e-01 7.360517e-02 1.596583e-02 -2.677005e-01 -2.758099e-01 4.981706e-02 1.942420e-01 -1.246177e-03 -2.854581e-01 -9.288362e-02 1.926909e-01 1.639105e-01 -1.412388e-02 4.521884e-02
<VARIANCE> 39
 1.401516e+01 2.508799e+01 3.627589e+01 4.220094e+01 8.063354e+01 1.393646e+02 6.349585e+01 4.027882e+01 6.328063e+01 3.493190e+01 3.822977e+01 4.020216e+01 1.151903e+01 2.891234e-01 5.253598e-01 1.637952e+00 1.093093e+00 1.191779e+00 1.868877e+00 1.804061e+00 2.356185e+00 1.400831e+00 1.787345e+00 1.333291e+00 1.145471e+00 3.212268e-01 4.036890e-02 5.756383e-02 1.105214e-01 1.431164e-01 1.858889e-01 3.425360e-01 3.262452e-01 2.774067e-01 2.706431e-01 2.304915e-01 2.834564e-01 2.226381e-01 3.091957e-02
<GCONST> 9.629974e+01
<STATE> 4
<MEAN> 39
 -6.302540e+00 1.153186e+01 -1.132895e+00 9.870821e+00 2.877145e+00 -1.944996e+01 -8.771511e+00 -8.848276e+00 -1.234214e+01 3.254824e+00 -9.607917e+00 -5.637899e+00 6.725430e+01 9.689143e-02 4.004259e-01 -6.502250e-01 -7.043660e-01 -5.181424e-02 1.312397e+00 7.535602e-01 -4.432848e-01 -7.093691e-01 -1.761354e-01 6.289210e-01 5.366259e-01 -3.978205e-01 -4.390825e-02 5.705468e-02 5.538214e-02 7.639336e-03 -1.219676e-01 8.313435e-02 1.996544e-01 1.353594e-01 -1.577692e-02 -2.352099e-01 -7.064852e-02 1.183502e-01 -8.623875e-02
<VARIANCE> 39
 1.773561e+01 3.295308e+01 2.775771e+01 7.297093e+01 6.643787e+01 1.131609e+02 5.956162e+01 4.872634e+01 7.076381e+01 4.243330e+01 4.552320e+01 6.544487e+01 1.887679e+01 3.171737e-01 5.329260e-01 9.925365e-01 1.670822e+00 1.228366e+00 2.060484e+00 1.791229e+00 1.994007e+00 2.438909e+00 2.088281e+00 1.642105e+00 1.499588e+00 4.875790e-01 4.765448e-02 8.623628e-02 1.026641e-01 1.696920e-01 1.875106e-01 2.961227e-01 2.838729e-01 2.888389e-01 3.364780e-01 2.957359e-01 2.658323e-01 2.702766e-01 5.298536e-02
<GCONST> 1.014300e+02
<TRANSP> 5
 0.000000e+00 1.000000e+00 0.000000e+00 0.000000e+00 0.000000e+00
 0.000000e+00 7.325578e-01 2.674422e-01 0.000000e+00 0.000000e+00
 0.000000e+00 0.000000e+00 8.398929e-01 1.601071e-01 0.000000e+00
 0.000000e+00 0.000000e+00 0.000000e+00 8.424137e-01 1.575863e-01
 0.000000e+00 0.000000e+00 0.000000e+00 0.000000e+00 0.000000e+00
<ENDHMM>
~h "z"
<BEGINHMM>
<NUMSTATES> 5
<STATE> 2
<MEAN> 39
 -1.793302e+01 1.455847e+01 6.882671e+00 1.557869e+00 1.471269e+00 -5.655360e+00 6.899645e-01 -4.906387e+00 -8.227786e+00 3.089216e+00 -6.054492e+00 -1.185580e+00 6.500973e+01 -1.811128e+00 -7.596436e-01 9.881603e-01 -1.437470e+00 2.542596e-01 4.239285e-01 2.579632e-01 9.439794e-02 1.634172e-01 3.565120e-01 4.173615e-01 2.063849e-01 5.617512e-01 1.289379e-01 -9.548959e-02 -1.414950e-01 1.189973e-01 -1.245615e-01 -3.810678e-02 -1.164963e-01 -4.921214e-02 7.688868e-02 -2.915869e-04 6.094200e-02 -1.164082e-02 2.387222e-02
<VARIANCE> 39
 9.147806e+01 3.797095e+01 7.192319e+01 1.162834e+02 5.113274e+01 8.104234e+01 9.911813e+01 8.970038e+01 6.147074e+01 4.168143e+01 3.156258e+01 3.088945e+01 3.545104e+01 6.553162e+00 2.392698e+00 6.155597e+00 9.280815e+00 4.566885e+00 4.519720e+00 4.435913e+00 4.853927e+00 3.958178e+00 2.592082e+00 2.126885e+00 1.794180e+00 1.787531e+00 1.025403e+00 3.640263e-01 8.876931e-01 1.583253e+00 8.308435e-01 6.383331e-01 6.771759e-01 8.451221e-01 6.650932e-01 4.425341e-01 3.721614e-01 3.090906e-01 3.512909e-01
<GCONST> 1.354567e+02
<STATE> 3
<MEAN> 39
 -2.331334e+01 9.333445e+00 5.360663e+00 -1.061076e+00 1.488571e+00 -9.942367e-01 1.125759e+00 -2.404781e+00 -4.101501e+00 5.281507e+00 -3.212637e+00 1.690074e+00 6.320211e+01 5.109855e-01 -2.316499e-01 -9.325812e-01 6.672725e-01 -3.742077e-01 4.418483e-01 2.062088e-01 6.098147e-02 2.536243e-01 6.798065e-02 2.375033e-01 2.070328e-01 -6.079772e-01 1.276021e-01 1.304567e-01 -1.039794e-01 1.287190e-01 3.300576e-02 -2.719631e-02 7.030357e-02 2.627254e-02 -6.115805e-02 2.404473e-03 -4.136035e-02 -5.984385e-03 -9.850298e-02
<VARIANCE> 39
 1.021636e+02 4.132069e+01 5.592855e+01 1.272749e+02 4.354465e+01 5.844920e+01 5.860177e+01 5.305941e+01 6.855686e+01 6.187944e+01 3.795707e+01 2.145762e+01 2.623622e+01 1.331898e+00 1.204800e+00 1.527167e+00 2.297588e+00 1.503169e+00 1.721922e+00 1.839481e+00 1.764259e+00 1.700909e+00 1.552061e+00 1.449484e+00 1.248728e+00 8.664429e-01 1.986818e-01 1.736829e-01 2.368439e-01 2.974061e-01 2.511001e-01 2.880299e-01 2.721055e-01 2.612798e-01 3.007284e-01 2.578977e-01 2.588663e-01 2.219807e-01 1.058711e-01
<GCONST> 1.094306e+02
<STATE> 4
<MEAN> 39
 -1.645572e+01 7.680158e+00 -4.885567e+00 8.835817e+00 -1.690013e-02 4.121538e+00 7.260642e+00 -6.945640e-01 -4.684623e-01 8.592573e+00 1.558293e+00 4.265229e+00 5.648309e+01 5.969455e-02 1.542781e-01 -2.038268e-01 3.150208e-01 8.037540e-02 1.750267e-01 1.993029e-01 1.342165e-01 1.751700e-01 4.180732e-02 7.235032e-03 4.249904e-02 -2.740079e-01 -7.025029e-03 8.083168e-03 4.168129e-02 -5.153457e-02 1.220542e-02 -7.163784e-02 -5.429728e-02 -2.515865e-02 -3.405491e-02 -2.509635e-02 -3.825718e-02 -3.615152e-02 5.216224e-02
<VARIANCE> 39
 1.936012e+01 4.784220e+01 3.499718e+01 6.248122e+01 3.086585e+01 3.334521e+01 3.627402e+01 3.495023e+01 5.785896e+01 4.773746e+01 3.847741e+01 1.666063e+01 2.583000e+01 4.428374e-01 8.145800e-01 7.149696e-01 9.610288e-01 9.943354e-01 1.040790e+00 1.142910e+00 1.078861e+00 1.184765e+00 1.389596e+00 1.225215e+00 9.335509e-01 3.751944e-01 8.178668e-02 8.190843e-02 9.584864e-02 1.564573e-01 1.584390e-01 1.817502e-01 1.940422e-01 1.858944e-01 2.164389e-01 2.199202e-01 1.957952e-01 1.760043e-01 3.982644e-02
<GCONST> 9.070831e+01
<TRANSP> 5
 0.000000e+00 1.000000e+00 0.000000e+00 0.000000e+00 0.000000e+00
 0.000000e+00 8.749622e-01 1.250378e-01 0.000000e+00 0.000000e+00
 0.000000e+00 0.000000e+00 8.241366e-01 1.758634e-01 0.000000e+00
 0.000000e+00 0.000000e+00 0.000000e+00 9.008489e-01 9.915100e-02
 0.000000e+00 0.000000e+00 0.000000e+00 0.000000e+00 0.000000e+00
<ENDHMM>
~h "aa"
<BEGINHMM>
<NUMSTATES> 5
<STATE> 2
<MEAN> 39
 -1.023169e+01 6.455471e-01 -1.283088e+01 -4.770420e+00 -9.528344e+00 3.754714e+00 1.085142e+01 -2.222620e+00 -4.066840e+00 2.959295e+00 -4.074707e+00 -3.890975e-01 7.162280e+01 1.844314e+00 1.129519e-01 -1.206815e+00 1.064594e-02 -1.315244e+00 -6.073185e-01 -1.225275e-01 4.992587e-01 4.370904e-01 -1.779064e+00 -1.426787e+00 -1.208871e+00 6.602805e-01 2.340249e-01 3.589634e-01 -2.349774e-01 -8.139262e-02 -1.044778e-01 -2.321619e-01 -3.423096e-01 -2.219339e-01 -3.623181e-02 1.347760e-02 -1.952857e-02 1.149041e-01 -4.430443e-02
<VARIANCE> 39
 3.113100e+01 5.288911e+01 2.469205e+01 2.513352e+01 4.561747e+01 5.756386e+01 7.155582e+01 4.882644e+01 4.092016e+01 8.230626e+01 5.273429e+01 4.590456e+01 9.775400e+00 2.430559e+00 5.733085e+00 2.508503e+00 2.786344e+00 2.193426e+00 3.162635e+00 4.791064e+00 4.827592e+00 4.149852e+00 5.470534e+00 3.001736e+00 3.310232e+00 8.231388e-01 5.254599e-01 8.856534e-01 3.530348e-01 5.338881e-01 4.080073e-01 5.249275e-01 6.944689e-01 6.692442e-01 6.593113e-01 1.083146e+00 9.406325e-01 6.781877e-01 1.862799e-01
<GCONST> 1.274132e+02
<STATE> 3
<MEAN> 39
 -6.159301e-01 4.734428e+00 -1.983749e+01 -4.079903e+00 -1.417074e+01 -3.211870e+00 5.848013e+00 -3.793685e+00 -2.658597e+00 2.614599e-01 -6.452212e+00 -1.732778e+00 7.373061e+01 -3.137512e-02 3.546011e-01 3.243413e-01 4.500240e-01 4.938610e-01 -3.820603e-01 -4.293915e-01 -2.605819e-01 -1.598425e-01 4.449229e-01 5.234140e-01 4.474454e-01 -3.818725e-01 -2.647600e-01 7.188293e-02 3.002960e-01 1.410735e-01 2.928815e-01 9.593572e-02 -5.895862e-03 -7.194861e-03 -1.110804e-01 7.228832e-02 5.517557e-02 5.143718e-02 -2.339213e-01
<VARIANCE> 39
 8.901991e+00 4.699174e+01 3.241009e+01 3.587775e+01 5.533335e+01 6.964532e+01 5.947719e+01 8.002805e+01 4.403885e+01 5.876789e+01 5.116150e+01 4.411792e+01 1.178650e+01 6.234641e-01 1.272042e+00 2.001140e+00 1.227013e+00 2.030173e+00 1.923454e+00 2.273712e+00 2.253174e+00 2.048150e+00 1.842104e+00 1.522922e+00 1.374506e+00 5.893708e-01 9.855717e-02 2.131633e-01 2.637532e-01 2.157776e-01 2.539885e-01 3.187547e-01 3.265593e-01 3.972858e-01 3.438047e-01 3.492198e-01 2.837545e-01 2.681680e-01 6.165530e-02
<GCONST> 1.059778e+02
<STATE> 4
<MEAN> 39
 -7.770248e+00 1.072470e+01 -1.297873e+01 -2.073583e-01 -6.736602e+00 1.175416e+00 6.516554e+00 -2.211865e+00 -3.158767e+00 4.287862e+00 -3.084201e+00 1.808985e+00 6.301946e+01 -1.178271e+00 -5.739145e-02 5.623025e-01 4.594475e-01 9.284102e-01 -1.232241e-01 -4.521339e-01 1.066343e-01 1.364006e-01 5.777280e-01 -7.483500e-03 1.566128e-01 -1.106102e+00 4.115864e-02 -3.535392e-01 -2.037908e-02 -5.987274e-02 -2.275038e-02 -3.418560e-01 -3.632359e-01 -1.602926e-01 7.081506e-02 6.559549e-02 -1.146703e-01 -1.982610e-01 4.960924e-01
<VARIANCE> 39
 2.301448e+01 2.037433e+01 1.591475e+01 2.303156e+01 2.700098e+01 5.116661e+01 4.634947e+01 3.617563e+01 2.282033e+01 2.870709e+01 2.413435e+01 1.946218e+01 3.163511e+01 7.715781e-01 1.949081e+00 1.225943e+00 1.497421e+00 2.935683e+00 2.806824e+00 3.630139e+00 3.262471e+00 2.081013e+00 2.775451e+00 1.763327e+00 2.014986e+00 2.921315e+00 1.207382e-01 2.039250e-01 3.437126e-01 3.253981e-01 5.073087e-01 4.604557e-01 5.115868e-01 5.012543e-01 3.744731e-01 5.232475e-01 3.287219e-01 3.274184e-01 3.861837e-01
<GCONST> 1.106480e+02
<TRANSP> 5
 0.000000e+00 1.000000e+00 0.000000e+00 0.000000e+00 0.000000e+00
 0.000000e+00 8.370270e-01 1.629730e-01 0.000000e+00 0.000000e+00
 0.000000e+00 0.000000e+00 8.954584e-01 1.045416e-01 0.000000e+00
 0.000000e+00 0.000000e+00 0.000000e+00 7.764758e-01 2.235242e-01
 0.000000e+00 0.000000e+00 0.000000e+00 0.000000e+00 0.000000e+00
<ENDHMM>
~h "ae"
<BEGINHMM>
<NUMSTATES> 5
<STATE> 2
<MEAN> 39
 -7.755039e+00 6.612773e+00 -1.118376e+01 1.679690e+00 -7.644258e+00 -8.415394e+00 3.182685e-01 -4.190073e+00 -1.827822e+00 8.201293e+00 -1.840816e+00 -2.445499e-01 6.708881e+01 9.837512e-01 -1.145151e+00 -1.055986e+00 -5.628773e-02 -3.386120e-01 -8.045210e-01 -1.558697e-01 5.385476e-01 3.306432e-01 -6.474759e-02 -3.878667e-01 -5.814971e-01 1.305873e+00 -2.223577e-01 -2.123439e-02 1.279782e-01 -7.871147e-03 1.730077e-01 6.511693e-02 8.347581e-02 1.011835e-01 -8.745813e-02 -1.252080e-01 -7.059265e-02 -1.845057e-03 3.944042e-02
<VARIANCE> 39
 3.303331e+01 4.642154e+01 4.789696e+01 8.786727e+01 5.874617e+01 9.313139e+01 6.809236e+01 7.760297e+01 7.555136e+01 6.198096e+01 5.197117e+01 5.395736e+01 9.080985e+01 3.130251e+00 3.091276e+00 4.268286e+00 3.050481e+00 4.301227e+00 7.683706e+00 4.141903e+00 3.395913e+00 3.556963e+00 3.709318e+00 3.036805e+00 3.027705e+00 4.774428e+00 7.634724e-01 5.937999e-01 4.102662e-01 4.351091e-01 6.842337e-01 1.181605e+00 6.398720e-01 5.883648e-01 5.779361e-01 5.944739e-01 4.688990e-01 5.513162e-01 7.894435e-01
<GCONST> 1.364147e+02
<STATE> 3
<MEAN> 39
 -3.756211e+00 3.102542e+00 -1.683523e+01 -1.447342e+00 -7.112549e+00 -9.213007e+00 -1.947329e-01 -5.279865e+00 -3.738128e+00 5.856558e+00 -3.173256e+00 -3.006073e+00 7.511532e+01 2.099063e-01 -3.405454e-01 -5.741607e-01 2.824007e-01 3.240853e-01 2.839912e-01 3.138871e-01 5.493358e-01 -2.241880e-02 -5.765001e-01 -2.026627e-01 -1.392328e-01 2.097605e-01 -1.957194e-01 4.596363e-01 4.453647e-01 -1.306010e-02 -1.424068e-02 5.345426e-02 -4.324995e-02 -1.387894e-01 -1.831879e-01 -7.866176e-02 3.990764e-02 1.304925e-01 -3.095175e-01
<VARIANCE> 39
 1.234977e+01 3.880006e+01 5.708604e+01 8.011319e+01 5.316910e+01 8.478412e+01 6.844331e+01 8.559717e+01 5.530650e+01 6.631673e+01 5.879323e+01 5.127590e+01 3.171223e+01 4.344913e-01 1.240620e+00 1.635750e+00 1.684764e+00 1.918704e+00 2.973512e+00 2.379817e+00 2.182451e+00 2.802381e+00 2.518867e+00 1.684718e+00 1.728953e+00 9.658851e-01 1.125844e-01 2.069537e-01 2.466786e-01 2.576164e-01 2.762737e-01 4.214097e-01 3.083075e-01 3.350828e-01 3.388965e-01 3.938095e-01 3.040696e-01 3.048815e-01 1.886896e-01
<GCONST> 1.128194e+02
<STATE> 4
<MEAN> 39
 -2.085356e+00 4.072451e+00 -1.822428e+01 -7.444543e-01 -9.650451e+00 -8.667274e+00 1.622081e+00 -4.329323e+00 -4.565987e+00 3.828876e+00 -5.024700e+00 -3.472586e+00 7.395930e+01 5.321406e-02 6.274759e-01 4.376327e-01 3.483599e-01 9.113296e-02 -1.496205e-01 -1.583994e-01 -1.317803e-01 -3.956991e-01 -2.291912e-01 -7.813592e-02 1.676572e-01 -4.467897e-01 -1.729794e-02 1.926220e-01 1.592271e-01 7.301094e-02 5.855180e-03 5.959158e-02 -1.510517e-02 -1.364655e-01 -7.542632e-02 -6.995505e-03 -1.064199e-02 2.955766e-02 -1.627648e-01
<VARIANCE> 39
 1.329835e+01 5.139740e+01 6.543284e+01 5.326917e+01 7.230345e+01 1.099141e+02 6.882168e+01 9.148207e+01 6.553520e+01 7.293362e+01 6.080000e+01 4.502882e+01 2.520099e+01 2.992812e-01 9.511669e-01 9.284488e-01 1.447641e+00 1.571550e+00 1.940708e+00 1.524612e+00 1.940755e+00 1.887022e+00 1.696876e+00 1.546888e+00 1.319736e+00 5.533776e-01 4.201636e-02 1.201930e-01 1.193707e-01 1.924581e-01 2.005662e-01 3.414909e-01 2.407588e-01 2.713455e-01 2.710144e-01 2.987106e-01 2.550155e-01 2.336167e-01 7.882768e-02
<GCONST> 1.038819e+02
<TRANSP> 5
 0.000000e+00 1.000000e+00 0.000000e+00 0.000000e+00 0.000000e+00
 0.000000e+00 6.860222e-01 3.139777e-01 0.000000e+00 0.000000e+00
 0.000000e+00 0.000000e+00 4.922018e-01 5.077981e-01 0.000000e+00
 0.000000e+00 0.000000e+00 0.000000e+00 7.789488e-01 2.210512e-01
 0.000000e+00 0.000000e+00 0.000000e+00 0.000000e+00 0.000000e+00
<ENDHMM>
~h "ah"
<BEGINHMM>
<NUMSTATES> 5
<STATE> 2
<MEAN> 39
 -3.681476e+00 5.597138e+00 -1.199662e+01 1.289227e+00 -3.040325e+00 -9.536425e+00 -9.874778e-01 -3.023536e+00 -5.827757e+00 6.014697e+00 -2.958565e-01 -2.099911e+00 7.352117e+01 -5.008418e-02 8.218228e-01 1.074077e+00 8.048680e-01 7.741894e-01 -3.951088e-01 -6.994990e-01 -5.412620e-01 -2.862510e-01 9.304344e-03 -3.039051e-01 -3.262813e-01 -1.451972e-01 1.804410e-02 2.315335e-01 1.080330e-01 1.982693e-01 -3.897070e-02 1.428966e-01 3.842531e-02 -4.911639e-02 -2.779766e-02 -1.333559e-01 -1.379631e-01 8.963478e-03 -2.740634e-01
<VARIANCE> 39
 7.180483e+00 3.612326e+01 4.171864e+01 4.847565e+01 5.126532e+01 6.359980e+01 7.174924e+01 5.715775e+01 5.977404e+01 4.483238e+01 7.137804e+01 3.669170e+01 1.812786e+01 4.543248e-01 1.837731e+00 1.651570e+00 2.314365e+00 1.936484e+00 2.976848e+00 2.479133e+00 2.376285e+00 1.804421e+00 2.728059e+00 2.121802e+00 1.744096e+00 1.987194e+00 9.219403e-02 2.052136e-01 2.407188e-01 2.932135e-01 2.974918e-01 5.534504e-01 4.337479e-01 3.929885e-01 3.507543e-01 5.249004e-01 3.129813e-01 2.941125e-01 1.927717e-01
<GCONST> 1.122767e+02
<STATE> 3
<MEAN> 39
 -3.616364e+00 1.548037e+01 -2.073031e+00 9.998148e+00 5.011678e-01 -8.338072e+00 -4.224713e+00 -6.172382e+00 -8.030385e+00 2.000335e+00 -6.389475e+00 -3.422766e+00 6.783607e+01 -9.649543e-02 5.400621e-01 9.025759e-01 5.786631e-01 -1.198858e-01 -3.602874e-01 -1.409514e-01 6.336067e-01 -2.265157e-01 -7.768378e-01 -5.855372e-01 1.894342e-03 -5.535676e-01 -7.643500e-02 -2.558069e-01 -9.164294e-02 -1.937231e-01 -8.058233e-02 -3.196970e-01 -2.176772e-03 2.388302e-01 1.171042e-01 8.462355e-02 9.719547e-02 7.740697e-02 2.181335e-01
<VARIANCE> 39
 6.021232e+00 1.858631e+01 2.701705e+01 4.989401e+01 5.064927e+01 5.648449e+01 3.286566e+01 4.323286e+01 5.912922e+01 2.836889e+01 3.439000e+01 2.631706e+01 9.523032e+00 4.156317e-01 1.751331e+00 1.106759e+00 1.369501e+00 1.335857e+00 4.228383e+00 1.424171e+00 3.240716e+00 1.609531e+00 1.756411e+00 1.480340e+00 1.249268e+00 9.225946e-01 5.166745e-02 1.217232e-01 1.735150e-01 2.717117e-01 2.125368e-01 4.462905e-01 1.953459e-01 4.693991e-01 2.865290e-01 3.460400e-01 2.284876e-01 1.705329e-01 5.121734e-02
<GCONST> 9.884247e+01
<STATE> 4
<MEAN> 39
 -5.458926e+00 1.086611e+01 -3.090589e+00 1.267202e+01 -1.987547e+00 -2.196308e+01 -2.461905e+00 -4.178741e+00 -1.077485e+01 8.058723e-01 -8.314587e+00 -6.372417e+00 6.831501e+01 -3.717987e-02 -9.300328e-02 -1.627398e-01 -9.743082e-03 -2.931602e-02 -3.274075e-01 -9.295535e-02 1.705428e-01 3.217295e-01 2.894707e-01 4.004793e-02 -6.705681e-02 -1.177332e-02 1.584162e-02 3.057928e-02 -8.019622e-02 -8.704326e-02 3.177522e-02 2.019881e-01 -2.906766e-02 -1.558916e-01 1.679733e-02 9.007025e-02 6.228780e-02 -3.006245e-02 -1.673204e-02
<VARIANCE> 39
 5.833183e+00 2.928334e+01 2.688235e+01 4.980478e+01 7.942316e+01 1.332447e+02 4.133985e+01 8.090614e+01 6.335245e+01 3.830494e+01 2.852151e+01 7.765708e+01 1.449445e+01 1.732070e-01 8.694754e-01 8.152335e-01 1.130450e+00 9.276866e-01 5.593583e+00 1.358789e+00 2.422375e+00 1.693535e+00 1.797702e+00 1.316521e+00 1.673276e+00 4.556701e-01 2.614219e-02 9.871390e-02 9.766479e-02 1.488227e-01 1.375582e-01 6.001120e-01 2.168577e-01 2.898775e-01 2.450110e-01 2.551861e-01 1.939540e-01 2.439324e-01 4.211394e-02
<GCONST> 9.710803e+01
<TRANSP> 5
 0.000000e+00 1.000000e+00 0.000000e+00 0.000000e+00 0.000000e+00
 0.000000e+00 8.070502e-01 1.929498e-01 0.000000e+00 0.000000e+00
 0.000000e+00 0.000000e+00 7.259836e-01 2.740164e-01 0.000000e+00
 0.000000e+00 0.000000e+00 0.000000e+00 7.693689e-01 2.306311e-01
 0.000000e+00 0.000000e+00 0.000000e+00 0.000000e+00 0.000000e+00
<ENDHMM>
~h "aw"
<BEGINHMM>
<NUMSTATES> 5
<STATE> 2
<MEAN> 39
 -2.645360e+00 1.363540e+00 -2.431059e+01 -5.841156e+00 -8.473066e+00 -9.167842e+00 5.368248e+00 -2.734388e+00 -9.424532e+00 -2.276671e+00 -7.342862e+00 -4.453855e+00 7.878038e+01 -7.385045e-02 1.046885e-01 4.753934e-01 -2.978029e-02 -4.964400e-01 -1.704352e-01 3.119005e-01 1.290787e-01 -4.081697e-01 -6.368544e-01 -4.138055e-01 2.083500e-01 -3.056041e-01 2.106639e-02 1.909301e-01 1.200023e-01 -1.337690e-02 7.816619e-02 3.914593e-02 -1.809132e-01 -2.438545e-01 -9.431265e-02 1.403510e-01 7.962853e-02 2.092963e-02 -1.125163e-01
<VARIANCE> 39
 5.521243e+00 4.113899e+01 4.371600e+01 5.577193e+01 3.810524e+01 3.947631e+01 5.309977e+01 7.927370e+01 6.736136e+01 5.999616e+01 5.124330e+01 4.832465e+01 1.514865e+01 2.247572e-01 1.266870e+00 1.014316e+00 1.421416e+00 1.442865e+00 1.950157e+00 2.089860e+00 3.426379e+00 2.254891e+00 2.525771e+00 2.125444e+00 1.813145e+00 3.442850e-01 3.014455e-02 9.411519e-02 1.286333e-01 2.229477e-01 2.306007e-01 2.811981e-01 2.813389e-01 3.583576e-01 3.563623e-01 3.333737e-01 3.269525e-01 2.858668e-01 2.186277e-02
<GCONST> 1.007647e+02
<STATE> 3
<MEAN> 39
 -4.187213e+00 1.034137e+01 -1.064388e+01 -3.251884e+00 -8.417873e+00 -1.115466e+01 7.711028e-01 -1.046091e+01 -1.834629e+01 -2.021733e+00 -1.196040e+01 -8.098205e+00 7.047755e+01 -8.602845e-03 7.013955e-01 1.001628e+00 8.200673e-01 1.329190e-01 3.225002e-01 -4.246915e-01 -7.631199e-01 -3.674585e-01 2.843952e-01 -2.206954e-01 -3.550422e-01 -8.146988e-01 1.143509e-02 -4.326947e-02 -1.414277e-01 -1.560388e-01 -2.395285e-02 8.303168e-03 1.177340e-01 1.552617e-01 1.085895e-01 4.997171e-03 5.373287e-02 4.566513e-02 6.518607e-02
<VARIANCE> 39
 1.043709e+01 3.158713e+01 4.402313e+01 4.558736e+01 2.747286e+01 3.334127e+01 4.113389e+01 5.663374e+01 5.226365e+01 3.229249e+01 3.107509e+01 5.566747e+01 1.248810e+01 1.712716e-01 4.103359e-01 1.237646e+00 2.112396e+00 1.344615e+00 1.387001e+00 1.855520e+00 1.886865e+00 1.816723e+00 1.524513e+00 1.449286e+00 1.736828e+00 2.535581e-01 3.402582e-02 5.281638e-02 1.559840e-01 2.808096e-01 2.214035e-01 2.197343e-01 2.555398e-01 2.892800e-01 3.036250e-01 2.886114e-01 2.506539e-01 2.950237e-01 3.004774e-02
<GCONST> 9.419511e+01
<STATE> 4
<MEAN> 39
 -4.421939e+00 9.309034e+00 -1.617980e+01 -3.883497e+00 -1.545725e+01 -9.598668e+00 -7.337673e-01 -1.431766e+01 -7.868000e+00 2.174693e+00 -8.467141e+00 4.282563e+00 6.872420e+01 -5.911182e-02 4.889011e-01 7.076474e-01 2.205559e-01 -3.311739e-02 -1.249605e-02 -6.835076e-01 -3.747909e-01 4.069793e-01 5.541720e-01 -5.582621e-03 1.003173e-01 -3.956021e-01 1.065643e-02 -4.378494e-02 -8.056682e-02 -8.090087e-04 8.629357e-02 1.265699e-01 7.495791e-02 7.740416e-02 1.789315e-02 -1.733208e-01 -9.342957e-02 -1.309988e-01 4.488314e-02
<VARIANCE> 39
 6.338749e+00 2.997536e+01 5.185938e+01 4.366367e+01 4.547633e+01 4.117272e+01 8.323258e+01 6.745574e+01 8.743591e+01 4.841636e+01 3.971562e+01 1.046851e+02 1.585604e+01 3.321535e-01 8.504537e-01 1.930188e+00 1.808397e+00 1.423486e+00 2.170793e+00 3.097017e+00 2.768619e+00 1.790537e+00 2.209512e+00 1.984012e+00 2.087524e+00 4.986270e-01 5.211208e-02 9.752111e-02 2.202140e-01 3.069262e-01 2.622472e-01 3.179789e-01 3.598330e-01 3.611811e-01 3.087054e-01 3.428173e-01 2.816799e-01 3.264307e-01 5.453358e-02
<GCONST> 1.055853e+02
<TRANSP> 5
 0.000000e+00 1.000000e+00 0.000000e+00 0.000000e+00 0.000000e+00
 0.000000e+00 9.139235e-01 8.607651e-02 0.000000e+00 0.000000e+00
 0.000000e+00 0.000000e+00 8.413283e-01 1.586717e-01 0.000000e+00
 0.000000e+00 0.000000e+00 0.000000e+00 7.098006e-01 2.901994e-01
 0.000000e+00 0.000000e+00 0.000000e+00 0.000000e+00 0.000000e+00
<ENDHMM>
~h "ax"
<BEGINHMM>
<NUMSTATES> 5
<STATE> 2
<MEAN> 39
 -8.344707e+00 1.022040e+01 -6.473753e+00 4.160828e+00 -3.829658e+00 -6.552628e+00 2.595653e-01 -4.404064e+00 -5.677910e+00 4.067988e+00 -4.901429e+00 -1.145783e+00 6.563521e+01 9.112389e-01 -6.816227e-01 -1.340077e+00 -1.020562e+00 -6.954855e-01 -1.935454e-01 1.587238e-01 -2.171966e-01 1.486410e-02 2.130324e-01 4.268221e-01 -3.826404e-02 7.829126e-01 1.075751e-02 -2.011872e-01 -1.024385e-01 -6.222145e-02 -1.056728e-01 -3.350123e-02 1.070608e-01 -2.046464e-02 -6.532823e-02 -4.757093e-02 1.860857e-02 1.401450e-03 1.734212e-01
<VARIANCE> 39
 4.445459e+01 5.366709e+01 7.078919e+01 9.002763e+01 6.230868e+01 1.238114e+02 1.197055e+02 8.785927e+01 7.915119e+01 5.649183e+01 4.473957e+01 4.308411e+01 5.614144e+01 4.811093e+00 4.010582e+00 4.796946e+00 5.501182e+00 4.307433e+00 6.086091e+00 3.789384e+00 5.002713e+00 4.428259e+00 4.272852e+00 3.489612e+00 2.559044e+00 4.699981e+00 6.547868e-01 5.204435e-01 6.256351e-01 9.357834e-01 6.273623e-01 7.576919e-01 7.128492e-01 6.783043e-01 6.849824e-01 5.458616e-01 4.676664e-01 4.391347e-01 6.032072e-01
<GCONST> 1.393874e+02
<STATE> 3
<MEAN> 39
 -5.148834e+00 9.379419e+00 -8.007425e+00 2.321036e+00 -5.842121e+00 -1.101890e+01 -2.874073e+00 -6.311896e+00 -7.230314e+00 3.000602e+00 -5.129797e+00 -2.475264e+00 6.996156e+01 6.069872e-01 -5.867103e-01 -1.150248e+00 -3.543646e-01 -2.951910e-01 -4.579616e-01 1.690432e-01 -2.914369e-01 7.637333e-03 5.432234e-01 5.393564e-01 -2.045917e-01 5.820369e-01 -3.698072e-01 1.306314e-01 3.368001e-01 2.256597e-01 2.145287e-01 2.922422e-01 2.246192e-01 3.216605e-02 -5.810190e-02 -9.602190e-02 -1.222144e-01 8.547114e-02 -2.518547e-01
<VARIANCE> 39
 2.658091e+01 6.096857e+01 7.056792e+01 8.434336e+01 6.576284e+01 9.783865e+01 1.105435e+02 9.985252e+01 8.091356e+01 5.465799e+01 5.089625e+01 4.465612e+01 2.382657e+01 2.379051e+00 2.579761e+00 2.969477e+00 2.803649e+00 2.559797e+00 6.007077e+00 3.249578e+00 4.372944e+00 4.636933e+00 3.234678e+00 3.223205e+00 2.507111e+00 2.881373e+00 3.651194e-01 3.927717e-01 4.483857e-01 4.756230e-01 4.637208e-01 5.597590e-01 4.832492e-01 5.568051e-01 6.137044e-01 5.749353e-01 4.996858e-01 4.029732e-01 2.333092e-01
<GCONST> 1.300595e+02
<STATE> 4
<MEAN> 39
 -5.288556e+00 7.205777e+00 -1.014528e+01 1.167542e+00 -7.740335e+00 -1.207623e+01 -8.384330e-01 -6.966428e+00 -8.028324e+00 2.798762e+00 -6.446566e+00 -3.045266e+00 7.141811e+01 -8.256065e-02 2.428869e-01 6.756607e-02 2.945728e-01 2.202252e-01 -2.243295e-01 -2.291297e-02 -3.609547e-01 -1.259867e-01 2.621475e-01 -6.213958e-02 -1.272952e-02 -2.079648e-01 -8.995956e-02 1.863192e-01 1.758375e-01 1.281271e-01 1.335984e-01 2.000162e-01 2.520879e-02 -2.590182e-02 -5.745878e-02 -8.111823e-02 -6.498733e-02 5.721933e-02 -2.272350e-01
<VARIANCE> 39
 3.069963e+01 6.712197e+01 8.903935e+01 6.809975e+01 7.154904e+01 1.191490e+02 8.616882e+01 8.659780e+01 7.532351e+01 5.765245e+01 6.056829e+01 4.982926e+01 3.066187e+01 1.128542e+00 1.288081e+00 2.721952e+00 2.343592e+00 2.122268e+00 4.883831e+00 3.230704e+00 3.331567e+00 2.805206e+00 2.442084e+00 2.605629e+00 1.900497e+00 1.265368e+00 2.092981e-01 2.700346e-01 3.597615e-01 3.211893e-01 3.690561e-01 6.547559e-01 3.947741e-01 4.998976e-01 5.028229e-01 4.918065e-01 4.208325e-01 3.470796e-01 1.997684e-01
<GCONST> 1.234933e+02
<TRANSP> 5
 0.000000e+00 1.000000e+00 0.000000e+00 0.000000e+00 0.000000e+00
 0.000000e+00 4.161295e-01 5.838705e-01 0.000000e+00 0.000000e+00
 0.000000e+00 0.000000e+00 1.399197e-01 8.600803e-01 0.000000e+00
 0.000000e+00 0.000000e+00 0.000000e+00 6.353024e-01 3.646976e-01
 0.000000e+00 0.000000e+00 0.000000e+00 0.000000e+00 0.000000e+00
<ENDHMM>
~h "ay"
<BEGINHMM>
<NUMSTATES> 5
<STATE> 2
<MEAN> 39
 -2.064278e-01 2.442714e+00 -2.562579e+01 -2.151668e+00 -8.070209e+00 -8.584042e+00 4.591747e-01 -7.740694e+00 -1.890358e+00 5.314297e+00 -4.918041e+00 -4.491893e+00 7.612965e+01 -3.558912e-01 -7.206320e-01 9.573365e-01 1.413769e+00 -3.120309e-01 -1.173265e+00 -8.416761e-01 -1.021210e-01 5.314166e-01 4.640149e-01 -8.420186e-03 1.052395e-01 3.569134e-01 -8.474080e-02 3.405989e-01 3.921737e-01 -1.068749e-01 1.639320e-02 -2.104241e-01 -3.067900e-01 -2.086922e-01 -2.470678e-01 1.467776e-01 -3.376516e-02 4.666122e-02 -1.146293e-01
<VARIANCE> 39
 9.279820e+00 4.853635e+01 3.537758e+01 4.231574e+01 6.410213e+01 7.417122e+01 6.721580e+01 8.723938e+01 5.451452e+01 6.715179e+01 4.924593e+01 4.684393e+01 1.266893e+01 1.825998e-01 8.940389e-01 1.256755e+00 8.519356e-01 1.441289e+00 2.042047e+00 3.192578e+00 2.408891e+00 1.978068e+00 2.610879e+00 1.747603e+00 1.514285e+00 1.280219e-01 2.380516e-02 7.920521e-02 1.211762e-01 1.395526e-01 1.858492e-01 2.531844e-01 3.452659e-01 3.586436e-01 3.789192e-01 3.771876e-01 3.586884e-01 2.897123e-01 1.916355e-02
<GCONST> 9.900191e+01
<STATE> 3
<MEAN> 39
 -3.809289e+00 3.070529e+00 -1.401391e+01 4.187735e+00 -6.217850e+00 -1.824511e+01 -7.998405e+00 -1.174412e+01 -3.129441e+00 1.098046e+01 -6.105093e+00 -4.441568e+00 7.720113e+01 -6.173107e-01 7.379265e-01 2.172519e+00 9.505090e-01 2.847395e-01 -1.654847e+00 -1.037259e+00 -4.754851e-01 -1.160708e+00 -3.295320e-01 -9.087503e-01 2.296689e-01 -3.017762e-01 7.307364e-04 2.185704e-01 -2.180012e-02 -1.208338e-01 1.769280e-01 2.755390e-01 3.549437e-01 1.241297e-01 -2.409894e-01 -4.067122e-01 1.190289e-03 -2.757052e-03 -1.792372e-01
<VARIANCE> 39
 9.386815e+00 2.898294e+01 4.099338e+01 3.068414e+01 8.212867e+01 8.874261e+01 5.314282e+01 8.659998e+01 4.307676e+01 3.405650e+01 4.878670e+01 5.311162e+01 9.087440e+00 1.795036e-01 6.562561e-01 9.407552e-01 8.902628e-01 1.493436e+00 2.276354e+00 2.678177e+00 2.410865e+00 2.175436e+00 2.374820e+00 1.728767e+00 1.980550e+00 1.429604e-01 4.038109e-02 7.402170e-02 1.483344e-01 1.410704e-01 1.816094e-01 3.560577e-01 3.625434e-01 3.474256e-01 3.799612e-01 3.381753e-01 3.579931e-01 2.830045e-01 2.791226e-02
<GCONST> 9.839683e+01
<STATE> 4
<MEAN> 39
 -6.368080e+00 7.173296e+00 -7.321881e+00 6.757591e+00 -7.571607e+00 -2.366648e+01 -7.764411e+00 -1.118446e+01 -8.252963e+00 5.536170e+00 -9.634116e+00 -2.721137e+00 7.400214e+01 -1.043369e+00 9.197989e-01 2.144614e+00 5.828706e-02 1.098052e+00 1.080585e+00 3.436864e-01 3.514133e-01 -5.918270e-01 -8.853161e-01 1.198941e-01 8.277239e-02 -8.910354e-01 -3.829432e-01 -2.667170e-01 -1.608727e-02 -4.092088e-01 1.261960e-01 8.832230e-01 2.658843e-01 2.708702e-01 5.013837e-01 2.168242e-01 2.877776e-01 6.215005e-02 -3.086195e-03
<VARIANCE> 39
 1.328504e+01 2.318528e+01 5.820760e+01 4.322956e+01 1.099402e+02 8.732639e+01 6.680801e+01 5.328022e+01 4.292428e+01 4.508835e+01 4.575779e+01 4.709356e+01 1.093901e+01 1.227825e+00 1.541110e+00 2.496648e+00 2.276408e+00 2.181966e+00 5.359612e+00 2.861485e+00 2.944075e+00 3.400775e+00 2.687310e+00 2.614147e+00 2.054502e+00 5.145482e-01 2.220183e-01 1.991293e-01 2.634234e-01 3.777466e-01 4.566115e-01 6.130829e-01 5.858810e-01 4.860777e-01 5.906185e-01 5.531378e-01 4.101651e-01 4.042930e-01 1.230596e-01
<GCONST> 1.174492e+02
<TRANSP> 5
 0.000000e+00 1.000000e+00 0.000000e+00 0.000000e+00 0.000000e+00
 0.000000e+00 8.296856e-01 1.703144e-01 0.000000e+00 0.000000e+00
 0.000000e+00 0.000000e+00 7.612210e-01 2.387790e-01 0.000000e+00
 0.000000e+00 0.000000e+00 0.000000e+00 7.123170e-01 2.876830e-01
 0.000000e+00 0.000000e+00 0.000000e+00 0.000000e+00 0.000000e+00
<ENDHMM>
~h "ch"
<BEGINHMM>
<NUMSTATES> 5
<STATE> 2
<MEAN> 39
 -1.601384e+01 4.252842e+00 4.065123e+00 1.003475e+01 -2.883995e+00 -4.232711e+00 7.724852e-01 -3.595226e-01 -4.799550e+00 2.623566e+00 -4.755679e+00 1.063587e+00 6.407590e+01 -2.976918e+00 -3.507520e+00 2.548334e+00 -5.035527e-01 -2.809671e-01 -9.228492e-01 -2.458311e-01 1.606050e+00 2.284774e-01 -1.582337e-01 3.729425e-01 8.881473e-01 2.046642e+00 -2.216251e-01 1.592141e-02 -1.873359e-02 1.661172e-02 2.350061e-01 -1.523350e-01 -2.310826e-01 -1.446973e-01 8.394329e-02 1.085784e-01 -4.664266e-02 -1.690452e-01 3.769709e-01
<VARIANCE> 39
 5.289830e+01 8.297860e+01 9.066528e+01 5.382707e+01 4.546328e+01 5.287000e+01 4.826976e+01 4.010651e+01 2.757108e+01 3.080098e+01 2.996090e+01 3.265722e+01 4.003449e+01 3.778769e+00 4.582348e+00 5.061298e+00 3.447451e+00 3.328581e+00 3.480330e+00 2.495039e+00 2.919443e+00 2.874213e+00 3.245746e+00 2.089073e+00 1.965694e+00 3.167145e+00 6.823163e-01 1.185382e+00 1.711097e+00 5.970272e-01 5.065408e-01 7.058952e-01 3.947042e-01 6.649452e-01 5.100286e-01 5.095171e-01 3.222637e-01 3.501099e-01 6.236866e-01
<GCONST> 1.296165e+02
<STATE> 3
<MEAN> 39
 -2.739050e+01 -8.409348e+00 6.060367e+00 9.768126e+00 -1.910218e-01 -8.542023e+00 -3.662670e+00 1.054904e+00 -9.221268e-01 3.659235e+00 -1.843409e+00 3.150654e+00 7.393398e+01 1.066086e+00 4.096641e-01 -1.129341e+00 -3.349866e-02 1.274004e-01 -3.789250e-01 -1.070065e+00 -1.149565e+00 -2.703206e-02 2.747824e-02 -3.273345e-02 -3.251938e-01 2.686648e-02 8.095589e-01 6.321481e-01 -1.257247e-01 2.398685e-02 -1.849683e-01 -1.276337e-01 -8.287477e-02 -3.731532e-01 -3.698102e-01 -1.161777e-01 -1.894659e-01 -2.265149e-01 -2.266812e-01
<VARIANCE> 39
 2.333280e+01 1.659657e+01 5.142762e+01 3.697064e+01 5.198720e+01 3.894823e+01 4.665835e+01 3.926966e+01 2.613232e+01 2.511172e+01 2.561894e+01 2.027172e+01 9.789242e+00 4.826921e+00 3.340593e+00 1.798687e+00 1.531583e+00 1.637205e+00 1.980197e+00 1.715833e+00 2.267089e+00 2.655305e+00 1.527354e+00 2.032753e+00 1.880382e+00 1.281860e+00 2.502609e-01 2.534981e-01 6.852663e-01 3.039231e-01 2.498413e-01 3.386908e-01 3.223875e-01 4.024060e-01 4.033788e-01 2.683085e-01 3.249100e-01 2.871102e-01 2.797320e-01
<GCONST> 1.099430e+02
<STATE> 4
<MEAN> 39
 -9.047875e+00 2.938225e+00 7.671588e-02 8.921648e+00 -3.475385e+00 -1.827549e+01 -1.270072e+01 -1.241278e+01 -1.038912e+01 2.913992e+00 -6.107871e+00 -3.627056e+00 7.370219e+01 2.615625e+00 1.790429e+00 -1.251762e+00 -1.104584e+00 -1.147359e+00 -1.437367e+00 -2.165408e-01 -1.890987e+00 -1.885538e+00 3.043140e-01 3.882764e-02 -2.488801e-01 7.121289e-01 -6.416704e-01 -5.463019e-01 -2.325833e-01 -4.659705e-01 -1.552742e-01 5.357437e-01 7.263723e-01 5.373594e-01 2.796272e-01 6.315982e-02 4.621405e-01 6.692425e-01 2.763816e-03
<VARIANCE> 39
 1.967945e+01 2.450369e+01 3.017909e+01 5.041655e+01 7.807653e+01 1.034428e+02 4.096843e+01 4.841546e+01 7.168057e+01 4.412482e+01 4.263628e+01 3.538038e+01 9.489184e+00 3.494484e+00 3.832555e+00 3.026182e+00 2.325651e+00 2.641683e+00 4.721428e+00 4.614372e+00 3.600660e+00 5.159581e+00 3.555948e+00 4.623976e+00 3.850047e+00 5.106710e-01 2.782456e-01 4.177402e-01 3.414783e-01 3.256018e-01 3.627609e-01 7.320343e-01 5.672804e-01 4.838377e-01 7.238026e-01 8.316462e-01 7.051297e-01 4.182599e-01 1.757094e-01
<GCONST> 1.239622e+02
<TRANSP> 5
 0.000000e+00 1.000000e+00 0.000000e+00 0.000000e+00 0.000000e+00
 0.000000e+00 8.147280e-01 1.852720e-01 0.000000e+00 0.000000e+00
 0.000000e+00 0.000000e+00 8.785303e-01 1.214696e-01 0.000000e+00
 0.000000e+00 0.000000e+00 0.000000e+00 7.517837e-01 2.482164e-01
 0.000000e+00 0.000000e+00 0.000000e+00 0.000000e+00 0.000000e+00
<ENDHMM>
~h "eh"
<BEGINHMM>
<NUMSTATES> 5
<STATE> 2
<MEAN> 39
 -7.571060e+00 6.967274e+00 -6.581722e+00 -4.688950e+00 -9.109864e+00 -1.124782e+01 -5.058446e+00 -1.290355e+01 -6.760510e+00 7.532239e+00 -2.649415e+00 -1.526482e+00 7.617968e+01 3.880934e+00 -1.135371e+00 -3.535283e+00 4.774935e-01 -1.557366e+00 -2.302933e-01 4.195826e-01 -6.123316e-01 1.868726e-01 -5.410116e-01 -3.310059e-01 -4.282124e-01 1.252409e+00 -1.600413e+00 4.894479e-02 7.020961e-01 -1.813808e-01 7.349250e-01 7.755455e-01 5.809471e-01 7.306486e-01 4.824530e-01 1.290505e-01 2.046019e-02 2.627084e-01 -3.634056e-01
<VARIANCE> 39
 1.314159e+01 6.199085e+01 5.085313e+01 3.844303e+01 4.577668e+01 6.215215e+01 5.380936e+01 4.835749e+01 4.078056e+01 4.558497e+01 2.694377e+01 4.105785e+01 8.230369e+00 4.114340e+00 6.572694e+00 2.065847e+00 2.545446e+00 3.174324e+00 3.488837e+00 3.002284e+00 3.336508e+00 3.412243e+00 1.804176e+00 2.622450e+00 2.394475e+00 6.211452e-01 3.177037e-01 6.967722e-01 3.685312e-01 2.976261e-01 5.398878e-01 6.904848e-01 6.604774e-01 4.756402e-01 3.425239e-01 4.709331e-01 2.812675e-01 2.838481e-01 1.401243e-01
<GCONST> 1.190845e+02
<STATE> 3
<MEAN> 39
 -5.119891e+00 8.209238e+00 -8.740762e+00 -4.712339e+00 -7.880146e+00 -7.781321e+00 -4.188809e+00 -1.283030e+01 -5.350874e+00 5.409573e+00 -2.786139e+00 3.806193e-01 7.652360e+01 7.068832e-01 -1.376787e-01 -8.788716e-01 1.707211e-01 1.139597e-01 6.314148e-01 4.038554e-01 1.531911e-01 4.542509e-01 -6.984148e-02 -2.372405e-01 1.867261e-01 -6.895164e-02 -1.418999e+00 2.247109e-01 1.375145e+00 -5.166157e-02 5.466719e-01 3.401710e-01 1.190183e-01 3.050185e-01 -1.355806e-01 1.066139e-01 -1.317787e-02 4.480590e-02 -4.587307e-01
<VARIANCE> 39
 5.282835e+00 4.942554e+01 3.287307e+01 4.513342e+01 3.586803e+01 5.186938e+01 6.221882e+01 4.649481e+01 5.401317e+01 3.109714e+01 3.417824e+01 3.165516e+01 7.252259e+00 1.886711e+00 1.039225e+00 3.522361e+00 1.086807e+00 1.230867e+00 1.765476e+00 1.406308e+00 1.700357e+00 1.612832e+00 1.315479e+00 1.296401e+00 1.042489e+00 4.721874e-01 3.664302e-01 4.943891e-01 3.278119e-01 3.734879e-01 2.622507e-01 6.274047e-01 3.563498e-01 4.770611e-01 4.167493e-01 3.395666e-01 4.052122e-01 2.372552e-01 8.468738e-02
<GCONST> 1.062525e+02
<STATE> 4
<MEAN> 39
 -6.234975e+00 5.495546e+00 -9.529051e+00 -2.910467e+00 -8.951834e+00 -1.013887e+01 -3.333123e+00 -1.392037e+01 -5.306628e+00 5.775389e+00 -4.749752e+00 -3.256925e+00 7.506870e+01 -1.794191e+00 1.040801e+00 2.292415e+00 -3.169534e-01 1.621497e+00 8.487081e-01 4.939677e-01 6.710341e-01 -4.545631e-01 -2.476051e-01 -4.169565e-02 1.904534e-01 -6.522280e-01 -1.066395e+00 1.539604e-01 8.017022e-01 -4.603218e-01 4.417439e-01 8.125492e-02 1.947111e-01 4.056114e-01 3.268658e-02 2.836177e-01 1.633697e-01 1.629970e-01 -4.014836e-03
<VARIANCE> 39
 1.021584e+01 4.648587e+01 4.644372e+01 4.125178e+01 4.380190e+01 5.195414e+01 4.997440e+01 5.110663e+01 6.498775e+01 3.217733e+01 3.189263e+01 4.351011e+01 6.155591e+00 3.261145e+00 1.930014e+00 3.698853e+00 2.373740e+00 2.773639e+00 2.444618e+00 2.176615e+00 3.402890e+00 2.232224e+00 2.424543e+00 2.064548e+00 1.430398e+00 2.379279e-01 2.609983e-01 4.139652e-01 5.146061e-01 3.675973e-01 5.336682e-01 3.677315e-01 4.279793e-01 5.782429e-01 5.980072e-01 4.027984e-01 3.781126e-01 2.790592e-01 9.274542e-02
<GCONST> 1.139707e+02
<TRANSP> 5
 0.000000e+00 1.000000e+00 0.000000e+00 0.000000e+00 0.000000e+00
 0.000000e+00 4.060722e-01 5.939278e-01 0.000000e+00 0.000000e+00
 0.000000e+00 0.000000e+00 5.213885e-01 4.786115e-01 0.000000e+00
 0.000000e+00 0.000000e+00 0.000000e+00 7.091107e-01 2.908893e-01
 0.000000e+00 0.000000e+00 0.000000e+00 0.000000e+00 0.000000e+00
<ENDHMM>
~h "ey"
<BEGINHMM>
<NUMSTATES> 5
<STATE> 2
<MEAN> 39
 -5.613355e+00 7.872524e+00 -5.649618e+00 8.672685e+00 -6.548986e+00 -2.095336e+01 -8.948483e+00 -5.584323e+00 5.116256e-01 9.725469e+00 -5.678648e+00 -6.607820e-01 6.943555e+01 -4.045869e-02 2.023800e-01 1.242155e-01 2.316713e-01 1.757752e-01 -4.321533e-02 -3.695705e-02 2.547436e-01 -7.626714e-02 5.930514e-02 1.963815e-01 1.068430e-01 -3.759322e-01 -1.876067e-01 1.302362e-02 7.856012e-02 4.222117e-03 9.755091e-02 2.726014e-01 1.395400e-01 7.361654e-02 -3.679012e-02 -5.718417e-02 1.101433e-02 2.561077e-02 -1.586709e-01
<VARIANCE> 39
 1.006934e+01 3.573833e+01 2.729543e+01 3.230226e+01 9.568249e+01 8.464074e+01 8.907478e+01 1.166370e+02 6.269674e+01 3.520617e+01 3.797549e+01 4.618555e+01 1.704994e+01 3.219627e-01 9.945478e-01 9.606901e-01 6.451390e-01 8.010962e-01 1.365537e+00 9.308187e-01 1.319809e+00 1.842867e+00 1.205284e+00 1.071328e+00 9.823437e-01 3.542682e-01 7.144818e-02 1.797067e-01 1.217579e-01 1.291171e-01 1.632065e-01 2.907849e-01 2.173809e-01 2.304800e-01 2.857817e-01 1.717916e-01 1.810083e-01 1.748593e-01 4.300270e-02
<GCONST> 9.492480e+01
<STATE> 3
<MEAN> 39
 -1.051604e+01 1.129062e+01 -3.600651e+00 1.123920e+01 6.195958e-01 -1.099753e+01 -8.901722e+00 -5.564742e+00 2.538768e+00 9.745565e+00 -4.280157e+00 -1.329625e+00 6.061431e+01 -6.791091e-01 -1.575485e-02 -2.454539e-01 2.077950e-01 2.429982e-02 1.280206e+00 9.108305e-01 5.675427e-01 4.681102e-02 -1.964594e-01 3.334507e-01 3.092956e-01 -1.136735e+00 -6.704730e-03 -5.514758e-02 -8.381379e-02 -8.749203e-02 -6.106924e-02 9.235790e-02 1.455579e-01 -1.324739e-02 -5.619492e-02 -5.000697e-03 2.921954e-02 2.368812e-02 2.877927e-02
<VARIANCE> 39
 1.229734e+01 1.621799e+01 1.679817e+01 2.817427e+01 3.895157e+01 6.430626e+01 4.607234e+01 5.078932e+01 4.562167e+01 2.828753e+01 2.132996e+01 3.221688e+01 2.055029e+01 4.054122e-01 8.740937e-01 7.540966e-01 7.492787e-01 1.700261e+00 2.381845e+00 1.692670e+00 1.623014e+00 1.797411e+00 1.167393e+00 1.068605e+00 1.175971e+00 4.592274e-01 4.760231e-02 1.100096e-01 1.200745e-01 1.071773e-01 2.442264e-01 3.161615e-01 2.261551e-01 2.696351e-01 2.554288e-01 2.017979e-01 1.908820e-01 2.077849e-01 4.574325e-02
<GCONST> 9.218614e+01
<STATE> 4
<MEAN> 39
 -1.488574e+01 7.933345e+00 -5.668567e+00 1.148102e+01 -1.552540e+00 -1.232718e+00 2.809226e+00 2.053826e-01 1.908972e+00 9.838776e+00 1.143892e-01 3.825405e+00 5.571218e+01 -3.153229e-01 4.260048e-02 -6.589638e-02 3.052310e-02 2.518040e-01 9.201102e-01 6.287017e-01 1.525557e-01 6.882545e-02 -8.244409e-02 1.731044e-01 1.247187e-01 -4.087746e-01 -9.246030e-03 -8.705968e-03 7.126055e-02 -5.372777e-02 8.294035e-03 -1.160764e-01 -9.686849e-02 -3.060666e-02 -4.802193e-02 -1.848621e-02 -7.254594e-02 -4.556386e-02 8.252665e-02
<VARIANCE> 39
 1.413932e+01 3.858640e+01 1.584678e+01 3.653603e+01 3.539188e+01 7.788102e+01 4.422190e+01 3.865755e+01 4.191755e+01 2.860470e+01 2.304180e+01 3.252858e+01 1.719292e+01 3.184644e-01 1.072922e+00 6.845891e-01 9.055437e-01 1.199414e+00 2.396422e+00 1.533036e+00 1.098393e+00 1.479788e+00 1.304418e+00 1.100251e+00 1.095520e+00 4.537879e-01 7.481714e-02 1.263546e-01 1.356448e-01 1.826219e-01 2.014197e-01 3.260410e-01 2.397458e-01 1.989599e-01 2.621268e-01 1.931735e-01 1.779830e-01 1.789707e-01 7.242438e-02
<GCONST> 9.315808e+01
<TRANSP> 5
 0.000000e+00 1.000000e+00 0.000000e+00 0.000000e+00 0.000000e+00
 0.000000e+00 8.975069e-01 1.024931e-01 0.000000e+00 0.000000e+00
 0.000000e+00 0.000000e+00 8.415163e-01 1.584838e-01 0.000000e+00
 0.000000e+00 0.000000e+00 0.000000e+00 8.752876e-01 1.247124e-01
 0.000000e+00 0.000000e+00 0.000000e+00 0.000000e+00 0.000000e+00
<ENDHMM>
~h "ih"
<BEGINHMM>
<NUMSTATES> 5
<STATE> 2
<MEAN> 39
 -9.014440e+00 1.188104e+01 -3.896769e+00 7.678363e+00 -1.458948e+00 -7.913257e+00 -2.720314e+00 -8.565939e+00 -7.306257e+00 5.486749e+00 -3.830106e+00 6.538655e-01 6.545443e+01 -2.656257e-01 8.870173e-02 -2.111289e-02 4.254616e-01 1.729952e-01 5.097967e-01 3.574420e-01 3.299883e-01 3.902250e-01 8.229679e-02 1.326680e-01 2.212892e-01 -6.208773e-01 -1.298252e-01 4.142870e-02 3.208695e-02 -1.035864e-01 -8.870678e-02 1.695111e-01 2.125786e-01 1.486267e-01 4.223527e-02 -1.272726e-01 -4.418735e-02 1.371277e-02 -9.988972e-02
<VARIANCE> 39
 3.724255e+01 3.133952e+01 3.018860e+01 4.535178e+01 4.350359e+01 1.110123e+02 7.618549e+01 5.452135e+01 6.444207e+01 4.297439e+01 4.124512e+01 3.801269e+01 6.308617e+01 1.470249e+00 1.582304e+00 1.883588e+00 1.954338e+00 1.779405e+00 3.692950e+00 2.339465e+00 2.278320e+00 2.060537e+00 2.165363e+00 1.929162e+00 1.565998e+00 1.352535e+00 2.686233e-01 3.455628e-01 2.336640e-01 2.766397e-01 3.203368e-01 6.253734e-01 5.009459e-01 4.808872e-01 4.057204e-01 4.107483e-01 3.836673e-01 3.044800e-01 2.001488e-01
<GCONST> 1.171160e+02
<STATE> 3
<MEAN> 39
 -9.590760e+00 1.130210e+01 -5.034246e+00 7.991868e+00 -3.268912e+00 -7.250585e+00 -2.066149e+00 -7.438961e+00 -6.044867e+00 4.457026e+00 -3.662518e+00 1.040531e+00 6.339439e+01 -2.404628e-02 2.751104e-02 -1.617255e-01 -1.218241e-01 -3.209991e-01 6.117715e-02 4.854077e-01 4.752276e-01 1.920912e-01 -4.312937e-02 7.580316e-02 6.723500e-02 -1.736538e-01 2.860316e-02 -1.956857e-02 1.701430e-01 -3.216723e-01 -1.815690e-01 -2.939005e-01 -2.422489e-02 6.748579e-02 -1.900014e-01 -1.272203e-01 -1.610696e-01 -1.274559e-01 2.699646e-01
<VARIANCE> 39
 4.572441e+01 3.444597e+01 3.614655e+01 4.224930e+01 5.250474e+01 1.205479e+02 8.295186e+01 6.025282e+01 6.193026e+01 3.992251e+01 3.760075e+01 3.711281e+01 7.514927e+01 1.698222e+00 2.359859e+00 2.086735e+00 2.057643e+00 2.207326e+00 5.143611e+00 3.514616e+00 2.788818e+00 2.781944e+00 2.576475e+00 2.306305e+00 1.661704e+00 1.755910e+00 4.605296e-01 4.349890e-01 3.704422e-01 4.315421e-01 4.888639e-01 1.012841e+00 6.982950e-01 5.858665e-01 4.965448e-01 4.134092e-01 4.051049e-01 3.339706e-01 3.782289e-01
<GCONST> 1.248531e+02
<STATE> 4
<MEAN> 39
 -7.215817e+00 9.101263e+00 -6.164945e+00 4.926293e+00 -7.949469e+00 -1.340812e+01 -3.425711e+00 -7.155302e+00 -7.345526e+00 4.027284e+00 -5.156000e+00 5.361131e-01 6.697011e+01 4.067678e-01 -2.390460e-01 -1.004825e-02 -7.898543e-01 -6.182364e-01 -1.153772e+00 -5.069885e-02 3.410108e-01 -5.174455e-01 -2.396244e-01 -3.705219e-01 -2.487354e-01 1.059314e+00 -1.437683e-01 1.203277e-01 7.598065e-02 -3.642315e-02 1.292094e-01 1.963813e-01 6.119443e-02 6.864122e-03 -4.550216e-02 -1.015716e-01 -1.014201e-01 -6.861089e-02 -9.214324e-02
<VARIANCE> 39
 3.725947e+01 7.148536e+01 5.466134e+01 6.906050e+01 8.950381e+01 1.608013e+02 7.785239e+01 5.728466e+01 8.093717e+01 5.305530e+01 5.931836e+01 4.602543e+01 7.217419e+01 3.608347e+00 5.033891e+00 3.338889e+00 3.243156e+00 4.029791e+00 7.936332e+00 5.300754e+00 4.445415e+00 4.894941e+00 3.619435e+00 3.111511e+00 2.658401e+00 3.900768e+00 4.296983e-01 7.524126e-01 5.569955e-01 6.896272e-01 6.216291e-01 1.205699e+00 7.418687e-01 6.651413e-01 7.803024e-01 6.328859e-01 5.708500e-01 4.586130e-01 6.243182e-01
<GCONST> 1.389918e+02
<TRANSP> 5
 0.000000e+00 1.000000e+00 0.000000e+00 0.000000e+00 0.000000e+00
 0.000000e+00 7.159860e-01 2.840140e-01 0.000000e+00 0.000000e+00
 0.000000e+00 0.000000e+00 2.716539e-01 7.283462e-01 0.000000e+00
 0.000000e+00 0.000000e+00 0.000000e+00 5.824700e-01 4.175301e-01
 0.000000e+00 0.000000e+00 0.000000e+00 0.000000e+00 0.000000e+00
<ENDHMM>
~h "iy"
<BEGINHMM>
<NUMSTATES> 5
<STATE> 2
<MEAN> 39
 -7.054762e+00 1.160440e+01 1.132136e-01 7.442260e+00 -3.910779e+00 -1.749996e+01 -7.080262e+00 -5.565668e+00 -1.167524e+01 5.691755e-01 -7.731518e+00 -3.666895e+00 6.942873e+01 -4.219936e-01 -5.296151e-01 9.294040e-01 1.103114e+00 -2.286482e-01 -2.112166e+00 2.190996e-02 1.711580e+00 8.038096e-02 -6.096023e-01 -3.653934e-01 5.735734e-02 1.812453e-01 -1.714056e-01 -4.414374e-04 9.009318e-03 -1.930656e-01 2.929826e-03 4.159032e-01 2.490591e-01 -1.319105e-02 1.110330e-01 8.965106e-03 2.984059e-02 1.119896e-01 -1.376537e-01
<VARIANCE> 39
