~o
<STREAMINFO> 1 39
<VECSIZE> 39<NULLD><MFCC_D_A_0><DIAGC>
~h "a"
<BEGINHMM>
<NUMSTATES> 5
<STATE> 2
<MEAN> 39
 -2.685974e+00 9.545672e+00 -8.285682e+00 5.189347e+00 -3.720681e-01 -1.577264e+01 -4.498310e+00 -1.060449e+01 -1.318238e+01 3.922743e+00 -5.529611e+00 -3.437403e+00 7.009389e+01 -4.605241e-02 -1.527987e+00 -1.545360e+00 -1.714465e+00 -6.414549e-01 -7.520270e-01 1.149128e+00 6.540769e-01 -3.257157e-02 1.067741e+00 1.239095e+00 4.810253e-01 1.287624e+00 -1.399786e-01 -1.583406e-01 -1.239002e-01 -3.784063e-01 -5.131627e-02 8.380654e-02 2.888779e-01 2.077173e-01 1.595881e-01 -1.291219e-02 1.467068e-02 4.689234e-02 2.195094e-01
<VARIANCE> 39
 8.408729e+00 3.756032e+01 3.311228e+01 5.734385e+01 4.489563e+01 8.874912e+01 4.548277e+01 7.500536e+01 9.592807e+01 5.821975e+01 7.127990e+01 3.915390e+01 1.409635e+01 3.216787e-01 9.989825e-01 1.152103e+00 3.289328e+00 1.499219e+00 3.548148e+00 2.939955e+00 4.513945e+00 3.229071e+00 2.370704e+00 3.132003e+00 1.846069e+00 6.671453e-01 4.868541e-02 2.762457e-01 3.205148e-01 5.758439e-01 2.999211e-01 1.007520e+00 5.179872e-01 7.290313e-01 5.559577e-01 5.581926e-01 7.376445e-01 3.145307e-01 2.296503e-01
<GCONST> 1.161822e+02
<STATE> 3
<MEAN> 39
 -5.369272e+00 1.246138e+00 -1.636233e+01 -5.570271e+00 -7.913886e+00 -1.461239e+01 3.421863e+00 -8.403659e+00 -1.250597e+01 5.188299e+00 -4.034858e+00 -3.146268e+00 7.456528e+01 -2.467659e-01 1.950261e-02 -1.803743e-01 -1.799757e-01 -3.698426e-01 9.357620e-01 6.157353e-01 9.220121e-02 1.067854e-01 -3.938746e-01 1.547367e-01 1.821648e-01 -2.232593e-01 3.462230e-03 1.806297e-01 1.522533e-01 2.716950e-01 1.013173e-01 6.388949e-02 -1.637724e-01 -7.148083e-02 -6.660580e-03 -7.294968e-02 -3.985153e-02 -1.631665e-02 -2.115032e-01
<VARIANCE> 39
 1.138241e+01 2.890666e+01 4.243115e+01 3.331087e+01 7.626302e+01 6.281512e+01 5.542234e+01 6.995776e+01 7.286010e+01 4.980306e+01 4.831483e+01 2.744853e+01 1.034552e+01 2.546569e-01 8.653117e-01 9.309101e-01 1.435212e+00 1.456028e+00 2.749663e+00 2.420278e+00 1.768983e+00 1.970309e+00 1.572014e+00 1.395238e+00 1.212699e+00 7.622889e-01 3.725314e-02 8.136757e-02 1.253364e-01 2.142698e-01 1.810745e-01 4.241284e-01 3.350473e-01 3.324734e-01 3.174802e-01 3.007653e-01 2.534521e-01 2.438790e-01 4.018526e-02
<GCONST> 9.966732e+01
<STATE> 4
<MEAN> 39
 -9.787299e+00 7.723619e+00 -1.162905e+01 3.979597e+00 -3.009908e+00 -1.113460e+00 6.221433e+00 -5.459462e+00 -5.690517e+00 6.126803e+00 5.499978e-01 1.750255e+00 6.230427e+01 -2.815728e-01 1.634005e-01 2.593820e-01 4.493546e-01 1.536248e-01 4.456020e-01 -6.194563e-03 1.434111e-01 3.626965e-01 9.175737e-02 2.556773e-02 1.169039e-01 -5.978920e-01 -2.252695e-03 -3.584269e-03 4.920836e-02 1.321950e-02 2.240898e-02 -4.704989e-02 -4.203102e-02 4.889674e-03 -1.261062e-02 -6.204904e-03 -2.859400e-02 -1.926219e-02 3.040282e-03
<VARIANCE> 39
 3.528337e+01 2.521989e+01 2.697157e+01 3.973318e+01 2.929212e+01 7.424892e+01 2.800382e+01 5.233265e+01 8.558176e+01 5.492310e+01 3.187645e+01 2.844644e+01 8.589864e+01 2.030852e-01 6.275252e-01 6.086296e-01 8.167390e-01 9.984514e-01 1.598767e+00 9.814843e-01 1.433207e+00 1.403432e+00 1.435883e+00 1.095956e+00 9.711069e-01 5.207523e-01 2.861812e-02 8.282154e-02 1.072895e-01 1.159333e-01 1.761915e-01 2.400264e-01 1.799922e-01 2.430137e-01 2.443447e-01 2.237840e-01 1.931744e-01 1.660970e-01 4.824512e-02
<GCONST> 9.219727e+01
<TRANSP> 5
 0.000000e+00 1.000000e+00 0.000000e+00 0.000000e+00 0.000000e+00
 0.000000e+00 7.739762e-01 2.260239e-01 0.000000e+00 0.000000e+00
 0.000000e+00 0.000000e+00 8.822731e-01 1.177269e-01 0.000000e+00
 0.000000e+00 0.000000e+00 0.000000e+00 9.407519e-01 5.924810e-02
 0.000000e+00 0.000000e+00 0.000000e+00 0.000000e+00 0.000000e+00
<ENDHMM>
~h "b"
<BEGINHMM>
<NUMSTATES> 5
<STATE> 2
<MEAN> 39
 -1.164450e+01 1.329400e+01 -2.597250e+00 7.727433e+00 -2.769431e+00 -2.168259e+00 2.525897e+00 -4.890936e+00 -7.313175e+00 1.139470e+00 -6.883581e+00 -1.726869e+00 6.122149e+01 1.766505e+00 1.086389e+00 -3.139911e-01 -1.350925e+00 -1.326472e+00 -1.384694e+00 -9.504697e-01 -4.752512e-01 -7.817827e-01 -4.749112e-01 -7.099854e-01 -3.997331e-01 1.039542e+00 2.235535e-01 1.538162e-01 -1.814892e-01 -4.253993e-01 -4.778176e-01 -4.798144e-01 1.358100e-02 8.494700e-03 -1.039415e-02 -3.668470e-02 1.271530e-02 -7.490105e-02 2.625763e-01
<VARIANCE> 39
 5.077753e+01 4.656651e+01 7.505304e+01 6.665704e+01 4.239227e+01 4.964883e+01 3.950346e+01 3.560996e+01 4.072085e+01 2.781805e+01 3.286926e+01 3.297759e+01 5.099665e+01 3.330232e+00 3.044268e+00 2.486275e+00 5.262399e+00 4.788094e+00 7.362906e+00 3.119373e+00 3.403708e+00 3.418264e+00 2.452076e+00 2.418452e+00 2.344789e+00 4.762629e+00 4.258324e-01 4.379143e-01 3.493335e-01 5.641713e-01 5.743198e-01 9.292758e-01 5.921865e-01 5.291593e-01 5.456977e-01 4.259351e-01 4.562300e-01 4.044917e-01 4.587879e-01
<GCONST> 1.280316e+02
<STATE> 3
<MEAN> 39
 -1.460061e+00 1.640563e+01 -9.431211e+00 -2.649123e+00 -1.430637e+01 -1.282118e+01 -2.027665e+00 -5.738165e+00 -8.933495e+00 6.000524e-02 -8.831280e+00 -3.264244e+00 6.821864e+01 1.631761e+00 1.263386e+00 -4.722607e-01 -1.333705e+00 -2.484144e+00 -2.102666e+00 -1.353330e-02 3.504883e-02 -4.658968e-01 -4.693663e-01 -2.405569e-01 -4.101668e-01 6.725519e-01 -6.659927e-01 -4.851170e-01 6.878518e-02 5.212371e-01 6.388608e-01 7.568660e-01 5.342299e-01 3.251305e-01 2.935410e-01 2.534954e-01 4.485950e-01 2.051070e-01 -4.060579e-01
<VARIANCE> 39
 1.239729e+01 6.161211e+01 7.035016e+01 4.592606e+01 6.408506e+01 7.385434e+01 3.528067e+01 5.430279e+01 4.036196e+01 3.314022e+01 2.812703e+01 3.850952e+01 1.806468e+01 3.208049e+00 3.140521e+00 3.314412e+00 6.351289e+00 7.540550e+00 9.274612e+00 2.650073e+00 5.270396e+00 2.959368e+00 3.123874e+00 2.644774e+00 2.486123e+00 4.107235e+00 2.648515e-01 3.413766e-01 3.071528e-01 4.633593e-01 4.334680e-01 6.112835e-01 4.484175e-01 4.706362e-01 4.538045e-01 4.693837e-01 4.839498e-01 3.869889e-01 1.730989e-01
<GCONST> 1.250456e+02
<STATE> 4
<MEAN> 39
 -2.038403e+00 1.423157e+01 -1.218861e+01 1.343280e+00 -1.078430e+01 -7.469086e+00 5.438862e-01 -6.983685e+00 -9.034531e+00 -7.949330e-01 -8.248014e+00 -3.301929e+00 6.620625e+01 -5.233840e-01 2.271299e-01 5.424020e-01 2.360877e-02 6.176610e-02 2.038110e-01 5.134666e-01 4.551561e-01 3.148035e-01 1.483974e-01 2.799330e-01 3.201163e-01 -4.280745e-01 -5.035030e-01 -5.502324e-01 1.469758e-01 -1.035139e-01 2.562949e-01 5.040348e-02 2.638952e-02 1.650868e-01 1.978935e-01 3.699743e-01 3.535628e-01 2.425340e-01 2.765873e-01
<VARIANCE> 39
 1.185103e+01 4.135187e+01 5.563606e+01 5.580304e+01 6.711005e+01 9.140798e+01 3.417987e+01 4.610293e+01 3.890671e+01 3.772199e+01 3.370595e+01 3.741032e+01 2.406029e+01 2.037685e+00 2.049703e+00 3.283266e+00 3.515349e+00 2.488889e+00 4.684274e+00 2.175846e+00 3.432132e+00 2.523930e+00 3.058813e+00 2.665045e+00 2.160934e+00 2.327631e+00 3.099979e-01 3.008167e-01 3.586498e-01 7.286956e-01 5.209844e-01 8.484853e-01 3.992552e-01 5.795156e-01 4.784837e-01 5.326338e-01 4.578317e-01 3.624707e-01 4.085707e-01
<GCONST> 1.225372e+02
<TRANSP> 5
 0.000000e+00 1.000000e+00 0.000000e+00 0.000000e+00 0.000000e+00
 0.000000e+00 7.121382e-01 2.878619e-01 0.000000e+00 0.000000e+00
 0.000000e+00 0.000000e+00 3.166799e-01 6.833201e-01 0.000000e+00
 0.000000e+00 0.000000e+00 0.000000e+00 5.564377e-01 4.435623e-01
 0.000000e+00 0.000000e+00 0.000000e+00 0.000000e+00 0.000000e+00
<ENDHMM>
~h "d"
<BEGINHMM>
<NUMSTATES> 5
<STATE> 2
<MEAN> 39
 -5.284526e+00 1.108441e+01 -7.227494e+00 8.215919e+00 -4.031240e+00 -1.455325e+01 -4.706028e+00 -7.235733e+00 -7.236093e+00 5.538928e+00 -4.668184e+00 -1.477369e+00 6.669121e+01 -1.961311e-01 2.131552e-01 -2.080525e-03 1.550370e-01 1.376304e-01 8.348052e-01 3.141380e-01 3.125745e-01 3.021940e-01 8.460500e-02 1.503719e-01 1.900783e-01 -6.970018e-01 -1.480280e-01 -1.832651e-01 -9.233288e-02 -1.782771e-01 -7.600514e-02 1.166813e-01 2.013594e-01 1.229257e-01 1.400991e-01 6.382000e-02 4.843187e-02 7.428209e-02 5.043834e-02
<VARIANCE> 39
 1.451777e+01 3.843210e+01 4.605130e+01 4.507916e+01 6.180439e+01 8.547243e+01 6.390322e+01 5.334812e+01 6.566168e+01 4.982399e+01 5.433611e+01 3.789434e+01 3.167899e+01 9.446541e-01 2.327703e+00 1.966596e+00 2.940166e+00 2.763477e+00 7.026163e+00 3.805915e+00 2.529582e+00 2.722425e+00 3.406360e+00 2.744602e+00 2.016799e+00 2.440286e+00 1.709749e-01 4.274547e-01 3.083938e-01 4.781005e-01 4.582455e-01 1.272641e+00 6.302084e-01 4.531160e-01 4.848190e-01 6.638566e-01 5.037889e-01 3.403749e-01 3.622253e-01
<GCONST> 1.238931e+02
<STATE> 3
<MEAN> 39
 -7.341817e+00 1.456563e+01 -4.715176e+00 8.588943e+00 -2.883123e+00 -5.938150e+00 -8.567402e-01 -6.426840e+00 -6.659524e+00 3.834384e+00 -5.630077e+00 -1.257757e+00 6.212230e+01 -9.115272e-01 -3.274324e-01 -5.825639e-02 -1.213678e-01 8.126789e-02 1.381676e+00 1.133836e+00 7.604666e-01 6.782899e-01 5.457022e-02 2.354675e-01 5.083374e-01 -7.404597e-01 -1.705661e-01 -3.225854e-01 -7.110233e-02 -2.538760e-01 -6.694015e-03 -3.183975e-01 -8.355257e-02 1.064118e-01 -5.711335e-03 9.737445e-02 1.202759e-01 9.576452e-02 3.148876e-01
<VARIANCE> 39
 2.282581e+01 3.580162e+01 6.460762e+01 4.473518e+01 4.361501e+01 3.981872e+01 4.829920e+01 3.746711e+01 3.833796e+01 3.750370e+01 4.559179e+01 4.100345e+01 2.574669e+01 1.945749e+00 1.954757e+00 2.131979e+00 2.162973e+00 2.200102e+00 3.084311e+00 2.406311e+00 2.079625e+00 2.621115e+00 2.312202e+00 2.019642e+00 1.777943e+00 1.591164e+00 3.652489e-01 3.666964e-01 3.321847e-01 4.432096e-01 3.626396e-01 3.686772e-01 4.143573e-01 3.599693e-01 3.579662e-01 3.948575e-01 3.178924e-01 3.156966e-01 2.162062e-01
<GCONST> 1.156714e+02
<STATE> 4
<MEAN> 39
 -1.305455e+01 9.268518e+00 -5.922390e+00 1.003448e+01 -2.113944e+00 -1.818495e-01 5.306823e+00 -1.096062e+00 4.066609e-01 8.825338e+00 -4.968960e-01 3.002499e+00 5.743316e+01 -5.615781e-01 -2.266920e-01 -4.471283e-02 -1.717278e-01 2.348046e-01 4.292422e-01 4.436088e-01 4.493832e-01 2.692157e-01 9.563848e-02 1.497368e-01 1.898343e-01 -1.859816e-01 -4.109392e-02 -7.383118e-02 8.906972e-02 -1.569446e-01 -2.915911e-02 -2.348043e-01 -1.176891e-01 -3.024716e-02 -1.214506e-01 -2.807325e-02 -4.483681e-02 -4.363762e-02 2.165955e-01
<VARIANCE> 39
 2.632508e+01 5.588634e+01 3.348780e+01 4.211356e+01 3.790840e+01 4.685611e+01 5.616989e+01 4.054447e+01 4.631976e+01 4.313179e+01 3.326210e+01 2.392636e+01 3.326197e+01 1.241606e+00 1.488923e+00 1.139789e+00 1.493989e+00 1.417872e+00 1.910589e+00 1.519572e+00 1.605363e+00 1.604258e+00 1.703267e+00 1.432516e+00 1.377730e+00 7.597944e-01 1.906070e-01 2.183239e-01 1.964274e-01 3.173419e-01 2.568022e-01 3.266579e-01 3.094301e-01 2.624183e-01 2.687179e-01 2.638380e-01 2.271066e-01 2.215795e-01 1.481226e-01
<GCONST> 1.051756e+02
<TRANSP> 5
 0.000000e+00 1.000000e+00 0.000000e+00 0.000000e+00 0.000000e+00
 0.000000e+00 6.927391e-01 3.072609e-01 0.000000e+00 0.000000e+00
 0.000000e+00 0.000000e+00 5.077950e-01 4.922050e-01 0.000000e+00
 0.000000e+00 0.000000e+00 0.000000e+00 7.478694e-01 2.521306e-01
 0.000000e+00 0.000000e+00 0.000000e+00 0.000000e+00 0.000000e+00
<ENDHMM>
~h "f"
<BEGINHMM>
<NUMSTATES> 5
<STATE> 2
<MEAN> 39
 -2.517212e+01 1.201203e+01 -7.028581e+00 4.877291e+00 6.160301e+00 -1.952074e+00 4.972536e+00 -1.958118e+00 -2.493455e+00 5.733395e+00 -2.417839e+00 1.549788e+00 6.582396e+01 -1.586576e+00 -3.174630e-01 -3.099636e-01 -8.721489e-01 4.373577e-01 -2.191328e-01 1.194879e-01 2.498292e-01 9.464570e-02 -4.160734e-02 2.300408e-02 1.917230e-01 7.724569e-01 3.728222e-01 -1.048940e-01 -5.583188e-02 -1.806136e-02 -1.967298e-01 -2.072771e-02 -1.099865e-01 -9.194621e-02 -9.619702e-02 -7.808804e-02 -2.316571e-02 -2.457182e-02 7.381999e-03
<VARIANCE> 39
 6.051206e+01 3.231500e+01 3.670316e+01 4.129435e+01 3.049082e+01 2.104837e+01 4.786012e+01 4.019556e+01 3.259485e+01 2.660329e+01 2.801665e+01 2.352769e+01 5.140739e+01 3.342606e+00 1.197879e+00 1.125553e+00 1.734154e+00 1.571599e+00 1.564414e+00 1.848078e+00 1.757719e+00 1.642614e+00 1.623568e+00 1.346777e+00 1.358081e+00 1.327992e+00 4.489034e-01 1.844916e-01 1.975000e-01 3.233759e-01 2.868953e-01 2.835256e-01 3.178828e-01 3.321723e-01 2.638363e-01 2.822844e-01 2.229260e-01 2.295039e-01 2.067630e-01
<GCONST> 1.066581e+02
<STATE> 3
<MEAN> 39
 -2.749263e+01 8.112102e+00 -8.725723e+00 -1.046411e+00 5.620865e+00 -2.362695e+00 4.326973e+00 -6.479340e-01 -3.706569e+00 4.651007e+00 -2.661980e+00 2.802201e+00 6.797224e+01 2.619544e+00 1.256448e-01 -5.486047e-01 -1.282049e+00 -1.650780e+00 -8.197712e-01 -8.923442e-01 -1.060524e+00 -1.192265e+00 -1.093300e+00 -5.544149e-01 -4.436767e-01 4.111136e-01 1.513305e+00 7.313140e-01 -1.582305e-01 -2.404958e-01 -6.880572e-01 -3.758365e-01 -3.382120e-01 -6.718615e-01 -4.108741e-01 -1.838724e-01 -1.262142e-01 -3.552266e-01 6.644589e-02
<VARIANCE> 39
 2.102606e+01 3.175364e+01 3.341047e+01 6.041235e+01 2.451689e+01 2.653275e+01 4.867392e+01 3.221782e+01 3.704082e+01 4.188875e+01 3.729072e+01 2.248659e+01 2.622351e+01 5.708789e+00 2.880442e+00 1.824477e+00 3.016032e+00 2.193239e+00 2.344165e+00 2.578323e+00 2.274132e+00 1.892710e+00 1.777660e+00 1.530006e+00 1.625129e+00 1.689460e+00 3.273484e-01 4.112137e-01 5.926155e-01 6.113213e-01 4.358651e-01 4.406069e-01 4.238242e-01 4.944892e-01 3.495201e-01 3.574543e-01 3.542978e-01 3.481933e-01 1.642972e-01
<GCONST> 1.153196e+02
<STATE> 4
<MEAN> 39
 -1.382780e+01 1.385762e+01 -9.843636e+00 -5.036695e+00 -2.666476e+00 -6.742367e+00 -1.428730e-01 -5.669711e+00 -8.657322e+00 5.818297e-01 -5.733461e+00 -9.417267e-01 6.864108e+01 6.264995e+00 2.182969e+00 -1.668189e+00 -2.363278e+00 -3.182722e+00 -1.578527e+00 -1.395211e+00 -2.757930e+00 -1.487034e+00 -5.547824e-01 -5.305584e-01 -1.394362e+00 9.551887e-01 -1.678895e-01 -1.845138e-01 -4.736125e-01 1.943581e-01 3.198847e-01 2.264868e-01 2.991318e-01 2.191599e-02 5.151162e-01 6.173391e-01 2.636273e-01 5.265389e-02 8.103715e-02
<VARIANCE> 39
 5.799078e+01 3.684221e+01 2.699823e+01 4.310632e+01 4.384241e+01 3.299443e+01 4.309221e+01 3.647690e+01 2.947185e+01 4.216335e+01 2.927240e+01 2.879896e+01 1.524591e+01 2.620046e+00 3.263269e+00 6.439946e+00 4.501241e+00 2.974941e+00 4.113473e+00 4.189020e+00 4.022691e+00 3.428037e+00 2.936876e+00 3.501957e+00 2.744231e+00 1.263410e+00 1.116753e+00 8.564711e-01 4.236481e-01 4.890347e-01 6.611432e-01 5.330220e-01 3.769773e-01 5.976112e-01 5.820984e-01 4.390902e-01 4.311835e-01 4.566859e-01 1.419410e-01
<GCONST> 1.241810e+02
<TRANSP> 5
 0.000000e+00 1.000000e+00 0.000000e+00 0.000000e+00 0.000000e+00
 0.000000e+00 8.676634e-01 1.323365e-01 0.000000e+00 0.000000e+00
 0.000000e+00 0.000000e+00 6.495633e-01 3.504367e-01 0.000000e+00
 0.000000e+00 0.000000e+00 0.000000e+00 4.208764e-01 5.791236e-01
 0.000000e+00 0.000000e+00 0.000000e+00 0.000000e+00 0.000000e+00
<ENDHMM>
~h "g"
<BEGINHMM>
<NUMSTATES> 5
<STATE> 2
<MEAN> 39
 -9.096139e+00 1.836866e+01 -3.833816e+00 8.312955e+00 -5.012005e-01 -1.011151e+00 3.296743e+00 -6.674228e+00 -7.179699e+00 4.561669e-01 -8.402741e+00 -6.481986e-01 5.922055e+01 4.256183e-02 -3.197821e-01 -1.024457e+00 -1.926104e+00 1.414283e-01 3.337724e-01 3.102255e-01 -1.166162e+00 -5.543544e-01 -5.365378e-02 -7.288621e-02 4.016629e-01 9.638829e-01 1.576725e-01 -8.376203e-02 -1.244520e-01 -1.553968e-01 1.428489e-01 -1.481383e-01 -3.429405e-01 -5.161055e-01 -1.699777e-01 1.733501e-01 9.136994e-02 -2.574392e-02 2.861427e-01
<VARIANCE> 39
 1.993378e+01 3.151746e+01 3.579926e+01 8.057036e+01 5.406763e+01 5.742019e+01 6.017871e+01 4.063846e+01 4.561896e+01 3.996550e+01 4.061475e+01 4.153463e+01 2.119085e+01 2.928411e+00 3.510597e+00 4.062720e+00 7.126275e+00 3.391765e+00 4.902169e+00 6.499197e+00 5.471362e+00 3.480850e+00 4.111925e+00 2.845497e+00 3.086926e+00 1.552332e+00 3.884380e-01 4.894506e-01 7.857601e-01 1.505378e+00 5.643383e-01 8.988271e-01 1.082034e+00 8.577915e-01 6.404904e-01 6.966890e-01 4.314014e-01 5.487804e-01 2.559339e-01
<GCONST> 1.314184e+02
<STATE> 3
<MEAN> 39
 -5.411351e+00 1.452893e+01 -1.107204e+01 1.071581e+00 4.896150e+00 -4.844548e+00 -6.435715e+00 -2.324248e+01 -1.022952e+01 5.466847e+00 -7.696805e+00 -3.247642e+00 6.852699e+01 6.402243e-01 -6.053739e-01 -1.012666e-01 1.516804e+00 6.680500e-01 -2.625332e+00 -2.359421e+00 -9.483306e-01 6.755278e-01 9.122484e-01 -7.188411e-01 -1.576679e+00 9.172530e-01 -1.391623e-01 -1.088956e-01 3.464429e-01 4.288732e-01 -3.145004e-01 -4.784726e-01 1.466972e-01 9.475297e-01 2.133239e-01 -2.628047e-01 -2.518667e-01 -5.029752e-02 -1.496961e-01
<VARIANCE> 39
 3.401264e+01 3.283291e+01 5.002126e+01 9.640101e+01 9.143229e+01 9.252225e+01 1.014671e+02 7.365025e+01 8.470206e+01 6.373026e+01 6.856675e+01 6.679301e+01 8.169181e+00 1.829809e+00 2.641498e+00 3.218358e+00 3.306155e+00 3.110741e+00 5.859426e+00 4.456010e+00 1.083194e+01 5.029079e+00 5.015274e+00 3.220333e+00 2.989317e+00 4.295826e-01 3.793982e-01 4.561016e-01 6.127317e-01 7.283946e-01 5.498518e-01 8.219128e-01 1.101592e+00 8.633742e-01 8.601593e-01 1.114082e+00 4.780523e-01 8.253677e-01 8.105053e-02
<GCONST> 1.327386e+02
<STATE> 4
<MEAN> 39
 -6.309004e+00 8.907999e+00 -4.044991e+00 1.127356e+01 -3.318397e+00 -2.521333e+01 -8.006005e+00 -6.774023e+00 -9.860433e+00 3.713632e-01 -1.384690e+01 -7.049891e+00 7.187108e+01 -1.895474e-02 -2.985192e-02 2.257168e-01 -2.455819e-01 -7.392244e-01 2.224002e-01 5.990779e-01 7.284174e-01 -5.636840e-01 -4.752657e-01 2.133787e-01 3.301210e-01 -1.742052e-01 5.793120e-02 3.563251e-02 -2.266825e-01 -2.405757e-01 1.068715e-01 3.789645e-01 7.905713e-02 -2.865325e-01 -6.305236e-02 2.110835e-01 2.596468e-01 6.080648e-02 -2.390554e-02
<VARIANCE> 39
 1.097436e+01 3.084362e+01 5.205363e+01 5.953804e+01 1.400843e+02 1.087463e+02 8.984140e+01 1.136306e+02 8.246885e+01 5.979696e+01 3.656467e+01 6.698392e+01 9.316730e+00 6.435004e-01 1.287564e+00 2.352908e+00 1.678415e+00 2.893155e+00 8.161190e+00 3.737540e+00 7.475513e+00 2.382031e+00 3.532948e+00 2.627391e+00 1.938201e+00 7.342312e-01 6.983185e-02 2.634890e-01 1.953833e-01 2.510198e-01 3.584569e-01 1.034983e+00 5.972325e-01 7.659045e-01 4.401042e-01 4.289487e-01 4.333344e-01 3.967675e-01 1.365121e-01
<GCONST> 1.198644e+02
<TRANSP> 5
 0.000000e+00 1.000000e+00 0.000000e+00 0.000000e+00 0.000000e+00
 0.000000e+00 8.576452e-01 1.423549e-01 0.000000e+00 0.000000e+00
 0.000000e+00 0.000000e+00 8.575773e-01 1.424227e-01 0.000000e+00
 0.000000e+00 0.000000e+00 0.000000e+00 9.171906e-01 8.280937e-02
 0.000000e+00 0.000000e+00 0.000000e+00 0.000000e+00 0.000000e+00
<ENDHMM>
~h "k"
<BEGINHMM>
<NUMSTATES> 5
<STATE> 2
<MEAN> 39
 -8.720582e+00 9.878463e+00 -5.331015e+00 4.756425e+00 -3.486928e+00 -1.408276e+01 -4.164212e+00 -8.320983e+00 -9.354592e+00 4.445481e+00 -8.114333e+00 -3.930111e+00 6.776006e+01 -1.027734e+00 4.139779e-01 6.547301e-01 9.073414e-01 6.763563e-01 1.733219e+00 5.330157e-01 4.026738e-01 9.616442e-01 -3.870447e-02 2.724323e-02 5.688518e-01 -1.389134e+00 2.591024e-02 -1.786157e-02 -2.552266e-01 -4.238105e-02 -7.715772e-02 3.520048e-01 1.775630e-01 5.702062e-02 2.019261e-01 4.217430e-02 2.325874e-01 2.499628e-01 -1.490133e-01
<VARIANCE> 39
 1.936834e+01 3.637440e+01 3.923177e+01 6.575929e+01 7.719096e+01 1.418305e+02 8.689079e+01 6.522820e+01 7.481684e+01 5.720818e+01 4.569709e+01 5.923353e+01 3.181035e+01 9.468379e-01 1.804436e+00 1.980029e+00 2.342350e+00 2.234433e+00 7.046768e+00 4.028487e+00 3.642826e+00 3.288314e+00 2.635285e+00 3.048486e+00 2.367787e+00 2.743419e+00 2.338084e-01 5.071607e-01 3.586075e-01 4.810164e-01 3.562686e-01 1.068872e+00 5.283396e-01 6.019886e-01 5.861936e-01 6.245260e-01 4.397053e-01 4.107118e-01 5.024021e-01
<GCONST> 1.270112e+02
<STATE> 3
<MEAN> 39
 -1.202219e+01 1.191741e+01 -6.061903e+00 7.262043e+00 -2.427484e+00 -4.391638e+00 5.102764e-02 -6.701121e+00 -4.958139e+00 4.520064e+00 -5.705071e+00 1.547101e-01 6.022429e+01 -8.113613e-01 -4.415447e-01 -4.389488e-01 -1.130586e+00 1.341920e-01 1.291276e+00 5.716798e-01 2.173552e-01 3.722366e-01 5.876060e-01 6.574624e-01 6.300793e-01 -3.083260e-02 1.025324e-03 -3.529392e-01 -9.960195e-02 -9.094422e-01 -2.543862e-02 -1.977793e-01 -6.603255e-02 -1.735942e-01 -2.968613e-01 2.265656e-01 1.423227e-01 -4.545398e-03 9.041625e-01
<VARIANCE> 39
 1.726892e+01 2.031173e+01 2.658798e+01 4.029557e+01 4.338904e+01 4.648738e+01 5.731746e+01 4.874147e+01 4.503944e+01 3.362946e+01 3.302111e+01 3.339109e+01 2.286507e+01 1.949826e+00 2.002027e+00 2.404498e+00 7.009269e+00 2.524172e+00 4.835885e+00 3.882299e+00 3.943892e+00 3.485554e+00 3.229785e+00 2.485595e+00 1.997292e+00 3.665751e+00 2.671310e-01 2.969692e-01 3.493134e-01 8.459166e-01 4.711479e-01 5.139261e-01 5.559800e-01 6.164996e-01 5.147035e-01 4.793139e-01 4.119600e-01 3.711048e-01 4.422101e-01
<GCONST> 1.219201e+02
<STATE> 4
<MEAN> 39
 -1.449854e+01 5.978985e+00 -9.578919e+00 -3.805002e+00 -3.551435e+00 -7.095227e-01 4.622600e+00 -5.634848e+00 -4.665285e+00 8.193563e+00 -1.685826e+00 3.880972e+00 6.660667e+01 6.347782e-02 -9.567540e-01 -1.474546e-01 -7.435783e-01 -5.822953e-02 -1.859917e-01 2.013949e-01 5.106647e-02 1.233389e-01 3.477747e-01 2.983350e-01 -1.538722e-01 1.299912e+00 2.340846e-01 1.313288e-01 1.805119e-02 4.652119e-01 -7.514843e-02 -2.271851e-01 -6.012065e-02 8.943842e-02 1.100611e-01 -2.990813e-01 -2.561993e-01 -3.069390e-01 -1.558861e-01
<VARIANCE> 39
 2.405544e+01 4.262384e+01 5.915996e+01 9.912057e+01 5.915011e+01 1.043355e+02 9.246172e+01 7.333917e+01 7.671980e+01 6.053468e+01 5.004064e+01 5.083069e+01 3.283754e+01 3.028234e+00 3.519781e+00 2.618662e+00 9.067323e+00 3.477721e+00 6.700856e+00 5.595217e+00 4.928226e+00 3.721421e+00 4.451512e+00 5.173259e+00 4.449327e+00 3.204597e+00 4.635788e-01 5.354458e-01 5.465313e-01 1.284046e+00 5.288785e-01 8.204071e-01 7.980036e-01 7.795994e-01 7.524471e-01 8.946355e-01 8.286135e-01 6.667838e-01 5.484082e-01
<GCONST> 1.390729e+02
<TRANSP> 5
 0.000000e+00 1.000000e+00 0.000000e+00 0.000000e+00 0.000000e+00
 0.000000e+00 5.743905e-01 4.256095e-01 0.000000e+00 0.000000e+00
 0.000000e+00 0.000000e+00 6.639149e-01 3.360852e-01 0.000000e+00
 0.000000e+00 0.000000e+00 0.000000e+00 7.476107e-01 2.523893e-01
 0.000000e+00 0.000000e+00 0.000000e+00 0.000000e+00 0.000000e+00
<ENDHMM>
~h "l"
<BEGINHMM>
<NUMSTATES> 5
<STATE> 2
<MEAN> 39
 -1.750254e+00 7.867247e+00 -1.394612e+01 -6.404569e+00 -1.908891e+01 -8.297638e+00 6.495536e+00 -2.833028e+00 -8.985107e+00 -2.272334e+00 -4.482782e+00 6.658303e-01 7.379737e+01 1.895071e-01 8.458897e-01 7.981820e-01 -6.284963e-02 -1.100030e+00 -2.962155e-01 2.446053e-01 1.831879e-01 -4.132179e-01 -3.903214e-01 8.732862e-03 1.579171e-01 -5.985986e-01 -4.785401e-02 -9.551881e-04 7.221607e-02 9.914328e-02 1.689911e-01 -4.794790e-02 -1.657423e-01 -1.420183e-01 1.704473e-02 9.290370e-02 1.044339e-02 -4.929991e-02 -1.775980e-02
<VARIANCE> 39
 8.781335e+00 5.777973e+01 9.070921e+01 7.189264e+01 7.325661e+01 8.289816e+01 5.987713e+01 8.755520e+01 7.350824e+01 3.938767e+01 4.684248e+01 3.128589e+01 2.428467e+01 2.114815e-01 6.416721e-01 9.961785e-01 1.131878e+00 1.450591e+00 2.009636e+00 2.081059e+00 1.837026e+00 1.900451e+00 1.718569e+00 1.852723e+00 1.438529e+00 1.965661e-01 2.971324e-02 8.308525e-02 1.229442e-01 1.489394e-01 2.097481e-01 2.401638e-01 2.858420e-01 2.731157e-01 2.743327e-01 2.767467e-01 2.511533e-01 2.333063e-01 2.428056e-02
<GCONST> 9.881092e+01
<STATE> 3
<MEAN> 39
 -1.246415e+00 1.684718e+01 -1.520009e+00 -4.996632e-01 -2.142514e+01 -1.294492e+01 1.462642e+00 -3.530298e+00 -9.494456e+00 -1.970979e+00 -5.489191e+00 1.233634e+00 6.795824e+01 -1.220099e-01 3.291051e-01 2.083286e-01 4.854738e-01 6.668282e-01 5.274776e-01 6.415794e-03 -6.224633e-01 -2.400370e-01 -1.095445e-01 6.669520e-02 2.479676e-01 -5.015132e-01 -7.800753e-02 -1.763851e-01 -1.524725e-01 1.407685e-02 3.345272e-01 5.474605e-02 -4.542381e-02 -1.061891e-01 6.358026e-03 2.032787e-01 1.582288e-01 2.628749e-02 9.776239e-02
<VARIANCE> 39
 6.835301e+00 3.595005e+01 9.025457e+01 9.252548e+01 6.931865e+01 6.004559e+01 5.583331e+01 6.533875e+01 6.892397e+01 3.484726e+01 4.732700e+01 3.450133e+01 2.442637e+01 1.629633e-01 4.882939e-01 6.356867e-01 7.957422e-01 1.090333e+00 1.317854e+00 1.336366e+00 1.515015e+00 1.611367e+00 1.338132e+00 1.307406e+00 1.273985e+00 2.491187e-01 2.628027e-02 8.960935e-02 9.718885e-02 1.375966e-01 2.051375e-01 2.316733e-01 2.967522e-01 3.015687e-01 2.498498e-01 2.681050e-01 2.408632e-01 2.576941e-01 4.752312e-02
<GCONST> 9.451386e+01
<STATE> 4
<MEAN> 39
 -3.299474e+00 1.132696e+01 -7.062298e+00 -3.161726e+00 -1.488178e+01 -1.147712e+01 2.818703e+00 -1.031394e+01 -1.569282e+01 2.456951e-01 -2.083057e+00 1.190489e+00 7.049509e+01 -5.383282e-01 -6.231381e-01 1.020275e-01 9.144319e-01 1.875273e+00 -4.858782e-01 -1.056093e+00 -9.502076e-01 2.123515e-01 1.464064e+00 4.229319e-01 -4.192495e-01 1.411063e-01 -6.768164e-02 -8.481029e-02 6.327322e-02 2.008666e-01 1.007986e-01 -3.748263e-01 -2.405209e-01 3.086470e-01 3.537532e-01 1.013173e-01 -2.491841e-01 -2.352681e-01 2.520372e-02
<VARIANCE> 39
 1.078625e+01 4.972019e+01 6.037875e+01 9.128876e+01 1.057512e+02 8.866991e+01 7.652041e+01 8.344653e+01 8.647997e+01 5.971663e+01 7.624182e+01 4.943780e+01 2.897377e+01 2.825371e-01 1.000750e+00 9.298784e-01 1.339629e+00 1.767070e+00 3.323575e+00 2.953348e+00 3.212454e+00 3.508236e+00 2.962929e+00 2.801762e+00 3.110168e+00 7.053266e-01 5.024553e-02 1.365793e-01 1.475369e-01 2.247471e-01 3.500483e-01 4.454703e-01 4.164448e-01 4.922409e-01 4.386007e-01 5.362238e-01 4.991036e-01 4.299786e-01 7.631857e-02
<GCONST> 1.143784e+02
<TRANSP> 5
 0.000000e+00 1.000000e+00 0.000000e+00 0.000000e+00 0.000000e+00
 0.000000e+00 7.415820e-01 2.584181e-01 0.000000e+00 0.000000e+00
 0.000000e+00 0.000000e+00 7.187853e-01 2.812147e-01 0.000000e+00
 0.000000e+00 0.000000e+00 0.000000e+00 6.990913e-01 3.009087e-01
 0.000000e+00 0.000000e+00 0.000000e+00 0.000000e+00 0.000000e+00
<ENDHMM>
~h "m"
<BEGINHMM>
<NUMSTATES> 5
<STATE> 2
<MEAN> 39
 -6.869836e+00 1.312500e+01 -7.697219e+00 7.413792e+00 -2.187581e+00 -2.462171e+00 1.306498e+00 -6.055048e+00 -5.917026e+00 3.476169e+00 -4.274461e+00 -6.567423e-01 6.256881e+01 2.954659e-01 8.422340e-01 7.554439e-01 9.623554e-01 4.927788e-01 5.294994e-01 -3.505574e-01 -7.440405e-01 -6.674379e-01 -4.979483e-01 -7.489794e-01 -5.954314e-01 -7.263752e-01 5.267085e-02 1.946362e-02 7.052571e-02 -9.091823e-02 -5.732593e-02 -2.078622e-01 -2.083407e-01 -1.871468e-01 -1.305604e-01 9.310638e-03 -4.040287e-02 -1.322716e-01 1.889159e-01
<VARIANCE> 39
 4.351746e+01 3.405190e+01 4.294803e+01 4.731602e+01 3.204819e+01 5.574279e+01 4.548272e+01 5.626346e+01 6.338836e+01 3.137477e+01 3.704115e+01 4.170891e+01 5.769989e+01 1.222505e+00 1.178396e+00 1.431048e+00 1.535185e+00 1.288887e+00 3.227773e+00 2.812688e+00 2.991144e+00 2.912250e+00 1.990691e+00 1.569114e+00 1.714335e+00 1.465455e+00 1.661666e-01 1.259664e-01 1.364356e-01 1.619421e-01 1.841448e-01 3.099984e-01 3.672678e-01 4.214319e-01 3.529217e-01 3.026387e-01 2.505670e-01 2.729385e-01 7.522799e-02
<GCONST> 1.088459e+02
<STATE> 3
<MEAN> 39
 -4.078501e+00 1.583890e+01 -6.685382e+00 7.619098e+00 -1.638868e+00 -3.446252e+00 -1.904873e+00 -9.911756e+00 -9.984982e+00 4.242490e-01 -6.873021e+00 -2.427399e+00 6.352275e+01 4.714409e-01 8.433098e-01 6.486614e-01 5.363004e-01 2.186823e-01 1.509271e-02 -6.451342e-01 -8.933883e-01 -8.022667e-01 -2.311643e-01 -4.908576e-01 -5.071819e-01 -3.447345e-01 -5.489539e-02 -2.461925e-01 -2.375001e-01 -3.205104e-01 -1.636258e-01 -2.494673e-01 2.943399e-03 2.199462e-01 2.508701e-01 3.160404e-01 2.679346e-01 1.378778e-01 2.210386e-01
<VARIANCE> 39
 2.486791e+01 3.012952e+01 4.162850e+01 5.332371e+01 3.272117e+01 4.461404e+01 3.431418e+01 4.004083e+01 6.198479e+01 3.138389e+01 2.991152e+01 4.406133e+01 3.283894e+01 1.451601e+00 8.799829e-01 9.765217e-01 1.069179e+00 1.293304e+00 3.054763e+00 2.810745e+00 2.812264e+00 2.484146e+00 1.535807e+00 1.294746e+00 1.667743e+00 1.417221e+00 6.895423e-02 1.074771e-01 1.738658e-01 1.961517e-01 1.690766e-01 2.783741e-01 2.556786e-01 3.036278e-01 2.803946e-01 2.801235e-01 2.249321e-01 2.002413e-01 5.859287e-02
<GCONST> 1.025719e+02
<STATE> 4
<MEAN> 39
 -3.373528e+00 1.597739e+01 -5.864237e+00 8.705774e+00 -1.124626e+00 -4.329677e+00 -3.797460e+00 -1.351712e+01 -1.196277e+01 2.813510e+00 -7.400934e+00 -5.595422e+00 6.358785e+01 8.360464e-02 -1.915850e-01 -1.745011e-01 4.352501e-02 -1.623091e-02 -6.812620e-01 -2.767144e-01 1.212857e-01 2.598195e-01 3.259683e-01 9.874503e-02 2.546418e-01 1.299088e-01 -1.968704e-01 -3.407211e-01 -4.939003e-02 -2.456642e-02 -3.505155e-02 -4.435369e-01 1.189268e-01 3.431210e-01 2.431474e-01 9.419705e-02 1.689743e-01 1.945447e-01 1.966403e-01
<VARIANCE> 39
 1.690332e+01 2.614768e+01 2.797587e+01 3.303784e+01 3.329233e+01 5.323357e+01 4.698066e+01 4.373443e+01 6.154963e+01 2.781404e+01 2.782147e+01 7.125025e+01 1.967768e+01 6.865604e-01 1.085333e+00 9.432265e-01 1.186976e+00 9.869063e-01 3.827452e+00 1.800506e+00 1.849537e+00 1.874273e+00 1.662817e+00 1.515750e+00 1.907429e+00 1.341225e+00 8.537173e-02 1.717318e-01 2.325569e-01 2.100805e-01 1.749652e-01 5.864903e-01 3.493996e-01 3.733695e-01 3.739937e-01 3.140566e-01 2.467530e-01 3.145498e-01 9.645283e-02
<GCONST> 1.039737e+02
<TRANSP> 5
 0.000000e+00 1.000000e+00 0.000000e+00 0.000000e+00 0.000000e+00
 0.000000e+00 3.663755e-01 6.336245e-01 0.000000e+00 0.000000e+00
 0.000000e+00 0.000000e+00 4.246396e-01 5.753603e-01 0.000000e+00
 0.000000e+00 0.000000e+00 0.000000e+00 6.624615e-01 3.375385e-01
 0.000000e+00 0.000000e+00 0.000000e+00 0.000000e+00 0.000000e+00
<ENDHMM>
~h "n"
<BEGINHMM>
<NUMSTATES> 5
<STATE> 2
<MEAN> 39
 -5.782248e+00 7.532761e+00 -7.498481e+00 5.215274e+00 -5.168400e+00 -1.968219e+01 -3.936359e+00 -6.741678e+00 -8.810325e+00 5.044002e+00 -6.478664e+00 -4.393886e+00 7.200433e+01 8.475786e-02 7.580136e-01 2.058676e-01 2.947705e-01 3.624618e-01 6.913133e-01 1.233514e-01 -3.901969e-01 -4.558837e-01 -2.998933e-01 -1.187331e-01 -4.445257e-02 -6.114441e-01 4.127457e-02 1.193732e-01 8.089561e-02 1.274682e-01 -8.197833e-03 2.519916e-01 -4.531744e-02 -6.534670e-02 8.741519e-03 -7.718804e-02 -8.514183e-02 -4.285978e-03 -1.720380e-01
<VARIANCE> 39
 1.012509e+01 3.476784e+01 3.627289e+01 5.290087e+01 8.451781e+01 1.070030e+02 5.759414e+01 7.801586e+01 7.242610e+01 5.500920e+01 5.967055e+01 4.537998e+01 1.696872e+01 3.247840e-01 1.123122e+00 1.184047e+00 1.713394e+00 1.201148e+00 3.059005e+00 1.892837e+00 2.287752e+00 1.911139e+00 1.982967e+00 1.615052e+00 1.510743e+00 6.778060e-01 4.522813e-02 1.239738e-01 1.412212e-01 2.233701e-01 1.886404e-01 4.289965e-01 2.948268e-01 3.145846e-01 3.003323e-01 3.230734e-01 2.708543e-01 2.407461e-01 6.785931e-02
<GCONST> 1.046618e+02
<STATE> 3
<MEAN> 39
 -4.007025e+00 1.516995e+01 -4.088866e+00 9.177484e+00 -3.052271e+00 -1.056503e+01 -4.146076e+00 -9.339914e+00 -1.029050e+01 2.270126e+00 -7.607211e+00 -4.455503e+00 6.555393e+01 3.298551e-02 8.033502e-01 3.676386e-01 4.350370e-01 4.642564e-02 9.194465e-01 7.223068e-02 -1.788759e-01 2.753002e-02 -1.975378e-01 -2.087429e-01 -1.538738e-02 -8.870861e-01 -1.181686e-01 -1.714055e-01 -2.779890e-02 -8.333014e-02 -3.687061e-02 -1.308758e-01 9.594799e-02 1.756868e-01 1.537696e-01 9.881476e-02 1.008774e-01 7.539356e-02 8.767809e-02
<VARIANCE> 39
 7.798783e+00 2.445554e+01 2.280546e+01 4.738750e+01 5.859959e+01 6.137038e+01 4.034361e+01 4.816190e+01 5.860255e+01 3.426887e+01 3.811618e+01 5.933885e+01 1.393612e+01 2.865292e-01 6.675356e-01 7.634583e-01 1.251746e+00 9.988770e-01 1.859058e+00 1.563838e+00 1.668140e+00 1.486624e+00 1.450078e+00 1.325127e+00 1.246897e+00 3.488525e-01 3.382538e-02 8.050384e-02 9.898987e-02 1.846317e-01 1.603579e-01 2.914905e-01 2.444224e-01 2.446447e-01 2.361585e-01 2.282108e-01 2.011553e-01 1.857605e-01 3.875810e-02
<GCONST> 9.248586e+01
<STATE> 4
<MEAN> 39
 -1.207118e+01 1.096735e+01 -5.491566e+00 1.110166e+01 -9.766482e-01 1.770593e-01 3.725746e+00 -2.826692e+00 -1.909410e+00 6.633282e+00 -1.842001e+00 1.396385e+00 5.724189e+01 -3.455189e-01 -9.267582e-02 1.294208e-03 1.109890e-01 1.162452e-01 4.652716e-01 4.233384e-01 3.430783e-01 2.643692e-01 1.933434e-02 1.174448e-01 2.151729e-01 -3.574075e-01 9.300588e-04 -5.711512e-02 -1.057640e-02 -5.701495e-02 -1.770537e-02 -9.911370e-02 -2.755751e-02 1.390240e-02 -2.134582e-02 2.094958e-03 -6.541402e-03 -1.555379e-02 8.361892e-02
<VARIANCE> 39
 2.862484e+01 5.237819e+01 2.678654e+01 4.247456e+01 3.567567e+01 6.920863e+01 5.389793e+01 4.545222e+01 6.467560e+01 4.130814e+01 3.752214e+01 3.187574e+01 3.187254e+01 4.146763e-01 9.833913e-01 8.414329e-01 9.321454e-01 9.551271e-01 1.555041e+00 1.274398e+00 1.396188e+00 1.453825e+00 1.418042e+00 1.388470e+00 1.154477e+00 4.516636e-01 6.927303e-02 1.308621e-01 1.382530e-01 1.808469e-01 1.680346e-01 2.528016e-01 2.223120e-01 2.488738e-01 2.454664e-01 2.476653e-01 2.294682e-01 1.993600e-01 5.963688e-02
<GCONST> 9.716383e+01
<TRANSP> 5
 0.000000e+00 1.000000e+00 0.000000e+00 0.000000e+00 0.000000e+00
 0.000000e+00 7.233743e-01 2.766258e-01 0.000000e+00 0.000000e+00
 0.000000e+00 0.000000e+00 7.559250e-01 2.440750e-01 0.000000e+00
 0.000000e+00 0.000000e+00 0.000000e+00 8.148524e-01 1.851476e-01
 0.000000e+00 0.000000e+00 0.000000e+00 0.000000e+00 0.000000e+00
<ENDHMM>
~h "p"
<BEGINHMM>
<NUMSTATES> 5
<STATE> 2
<MEAN> 39
 -1.406391e+01 1.061274e+01 -6.629047e+00 1.094946e+01 -1.030887e+00 2.604362e+00 5.400394e+00 -2.877587e+00 -1.882770e+00 6.464344e+00 -8.822536e-01 3.108057e+00 5.432020e+01 -2.943803e-01 -1.558504e-01 6.845498e-02 1.068292e-01 2.340944e-02 1.031574e-01 1.868186e-01 3.461883e-01 2.470299e-01 6.979917e-02 1.124798e-01 1.407861e-01 -2.022064e-01 6.445111e-02 -9.253446e-02 5.135119e-02 -1.668034e-01 -4.145704e-02 -1.958427e-01 -9.141897e-02 -3.152708e-02 -1.142059e-01 -1.619609e-02 -1.166922e-02 -2.971435e-02 2.496052e-01
<VARIANCE> 39
 1.571923e+01 3.227608e+01 1.912981e+01 2.730828e+01 2.226127e+01 2.604652e+01 3.339445e+01 3.768718e+01 3.603127e+01 3.266713e+01 2.756535e+01 1.847403e+01 1.659034e+01 3.754102e-01 1.110374e+00 7.333741e-01 1.163953e+00 1.010028e+00 1.531031e+00 1.349672e+00 1.415242e+00 1.403729e+00 1.742248e+00 1.465127e+00 1.098614e+00 7.352682e-01 8.474933e-02 2.113511e-01 1.714869e-01 3.057584e-01 1.943263e-01 2.997926e-01 2.699155e-01 2.883651e-01 2.792879e-01 3.103443e-01 2.719931e-01 2.122673e-01 2.504872e-01
<GCONST> 9.584197e+01
<STATE> 3
<MEAN> 39
 -1.629823e+01 4.505053e+00 -2.356825e+00 4.035141e+00 -3.492095e+00 -3.526216e+00 3.630995e+00 -3.545125e-01 -2.787132e+00 6.618978e+00 5.111733e-01 4.127697e+00 6.313643e+01 2.167821e-01 -1.916236e+00 -3.240313e-01 -2.037307e+00 -8.344576e-01 -6.950868e-01 4.513697e-01 5.555292e-01 1.043673e-02 6.740447e-01 6.997974e-01 2.358986e-01 2.227791e+00 2.282509e-01 1.426881e-01 -3.228363e-01 6.169372e-02 -8.255659e-02 3.378073e-01 3.282789e-01 2.470972e-02 9.322984e-02 -2.026318e-01 -2.510530e-01 -2.139392e-01 -1.480761e-01
<VARIANCE> 39
 3.887576e+01 6.495948e+01 6.103735e+01 7.921339e+01 3.499223e+01 5.495838e+01 3.742594e+01 3.838039e+01 5.024356e+01 5.919090e+01 3.553041e+01 2.282888e+01 7.144096e+01 3.148133e+00 3.218482e+00 7.552770e+00 5.916778e+00 2.902662e+00 6.758152e+00 5.889627e+00 4.373915e+00 3.904652e+00 4.018754e+00 3.040953e+00 2.543152e+00 5.804138e+00 5.649733e-01 7.248204e-01 1.161119e+00 1.095199e+00 4.999732e-01 1.035031e+00 8.140403e-01 7.019920e-01 7.284759e-01 9.804996e-01 6.949211e-01 5.035188e-01 1.199626e+00
<GCONST> 1.376141e+02
<STATE> 4
<MEAN> 39
 -8.976360e+00 2.673748e+00 -1.082986e+01 -2.433725e+00 -1.058359e+01 -1.686834e+00 1.035320e+01 1.916995e+00 -2.800274e+00 1.018355e+00 -4.252913e+00 4.447705e-01 6.919875e+01 1.800637e+00 1.192307e+00 -1.137588e+00 -1.083923e+00 -1.648765e+00 -6.466185e-01 2.908796e-02 -2.484542e-01 -4.855122e-01 -1.713992e+00 -1.590424e+00 -1.164096e+00 1.041671e+00 3.313365e-02 2.068222e-01 9.402239e-02 3.447817e-02 -2.187175e-02 -3.567661e-01 -3.874464e-01 -1.422009e-01 -1.128106e-01 6.182246e-02 8.837704e-02 7.199386e-02 3.777446e-02
<VARIANCE> 39
 3.169459e+01 8.444333e+01 3.161035e+01 5.737200e+01 6.351049e+01 6.694529e+01 5.429793e+01 5.531012e+01 4.596318e+01 8.249250e+01 5.655182e+01 4.415782e+01 5.047622e+01 2.459734e+00 4.506291e+00 3.225859e+00 2.659944e+00 3.275990e+00 4.020677e+00 4.296002e+00 4.517524e+00 4.736005e+00 6.202684e+00 3.265906e+00 2.986881e+00 7.417803e-01 4.746764e-01 1.055108e+00 4.169270e-01 5.079433e-01 5.379931e-01 6.087121e-01 7.466300e-01 7.594492e-01 7.515107e-01 1.123415e+00 6.473019e-01 6.039674e-01 1.715784e-01
<GCONST> 1.320794e+02
<TRANSP> 5
 0.000000e+00 1.000000e+00 0.000000e+00 0.000000e+00 0.000000e+00
 0.000000e+00 8.445626e-01 1.554374e-01 0.000000e+00 0.000000e+00
 0.000000e+00 0.000000e+00 7.514661e-01 2.485339e-01 0.000000e+00
 0.000000e+00 0.000000e+00 0.000000e+00 7.580128e-01 2.419872e-01
 0.000000e+00 0.000000e+00 0.000000e+00 0.000000e+00 0.000000e+00
<ENDHMM>
~h "r"
<BEGINHMM>
<NUMSTATES> 5
<STATE> 2
<MEAN> 39
 -3.365771e+00 1.139378e+01 -1.405544e+01 -4.560282e+00 -5.732046e+00 -6.836828e+00 -1.034615e+00 -1.248727e+01 -1.126427e+01 2.915325e+00 -5.429248e+00 -1.881717e+00 6.997040e+01 1.328282e+00 -1.576172e-01 -2.056894e+00 -1.422178e+00 -3.019996e-01 -8.710416e-03 7.199660e-02 -8.041720e-01 -2.597227e-01 7.859779e-01 9.455890e-01 1.123104e-01 1.067864e+00 -3.895090e-01 -5.310153e-01 -3.127686e-02 3.254997e-01 1.881041e-01 -7.411390e-02 -1.250870e-02 4.023121e-01 3.583936e-01 2.681703e-01 9.093463e-02 -3.435832e-02 3.206955e-02
<VARIANCE> 39
 2.240892e+01 7.735094e+01 4.883813e+01 7.193803e+01 5.624667e+01 8.134361e+01 8.435402e+01 9.905221e+01 8.127776e+01 6.439587e+01 5.551093e+01 4.955931e+01 2.834295e+01 2.532938e+00 3.176966e+00 2.819223e+00 3.388006e+00 3.251030e+00 4.778751e+00 3.650571e+00 4.761261e+00 4.267827e+00 5.600078e+00 4.204387e+00 3.374735e+00 1.923115e+00 5.550097e-01 6.289144e-01 4.693008e-01 7.974681e-01 4.869836e-01 6.330203e-01 6.065664e-01 8.502013e-01 6.843733e-01 8.001506e-01 6.259696e-01 5.969130e-01 3.523279e-01
<GCONST> 1.345021e+02
<STATE> 3
<MEAN> 39
 -7.147799e-01 1.087465e+01 -1.936844e+01 -7.424880e+00 -3.323187e+00 -6.462689e+00 -2.739617e+00 -1.779667e+01 -1.126580e+01 7.381305e+00 -2.356847e+00 -2.883453e+00 7.270792e+01 1.748099e-01 -1.495867e+00 -1.291463e+00 7.863488e-01 4.861027e-01 -6.010300e-01 -3.840491e-01 1.237286e-01 1.167212e+00 1.363402e+00 2.815887e-01 -7.175355e-01 6.926877e-01 -4.040588e-01 -2.249349e-01 5.518172e-01 5.962393e-01 -7.653549e-02 -1.955858e-01 9.485791e-02 6.198392e-01 2.855509e-01 -3.973944e-01 -4.608950e-01 -6.120982e-02 -1.562901e-01
<VARIANCE> 39
 1.306114e+01 4.136946e+01 5.448032e+01 7.331087e+01 5.348794e+01 6.868985e+01 8.801756e+01 1.382352e+02 1.072876e+02 5.262473e+01 5.580526e+01 5.926865e+01 1.475682e+01 5.093107e-01 1.616629e+00 1.524350e+00 2.486411e+00 2.256052e+00 3.041272e+00 2.768661e+00 4.602918e+00 3.141030e+00 3.678443e+00 3.183204e+00 2.768836e+00 5.025489e-01 1.972474e-01 2.267549e-01 2.354337e-01 3.152253e-01 3.688942e-01 3.755179e-01 5.036396e-01 5.235975e-01 5.155602e-01 5.881266e-01 4.484995e-01 4.752761e-01 6.871745e-02
<GCONST> 1.184218e+02
<STATE> 4
<MEAN> 39
 -1.779762e+00 5.841802e+00 -1.854516e+01 2.141563e-01 -3.386029e+00 -1.175410e+01 -6.027440e+00 -1.626117e+01 -7.401178e+00 9.726054e+00 -1.526664e+00 -3.063276e+00 7.204980e+01 -2.789832e-01 -2.057234e-01 2.144071e-01 5.980709e-01 -1.449341e-01 -1.836003e-01 2.246943e-01 6.902943e-01 3.548208e-01 -6.281506e-02 -2.365568e-01 -4.589686e-02 -2.439869e-01 -9.277534e-02 1.378799e-01 2.213449e-01 3.443060e-02 -2.359118e-02 1.114063e-01 4.499361e-02 3.809144e-02 -6.474070e-02 -1.675040e-01 -3.011517e-02 9.231929e-02 -1.304371e-01
<VARIANCE> 39
 1.676261e+01 4.250972e+01 4.095292e+01 5.127412e+01 6.042360e+01 8.716455e+01 7.109213e+01 1.303684e+02 1.072166e+02 7.203908e+01 6.947701e+01 6.306382e+01 2.178217e+01 3.916571e-01 1.553128e+00 1.256601e+00 1.708911e+00 1.251969e+00 2.734761e+00 2.214652e+00 2.602440e+00 2.703411e+00 2.512091e+00 2.015763e+00 1.692224e+00 7.284427e-01 6.028951e-02 1.410760e-01 1.584489e-01 1.905162e-01 2.021190e-01 3.660092e-01 3.303167e-01 3.549644e-01 3.925808e-01 3.687016e-01 2.925261e-01 2.824030e-01 6.466760e-02
<GCONST> 1.099131e+02
<TRANSP> 5
 0.000000e+00 1.000000e+00 0.000000e+00 0.000000e+00 0.000000e+00
 0.000000e+00 5.222652e-01 4.777349e-01 0.000000e+00 0.000000e+00
 0.000000e+00 0.000000e+00 5.358854e-01 4.641147e-01 0.000000e+00
 0.000000e+00 0.000000e+00 0.000000e+00 8.000613e-01 1.999388e-01
 0.000000e+00 0.000000e+00 0.000000e+00 0.000000e+00 0.000000e+00
<ENDHMM>
~h "s"
<BEGINHMM>
<NUMSTATES> 5
<STATE> 2
<MEAN> 39
 -2.005165e+01 8.152921e+00 3.530379e+00 -1.952543e+00 1.072577e+00 -4.799091e+00 -1.305116e+00 -4.505288e+00 -3.862947e+00 6.780449e+00 -3.942060e+00 6.131666e-01 6.825562e+01 -3.940650e+00 -5.758711e-01 2.346199e+00 -2.513559e+00 1.289485e+00 7.773123e-01 4.602439e-01 4.899377e-01 7.317678e-01 8.376002e-01 5.028456e-01 1.541977e-01 1.386414e+00 -6.111554e-02 2.486116e-01 -3.309749e-01 2.206666e-01 -1.239343e-01 -2.105366e-01 2.073240e-01 3.319196e-02 -2.247925e-02 -1.133387e-01 -1.883598e-02 -8.067188e-02 -3.232696e-02
<VARIANCE> 39
 5.743488e+01 3.676135e+01 7.008192e+01 1.107961e+02 5.394769e+01 7.873817e+01 1.028044e+02 7.686069e+01 5.664008e+01 4.936085e+01 4.342662e+01 3.568595e+01 4.289741e+01 2.647183e+00 2.791243e+00 3.290931e+00 4.725025e+00 4.182094e+00 5.035183e+00 4.158836e+00 3.982654e+00 4.596204e+00 3.085880e+00 2.462881e+00 2.063664e+00 2.014320e+00 6.997011e-01 3.292058e-01 7.551133e-01 1.035050e+00 5.575586e-01 6.536046e-01 6.847770e-01 6.605806e-01 6.482021e-01 5.519568e-01 4.586153e-01 3.504991e-01 3.461742e-01
<GCONST> 1.328019e+02
<STATE> 3
<MEAN> 39
 -3.217046e+01 8.806630e+00 6.368801e+00 -6.325360e+00 3.687263e+00 -2.787976e+00 2.796368e+00 -2.790460e+00 -1.839139e+00 8.255355e+00 -2.065568e+00 7.610202e-01 7.048400e+01 -4.179994e-01 -4.816889e-02 -1.198143e-01 2.444784e-01 -1.352311e-01 9.661733e-02 3.126770e-01 1.542021e-01 1.922996e-01 2.828467e-02 1.334089e-01 3.332184e-02 -1.988632e-01 7.061135e-01 -9.419955e-03 -1.665706e-01 2.832053e-01 -2.469328e-01 -1.509071e-01 -2.909919e-01 -2.198392e-01 -1.366864e-01 -9.119537e-02 -1.028865e-01 -6.749613e-02 -1.018032e-01
<VARIANCE> 39
 2.649611e+01 4.827890e+01 3.994170e+01 1.142696e+02 4.984879e+01 3.866803e+01 7.935935e+01 5.323899e+01 3.994626e+01 2.912783e+01 2.271110e+01 2.182365e+01 3.180822e+01 2.400325e+00 1.048869e+00 1.106091e+00 1.723701e+00 2.048808e+00 1.604435e+00 2.031066e+00 1.883118e+00 1.456554e+00 1.304587e+00 1.240739e+00 1.055175e+00 9.867852e-01 3.718559e-01 2.053865e-01 2.435854e-01 3.390004e-01 3.701760e-01 3.108927e-01 4.025316e-01 3.493654e-01 3.262626e-01 2.654298e-01 2.498301e-01 2.270609e-01 1.403063e-01
<GCONST> 1.084232e+02
<STATE> 4
<MEAN> 39
 -2.352450e+01 9.116824e+00 5.610406e+00 -2.431629e+00 -8.193997e-01 -6.816250e+00 -2.884694e+00 -7.412750e+00 -4.645435e+00 6.781374e+00 -3.473812e+00 -1.045027e+00 7.058155e+01 5.013329e+00 8.027259e-01 -1.287573e+00 1.406300e+00 -1.816440e+00 -2.335011e+00 -2.463701e+00 -1.835921e+00 -1.523091e+00 -9.196707e-01 -7.554765e-01 -9.414346e-01 4.672724e-01 3.733915e-01 1.558310e-02 -5.891559e-01 -7.643682e-02 -1.023460e-04 -2.009587e-01 2.040727e-01 2.451020e-01 4.050280e-02 -3.588041e-02 -1.855073e-02 -2.488745e-02 1.966444e-01
<VARIANCE> 39
 7.849881e+01 4.640146e+01 4.464781e+01 1.143495e+02 4.831046e+01 6.734738e+01 9.088660e+01 6.771172e+01 5.079263e+01 3.733567e+01 2.985089e+01 3.289505e+01 2.192942e+01 3.453398e+00 3.361273e+00 4.450301e+00 3.816853e+00 4.664562e+00 5.430531e+00 4.608746e+00 4.169686e+00 2.995534e+00 2.922323e+00 2.475549e+00 2.486886e+00 1.565820e+00 1.448144e+00 6.357762e-01 4.733105e-01 5.382197e-01 6.730707e-01 1.037637e+00 1.254465e+00 1.061600e+00 7.183586e-01 5.382836e-01 4.581565e-01 4.386939e-01 1.945121e-01
<GCONST> 1.329459e+02
<TRANSP> 5
 0.000000e+00 1.000000e+00 0.000000e+00 0.000000e+00 0.000000e+00
 0.000000e+00 7.054009e-01 2.945990e-01 0.000000e+00 0.000000e+00
 0.000000e+00 0.000000e+00 8.731883e-01 1.268117e-01 0.000000e+00
 0.000000e+00 0.000000e+00 0.000000e+00 6.997355e-01 3.002644e-01
 0.000000e+00 0.000000e+00 0.000000e+00 0.000000e+00 0.000000e+00
<ENDHMM>
~h "t"
<BEGINHMM>
<NUMSTATES> 5
<STATE> 2
<MEAN> 39
 -4.984661e+00 1.640261e+01 -3.345167e+00 3.140038e+00 -5.532596e+00 -1.477517e+01 -1.601442e+00 -9.732188e+00 -1.412710e+01 5.011230e-01 -8.523770e+00 -3.655222e-01 6.561116e+01 1.108765e-01 5.938843e-01 -2.823626e-01 -2.009818e-01 -4.796876e-01 4.521006e-01 5.316662e-01 4.933377e-01 2.932719e-01 -5.088110e-01 -4.019296e-01 7.842223e-02 -6.166680e-01 -1.265649e-01 -4.157367e-02 9.036203e-02 8.513784e-02 5.170927e-02 1.553874e-01 2.428303e-02 3.268802e-02 1.014637e-01 7.119897e-02 9.191024e-02 2.824274e-02 -7.537878e-02
<VARIANCE> 39
 1.958054e+01 3.294349e+01 2.273100e+01 7.081517e+01 6.567184e+01 8.099907e+01 5.828710e+01 6.415378e+01 9.414344e+01 6.302774e+01 5.299457e+01 3.622762e+01 1.818661e+01 3.627722e-01 5.360892e-01 8.177341e-01 1.172628e+00 1.383728e+00 2.024337e+00 1.344491e+00 1.365141e+00 1.813686e+00 1.314231e+00 1.174393e+00 1.284104e+00 4.062348e-01 4.418344e-02 8.410652e-02 1.018182e-01 1.807675e-01 1.911980e-01 2.659704e-01 2.448368e-01 2.354886e-01 2.738245e-01 2.523489e-01 2.150052e-01 2.071430e-01 3.245649e-02
<GCONST> 9.718794e+01
<STATE> 3
<MEAN> 39
 -7.006639e+00 1.839235e+01 -3.608341e+00 6.174301e+00 -5.146988e+00 -6.790317e+00 1.252068e+00 -5.537489e+00 -9.328816e+00 -2.885140e+00 -9.246698e+00 9.519473e-01 5.986147e+01 -9.588987e-01 -3.536428e-01 -1.123984e-01 9.533380e-01 3.520614e-01 1.558926e+00 6.483561e-01 5.748797e-01 1.123771e+00 3.863086e-01 7.175076e-01 5.146784e-01 -1.322472e+00 -1.141865e-01 -1.959758e-01 -6.237165e-02 1.424863e-02 9.920710e-02 6.017544e-02 2.806894e-02 -3.688555e-03 1.109199e-01 2.183939e-01 1.957825e-01 7.667737e-02 9.114360e-03
<VARIANCE> 39
 2.848984e+01 2.171239e+01 1.333850e+01 4.850227e+01 5.028858e+01 4.007737e+01 3.616767e+01 3.933763e+01 5.803979e+01 4.587689e+01 4.049220e+01 2.466790e+01 1.726597e+01 6.456365e-01 8.883059e-01 7.144858e-01 1.350187e+00 1.705546e+00 2.452280e+00 1.534879e+00 2.012917e+00 2.369446e+00 1.266385e+00 1.498680e+00 1.213129e+00 4.961603e-01 7.912409e-02 1.052923e-01 1.148543e-01 1.755269e-01 2.019665e-01 3.320453e-01 2.402016e-01 2.999863e-01 2.864278e-01 2.204482e-01 2.478926e-01 2.110582e-01 6.734212e-02
<GCONST> 9.761612e+01
<STATE> 4
<MEAN> 39
 -1.460837e+01 1.338111e+01 -3.015269e+00 1.023462e+01 -1.264691e+00 1.390809e+00 5.602830e+00 -7.127764e-01 -9.694034e-01 4.859392e+00 -2.448487e+00 3.753685e+00 5.489485e+01 -3.170178e-01 -3.316225e-01 -2.222430e-01 3.112718e-01 2.065321e-01 7.936746e-01 3.325138e-01 1.598274e-01 3.657155e-01 2.529539e-01 4.250641e-01 2.088222e-01 -4.838014e-01 6.783900e-02 -7.627992e-02 4.147119e-02 -1.586776e-01 -7.661232e-02 -2.467017e-01 -1.059102e-01 -1.005134e-01 -1.941521e-01 -2.770996e-02 -4.826292e-02 -7.497706e-02 2.424830e-01
<VARIANCE> 39
 2.165867e+01 1.785137e+01 2.416863e+01 3.935889e+01 2.927539e+01 3.594057e+01 3.012634e+01 3.260523e+01 4.422752e+01 3.968773e+01 2.099840e+01 1.719075e+01 1.581184e+01 5.899495e-01 9.775733e-01 9.973606e-01 1.577702e+00 1.458316e+00 1.743438e+00 1.558521e+00 1.400277e+00 1.833283e+00 1.765357e+00 1.411159e+00 1.199056e+00 6.440222e-01 9.656342e-02 1.617043e-01 2.096447e-01 3.350846e-01 2.709921e-01 3.173100e-01 2.818954e-01 2.740144e-01 3.372383e-01 2.945448e-01 1.932082e-01 2.013294e-01 1.675284e-01
<GCONST> 9.816553e+01
<TRANSP> 5
 0.000000e+00 1.000000e+00 0.000000e+00 0.000000e+00 0.000000e+00
 0.000000e+00 7.936108e-01 2.063893e-01 0.000000e+00 0.000000e+00
 0.000000e+00 0.000000e+00 7.007595e-01 2.992405e-01 0.000000e+00
 0.000000e+00 0.000000e+00 0.000000e+00 7.979634e-01 2.020366e-01
 0.000000e+00 0.000000e+00 0.000000e+00 0.000000e+00 0.000000e+00
<ENDHMM>
~h "v"
<BEGINHMM>
<NUMSTATES> 5
<STATE> 2
<MEAN> 39
 -1.296563e+01 1.157856e+01 -9.532518e+00 6.202338e+00 -4.358854e+00 3.359271e+00 1.112642e+01 3.062578e+00 1.248107e+00 6.091532e+00 -1.165053e+00 3.812250e+00 5.552609e+01 6.629265e-01 -9.925482e-02 -5.322312e-01 -6.395266e-01 -8.423058e-01 2.526219e-01 7.837976e-01 7.055462e-01 -1.482061e-01 -9.875287e-01 -6.747743e-01 -7.034773e-02 4.065858e-01 4.400260e-01 -2.444569e-01 -2.883018e-01 -4.175156e-01 -4.686619e-01 -2.158827e-01 1.069151e-01 5.641059e-02 -2.570665e-01 -3.558047e-01 -1.020099e-01 -1.353138e-02 5.716082e-01
<VARIANCE> 39
 3.094644e+01 1.863175e+01 3.074456e+01 4.683387e+01 5.744822e+01 7.534846e+01 6.279348e+01 4.237346e+01 2.969984e+01 2.945590e+01 3.015843e+01 2.081791e+01 3.967979e+01 4.131634e+00 1.625752e+00 3.304536e+00 5.284712e+00 6.903041e+00 2.902151e+00 3.054717e+00 2.835176e+00 2.761720e+00 3.510762e+00 2.029199e+00 1.434687e+00 3.589019e+00 4.743190e-01 2.047702e-01 3.588261e-01 6.621965e-01 8.856816e-01 3.683704e-01 4.796084e-01 4.689017e-01 3.742274e-01 4.331341e-01 2.874606e-01 2.207904e-01 4.238753e-01
<GCONST> 1.211861e+02
<STATE> 3
<MEAN> 39
 1.757493e+00 1.413527e+00 -2.032840e+01 -5.593618e+00 -2.292679e+01 -2.397231e+00 1.181767e+01 5.524888e+00 -5.033565e+00 -7.519747e+00 -5.510452e+00 2.938396e+00 7.261919e+01 6.465365e-01 -2.656984e-01 -3.099701e-01 -3.152055e-01 -5.966770e-01 -5.932683e-01 -4.843494e-01 -1.889700e-01 -6.372424e-01 -8.555259e-01 -8.695818e-02 -5.856976e-02 1.267444e+00 -4.231690e-01 3.383021e-01 3.141466e-01 2.623111e-01 4.731798e-01 3.551837e-03 -2.465967e-01 -2.318784e-01 6.442307e-02 3.547038e-01 9.238691e-02 -2.142629e-02 -3.961619e-01
<VARIANCE> 39
 9.247480e+00 5.340947e+01 3.171030e+01 2.420379e+01 7.122475e+01 4.987527e+01 6.191246e+01 8.684689e+01 5.030666e+01 4.914643e+01 4.673173e+01 3.816694e+01 2.198541e+01 2.864902e+00 3.291989e+00 2.242382e+00 2.386639e+00 4.594404e+00 1.807696e+00 2.617655e+00 3.143305e+00 2.452950e+00 3.428719e+00 1.721479e+00 1.362144e+00 3.853698e+00 2.941215e-01 3.580315e-01 3.157769e-01 4.442805e-01 6.020870e-01 3.561234e-01 3.900068e-01 4.038005e-01 4.342306e-01 4.050223e-01 2.884591e-01 2.118863e-01 3.069590e-01
<GCONST> 1.188372e+02
<STATE> 4
<MEAN> 39
 -5.534338e+00 1.055307e+01 -1.347299e+01 -5.339746e+00 -1.426498e+01 -8.457648e+00 5.518561e+00 -1.883177e+00 -1.029748e+01 -5.987520e+00 -7.542274e+00 -2.111280e-01 7.156828e+01 -1.148495e+00 9.251337e-01 1.134612e+00 -6.670260e-02 1.069305e+00 -2.055893e-01 -3.136542e-01 -9.674642e-01 -4.979863e-01 3.499574e-01 -3.822536e-01 -3.249268e-01 -3.508018e-01 2.387550e-01 -2.131262e-01 -1.366277e-01 -7.523970e-02 -2.636800e-01 -3.994630e-02 -2.684128e-02 7.974584e-02 4.547656e-02 1.781866e-02 1.066992e-01 2.180608e-02 7.995109e-02
<VARIANCE> 39
 4.452362e+01 3.779753e+01 4.919044e+01 2.639519e+01 1.022395e+02 3.850190e+01 3.148417e+01 6.959673e+01 3.742367e+01 4.100788e+01 3.464323e+01 4.274341e+01 1.344475e+01 3.656738e+00 2.757859e+00 2.057548e+00 1.559049e+00 6.764984e+00 3.394220e+00 2.386950e+00 2.899027e+00 1.887324e+00 2.474505e+00 1.987736e+00 1.914835e+00 1.038201e+00 8.289353e-01 4.049932e-01 4.251164e-01 2.938558e-01 1.433145e+00 7.995387e-01 4.597103e-01 5.327699e-01 3.133225e-01 4.018202e-01 4.219300e-01 3.552201e-01 1.980348e-01
<GCONST> 1.209080e+02
<TRANSP> 5
 0.000000e+00 1.000000e+00 0.000000e+00 0.000000e+00 0.000000e+00
 0.000000e+00 8.051695e-01 1.948305e-01 0.000000e+00 0.000000e+00
 0.000000e+00 0.000000e+00 8.418553e-01 1.581447e-01 0.000000e+00
 0.000000e+00 0.000000e+00 0.000000e+00 8.502568e-01 1.497432e-01
 0.000000e+00 0.000000e+00 0.000000e+00 0.000000e+00 0.000000e+00
<ENDHMM>
~h "w"
<BEGINHMM>
<NUMSTATES> 5
<STATE> 2
<MEAN> 39
 -4.176270e+00 9.789411e+00 -1.510326e+01 -1.982008e+00 -1.807201e+01 -5.587095e+00 8.795257e+00 1.339108e+00 -2.196347e+00 -9.290586e-01 -7.474773e+00 -9.736246e-01 6.587901e+01 -4.049822e-01 4.409418e-01 1.880175e-01 5.074887e-01 4.645962e-01 3.416705e-01 2.913432e-02 1.326227e-01 3.055642e-01 3.303694e-01 1.656240e-01 2.680009e-01 -1.000321e+00 -6.477837e-02 7.828971e-05 1.330188e-01 2.023548e-02 1.043554e-01 8.528013e-03 -6.760255e-02 -5.811746e-02 -5.135794e-02 7.135244e-03 1.161415e-02 -1.009494e-02 -9.120150e-03
<VARIANCE> 39
 2.809798e+01 5.630822e+01 6.113575e+01 3.902021e+01 5.701074e+01 5.401676e+01 4.557539e+01 4.675628e+01 4.567176e+01 4.499387e+01 4.057195e+01 3.830925e+01 8.214249e+01 7.309939e-01 1.369184e+00 1.239379e+00 1.132066e+00 1.772532e+00 2.302807e+00 1.877633e+00 2.000572e+00 1.937926e+00 1.713432e+00 1.365023e+00 1.347344e+00 1.054053e+00 9.771369e-02 2.047910e-01 1.852445e-01 2.208512e-01 2.460503e-01 3.822474e-01 3.569469e-01 3.404835e-01 3.368340e-01 2.882000e-01 2.650318e-01 2.455925e-01 1.422083e-01
<GCONST> 1.082406e+02
<STATE> 3
<MEAN> 39
 -4.539768e+00 2.124817e+01 -4.032341e+00 4.029460e+00 -1.345097e+01 -9.122184e+00 2.051886e+00 -1.581912e+00 -3.074204e+00 1.549823e+00 -7.691214e+00 -1.104286e+00 5.918798e+01 5.304786e-01 1.502790e-01 -2.825802e-01 -6.708910e-01 -1.029806e-01 -6.975874e-01 -1.882134e-01 -2.038011e-01 -7.335297e-01 -7.369171e-01 -8.362259e-01 -2.522933e-01 6.892674e-01 4.477745e-02 -3.116122e-01 -1.869382e-01 -1.720770e-01 5.644796e-02 -1.948366e-02 9.392530e-02 -1.772892e-01 -3.652214e-01 -1.212744e-01 6.540009e-02 2.382389e-01 3.406042e-01
<VARIANCE> 39
 3.227457e+01 3.078946e+01 3.121666e+01 3.951984e+01 5.799818e+01 6.948454e+01 4.289080e+01 3.458798e+01 3.344106e+01 2.202334e+01 3.093661e+01 2.296947e+01 1.719358e+01 1.268111e+00 1.784941e+00 1.805926e+00 2.423249e+00 3.022156e+00 3.519452e+00 4.240295e+00 2.686185e+00 2.897388e+00 2.116411e+00 2.146035e+00 1.822020e+00 1.190000e+00 2.153556e-01 3.070905e-01 1.826457e-01 3.525898e-01 6.787773e-01 6.617579e-01 6.180313e-01 5.662575e-01 5.107342e-01 3.727216e-01 4.918150e-01 4.283841e-01 1.253416e-01
<GCONST> 1.151519e+02
<STATE> 4
<MEAN> 39
 -3.102974e+00 1.506901e+01 -8.674649e+00 1.825954e-01 -1.137362e+01 -1.031409e+01 3.927042e+00 -6.412267e+00 -1.071406e+01 -1.157588e+00 -7.826009e+00 2.851617e+00 6.651689e+01 -6.240711e-01 -1.743826e+00 -4.180695e-02 7.030564e-01 2.128585e+00 2.126736e-01 -9.011766e-01 -1.854729e+00 -9.916834e-01 1.200587e+00 1.230757e+00 7.471765e-01 1.158206e+00 -1.616693e-01 1.552955e-01 3.621344e-01 3.987754e-01 1.115734e-01 -1.391499e-02 -3.176250e-01 7.459061e-02 4.765963e-01 4.302520e-01 1.210907e-01 -3.103649e-01 -2.724182e-01
<VARIANCE> 39
 2.831834e+01 3.747973e+01 3.254642e+01 4.401398e+01 7.027466e+01 8.874576e+01 5.089410e+01 9.087613e+01 8.208796e+01 5.820854e+01 8.087183e+01 4.127467e+01 4.029988e+01 7.303354e-01 1.986615e+00 2.193729e+00 2.325521e+00 2.644076e+00 3.250362e+00 4.748593e+00 3.818735e+00 5.080850e+00 4.656912e+00 3.329557e+00 3.584415e+00 1.264708e+00 1.608375e-01 4.264255e-01 2.670468e-01 4.419212e-01 6.046326e-01 5.147357e-01 8.000375e-01 9.086758e-01 7.421038e-01 9.669028e-01 9.378144e-01 5.667512e-01 2.159289e-01
<GCONST> 1.274996e+02
<TRANSP> 5
 0.000000e+00 1.000000e+00 0.000000e+00 0.000000e+00 0.000000e+00
 0.000000e+00 8.953364e-01 1.046636e-01 0.000000e+00 0.000000e+00
 0.000000e+00 0.000000e+00 7.390070e-01 2.609930e-01 0.000000e+00
 0.000000e+00 0.000000e+00 0.000000e+00 6.957706e-01 3.042293e-01
 0.000000e+00 0.000000e+00 0.000000e+00 0.000000e+00 0.000000e+00
<ENDHMM>
~h "y"
<BEGINHMM>
<NUMSTATES> 5
<STATE> 2
<MEAN> 39
 -5.733438e+00 8.280217e+00 -4.575665e+00 5.945725e+00 3.432584e-01 -1.805552e+01 -5.361552e+00 -1.153226e+01 -1.346547e+01 1.114460e+00 -8.019319e+00 -3.586977e+00 7.088166e+01 -6.841568e-01 -1.939907e-01 1.354207e+00 2.243993e+00 1.071606e+00 -9.533576e-01 -8.129227e-01 8.686004e-01 7.612765e-01 -1.079691e-01 -9.842864e-01 -1.016350e+00 -4.121003e-01 2.388042e-02 7.988106e-02 1.020552e-01 -3.056275e-02 -4.619750e-01 1.950470e-02 2.843699e-01 3.768106e-01 1.535960e-01 -2.222758e-01 -7.412935e-02 8.477843e-02 -1.074691e-01
<VARIANCE> 39
 2.562346e+01 3.181516e+01 4.725469e+01 7.470737e+01 8.420166e+01 1.218059e+02 7.017568e+01 6.538235e+01 8.930458e+01 4.480059e+01 6.679681e+01 4.594041e+01 2.812932e+01 3.294901e-01 8.641426e-01 1.404182e+00 2.219679e+00 2.706132e+00 3.428575e+00 3.174195e+00 3.528334e+00 3.201467e+00 2.828030e+00 2.673965e+00 2.374732e+00 5.330506e-01 6.485200e-02 1.100406e-01 2.003765e-01 4.367823e-01 3.217689e-01 5.228168e-01 4.844220e-01 6.502862e-01 6.213512e-01 4.762402e-01 5.221938e-01 5.023591e-01 5.179620e-02
<GCONST> 1.159911e+02
<STATE> 3
<MEAN> 39
 -7.634167e+00 1.034080e+01 4.994153e+00 1.570344e+01 3.217763e-01 -2.429418e+01 -6.985064e+00 -3.759053e+00 -9.749373e+00 -9.988955e-01 -1.239920e+01 -5.116909e+00 6.787341e+01 -7.899328e-02 1.106486e-01 2.725456e-01 2.231837e-01 1.091757e-01 -3.256795e-01 -5.660264e-01 1.866556e-01 3.685812e-01 3.712275e-01 -1.187929e-01 -1.248510e-01 -1.745024e-01 7.412197e-02 6.690846e-03 -2.396468e-01 -2.557903e-01 4.520449e-02 1.761253e-01 -3.002402e-02 -2.772054e-01 -9.004743e-02 1.787021e-01 1.525086e-01 -2.013877e-02 4.844856e-02
<VARIANCE> 39
 1.321173e+01 3.073016e+01 3.527967e+01 4.129525e+01 8.871058e+01 1.422360e+02 7.805424e+01 3.900560e+01 6.218047e+01 3.585359e+01 3.764438e+01 4.161749e+01 1.510335e+01 2.616296e-01 4.910654e-01 1.534710e+00 1.047486e+00 1.216326e+00 1.863500e+00 1.857986e+00 2.286798e+00 1.304556e+00 1.780169e+00 1.282611e+00 1.150406e+00 3.135988e-01 2.994288e-02 5.577612e-02 1.099399e-01 1.382980e-01 1.727095e-01 3.243950e-01 2.715536e-01 2.648912e-01 2.549644e-01 2.258770e-01 2.669936e-01 1.991995e-01 2.629198e-02
<GCONST> 9.545045e+01
<STATE> 4
<MEAN> 39
 -6.610808e+00 1.147169e+01 -9.001459e-01 1.034857e+01 3.635678e+00 -1.868120e+01 -8.485302e+00 -8.910589e+00 -1.195800e+01 3.398729e+00 -9.671906e+00 -5.780906e+00 6.698890e+01 6.726854e-02 3.616033e-01 -6.578169e-01 -7.374919e-01 -3.327880e-02 1.365151e+00 8.010442e-01 -4.765036e-01 -7.776580e-01 -1.788033e-01 6.886289e-01 5.718756e-01 -3.806134e-01 -3.058824e-02 4.092343e-02 5.637693e-02 -4.834717e-03 -1.538627e-01 5.922494e-02 1.955925e-01 1.366030e-01 -3.076478e-02 -2.634899e-01 -6.720243e-02 1.372136e-01 -6.925486e-02
<VARIANCE> 39
 1.974824e+01 3.078318e+01 2.599769e+01 7.047787e+01 5.757686e+01 1.196875e+02 6.925746e+01 4.783400e+01 7.600701e+01 4.663948e+01 4.343596e+01 6.502190e+01 2.102800e+01 3.567034e-01 5.175330e-01 9.924932e-01 1.551448e+00 1.171263e+00 2.083502e+00 1.531721e+00 2.149114e+00 2.455513e+00 1.953327e+00 1.645880e+00 1.524374e+00 4.703946e-01 4.558309e-02 8.844513e-02 1.094380e-01 1.661564e-01 1.915976e-01 3.135901e-01 2.701464e-01 2.812916e-01 3.423891e-01 2.952174e-01 2.699367e-01 2.733322e-01 5.986763e-02
<GCONST> 1.016444e+02
<TRANSP> 5
 0.000000e+00 1.000000e+00 0.000000e+00 0.000000e+00 0.000000e+00
 0.000000e+00 7.258376e-01 2.741624e-01 0.000000e+00 0.000000e+00
 0.000000e+00 0.000000e+00 8.542418e-01 1.457582e-01 0.000000e+00
 0.000000e+00 0.000000e+00 0.000000e+00 8.136131e-01 1.863869e-01
 0.000000e+00 0.000000e+00 0.000000e+00 0.000000e+00 0.000000e+00
<ENDHMM>
~h "z"
<BEGINHMM>
<NUMSTATES> 5
<STATE> 2
<MEAN> 39
 -1.789142e+01 1.468295e+01 6.409913e+00 7.831012e-01 1.539636e+00 -5.324574e+00 8.855162e-01 -4.606580e+00 -7.856653e+00 3.121006e+00 -6.102772e+00 -1.193937e+00 6.513211e+01 -2.001855e+00 -8.046495e-01 1.204658e+00 -1.559005e+00 2.691821e-01 4.344646e-01 3.419925e-01 1.025769e-01 1.907594e-01 4.031701e-01 4.357900e-01 1.808241e-01 6.866401e-01 1.426072e-01 -1.092256e-01 -1.478836e-01 1.662688e-01 -1.467037e-01 -3.550889e-02 -1.099572e-01 -7.300202e-02 6.584569e-02 -1.444986e-02 5.986639e-02 -1.211465e-02 1.871512e-02
<VARIANCE> 39
 9.515160e+01 3.882480e+01 7.566652e+01 1.129118e+02 5.356090e+01 7.665701e+01 9.924292e+01 9.350155e+01 5.937271e+01 4.020798e+01 3.416884e+01 3.298698e+01 3.522993e+01 6.291051e+00 2.533236e+00 6.170135e+00 9.327649e+00 4.809701e+00 4.663442e+00 4.636743e+00 5.091548e+00 4.124523e+00 2.607003e+00 2.186686e+00 1.915388e+00 1.736230e+00 1.079917e+00 3.870900e-01 9.444916e-01 1.587782e+00 8.595269e-01 6.710697e-01 7.120557e-01 8.693979e-01 6.997976e-01 4.559504e-01 3.872907e-01 3.272671e-01 3.642792e-01
<GCONST> 1.365056e+02
<STATE> 3
<MEAN> 39
 -2.291919e+01 9.382298e+00 6.018876e+00 -5.139895e-01 1.096639e+00 -2.096906e+00 1.082630e+00 -2.738912e+00 -5.000612e+00 5.133899e+00 -3.461301e+00 1.194656e+00 6.383509e+01 5.820793e-01 -1.987328e-01 -9.394172e-01 6.724710e-01 -3.763190e-01 3.841224e-01 1.236385e-01 1.243475e-02 1.866814e-01 1.563157e-02 2.026159e-01 2.043388e-01 -6.113327e-01 1.322884e-01 1.342632e-01 -1.180506e-01 1.264717e-01 3.829392e-02 -1.717499e-02 7.146633e-02 2.560495e-02 -3.546943e-02 8.964436e-03 -4.072604e-02 5.429969e-03 -1.089544e-01
<VARIANCE> 39
 1.016078e+02 4.178431e+01 5.806910e+01 1.280762e+02 4.363783e+01 7.632168e+01 6.722778e+01 5.578015e+01 7.863885e+01 6.162749e+01 3.703214e+01 2.368249e+01 2.897494e+01 1.374232e+00 1.210926e+00 1.572410e+00 2.247059e+00 1.471751e+00 1.902871e+00 1.873796e+00 1.760545e+00 1.719802e+00 1.517223e+00 1.393698e+00 1.207403e+00 8.239834e-01 2.120107e-01 1.770518e-01 2.378940e-01 2.854822e-01 2.500934e-01 3.022736e-01 2.606139e-01 2.658337e-01 3.093236e-01 2.529020e-01 2.553207e-01 2.146580e-01 1.012310e-01
<GCONST> 1.102289e+02
<STATE> 4
<MEAN> 39
 -1.651702e+01 7.378411e+00 -4.547536e+00 8.708539e+00 -3.353556e-01 4.095145e+00 6.954226e+00 -9.413379e-01 -2.646159e-01 8.646536e+00 1.812865e+00 4.389397e+00 5.668539e+01 1.037526e-01 1.757808e-01 -2.415012e-01 3.620571e-01 6.390564e-02 1.799405e-01 2.192737e-01 1.236871e-01 1.895291e-01 2.415838e-02 -5.090042e-03 5.191365e-02 -3.093838e-01 -1.047349e-02 7.104717e-03 4.266122e-02 -5.074399e-02 2.324348e-02 -7.613253e-02 -5.806754e-02 -2.065438e-02 -3.130792e-02 -2.045320e-02 -3.605370e-02 -3.518764e-02 5.128595e-02
<VARIANCE> 39
 1.890785e+01 4.927449e+01 3.882102e+01 6.626814e+01 2.976477e+01 3.572632e+01 3.634360e+01 3.723956e+01 6.041638e+01 4.101025e+01 3.844060e+01 1.790257e+01 2.814157e+01 4.815776e-01 8.238740e-01 7.582046e-01 9.674538e-01 9.886851e-01 1.068975e+00 1.154827e+00 1.104479e+00 1.180609e+00 1.383316e+00 1.253025e+00 9.982927e-01 3.703417e-01 8.669151e-02 7.949308e-02 9.720216e-02 1.559785e-01 1.539875e-01 1.874328e-01 2.010268e-01 1.844268e-01 2.145502e-01 2.213889e-01 2.025142e-01 1.870763e-01 3.669399e-02
<GCONST> 9.138631e+01
<TRANSP> 5
 0.000000e+00 1.000000e+00 0.000000e+00 0.000000e+00 0.000000e+00
 0.000000e+00 8.705419e-01 1.294582e-01 0.000000e+00 0.000000e+00
 0.000000e+00 0.000000e+00 8.373371e-01 1.626630e-01 0.000000e+00
 0.000000e+00 0.000000e+00 0.000000e+00 8.883840e-01 1.116159e-01
 0.000000e+00 0.000000e+00 0.000000e+00 0.000000e+00 0.000000e+00
<ENDHMM>
~h "aa"
<BEGINHMM>
<NUMSTATES> 5
<STATE> 2
<MEAN> 39
 -1.017396e+01 5.384651e-01 -1.266776e+01 -4.416988e+00 -9.511167e+00 3.649615e+00 1.116381e+01 -1.588874e+00 -4.090949e+00 2.287185e+00 -4.611870e+00 -8.186187e-01 7.155605e+01 2.004053e+00 3.515623e-01 -1.257451e+00 -4.752510e-02 -1.384815e+00 -7.180474e-01 -3.172472e-01 3.492025e-01 3.988967e-01 -1.834291e+00 -1.571908e+00 -1.311184e+00 7.084318e-01 2.489903e-01 3.981669e-01 -2.653306e-01 -1.928918e-01 -1.352535e-01 -2.400303e-01 -3.689871e-01 -2.714104e-01 -4.226147e-02 1.014893e-01 5.527553e-02 1.855123e-01 1.658060e-02
<VARIANCE> 39
 2.948214e+01 5.538669e+01 2.016722e+01 2.570792e+01 4.357576e+01 5.740636e+01 6.980063e+01 5.006903e+01 3.927027e+01 7.625484e+01 4.898117e+01 4.198570e+01 9.728826e+00 2.280760e+00 5.462078e+00 2.302597e+00 2.699451e+00 2.171922e+00 3.027122e+00 4.231297e+00 4.729155e+00 4.077012e+00 5.604397e+00 2.778074e+00 3.171897e+00 7.930149e-01 5.071436e-01 8.997931e-01 3.279904e-01 4.331665e-01 3.946352e-01 5.095370e-01 6.988049e-01 6.577153e-01 6.461191e-01 9.573196e-01 8.384825e-01 6.003056e-01 1.623001e-01
<GCONST> 1.254177e+02
<STATE> 3
<MEAN> 39
 -5.326479e-01 4.538857e+00 -1.991731e+01 -4.295071e+00 -1.443353e+01 -3.231329e+00 6.128281e+00 -3.713798e+00 -2.703582e+00 6.075107e-02 -6.608192e+00 -1.619299e+00 7.393557e+01 3.631144e-02 3.102520e-01 2.319239e-01 4.361391e-01 4.266715e-01 -4.054199e-01 -4.480966e-01 -2.908610e-01 -1.358452e-01 4.243874e-01 5.050462e-01 4.351110e-01 -3.130879e-01 -2.794906e-01 7.044663e-02 3.383328e-01 1.612446e-01 3.110161e-01 1.049212e-01 -2.360988e-03 -1.878279e-02 -1.209333e-01 8.942707e-02 6.627398e-02 5.040378e-02 -2.330265e-01
<VARIANCE> 39
 8.628464e+00 4.793823e+01 3.394460e+01 3.491256e+01 5.475937e+01 6.961707e+01 5.936400e+01 8.059287e+01 4.622042e+01 5.937569e+01 5.094734e+01 4.603786e+01 1.011284e+01 5.927045e-01 1.328744e+00 2.145749e+00 1.229040e+00 2.036712e+00 1.880190e+00 2.224381e+00 2.155024e+00 2.047384e+00 1.774005e+00 1.570870e+00 1.351406e+00 5.097212e-01 1.035524e-01 2.243418e-01 2.435298e-01 2.206344e-01 2.504608e-01 3.175755e-01 3.344744e-01 3.926884e-01 3.439240e-01 3.478468e-01 2.937107e-01 2.681232e-01 6.014653e-02
<GCONST> 1.057766e+02
<STATE> 4
<MEAN> 39
 -7.249837e+00 1.068217e+01 -1.319361e+01 -6.160619e-01 -7.092614e+00 1.161073e+00 6.509112e+00 -2.718401e+00 -3.429313e+00 4.197729e+00 -3.334300e+00 1.409903e+00 6.383181e+01 -1.229277e+00 7.434183e-02 6.381012e-01 5.179991e-01 9.743794e-01 4.326421e-02 -2.695758e-01 1.549631e-01 1.318257e-01 6.265004e-01 3.845643e-02 1.953875e-01 -1.316485e+00 1.685431e-02 -3.306390e-01 -6.078329e-02 -3.034316e-02 -2.270222e-02 -2.702293e-01 -3.063276e-01 -1.118042e-01 1.121472e-01 3.892945e-02 -1.266757e-01 -1.831616e-01 3.947566e-01
<VARIANCE> 39
 2.147277e+01 2.109911e+01 1.540268e+01 2.238644e+01 2.803167e+01 4.998522e+01 4.425642e+01 3.729494e+01 2.258122e+01 3.085231e+01 2.480282e+01 2.055913e+01 3.216420e+01 6.928872e-01 1.900117e+00 1.235321e+00 1.452365e+00 2.906725e+00 2.386951e+00 3.547545e+00 3.316429e+00 2.069103e+00 2.718767e+00 1.736906e+00 2.093656e+00 2.542085e+00 1.170796e-01 1.903217e-01 3.469861e-01 2.982087e-01 4.964903e-01 4.037767e-01 4.833485e-01 4.976547e-01 3.670250e-01 5.086829e-01 2.920722e-01 3.204669e-01 3.762121e-01
<GCONST> 1.096257e+02
<TRANSP> 5
 0.000000e+00 1.000000e+00 0.000000e+00 0.000000e+00 0.000000e+00
 0.000000e+00 8.214754e-01 1.785245e-01 0.000000e+00 0.000000e+00
 0.000000e+00 0.000000e+00 8.925735e-01 1.074265e-01 0.000000e+00
 0.000000e+00 0.000000e+00 0.000000e+00 7.679525e-01 2.320475e-01
 0.000000e+00 0.000000e+00 0.000000e+00 0.000000e+00 0.000000e+00
<ENDHMM>
~h "ae"
<BEGINHMM>
<NUMSTATES> 5
<STATE> 2
<MEAN> 39
 -8.320568e+00 6.217669e+00 -1.067075e+01 2.566756e+00 -7.329084e+00 -8.604109e+00 1.316334e-01 -4.127093e+00 -1.403919e+00 8.709969e+00 -2.254729e+00 -1.990938e-01 6.674557e+01 9.632202e-01 -1.077938e+00 -9.490099e-01 -7.387180e-02 -4.036937e-01 -8.291768e-01 -1.319606e-01 5.307995e-01 3.258731e-01 -3.394679e-02 -3.708199e-01 -5.802091e-01 1.269771e+00 -1.902426e-01 -4.155343e-02 7.690649e-02 -1.769761e-02 1.589683e-01 6.613186e-02 1.028367e-01 1.167657e-01 -8.934991e-02 -1.182128e-01 -6.361325e-02 -1.249294e-02 6.954975e-02
<VARIANCE> 39
 3.398521e+01 4.882441e+01 4.648869e+01 8.342375e+01 5.729005e+01 9.758860e+01 7.369305e+01 7.873530e+01 7.303308e+01 6.225572e+01 5.499628e+01 4.979790e+01 8.880231e+01 3.395568e+00 3.106405e+00 4.418327e+00 2.931728e+00 4.242354e+00 7.402672e+00 4.131990e+00 3.333032e+00 3.486882e+00 3.449680e+00 3.013218e+00 3.012522e+00 4.873799e+00 7.697793e-01 5.797951e-01 3.762591e-01 4.224320e-01 6.966904e-01 1.199294e+00 6.365075e-01 5.908180e-01 5.849001e-01 5.870427e-01 4.510497e-01 5.415102e-01 7.865790e-01
<GCONST> 1.362149e+02
<STATE> 3
<MEAN> 39
 -4.020237e+00 2.966139e+00 -1.604712e+01 -7.288257e-01 -7.056461e+00 -1.002397e+01 -4.207895e-01 -5.360942e+00 -3.523363e+00 6.624192e+00 -3.322918e+00 -3.264509e+00 7.511734e+01 2.418901e-01 -3.320983e-01 -6.549842e-01 2.433421e-01 3.788214e-01 3.215867e-01 4.131677e-01 6.160159e-01 -8.432956e-02 -6.992341e-01 -2.548512e-01 -1.565046e-01 2.717477e-01 -2.234319e-01 4.867911e-01 4.453248e-01 -1.631677e-02 1.602464e-02 1.298058e-01 -1.885371e-02 -1.426236e-01 -1.849578e-01 -1.149895e-01 6.694462e-02 1.614017e-01 -3.523459e-01
<VARIANCE> 39
 1.149134e+01 3.821521e+01 5.195230e+01 8.136806e+01 5.477848e+01 8.593598e+01 7.049235e+01 8.697689e+01 5.438483e+01 6.445937e+01 5.816252e+01 4.810870e+01 3.030853e+01 4.648057e-01 1.333841e+00 1.917446e+00 1.786897e+00 1.863719e+00 3.168239e+00 2.261362e+00 2.236909e+00 2.777224e+00 2.466850e+00 1.625102e+00 1.735817e+00 1.002327e+00 1.344613e-01 2.050702e-01 2.851250e-01 2.673783e-01 2.781809e-01 4.374442e-01 3.288648e-01 3.374778e-01 3.482559e-01 3.920750e-01 3.019602e-01 3.049147e-01 1.932307e-01
<GCONST> 1.134240e+02
<STATE> 4
<MEAN> 39
 -2.347981e+00 3.327098e+00 -1.853198e+01 -9.770570e-01 -9.135990e+00 -8.846318e+00 1.309444e+00 -4.192465e+00 -4.622772e+00 3.909325e+00 -4.913698e+00 -3.771323e+00 7.442439e+01 8.259918e-02 6.293972e-01 3.854774e-01 3.031567e-01 3.733416e-02 -1.128305e-01 -1.293524e-01 -1.123547e-01 -4.342175e-01 -2.536549e-01 -4.108136e-02 1.975009e-01 -4.197918e-01 -1.377453e-02 2.075607e-01 1.769295e-01 8.476620e-02 -2.170486e-03 4.942560e-02 -2.641851e-02 -1.546130e-01 -8.188802e-02 5.702393e-03 -1.498186e-02 3.288009e-02 -1.762613e-01
<VARIANCE> 39
 1.335271e+01 4.721307e+01 6.795904e+01 5.638527e+01 7.183582e+01 1.100385e+02 6.683867e+01 8.998647e+01 6.560925e+01 7.240589e+01 5.764859e+01 4.497626e+01 2.303384e+01 2.705779e-01 9.467612e-01 9.091738e-01 1.398181e+00 1.442693e+00 1.855744e+00 1.455912e+00 1.868178e+00 1.782430e+00 1.600027e+00 1.470757e+00 1.229187e+00 4.939762e-01 3.811423e-02 1.151117e-01 1.188072e-01 1.858582e-01 1.909334e-01 3.446517e-01 2.316355e-01 2.653427e-01 2.629215e-01 2.828807e-01 2.541498e-01 2.229291e-01 7.322108e-02
<GCONST> 1.024776e+02
<TRANSP> 5
 0.000000e+00 1.000000e+00 0.000000e+00 0.000000e+00 0.000000e+00
 0.000000e+00 7.007645e-01 2.992356e-01 0.000000e+00 0.000000e+00
 0.000000e+00 0.000000e+00 5.045262e-01 4.954739e-01 0.000000e+00
 0.000000e+00 0.000000e+00 0.000000e+00 7.605101e-01 2.394898e-01
 0.000000e+00 0.000000e+00 0.000000e+00 0.000000e+00 0.000000e+00
<ENDHMM>
~h "ah"
<BEGINHMM>
<NUMSTATES> 5
<STATE> 2
<MEAN> 39
 -3.564502e+00 5.368110e+00 -1.270192e+01 6.381257e-01 -3.884587e+00 -8.397994e+00 -1.734588e-01 -2.494470e+00 -5.771455e+00 5.795005e+00 -1.208565e-01 -1.577113e+00 7.315674e+01 -7.331211e-04 5.884919e-01 9.594803e-01 6.034416e-01 7.587166e-01 -5.326951e-01 -6.855417e-01 -4.366542e-01 -3.231585e-01 -1.809795e-02 -2.146009e-01 -2.815246e-01 1.627564e-01 -2.090937e-02 2.319843e-01 1.557512e-01 2.430935e-01 2.131473e-02 4.280134e-02 -2.547281e-02 -8.309623e-02 -2.344612e-02 -7.394236e-02 -1.223492e-01 -5.595922e-03 -2.592087e-01
<VARIANCE> 39
 7.924569e+00 3.818325e+01 4.343496e+01 4.792192e+01 4.953662e+01 6.222262e+01 7.624924e+01 5.892843e+01 5.982441e+01 4.760092e+01 7.281608e+01 3.892782e+01 2.133927e+01 5.958769e-01 2.106069e+00 1.848664e+00 2.411419e+00 1.963460e+00 2.663063e+00 2.533997e+00 2.601142e+00 1.910523e+00 2.819813e+00 2.118171e+00 1.838865e+00 2.328892e+00 1.209942e-01 2.357223e-01 2.579972e-01 2.757294e-01 3.228060e-01 5.940839e-01 4.607814e-01 4.215025e-01 3.791966e-01 5.698126e-01 3.293403e-01 3.186974e-01 2.439449e-01
<GCONST> 1.149019e+02
<STATE> 3
<MEAN> 39
 -3.405198e+00 1.562376e+01 -2.891977e+00 9.619195e+00 3.191521e-01 -7.747927e+00 -3.796762e+00 -6.923905e+00 -8.018290e+00 2.645057e+00 -5.593630e+00 -3.471095e+00 6.760069e+01 -6.682331e-02 6.120679e-01 9.258447e-01 7.222569e-01 -8.448807e-02 -3.451597e-01 -1.287079e-01 5.703661e-01 -2.513618e-01 -8.399972e-01 -5.910906e-01 1.209367e-02 -6.369426e-01 -9.265378e-02 -3.025524e-01 -4.473003e-02 -1.656857e-01 -9.220666e-02 -3.772140e-01 -8.604648e-03 3.044262e-01 1.156257e-01 2.660875e-02 7.206027e-02 9.899092e-02 2.352489e-01
<VARIANCE> 39
 5.873937e+00 1.979585e+01 2.284985e+01 4.524632e+01 4.838356e+01 5.317060e+01 3.272488e+01 3.896325e+01 5.709079e+01 2.607798e+01 3.183609e+01 2.812216e+01 1.105695e+01 4.291825e-01 1.771910e+00 1.106624e+00 1.499188e+00 1.370660e+00 4.356835e+00 1.455063e+00 3.237788e+00 1.637798e+00 1.743366e+00 1.570614e+00 1.358250e+00 9.262813e-01 4.948189e-02 1.002104e-01 1.621467e-01 2.965252e-01 2.171644e-01 4.406742e-01 1.943387e-01 4.146087e-01 2.926934e-01 3.229696e-01 2.172437e-01 1.743643e-01 4.529885e-02
<GCONST> 9.825003e+01
<STATE> 4
<MEAN> 39
 -5.523486e+00 1.100574e+01 -2.182721e+00 1.245826e+01 -3.278788e+00 -2.349111e+01 -2.433638e+00 -1.269447e+00 -9.533664e+00 9.975361e-02 -8.331681e+00 -3.954908e+00 6.874687e+01 -1.016854e-01 -3.061505e-01 -1.604315e-01 2.233831e-02 4.075342e-02 -8.148938e-01 -1.099084e-01 4.689423e-01 4.848805e-01 2.348249e-01 -1.169822e-01 -8.084795e-02 1.773076e-01 4.732063e-02 9.717556e-02 -1.291619e-01 -1.630328e-01 3.608123e-02 3.713315e-01 -3.577409e-02 -2.665565e-01 9.058923e-03 1.699691e-01 9.481196e-02 -1.004327e-01 -4.108928e-02
<VARIANCE> 39
 6.134569e+00 2.895566e+01 3.620377e+01 6.070152e+01 1.004432e+02 1.179348e+02 5.345950e+01 7.204203e+01 6.139133e+01 3.970951e+01 3.276833e+01 6.645065e+01 1.365713e+01 1.681854e-01 7.794752e-01 1.071216e+00 1.161832e+00 1.008082e+00 4.453644e+00 1.358856e+00 2.577720e+00 1.658352e+00 2.007416e+00 1.342349e+00 1.503501e+00 3.790200e-01 2.376469e-02 7.531722e-02 1.172462e-01 1.375493e-01 1.473960e-01 3.697151e-01 2.110375e-01 2.720403e-01 2.559537e-01 2.669859e-01 2.032381e-01 2.052190e-01 3.120297e-02
<GCONST> 9.661637e+01
<TRANSP> 5
 0.000000e+00 1.000000e+00 0.000000e+00 0.000000e+00 0.000000e+00
 0.000000e+00 8.142263e-01 1.857737e-01 0.000000e+00 0.000000e+00
 0.000000e+00 0.000000e+00 7.149210e-01 2.850790e-01 0.000000e+00
 0.000000e+00 0.000000e+00 0.000000e+00 7.233965e-01 2.766035e-01
 0.000000e+00 0.000000e+00 0.000000e+00 0.000000e+00 0.000000e+00
<ENDHMM>
~h "aw"
<BEGINHMM>
<NUMSTATES> 5
<STATE> 2
<MEAN> 39
 -2.623282e+00 1.066212e+00 -2.443359e+01 -5.808634e+00 -8.662616e+00 -9.189863e+00 5.469274e+00 -2.641165e+00 -9.664643e+00 -2.293892e+00 -7.472450e+00 -4.324779e+00 7.870977e+01 -7.623310e-02 1.573497e-01 4.922173e-01 -7.940007e-02 -4.869248e-01 -1.589059e-01 2.690629e-01 8.348136e-02 -4.230535e-01 -6.225506e-01 -3.898576e-01 2.240957e-01 -3.235063e-01 2.109134e-02 1.943566e-01 1.219915e-01 -7.447375e-03 8.123574e-02 3.130746e-02 -1.908070e-01 -2.446512e-01 -8.140283e-02 1.503622e-01 8.019687e-02 1.488520e-02 -1.125911e-01
<VARIANCE> 39
 5.464013e+00 4.406512e+01 4.415175e+01 5.514616e+01 3.786663e+01 3.904313e+01 5.205228e+01 7.891093e+01 7.130906e+01 6.014730e+01 5.103461e+01 4.747812e+01 1.531767e+01 2.253136e-01 1.233960e+00 1.045994e+00 1.376423e+00 1.480010e+00 1.917199e+00 2.110455e+00 3.281424e+00 2.231329e+00 2.495660e+00 2.116110e+00 1.824225e+00 3.301370e-01 2.996508e-02 9.609931e-02 1.334877e-01 2.282412e-01 2.397540e-01 2.737401e-01 2.800737e-01 3.691948e-01 3.523959e-01 3.294029e-01 3.274099e-01 2.817404e-01 2.160063e-02
<GCONST> 1.007799e+02
<STATE> 3
<MEAN> 39
 -4.169952e+00 1.015410e+01 -1.097366e+01 -3.202813e+00 -8.160909e+00 -1.122799e+01 7.764772e-01 -1.003045e+01 -1.821415e+01 -2.214141e+00 -1.173623e+01 -8.648273e+00 7.100179e+01 -2.634112e-02 7.013489e-01 1.114515e+00 1.009181e+00 1.826476e-01 3.616560e-01 -4.704064e-01 -8.402331e-01 -4.214828e-01 3.284351e-01 -3.160940e-01 -4.337436e-01 -8.916858e-01 6.818376e-03 -4.857622e-02 -1.249865e-01 -1.529750e-01 -5.194703e-02 5.988596e-03 1.277663e-01 1.826298e-01 1.225046e-01 3.156993e-03 4.543670e-02 5.716653e-02 6.241277e-02
<VARIANCE> 39
 1.081496e+01 2.626937e+01 4.246171e+01 4.794894e+01 2.523258e+01 3.018915e+01 4.219197e+01 5.661498e+01 5.184216e+01 3.306540e+01 3.316919e+01 4.833616e+01 1.218827e+01 1.601563e-01 4.025144e-01 1.038113e+00 1.865696e+00 1.344803e+00 1.405430e+00 1.800525e+00 1.966457e+00 1.898249e+00 1.490710e+00 1.338950e+00 1.663476e+00 2.312842e-01 3.294953e-02 5.049129e-02 1.573872e-01 2.672091e-01 2.064634e-01 2.396472e-01 2.576834e-01 2.850513e-01 3.155724e-01 2.975095e-01 2.614661e-01 2.840051e-01 3.145830e-02
<GCONST> 9.327374e+01
<STATE> 4
<MEAN> 39
 -4.522872e+00 9.314319e+00 -1.498131e+01 -3.298242e+00 -1.521485e+01 -1.016950e+01 -8.640494e-01 -1.458003e+01 -8.458243e+00 2.384246e+00 -8.902879e+00 3.950368e+00 6.846047e+01 -4.504749e-02 4.503897e-01 6.834763e-01 2.179205e-01 -5.024089e-02 -1.401780e-02 -6.506036e-01 -3.341665e-01 3.683119e-01 4.675573e-01 -7.282801e-03 1.148418e-01 -3.649832e-01 2.328433e-02 -3.721610e-02 -1.067835e-01 -3.797389e-02 1.007953e-01 1.311385e-01 9.588643e-02 6.656672e-02 -7.905389e-03 -1.826876e-01 -7.727761e-02 -1.345011e-01 5.439488e-02
<VARIANCE> 39
 6.147993e+00 3.109243e+01 5.287789e+01 4.896974e+01 4.156071e+01 4.486668e+01 7.955401e+01 6.932421e+01 8.654612e+01 4.484639e+01 3.876568e+01 9.808824e+01 1.549461e+01 3.158929e-01 7.951477e-01 1.884426e+00 1.834531e+00 1.378743e+00 2.033904e+00 3.168298e+00 2.586128e+00 1.754930e+00 2.293957e+00 1.919278e+00 2.063062e+00 4.488608e-01 5.043463e-02 9.250527e-02 2.108693e-01 3.251267e-01 2.637366e-01 2.956604e-01 3.755793e-01 3.513774e-01 3.096984e-01 3.395606e-01 2.749526e-01 3.247868e-01 4.945809e-02
<GCONST> 1.048457e+02
<TRANSP> 5
 0.000000e+00 1.000000e+00 0.000000e+00 0.000000e+00 0.000000e+00
 0.000000e+00 9.136139e-01 8.638608e-02 0.000000e+00 0.000000e+00
 0.000000e+00 0.000000e+00 8.209983e-01 1.790018e-01 0.000000e+00
 0.000000e+00 0.000000e+00 0.000000e+00 7.507539e-01 2.492461e-01
 0.000000e+00 0.000000e+00 0.000000e+00 0.000000e+00 0.000000e+00
<ENDHMM>
~h "ax"
<BEGINHMM>
<NUMSTATES> 5
<STATE> 2
<MEAN> 39
 -8.971981e+00 9.326449e+00 -5.553946e+00 4.304209e+00 -4.165025e+00 -6.925804e+00 2.671211e-01 -4.007856e+00 -5.527868e+00 3.796446e+00 -5.017321e+00 -1.053532e+00 6.613760e+01 1.125480e+00 -5.960501e-01 -1.377602e+00 -1.095722e+00 -8.757772e-01 -4.750749e-01 3.217455e-03 -2.829342e-01 -5.950285e-02 1.602465e-01 4.073062e-01 -8.782238e-02 9.295356e-01 2.166846e-02 -1.472910e-01 -1.455669e-01 -7.848432e-02 -8.563940e-02 -4.410201e-02 9.310714e-02 -5.038558e-02 -9.341763e-02 -2.119307e-02 3.595772e-02 2.206407e-02 1.599742e-01
<VARIANCE> 39
 5.398388e+01 6.485599e+01 8.423418e+01 8.677856e+01 7.009842e+01 1.210352e+02 1.182589e+02 8.735641e+01 7.598845e+01 5.456555e+01 4.328777e+01 4.057098e+01 5.411408e+01 5.150623e+00 4.649615e+00 4.883026e+00 4.991552e+00 4.597639e+00 6.472756e+00 3.997388e+00 5.283859e+00 4.595889e+00 4.403025e+00 3.657692e+00 2.599340e+00 4.349814e+00 6.917426e-01 5.826874e-01 6.954916e-01 8.845045e-01 6.775042e-01 7.127572e-01 7.389455e-01 7.594745e-01 6.796959e-01 5.228240e-01 4.478599e-01 4.320414e-01 5.730457e-01
<GCONST> 1.404244e+02
<STATE> 3
<MEAN> 39
 -4.488756e+00 9.430567e+00 -8.411214e+00 1.576322e+00 -6.718283e+00 -1.206463e+01 -3.117270e+00 -6.344939e+00 -7.565659e+00 2.797394e+00 -5.092758e+00 -2.622384e+00 7.069259e+01 7.566887e-01 -4.524665e-01 -1.350098e+00 -4.309776e-01 -3.593028e-01 -6.388807e-01 1.300870e-01 -3.647973e-01 -9.273301e-02 6.265456e-01 6.458318e-01 -1.383879e-01 6.237274e-01 -4.742462e-01 1.176601e-01 3.745328e-01 2.775551e-01 3.338367e-01 4.151853e-01 2.508230e-01 1.781570e-02 -3.621049e-02 -5.942808e-02 -1.228798e-01 1.038430e-01 -3.173009e-01
<VARIANCE> 39
 2.147547e+01 5.790482e+01 7.085526e+01 8.600839e+01 7.313820e+01 9.108920e+01 1.105914e+02 9.842293e+01 8.224642e+01 5.462091e+01 5.129444e+01 4.418446e+01 2.175769e+01 2.196527e+00 2.212761e+00 3.149892e+00 2.845630e+00 2.692309e+00 5.624046e+00 3.397405e+00 4.546755e+00 4.497890e+00 3.349548e+00 3.262717e+00 2.553356e+00 1.962001e+00 3.037840e-01 4.208592e-01 4.226405e-01 4.069748e-01 4.979208e-01 5.671080e-01 4.859597e-01 5.723970e-01 6.059876e-01 6.008811e-01 5.188456e-01 4.131498e-01 2.082444e-01
<GCONST> 1.290883e+02
<STATE> 4
<MEAN> 39
 -4.342168e+00 7.769841e+00 -1.113891e+01 4.339583e-01 -8.835699e+00 -1.239707e+01 -5.115584e-01 -7.283621e+00 -8.440479e+00 1.976469e+00 -6.502130e+00 -2.839119e+00 7.191737e+01 -5.401756e-02 3.643672e-01 1.208560e-01 3.592854e-01 2.522941e-01 -2.565911e-01 -5.198086e-02 -3.964877e-01 -1.832930e-01 2.266984e-01 -1.169242e-01 -2.475973e-02 -2.708986e-01 -1.272601e-01 1.666891e-01 2.352621e-01 1.794576e-01 1.696885e-01 2.693527e-01 4.115169e-02 -3.370902e-02 -7.228372e-02 -8.291696e-02 -7.528125e-02 2.731404e-02 -2.667353e-01
<VARIANCE> 39
 2.391435e+01 6.093821e+01 8.046586e+01 6.850029e+01 7.603687e+01 1.115347e+02 8.523391e+01 8.892445e+01 7.957719e+01 5.763751e+01 5.739214e+01 4.961105e+01 2.691063e+01 1.029603e+00 1.180653e+00 2.940566e+00 2.410975e+00 2.146785e+00 4.727050e+00 3.212718e+00 3.353493e+00 2.757707e+00 2.562205e+00 2.677018e+00 1.880590e+00 1.144255e+00 1.733194e-01 2.324456e-01 3.435647e-01 3.163168e-01 3.695947e-01 6.597149e-01 3.874650e-01 4.824678e-01 4.933865e-01 4.945321e-01 4.228119e-01 3.318659e-01 1.619128e-01
<GCONST> 1.220725e+02
<TRANSP> 5
 0.000000e+00 1.000000e+00 0.000000e+00 0.000000e+00 0.000000e+00
 0.000000e+00 4.713968e-01 5.286032e-01 0.000000e+00 0.000000e+00
 0.000000e+00 0.000000e+00 1.620066e-01 8.379934e-01 0.000000e+00
 0.000000e+00 0.000000e+00 0.000000e+00 6.547768e-01 3.452232e-01
 0.000000e+00 0.000000e+00 0.000000e+00 0.000000e+00 0.000000e+00
<ENDHMM>
~h "ay"
<BEGINHMM>
<NUMSTATES> 5
<STATE> 2
<MEAN> 39
 -8.776417e-02 2.174495e+00 -2.581852e+01 -1.994351e+00 -8.189263e+00 -8.414780e+00 7.185941e-01 -7.472888e+00 -1.786674e+00 4.924814e+00 -5.255430e+00 -4.468071e+00 7.605653e+01 -3.478063e-01 -7.302079e-01 9.417179e-01 1.414578e+00 -3.480570e-01 -1.163353e+00 -7.956181e-01 -8.614855e-02 5.368890e-01 4.746360e-01 -2.120846e-03 1.235618e-01 3.660317e-01 -8.543972e-02 3.514847e-01 3.907401e-01 -1.223382e-01 1.752452e-02 -2.249224e-01 -3.335095e-01 -2.217962e-01 -2.312269e-01 1.917548e-01 -8.990041e-03 4.609349e-02 -1.111147e-01
<VARIANCE> 39
 9.102194e+00 4.932421e+01 3.452229e+01 4.203607e+01 6.161173e+01 7.411015e+01 6.745553e+01 8.527816e+01 5.475396e+01 6.539202e+01 4.870631e+01 4.602535e+01 1.322209e+01 1.864564e-01 8.632680e-01 1.224499e+00 8.407125e-01 1.437678e+00 2.129480e+00 3.102141e+00 2.379460e+00 1.979295e+00 2.695151e+00 1.772375e+00 1.516857e+00 1.129806e-01 2.320946e-02 7.988636e-02 1.179855e-01 1.388079e-01 1.804802e-01 2.539437e-01 3.382288e-01 3.561206e-01 3.841316e-01 3.584431e-01 3.619195e-01 2.856971e-01 1.875574e-02
<GCONST> 9.860144e+01
<STATE> 3
<MEAN> 39
 -3.662798e+00 2.971292e+00 -1.445443e+01 4.243576e+00 -7.218785e+00 -1.863343e+01 -7.496370e+00 -1.119355e+01 -2.822902e+00 1.084746e+01 -6.097443e+00 -3.989294e+00 7.706188e+01 -6.101382e-01 7.362185e-01 2.159309e+00 9.495108e-01 2.289605e-01 -1.686650e+00 -1.119769e+00 -5.715701e-01 -1.144277e+00 -2.669346e-01 -8.128629e-01 2.712210e-01 -2.843242e-01 1.151972e-02 2.225277e-01 -1.227710e-02 -1.064076e-01 2.068375e-01 2.767251e-01 3.391221e-01 1.163866e-01 -2.514417e-01 -4.170077e-01 -3.088246e-02 -4.785632e-02 -1.817867e-01
<VARIANCE> 39
 9.392804e+00 2.917811e+01 3.808328e+01 3.233607e+01 9.017426e+01 9.087154e+01 5.580225e+01 8.649818e+01 4.342130e+01 3.656857e+01 4.987397e+01 5.497894e+01 1.046743e+01 1.763697e-01 6.848405e-01 9.138617e-01 8.767829e-01 1.425390e+00 2.154889e+00 2.687018e+00 2.323887e+00 2.244135e+00 2.365276e+00 1.738167e+00 2.008644e+00 1.367240e-01 3.515084e-02 7.516520e-02 1.504830e-01 1.373933e-01 1.905553e-01 3.703669e-01 3.711743e-01 3.532164e-01 3.751034e-01 3.485854e-01 3.469038e-01 2.980747e-01 2.821682e-02
<GCONST> 9.871357e+01
<STATE> 4
<MEAN> 39
 -6.732200e+00 7.592107e+00 -5.885698e+00 6.495116e+00 -6.218943e+00 -2.288626e+01 -8.321742e+00 -1.186770e+01 -8.597501e+00 5.459985e+00 -9.771475e+00 -3.277770e+00 7.428082e+01 -1.193237e+00 9.518576e-01 2.330724e+00 3.415569e-02 1.283172e+00 1.303342e+00 3.755646e-01 4.573456e-01 -5.272277e-01 -1.068258e+00 9.141196e-03 1.431841e-02 -9.308813e-01 -4.414513e-01 -2.941399e-01 -1.698861e-02 -4.504933e-01 1.083126e-01 8.875291e-01 2.635265e-01 2.863195e-01 5.266206e-01 2.643856e-01 3.325380e-01 1.209219e-01 1.113590e-02
<VARIANCE> 39
 1.319133e+01 2.146916e+01 4.929082e+01 4.433381e+01 9.665279e+01 9.708195e+01 6.371992e+01 5.514988e+01 3.765811e+01 4.117882e+01 4.416549e+01 4.522038e+01 1.157870e+01 1.388316e+00 1.431415e+00 2.243824e+00 2.399013e+00 2.036415e+00 5.011462e+00 2.828827e+00 2.791903e+00 3.172799e+00 2.069538e+00 2.690944e+00 1.941162e+00 4.687579e-01 2.254598e-01 1.785113e-01 2.564409e-01 3.835437e-01 4.394912e-01 5.948275e-01 5.762913e-01 4.603976e-01 5.413560e-01 4.556901e-01 3.781053e-01 3.619840e-01 1.061742e-01
<GCONST> 1.154249e+02
<TRANSP> 5
 0.000000e+00 1.000000e+00 0.000000e+00 0.000000e+00 0.000000e+00
 0.000000e+00 8.158719e-01 1.841281e-01 0.000000e+00 0.000000e+00
 0.000000e+00 0.000000e+00 7.778975e-01 2.221025e-01 0.000000e+00
 0.000000e+00 0.000000e+00 0.000000e+00 6.946297e-01 3.053702e-01
 0.000000e+00 0.000000e+00 0.000000e+00 0.000000e+00 0.000000e+00
<ENDHMM>
~h "ch"
<BEGINHMM>
<NUMSTATES> 5
<STATE> 2
<MEAN> 39
 -1.626230e+01 3.965152e+00 4.239949e+00 1.019903e+01 -2.856587e+00 -4.253955e+00 1.062372e+00 -3.613008e-01 -4.944468e+00 2.447714e+00 -4.906203e+00 1.142569e+00 6.378862e+01 -3.145607e+00 -3.795546e+00 2.761675e+00 -5.978369e-01 -3.447683e-01 -1.092276e+00 -2.939923e-01 1.696377e+00 2.307423e-01 -1.491911e-01 3.675878e-01 9.221808e-01 2.274818e+00 -2.571563e-01 2.244567e-02 -1.626457e-02 2.196974e-02 2.509548e-01 -1.421467e-01 -2.520014e-01 -1.622771e-01 1.002873e-01 1.412045e-01 -2.410205e-02 -1.846686e-01 4.084150e-01
<VARIANCE> 39
 4.503149e+01 8.053062e+01 8.422989e+01 6.003718e+01 4.654846e+01 4.838975e+01 4.843196e+01 4.024656e+01 2.867217e+01 3.384228e+01 2.999462e+01 3.446265e+01 3.642157e+01 3.404192e+00 3.925027e+00 4.827651e+00 3.711486e+00 3.611020e+00 3.199735e+00 2.364196e+00 2.865916e+00 2.919564e+00 3.454566e+00 2.108420e+00 2.049232e+00 2.502046e+00 6.611146e-01 1.206184e+00 1.738887e+00 6.532853e-01 5.472160e-01 7.020925e-01 3.624172e-01 6.963127e-01 4.956303e-01 5.316780e-01 3.413782e-01 3.690516e-01 5.924495e-01
<GCONST> 1.292795e+02
<STATE> 3
<MEAN> 39
 -2.736999e+01 -8.531710e+00 5.760861e+00 9.687151e+00 -1.096188e-01 -8.765442e+00 -3.831480e+00 7.604036e-01 -1.101307e+00 3.643576e+00 -1.927252e+00 3.207415e+00 7.395493e+01 9.479577e-01 3.494685e-01 -1.094950e+00 -2.806884e-02 1.763575e-01 -3.203962e-01 -1.056901e+00 -1.132113e+00 -7.193292e-03 5.984038e-02 3.270567e-03 -3.192667e-01 5.249964e-02 8.277817e-01 6.523346e-01 -1.442220e-01 3.900661e-02 -1.699054e-01 -1.175837e-01 -8.288895e-02 -3.784295e-01 -3.720088e-01 -1.235712e-01 -1.856310e-01 -2.246980e-01 -2.434494e-01
<VARIANCE> 39
 2.301151e+01 1.730595e+01 4.839066e+01 3.844522e+01 5.224917e+01 3.784491e+01 4.665417e+01 3.653046e+01 2.580774e+01 2.611245e+01 2.641256e+01 2.091006e+01 1.013925e+01 5.002040e+00 3.337703e+00 1.856465e+00 1.555490e+00 1.619839e+00 1.915300e+00 1.732815e+00 2.308869e+00 2.704408e+00 1.518993e+00 2.065506e+00 1.873001e+00 1.368662e+00 2.509392e-01 2.545815e-01 7.403717e-01 3.058009e-01 2.613444e-01 3.504989e-01 3.230862e-01 4.173493e-01 4.171905e-01 2.742226e-01 3.257850e-01 2.898042e-01 2.856964e-01
<GCONST> 1.104297e+02
<STATE> 4
<MEAN> 39
 -9.142982e+00 3.201014e+00 4.637029e-01 9.205892e+00 -2.927500e+00 -1.756376e+01 -1.276057e+01 -1.205657e+01 -1.025257e+01 2.753678e+00 -6.067709e+00 -3.635135e+00 7.364038e+01 2.756250e+00 1.863209e+00 -1.215517e+00 -1.036623e+00 -1.215833e+00 -1.575301e+00 -2.992178e-01 -1.881443e+00 -1.966000e+00 2.770985e-01 2.747187e-02 -2.963468e-01 7.636237e-01 -6.747870e-01 -5.978583e-01 -2.617691e-01 -4.926652e-01 -1.782352e-01 5.439810e-01 7.611476e-01 5.373604e-01 2.991429e-01 9.496870e-02 4.773845e-01 7.062746e-01 9.040925e-03
<VARIANCE> 39
 2.054215e+01 2.319784e+01 3.013575e+01 5.328360e+01 7.098991e+01 1.105554e+02 4.117681e+01 4.339077e+01 7.024923e+01 4.372358e+01 4.222266e+01 3.427284e+01 1.015756e+01 3.418449e+00 3.994472e+00 2.954953e+00 2.361929e+00 2.618992e+00 4.235132e+00 4.676547e+00 3.642499e+00 4.893034e+00 3.302007e+00 4.675861e+00 3.784176e+00 4.618067e-01 2.706376e-01 3.631692e-01 3.280342e-01 3.062752e-01 3.518414e-01 7.427975e-01 5.586595e-01 4.829772e-01 6.664720e-01 7.642905e-01 6.956441e-01 3.755435e-01 1.845633e-01
<GCONST> 1.230119e+02
<TRANSP> 5
 0.000000e+00 1.000000e+00 0.000000e+00 0.000000e+00 0.000000e+00
 0.000000e+00 7.886710e-01 2.113290e-01 0.000000e+00 0.000000e+00
 0.000000e+00 0.000000e+00 8.764544e-01 1.235457e-01 0.000000e+00
 0.000000e+00 0.000000e+00 0.000000e+00 7.405695e-01 2.594305e-01
 0.000000e+00 0.000000e+00 0.000000e+00 0.000000e+00 0.000000e+00
<ENDHMM>
~h "eh"
<BEGINHMM>
<NUMSTATES> 5
<STATE> 2
<MEAN> 39
 -7.634730e+00 8.064014e+00 -6.248682e+00 -5.752450e+00 -9.025626e+00 -1.213957e+01 -6.399302e+00 -1.402174e+01 -6.299868e+00 8.002559e+00 -2.704358e+00 -1.611535e+00 7.588437e+01 4.269740e+00 -1.464451e+00 -3.897576e+00 5.831558e-01 -1.957422e+00 -8.103645e-01 1.677121e-01 -9.326587e-01 1.306603e-01 -4.505787e-01 -2.908299e-01 -5.889167e-01 1.366860e+00 -1.647668e+00 -1.544364e-01 5.775480e-01 -8.672077e-02 7.660849e-01 8.821067e-01 8.055012e-01 9.323421e-01 5.122364e-01 8.170559e-02 1.892658e-02 2.282128e-01 -3.373115e-01
<VARIANCE> 39
 6.418474e+00 5.290940e+01 4.158841e+01 3.963224e+01 3.727903e+01 5.941240e+01 5.402511e+01 4.724825e+01 4.231874e+01 4.807568e+01 2.505319e+01 3.482273e+01 7.042997e+00 3.793296e+00 6.405503e+00 1.951475e+00 2.565000e+00 4.197730e+00 4.004825e+00 3.377751e+00 3.471695e+00 3.639790e+00 2.068521e+00 2.660769e+00 2.690867e+00 6.265855e-01 1.801892e-01 5.860006e-01 3.712852e-01 3.337246e-01 4.912333e-01 6.953887e-01 8.264775e-01 4.471233e-01 3.653426e-01 4.767353e-01 2.957859e-01 2.714661e-01 9.206993e-02
<GCONST> 1.173452e+02
<STATE> 3
<MEAN> 39
 -4.913868e+00 6.528544e+00 -9.772879e+00 -4.203955e+00 -8.842861e+00 -8.963323e+00 -3.930639e+00 -1.297354e+01 -4.636676e+00 5.909552e+00 -2.947070e+00 -4.153440e-01 7.660596e+01 5.341471e-01 -1.627693e-01 -7.551246e-01 3.368227e-01 2.215074e-01 6.938268e-01 3.940321e-01 1.844435e-01 3.777439e-01 -2.289433e-01 -2.942873e-01 7.255074e-02 -1.577909e-01 -1.288500e+00 3.936576e-01 1.413121e+00 -6.881265e-02 5.891775e-01 3.400914e-01 5.106492e-02 2.040543e-01 -2.089291e-01 8.230605e-02 -1.735982e-02 5.555462e-02 -4.725439e-01
<VARIANCE> 39
 4.749363e+00 5.444160e+01 2.983678e+01 4.392917e+01 3.563985e+01 5.404783e+01 5.951728e+01 4.858128e+01 6.090721e+01 3.570568e+01 3.470957e+01 3.617146e+01 7.050649e+00 7.526650e-01 8.877936e-01 2.263923e+00 8.571814e-01 9.800597e-01 1.651858e+00 1.359565e+00 1.526952e+00 1.455962e+00 1.490635e+00 1.217735e+00 9.640430e-01 3.488817e-01 3.909960e-01 5.340048e-01 3.004908e-01 3.563300e-01 2.586662e-01 6.239219e-01 4.160470e-01 5.062109e-01 4.453089e-01 3.786432e-01 4.304850e-01 2.613038e-01 7.750573e-02
<GCONST> 1.043660e+02
<STATE> 4
<MEAN> 39
 -6.270450e+00 6.114000e+00 -8.990829e+00 -2.494745e+00 -8.268796e+00 -9.364164e+00 -3.036184e+00 -1.354143e+01 -5.874862e+00 5.555736e+00 -4.604599e+00 -3.013122e+00 7.494925e+01 -2.120609e+00 1.115191e+00 2.717803e+00 -5.061184e-01 1.720692e+00 9.079899e-01 5.068769e-01 7.908124e-01 -5.344056e-01 -9.640414e-02 6.282380e-02 2.599401e-01 -6.839795e-01 -1.119788e+00 6.039721e-02 7.486160e-01 -5.435851e-01 3.810330e-01 2.471211e-02 2.117329e-01 4.303513e-01 8.839892e-02 3.176130e-01 1.735464e-01 1.758598e-01 5.901118e-02
<VARIANCE> 39
 8.224360e+00 4.705842e+01 4.910864e+01 3.960200e+01 4.852781e+01 5.349547e+01 5.070837e+01 5.205995e+01 5.819580e+01 2.781178e+01 3.268666e+01 4.360487e+01 6.387119e+00 2.831270e+00 1.751610e+00 2.868055e+00 2.489036e+00 2.550390e+00 2.587143e+00 2.216461e+00 3.669331e+00 2.339070e+00 2.452420e+00 2.206939e+00 1.404784e+00 2.245458e-01 2.377415e-01 3.614035e-01 4.466505e-01 3.356248e-01 5.548409e-01 3.420371e-01 3.932410e-01 5.439025e-01 5.514324e-01 3.639585e-01 3.541351e-01 2.718505e-01 8.939771e-02
<GCONST> 1.124712e+02
<TRANSP> 5
 0.000000e+00 1.000000e+00 0.000000e+00 0.000000e+00 0.000000e+00
 0.000000e+00 5.025357e-01 4.974643e-01 0.000000e+00 0.000000e+00
 0.000000e+00 0.000000e+00 5.786996e-01 4.213004e-01 0.000000e+00
 0.000000e+00 0.000000e+00 0.000000e+00 6.834211e-01 3.165788e-01
 0.000000e+00 0.000000e+00 0.000000e+00 0.000000e+00 0.000000e+00
<ENDHMM>
~h "ey"
<BEGINHMM>
<NUMSTATES> 5
<STATE> 2
<MEAN> 39
 -5.628975e+00 7.802580e+00 -5.664651e+00 8.688740e+00 -6.726685e+00 -2.100920e+01 -8.837132e+00 -5.592202e+00 4.235433e-01 9.692938e+00 -5.698615e+00 -6.021806e-01 6.954160e+01 -1.910412e-02 1.970037e-01 1.113122e-01 2.185631e-01 1.658835e-01 -8.915062e-02 -5.863179e-02 2.467012e-01 -6.720825e-02 7.301903e-02 2.013169e-01 1.050886e-01 -3.521019e-01 -1.947618e-01 5.497880e-03 7.704323e-02 -4.696191e-03 1.009610e-01 2.828496e-01 1.496625e-01 8.764451e-02 -3.399000e-02 -5.454277e-02 1.844986e-02 3.092298e-02 -1.620644e-01
<VARIANCE> 39
 1.048586e+01 3.585804e+01 2.724291e+01 3.236766e+01 9.549817e+01 8.591340e+01 8.969906e+01 1.184920e+02 6.215157e+01 3.501235e+01 3.839027e+01 4.632982e+01 1.671915e+01 3.402634e-01 1.018110e+00 9.992732e-01 6.486940e-01 8.137989e-01 1.414029e+00 9.606677e-01 1.340727e+00 1.897124e+00 1.234076e+00 1.081997e+00 9.921033e-01 3.626846e-01 7.472798e-02 1.897115e-01 1.244563e-01 1.313957e-01 1.634127e-01 3.109185e-01 2.294196e-01 2.447234e-01 2.884246e-01 1.741807e-01 1.878454e-01 1.755489e-01 4.417653e-02
<GCONST> 9.571358e+01
<STATE> 3
<MEAN> 39
 -1.043914e+01 1.133457e+01 -3.539006e+00 1.117206e+01 7.408552e-01 -1.124063e+01 -9.130358e+00 -5.743097e+00 2.581360e+00 9.745677e+00 -4.444201e+00 -1.405443e+00 6.082755e+01 -6.750991e-01 8.551909e-03 -2.359730e-01 2.229932e-01 2.970149e-02 1.256784e+00 8.841920e-01 5.875012e-01 8.738588e-02 -2.000382e-01 3.242483e-01 3.093986e-01 -1.149154e+00 -1.162889e-02 -5.970268e-02 -9.125459e-02 -8.760455e-02 -6.587256e-02 1.036614e-01 1.515267e-01 -1.125452e-02 -5.709565e-02 -2.990717e-03 3.467186e-02 2.732345e-02 2.173075e-02
<VARIANCE> 39
 1.282310e+01 1.582889e+01 1.691864e+01 2.960167e+01 3.814941e+01 6.542111e+01 4.650958e+01 5.021447e+01 4.667439e+01 2.870710e+01 2.112772e+01 3.300101e+01 2.042747e+01 4.153523e-01 8.477075e-01 7.573025e-01 7.523287e-01 1.695156e+00 2.465141e+00 1.672514e+00 1.631418e+00 1.822205e+00 1.155906e+00 1.083610e+00 1.160476e+00 4.462760e-01 5.005018e-02 1.102743e-01 1.199311e-01 1.121357e-01 2.446616e-01 3.193739e-01 2.266045e-01 2.689699e-01 2.562305e-01 2.021413e-01 1.911952e-01 2.115046e-01 4.638659e-02
<GCONST> 9.244926e+01
<STATE> 4
<MEAN> 39
 -1.487822e+01 8.036478e+00 -5.712111e+00 1.149090e+01 -1.514948e+00 -1.305734e+00 2.755518e+00 2.586319e-01 1.998979e+00 9.807887e+00 9.316360e-02 3.782552e+00 5.563917e+01 -3.224782e-01 2.907674e-02 -6.160681e-02 3.242638e-02 2.406512e-01 9.136156e-01 6.422668e-01 1.430158e-01 3.543715e-02 -9.698655e-02 1.728739e-01 1.330773e-01 -4.116600e-01 -4.545698e-03 -9.850495e-03 6.898791e-02 -5.021797e-02 1.099232e-02 -1.135576e-01 -1.003196e-01 -3.292559e-02 -4.680044e-02 -1.833218e-02 -7.525590e-02 -4.738755e-02 8.260015e-02
<VARIANCE> 39
 1.405965e+01 3.784562e+01 1.587110e+01 3.715395e+01 3.534783e+01 7.558386e+01 4.424078e+01 3.895668e+01 4.076918e+01 2.793223e+01 2.266714e+01 3.211489e+01 1.718427e+01 3.148498e-01 1.075585e+00 6.701198e-01 8.870602e-01 1.190559e+00 2.257545e+00 1.526867e+00 1.109317e+00 1.441010e+00 1.292204e+00 1.098043e+00 1.089718e+00 4.359101e-01 7.123748e-02 1.236926e-01 1.323099e-01 1.757777e-01 1.979930e-01 3.229350e-01 2.323141e-01 1.956836e-01 2.598055e-01 1.925291e-01 1.749329e-01 1.755577e-01 6.971402e-02
<GCONST> 9.255627e+01
<TRANSP> 5
 0.000000e+00 1.000000e+00 0.000000e+00 0.000000e+00 0.000000e+00
 0.000000e+00 8.971205e-01 1.028795e-01 0.000000e+00 0.000000e+00
 0.000000e+00 0.000000e+00 8.429086e-01 1.570915e-01 0.000000e+00
 0.000000e+00 0.000000e+00 0.000000e+00 8.811814e-01 1.188186e-01
 0.000000e+00 0.000000e+00 0.000000e+00 0.000000e+00 0.000000e+00
<ENDHMM>
~h "ih"
<BEGINHMM>
<NUMSTATES> 5
<STATE> 2
<MEAN> 39
 -9.143913e+00 1.207248e+01 -4.182406e+00 7.472685e+00 -2.072616e+00 -7.342459e+00 -1.997667e+00 -8.251653e+00 -7.262486e+00 5.168122e+00 -3.880966e+00 9.844359e-01 6.491801e+01 -2.745785e-01 7.510430e-02 -4.578019e-02 3.924015e-01 1.666556e-01 5.288329e-01 3.838290e-01 3.675327e-01 4.186575e-01 7.817093e-02 1.451285e-01 2.259350e-01 -6.429021e-01 -1.250174e-01 2.722590e-02 2.090028e-02 -9.682260e-02 -7.399743e-02 1.498516e-01 1.953469e-01 1.381235e-01 3.992560e-02 -1.068211e-01 -3.411163e-02 9.380621e-03 -8.860821e-02
<VARIANCE> 39
 3.533788e+01 3.250795e+01 3.069087e+01 4.602795e+01 4.550261e+01 1.158270e+02 7.590163e+01 5.454984e+01 6.287286e+01 4.381578e+01 4.107124e+01 3.707898e+01 6.266573e+01 1.244833e+00 1.439718e+00 1.769292e+00 1.943161e+00 1.754053e+00 3.557291e+00 2.215505e+00 2.213290e+00 2.029545e+00 2.082159e+00 1.918234e+00 1.552496e+00 1.326992e+00 2.420091e-01 3.100248e-01 2.318584e-01 2.727388e-01 3.060201e-01 5.695336e-01 4.634888e-01 4.352162e-01 3.826615e-01 4.013872e-01 3.775863e-01 2.934889e-01 1.817061e-01
<GCONST> 1.158398e+02
<STATE> 3
<MEAN> 39
 -9.635854e+00 1.110850e+01 -5.405824e+00 7.579608e+00 -3.625395e+00 -7.165443e+00 -1.784844e+00 -7.086289e+00 -5.702716e+00 4.393688e+00 -3.475866e+00 1.275273e+00 6.301162e+01 9.746492e-03 -1.275715e-03 -1.653309e-01 -1.235214e-01 -2.878325e-01 -2.687775e-02 4.628472e-01 4.518210e-01 1.744538e-01 -2.125729e-02 7.881610e-02 5.020386e-02 -1.341534e-01 7.536352e-02 2.467677e-02 1.939912e-01 -3.010296e-01 -2.319734e-01 -3.333683e-01 -8.164942e-02 1.548267e-02 -2.160974e-01 -1.477874e-01 -1.990848e-01 -1.430359e-01 2.986808e-01
<VARIANCE> 39
 4.290828e+01 3.415882e+01 3.637643e+01 4.366487e+01 4.975475e+01 1.230518e+02 8.536619e+01 6.348197e+01 6.287533e+01 4.086243e+01 3.760907e+01 3.967720e+01 7.867968e+01 1.490534e+00 2.299668e+00 2.081811e+00 2.011976e+00 2.288531e+00 5.102548e+00 3.573015e+00 2.779019e+00 2.691431e+00 2.587932e+00 2.261666e+00 1.665340e+00 1.814089e+00 4.915455e-01 4.561712e-01 3.772843e-01 4.705305e-01 5.432186e-01 1.074304e+00 7.212520e-01 6.261317e-01 5.113801e-01 4.306720e-01 4.106345e-01 3.360027e-01 4.261894e-01
<GCONST> 1.255561e+02
<STATE> 4
<MEAN> 39
 -7.000701e+00 8.572050e+00 -6.620566e+00 4.565259e+00 -7.790461e+00 -1.325042e+01 -3.473017e+00 -7.092026e+00 -7.365448e+00 4.045306e+00 -5.021679e+00 6.057128e-01 6.751051e+01 3.395940e-01 -3.275733e-01 -3.728477e-02 -7.364938e-01 -6.276405e-01 -1.176160e+00 -9.019809e-02 3.685297e-01 -4.378623e-01 -1.610442e-01 -3.564244e-01 -2.611907e-01 1.090735e+00 -1.412638e-01 1.875493e-01 1.288026e-01 1.988805e-02 1.051481e-01 1.773108e-01 3.504368e-02 -1.596308e-02 -4.692727e-02 -1.258433e-01 -1.277333e-01 -8.515066e-02 -1.390149e-01
<VARIANCE> 39
 3.443475e+01 6.705521e+01 5.813427e+01 7.226638e+01 8.780280e+01 1.638883e+02 8.255144e+01 6.022348e+01 8.486156e+01 5.527312e+01 5.993466e+01 4.898989e+01 7.004662e+01 3.564198e+00 4.922317e+00 3.374782e+00 3.228960e+00 4.009755e+00 7.751133e+00 5.342255e+00 4.444414e+00 4.877764e+00 3.843678e+00 3.083763e+00 2.681679e+00 3.858911e+00 4.141327e-01 6.919719e-01 5.276558e-01 7.084107e-01 6.409184e-01 1.160148e+00 6.841075e-01 6.338584e-01 7.567159e-01 6.529890e-01 5.747886e-01 4.469604e-01 5.921438e-01
<GCONST> 1.388355e+02
<TRANSP> 5
 0.000000e+00 1.000000e+00 0.000000e+00 0.000000e+00 0.000000e+00
 0.000000e+00 7.357869e-01 2.642131e-01 0.000000e+00 0.000000e+00
 0.000000e+00 0.000000e+00 2.697398e-01 7.302602e-01 0.000000e+00
 0.000000e+00 0.000000e+00 0.000000e+00 5.634775e-01 4.365226e-01
 0.000000e+00 0.000000e+00 0.000000e+00 0.000000e+00 0.000000e+00
<ENDHMM>
~h "iy"
<BEGINHMM>
<NUMSTATES> 5
<STATE> 2
<MEAN> 39
 -6.841358e+00 1.191904e+01 -3.901132e-02 7.567863e+00 -3.960037e+00 -1.734803e+01 -6.917978e+00 -5.438598e+00 -1.109063e+01 7.057066e-01 -7.883291e+00 -3.489683e+00 6.924152e+01 -4.222504e-01 -5.718529e-01 9.822860e-01 1.164085e+00 -3.003528e-01 -2.288060e+00 6.801122e-02 1.835604e+00 4.200410e-02 -6.591920e-01 -3.849912e-01 1.145436e-01 2.314739e-01 -1.772585e-01 -1.343914e-02 3.275933e-02 -2.042241e-01 -1.107311e-03 4.012858e-01 2.593364e-01 -6.060444e-03 7.233456e-02 -7.209738e-03 3.711805e-02 1.081190e-01 -1.162984e-01
<VARIANCE> 39
