~o
<STREAMINFO> 1 39
<VECSIZE> 39<NULLD><MFCC_D_A_0><DIAGC>
~h "a"
<BEGINHMM>
<NUMSTATES> 5
<STATE> 2
<MEAN> 39
 -2.678633e+00 9.610074e+00 -8.286737e+00 5.105361e+00 -3.770722e-01 -1.568015e+01 -4.559745e+00 -1.045864e+01 -1.330096e+01 3.836596e+00 -5.556592e+00 -3.428532e+00 7.027869e+01 -4.433325e-02 -1.501004e+00 -1.515392e+00 -1.657697e+00 -6.667938e-01 -7.090862e-01 1.166648e+00 6.058204e-01 4.800732e-04 1.044129e+00 1.175373e+00 5.049591e-01 1.273326e+00 -1.357810e-01 -1.505166e-01 -1.279377e-01 -3.593041e-01 -5.386171e-02 7.966338e-02 2.906799e-01 2.016130e-01 1.638533e-01 -2.980497e-02 8.043978e-03 6.532555e-02 2.127046e-01
<VARIANCE> 39
 7.829434e+00 3.772598e+01 3.429114e+01 5.859985e+01 4.442934e+01 9.362162e+01 4.585430e+01 7.344386e+01 9.184131e+01 6.100251e+01 6.955344e+01 3.971225e+01 1.340588e+01 3.117513e-01 1.007066e+00 1.182883e+00 3.227303e+00 1.559235e+00 3.526311e+00 2.937131e+00 4.390219e+00 3.249303e+00 2.355049e+00 3.055795e+00 1.744907e+00 6.692045e-01 4.790659e-02 2.802279e-01 3.289559e-01 5.709918e-01 2.966822e-01 1.010175e+00 5.150567e-01 7.150476e-01 5.507659e-01 5.833288e-01 7.333860e-01 3.306465e-01 2.405310e-01
<GCONST> 1.161622e+02
<STATE> 3
<MEAN> 39
 -5.465705e+00 1.622588e+00 -1.680914e+01 -4.863773e+00 -7.586821e+00 -1.430700e+01 4.399781e+00 -8.701497e+00 -1.231476e+01 4.363640e+00 -3.611989e+00 -3.324132e+00 7.453784e+01 -2.152993e-01 1.216178e-01 -8.366507e-02 -9.671525e-02 -2.915287e-01 8.867925e-01 5.030462e-01 3.564398e-02 3.668064e-03 -4.172485e-01 1.309562e-01 1.302009e-01 -2.789315e-01 -7.379706e-04 1.559199e-01 1.454158e-01 2.384346e-01 1.058850e-01 5.654390e-02 -1.527260e-01 -4.173152e-02 2.438105e-03 -2.766089e-02 -3.266847e-02 -1.084627e-02 -1.938778e-01
<VARIANCE> 39
 1.116282e+01 2.618028e+01 4.236257e+01 3.055140e+01 7.167873e+01 6.680926e+01 5.380051e+01 6.827626e+01 7.065659e+01 4.922444e+01 4.630130e+01 2.621161e+01 8.566935e+00 2.103786e-01 7.765404e-01 8.761185e-01 1.255215e+00 1.213778e+00 2.497130e+00 2.217948e+00 1.622253e+00 1.757156e+00 1.567151e+00 1.333236e+00 1.131788e+00 5.992876e-01 3.392521e-02 7.609344e-02 1.123062e-01 1.906150e-01 1.582079e-01 3.936856e-01 3.146748e-01 3.197850e-01 3.055806e-01 2.886699e-01 2.314826e-01 2.223387e-01 3.571006e-02
<GCONST> 9.658887e+01
<STATE> 4
<MEAN> 39
 -1.020101e+01 8.180043e+00 -1.114933e+01 4.648078e+00 -2.871919e+00 2.097988e-01 5.828928e+00 -5.320585e+00 -5.048220e+00 6.423164e+00 6.856080e-01 2.324417e+00 6.109826e+01 -3.060442e-01 1.305849e-01 2.653521e-01 4.871261e-01 1.749984e-01 4.248690e-01 -1.812395e-02 1.922287e-01 4.518598e-01 1.421110e-01 3.372879e-02 1.452359e-01 -6.289051e-01 -7.465166e-06 -1.443302e-02 3.907958e-02 -3.516518e-03 5.101323e-03 -6.351525e-02 -3.989461e-02 -3.763334e-03 -2.613665e-02 -1.924999e-02 -2.138720e-02 -2.409373e-02 2.131855e-02
<VARIANCE> 39
 3.517763e+01 2.473799e+01 2.547150e+01 3.911618e+01 2.801977e+01 5.502714e+01 2.677950e+01 5.033296e+01 7.996158e+01 5.752241e+01 3.107225e+01 2.467026e+01 7.876569e+01 2.293800e-01 6.492321e-01 6.415945e-01 8.371167e-01 1.078601e+00 1.719732e+00 1.000932e+00 1.493148e+00 1.427629e+00 1.504137e+00 1.116074e+00 1.007936e+00 6.064104e-01 3.048223e-02 8.795909e-02 1.127284e-01 1.219623e-01 1.889236e-01 2.494139e-01 1.837230e-01 2.455997e-01 2.479840e-01 2.371141e-01 1.970812e-01 1.665917e-01 5.251113e-02
<GCONST> 9.265624e+01
<TRANSP> 5
 0.000000e+00 1.000000e+00 0.000000e+00 0.000000e+00 0.000000e+00
 0.000000e+00 7.872937e-01 2.127063e-01 0.000000e+00 0.000000e+00
 0.000000e+00 0.000000e+00 9.042815e-01 9.571853e-02 0.000000e+00
 0.000000e+00 0.000000e+00 0.000000e+00 9.341149e-01 6.588512e-02
 0.000000e+00 0.000000e+00 0.000000e+00 0.000000e+00 0.000000e+00
<ENDHMM>
~h "b"
<BEGINHMM>
<NUMSTATES> 5
<STATE> 2
<MEAN> 39
 -1.378836e+01 1.257312e+01 -2.170494e+00 7.854143e+00 -2.185162e+00 -1.155827e+00 3.028080e+00 -4.242896e+00 -6.133039e+00 2.005663e+00 -5.683877e+00 -9.537607e-01 5.992192e+01 1.521880e+00 9.009792e-01 -3.403979e-01 -8.891604e-01 -8.750219e-01 -8.675514e-01 -7.767962e-01 -3.243119e-01 -6.323642e-01 -4.514295e-01 -6.505660e-01 -2.864948e-01 5.770871e-01 2.215992e-01 1.571185e-01 -1.337797e-01 -4.492047e-01 -4.419486e-01 -4.467406e-01 -4.386246e-02 -4.388758e-02 -4.746256e-02 -5.402502e-02 -3.206049e-02 -8.910042e-02 3.271532e-01
<VARIANCE> 39
 5.779556e+01 4.172036e+01 6.670459e+01 6.101512e+01 3.577492e+01 4.196613e+01 3.786663e+01 3.446379e+01 4.523810e+01 3.037401e+01 3.518034e+01 3.215290e+01 5.016370e+01 2.891113e+00 2.683437e+00 2.246634e+00 5.098423e+00 4.031318e+00 6.143240e+00 2.914218e+00 3.209903e+00 3.165246e+00 2.233949e+00 2.292226e+00 2.205204e+00 4.916279e+00 4.062021e-01 3.864247e-01 3.276278e-01 4.981332e-01 5.524504e-01 8.298426e-01 5.368949e-01 4.977702e-01 5.312766e-01 3.838653e-01 4.121546e-01 3.866360e-01 4.045586e-01
<GCONST> 1.254422e+02
<STATE> 3
<MEAN> 39
 -1.846670e+00 1.710405e+01 -8.444160e+00 -2.289402e+00 -1.378813e+01 -1.224321e+01 -2.114186e+00 -5.766819e+00 -9.071112e+00 -1.587010e-01 -9.066101e+00 -3.450568e+00 6.753269e+01 1.901774e+00 1.393823e+00 -6.157113e-01 -1.667619e+00 -2.813154e+00 -2.490597e+00 -1.157649e-01 4.513713e-02 -5.334681e-01 -5.234281e-01 -3.175369e-01 -5.568761e-01 9.003171e-01 -6.424316e-01 -5.090528e-01 6.827127e-03 4.642934e-01 5.454522e-01 6.617071e-01 5.422203e-01 3.376014e-01 3.120467e-01 3.266077e-01 5.218340e-01 2.559130e-01 -3.812459e-01
<VARIANCE> 39
 1.194957e+01 5.247581e+01 6.390292e+01 4.573160e+01 6.205905e+01 6.725301e+01 3.250603e+01 4.834149e+01 3.799583e+01 3.178983e+01 2.544682e+01 3.443421e+01 1.675797e+01 3.608222e+00 3.000132e+00 3.259610e+00 6.198680e+00 7.538673e+00 9.611606e+00 2.868647e+00 5.159539e+00 3.102693e+00 3.090944e+00 2.763745e+00 2.563717e+00 4.149626e+00 2.659752e-01 3.260050e-01 3.281816e-01 4.893783e-01 4.705382e-01 6.650258e-01 4.690445e-01 4.912855e-01 4.699987e-01 4.508349e-01 4.614230e-01 3.598410e-01 2.184339e-01
<GCONST> 1.247211e+02
<STATE> 4
<MEAN> 39
 -2.140369e+00 1.441073e+01 -1.197656e+01 1.304534e+00 -1.092516e+01 -7.507081e+00 8.204941e-01 -6.691544e+00 -8.912612e+00 -5.045565e-01 -7.791292e+00 -3.140385e+00 6.607295e+01 -6.446487e-01 6.365692e-02 5.900154e-01 -1.081282e-01 5.084362e-02 9.314209e-02 4.980073e-01 5.111243e-01 3.419315e-01 2.495514e-01 3.786973e-01 4.376595e-01 -2.554243e-01 -5.541179e-01 -5.755640e-01 1.857461e-01 -1.088130e-01 2.956836e-01 6.093245e-02 1.421366e-02 1.284705e-01 1.843809e-01 3.963476e-01 3.716649e-01 2.462842e-01 3.161862e-01
<VARIANCE> 39
 1.171898e+01 3.991058e+01 5.149089e+01 5.523807e+01 6.966529e+01 8.843861e+01 3.570111e+01 4.598123e+01 3.824319e+01 3.742403e+01 3.007475e+01 3.855251e+01 2.410086e+01 2.527186e+00 2.232689e+00 3.956443e+00 3.855426e+00 2.669827e+00 5.043050e+00 2.349338e+00 3.732244e+00 2.698843e+00 3.342289e+00 2.888896e+00 2.325064e+00 2.578900e+00 3.441420e-01 3.002530e-01 4.021667e-01 8.325027e-01 5.409632e-01 8.755319e-01 4.316383e-01 6.311257e-01 5.314871e-01 5.574621e-01 4.708633e-01 3.927445e-01 4.495229e-01
<GCONST> 1.245740e+02
<TRANSP> 5
 0.000000e+00 1.000000e+00 0.000000e+00 0.000000e+00 0.000000e+00
 0.000000e+00 7.636921e-01 2.363079e-01 0.000000e+00 0.000000e+00
 0.000000e+00 0.000000e+00 3.678976e-01 6.321024e-01 0.000000e+00
 0.000000e+00 0.000000e+00 0.000000e+00 5.441364e-01 4.558637e-01
 0.000000e+00 0.000000e+00 0.000000e+00 0.000000e+00 0.000000e+00
<ENDHMM>
~h "d"
<BEGINHMM>
<NUMSTATES> 5
<STATE> 2
<MEAN> 39
 -5.273561e+00 1.086312e+01 -7.612994e+00 8.119525e+00 -4.397246e+00 -1.466832e+01 -4.471248e+00 -7.096471e+00 -6.907948e+00 5.619747e+00 -4.565069e+00 -1.436002e+00 6.684196e+01 -1.563609e-01 2.361331e-01 5.908148e-03 1.599554e-01 1.252314e-01 7.630109e-01 2.555098e-01 2.598998e-01 2.548194e-01 4.836509e-02 1.188694e-01 1.800132e-01 -6.554844e-01 -1.478924e-01 -1.679447e-01 -7.995506e-02 -1.660119e-01 -5.856761e-02 1.272027e-01 1.965314e-01 1.194960e-01 1.337101e-01 5.139380e-02 3.049785e-02 6.362412e-02 3.963254e-02
<VARIANCE> 39
 1.506272e+01 3.853200e+01 4.760633e+01 4.563379e+01 6.496867e+01 8.687396e+01 6.616305e+01 5.501099e+01 6.752974e+01 5.134756e+01 5.444298e+01 3.818233e+01 3.346349e+01 9.817518e-01 2.345444e+00 1.971483e+00 2.973988e+00 2.918198e+00 7.217235e+00 3.804789e+00 2.563144e+00 2.716657e+00 3.463893e+00 2.760949e+00 2.043607e+00 2.594867e+00 1.791874e-01 4.293205e-01 3.123248e-01 4.792428e-01 4.818347e-01 1.278788e+00 6.192437e-01 4.535504e-01 4.871913e-01 6.683196e-01 5.020200e-01 3.427956e-01 3.692786e-01
<GCONST> 1.246207e+02
<STATE> 3
<MEAN> 39
 -7.268754e+00 1.514272e+01 -3.983763e+00 9.336122e+00 -2.406321e+00 -5.937017e+00 -1.329412e+00 -6.804373e+00 -7.030048e+00 3.431015e+00 -6.051977e+00 -1.785704e+00 6.210311e+01 -1.050144e+00 -2.511260e-01 4.684906e-04 -6.488571e-02 1.493239e-01 1.397201e+00 1.102675e+00 7.440925e-01 7.469668e-01 1.120246e-01 2.426763e-01 5.707924e-01 -8.754365e-01 -2.070310e-01 -3.542229e-01 -8.337101e-02 -2.970060e-01 -3.112260e-02 -3.209545e-01 -6.925184e-02 1.254394e-01 2.899195e-02 1.214803e-01 1.397639e-01 1.254953e-01 3.243591e-01
<VARIANCE> 39
 2.134402e+01 3.151171e+01 5.605726e+01 3.977798e+01 4.135571e+01 3.889341e+01 4.234851e+01 3.523497e+01 3.731453e+01 3.537859e+01 4.423479e+01 3.754272e+01 2.398895e+01 1.607059e+00 1.788930e+00 1.981976e+00 2.066896e+00 2.118736e+00 3.056703e+00 2.436373e+00 2.040817e+00 2.427885e+00 2.162224e+00 1.996786e+00 1.611351e+00 1.122865e+00 3.383830e-01 3.389264e-01 3.193397e-01 4.287597e-01 3.442291e-01 3.498417e-01 3.954513e-01 3.457357e-01 3.394156e-01 3.770939e-01 3.016624e-01 2.973379e-01 1.873475e-01
<GCONST> 1.128456e+02
<STATE> 4
<MEAN> 39
 -1.304953e+01 9.479422e+00 -5.891354e+00 1.022934e+01 -2.254955e+00 -5.179404e-01 4.962198e+00 -1.251077e+00 3.825972e-01 8.487353e+00 -6.983059e-01 3.135334e+00 5.739071e+01 -5.987017e-01 -2.525557e-01 -6.114680e-02 -2.341973e-01 2.359355e-01 4.476489e-01 4.766865e-01 4.816352e-01 2.675866e-01 9.190751e-02 1.585759e-01 2.157671e-01 -1.776435e-01 -3.021362e-02 -8.924434e-02 8.976979e-02 -1.758916e-01 -3.152444e-02 -2.523001e-01 -1.174907e-01 -2.309083e-02 -1.359300e-01 -3.332809e-02 -4.627427e-02 -6.161958e-02 2.507785e-01
<VARIANCE> 39
 2.582485e+01 5.432116e+01 3.413536e+01 3.908576e+01 3.762588e+01 4.739452e+01 5.345953e+01 3.969625e+01 4.754876e+01 3.941095e+01 3.298693e+01 2.442275e+01 3.287217e+01 1.417788e+00 1.544235e+00 1.217094e+00 1.585407e+00 1.469729e+00 1.962945e+00 1.553025e+00 1.650970e+00 1.607713e+00 1.707631e+00 1.488317e+00 1.437409e+00 7.881641e-01 2.062318e-01 2.303282e-01 2.147427e-01 3.370532e-01 2.705500e-01 3.317206e-01 3.130337e-01 2.773954e-01 2.662951e-01 2.725706e-01 2.407940e-01 2.251501e-01 1.607543e-01
<GCONST> 1.060673e+02
<TRANSP> 5
 0.000000e+00 1.000000e+00 0.000000e+00 0.000000e+00 0.000000e+00
 0.000000e+00 6.992732e-01 3.007268e-01 0.000000e+00 0.000000e+00
 0.000000e+00 0.000000e+00 5.094507e-01 4.905493e-01 0.000000e+00
 0.000000e+00 0.000000e+00 0.000000e+00 7.297155e-01 2.702845e-01
 0.000000e+00 0.000000e+00 0.000000e+00 0.000000e+00 0.000000e+00
<ENDHMM>
~h "f"
<BEGINHMM>
<NUMSTATES> 5
<STATE> 2
<MEAN> 39
 -2.567436e+01 1.190956e+01 -6.990901e+00 4.697758e+00 6.232250e+00 -1.876372e+00 5.130453e+00 -1.894103e+00 -2.367330e+00 5.767050e+00 -2.304974e+00 1.566610e+00 6.586243e+01 -1.551238e+00 -3.101990e-01 -3.149937e-01 -8.523754e-01 4.118271e-01 -2.214064e-01 1.104659e-01 2.383098e-01 6.689576e-02 -5.173783e-02 1.217653e-02 1.672987e-01 7.524867e-01 3.859783e-01 -1.034320e-01 -5.077632e-02 -1.326936e-02 -1.936082e-01 -1.465192e-02 -1.096971e-01 -8.328365e-02 -9.858675e-02 -7.144023e-02 -2.110978e-02 -2.539265e-02 -1.577855e-03
<VARIANCE> 39
 5.137807e+01 3.211184e+01 3.672111e+01 4.321383e+01 3.017051e+01 2.153490e+01 4.868227e+01 3.998330e+01 3.307117e+01 2.656611e+01 2.820121e+01 2.269339e+01 5.215100e+01 3.125207e+00 1.158524e+00 1.037524e+00 1.675732e+00 1.595950e+00 1.533095e+00 1.810884e+00 1.723951e+00 1.600587e+00 1.602248e+00 1.296914e+00 1.302607e+00 1.305384e+00 4.198121e-01 1.797142e-01 1.859415e-01 3.201078e-01 2.794594e-01 2.770831e-01 3.133548e-01 3.202167e-01 2.623134e-01 2.744431e-01 2.221434e-01 2.237279e-01 2.014846e-01
<GCONST> 1.058066e+02
<STATE> 3
<MEAN> 39
 -2.753720e+01 8.254401e+00 -8.688701e+00 -6.302432e-01 5.708723e+00 -2.086716e+00 4.339132e+00 -3.693061e-01 -3.593236e+00 4.929753e+00 -2.659966e+00 2.807132e+00 6.768484e+01 2.640063e+00 1.198244e-01 -5.262657e-01 -1.315907e+00 -1.631318e+00 -8.258579e-01 -9.310430e-01 -1.070113e+00 -1.196340e+00 -1.081295e+00 -5.452025e-01 -4.456108e-01 4.185433e-01 1.552479e+00 7.443465e-01 -1.673003e-01 -2.688468e-01 -7.227200e-01 -4.148394e-01 -3.587651e-01 -7.153844e-01 -4.311822e-01 -2.082181e-01 -1.355596e-01 -3.585019e-01 8.482913e-02
<VARIANCE> 39
 2.102995e+01 3.336721e+01 3.388617e+01 6.129676e+01 2.470071e+01 2.507057e+01 4.885389e+01 3.263910e+01 3.623276e+01 4.269621e+01 3.675987e+01 2.295397e+01 2.852280e+01 5.482203e+00 2.856772e+00 1.857120e+00 3.105481e+00 2.275174e+00 2.339647e+00 2.611369e+00 2.295035e+00 1.916340e+00 1.826779e+00 1.554350e+00 1.654541e+00 1.733724e+00 2.942490e-01 4.071108e-01 6.009393e-01 6.150573e-01 4.232951e-01 4.102362e-01 4.225896e-01 4.770890e-01 3.404585e-01 3.642777e-01 3.568405e-01 3.548656e-01 1.612389e-01
<GCONST> 1.153709e+02
<STATE> 4
<MEAN> 39
 -1.411986e+01 1.367524e+01 -9.917982e+00 -5.003662e+00 -2.558687e+00 -6.499266e+00 -2.251301e-02 -5.675333e+00 -8.647120e+00 6.629449e-01 -5.578780e+00 -7.720653e-01 6.851134e+01 6.291059e+00 2.167147e+00 -1.689558e+00 -2.378285e+00 -3.193681e+00 -1.568960e+00 -1.386881e+00 -2.790474e+00 -1.483114e+00 -5.742868e-01 -5.297625e-01 -1.381155e+00 9.844568e-01 -1.347202e-01 -1.669568e-01 -4.843361e-01 1.983486e-01 3.068885e-01 2.216814e-01 2.984640e-01 2.717342e-02 5.240023e-01 6.149712e-01 2.459329e-01 2.603028e-02 8.748183e-02
<VARIANCE> 39
 5.874775e+01 3.808230e+01 2.685109e+01 4.461515e+01 4.167457e+01 3.255613e+01 4.339792e+01 3.540438e+01 2.942255e+01 4.226195e+01 2.999294e+01 2.908017e+01 1.645320e+01 2.585245e+00 3.291477e+00 6.503029e+00 4.493608e+00 2.911354e+00 3.997380e+00 4.266612e+00 4.121210e+00 3.442742e+00 2.943948e+00 3.493654e+00 2.733068e+00 1.289756e+00 1.127644e+00 8.632696e-01 4.176672e-01 4.990948e-01 6.579170e-01 5.283047e-01 3.727379e-01 6.064493e-01 6.033438e-01 4.442882e-01 4.334318e-01 4.538440e-01 1.447636e-01
<GCONST> 1.243761e+02
<TRANSP> 5
 0.000000e+00 1.000000e+00 0.000000e+00 0.000000e+00 0.000000e+00
 0.000000e+00 8.668815e-01 1.331184e-01 0.000000e+00 0.000000e+00
 0.000000e+00 0.000000e+00 6.365186e-01 3.634814e-01 0.000000e+00
 0.000000e+00 0.000000e+00 0.000000e+00 4.202951e-01 5.797050e-01
 0.000000e+00 0.000000e+00 0.000000e+00 0.000000e+00 0.000000e+00
<ENDHMM>
~h "g"
<BEGINHMM>
<NUMSTATES> 5
<STATE> 2
<MEAN> 39
 -9.228120e+00 1.806434e+01 -4.289723e+00 7.389340e+00 -6.668401e-01 -8.195711e-01 3.249584e+00 -6.839261e+00 -7.200647e+00 3.484355e-01 -8.221909e+00 -2.271218e-01 5.952936e+01 8.838271e-02 -3.011433e-01 -9.865732e-01 -1.899994e+00 1.900642e-01 2.928233e-01 2.060849e-01 -1.268101e+00 -6.052079e-01 -1.039697e-01 -6.764175e-02 3.652922e-01 9.946938e-01 1.643953e-01 -5.370351e-02 -7.925502e-02 -6.392349e-02 1.498481e-01 -1.681166e-01 -3.562060e-01 -5.033686e-01 -1.556691e-01 1.707451e-01 8.337648e-02 -6.696486e-02 2.486098e-01
<VARIANCE> 39
 2.018148e+01 3.371872e+01 3.981924e+01 9.547645e+01 5.762973e+01 5.881615e+01 6.154878e+01 4.192344e+01 4.633989e+01 4.278920e+01 4.510199e+01 4.583782e+01 2.314744e+01 2.899680e+00 3.414034e+00 4.155117e+00 7.317509e+00 3.445738e+00 4.870155e+00 6.508385e+00 5.534609e+00 3.456223e+00 4.179394e+00 2.770265e+00 3.073839e+00 1.542417e+00 3.845279e-01 4.988158e-01 8.127689e-01 1.657684e+00 5.713707e-01 9.270877e-01 1.066294e+00 8.357137e-01 6.490240e-01 7.061350e-01 4.268979e-01 5.860370e-01 2.666130e-01
<GCONST> 1.325610e+02
<STATE> 3
<MEAN> 39
 -5.191376e+00 1.455350e+01 -1.120968e+01 1.565022e+00 5.098664e+00 -5.386097e+00 -7.132540e+00 -2.384595e+01 -1.005222e+01 5.481247e+00 -7.534301e+00 -3.628570e+00 6.866342e+01 6.090156e-01 -6.214355e-01 -5.062344e-02 1.677577e+00 5.701843e-01 -2.736395e+00 -2.363977e+00 -7.102764e-01 7.800582e-01 8.859552e-01 -7.954445e-01 -1.632133e+00 8.877829e-01 -1.671363e-01 -1.377368e-01 3.271871e-01 3.513436e-01 -3.544639e-01 -4.512959e-01 2.068827e-01 1.012980e+00 2.018561e-01 -2.838058e-01 -2.476099e-01 1.602993e-02 -1.344737e-01
<VARIANCE> 39
 3.284732e+01 3.227736e+01 5.169688e+01 9.584217e+01 8.851202e+01 9.325953e+01 1.010370e+02 6.803204e+01 8.805501e+01 6.303261e+01 7.101875e+01 6.702288e+01 7.775074e+00 1.814765e+00 2.693537e+00 3.086553e+00 2.626924e+00 3.185652e+00 5.578520e+00 4.474896e+00 1.151266e+01 4.937230e+00 4.897799e+00 3.208575e+00 3.010999e+00 3.473480e-01 3.569131e-01 4.305387e-01 5.977710e-01 6.423140e-01 5.174290e-01 7.606115e-01 1.038411e+00 7.940885e-01 8.785685e-01 1.071138e+00 4.626029e-01 8.297651e-01 7.286252e-02
<GCONST> 1.314485e+02
<STATE> 4
<MEAN> 39
 -6.519151e+00 8.823681e+00 -4.210638e+00 1.116247e+01 -3.766092e+00 -2.552584e+01 -7.883029e+00 -6.480043e+00 -9.701529e+00 1.993188e-01 -1.395748e+01 -6.764626e+00 7.196259e+01 -2.669786e-02 -7.781192e-03 2.332801e-01 -2.539673e-01 -7.404907e-01 2.473007e-01 6.371325e-01 7.103664e-01 -5.930660e-01 -4.920694e-01 2.001939e-01 3.241554e-01 -1.776338e-01 6.535687e-02 5.022156e-02 -2.311093e-01 -2.401489e-01 1.214145e-01 4.028056e-01 5.799356e-02 -3.194275e-01 -5.922955e-02 2.106368e-01 2.579972e-01 4.631654e-02 -3.483278e-02
<VARIANCE> 39
 1.172785e+01 3.013295e+01 5.554488e+01 5.975202e+01 1.424869e+02 1.067080e+02 9.118340e+01 1.114830e+02 8.290978e+01 5.870541e+01 3.593700e+01 6.916412e+01 9.156034e+00 6.550330e-01 1.245708e+00 2.363764e+00 1.613998e+00 2.899457e+00 8.028979e+00 3.892018e+00 7.487021e+00 2.388208e+00 3.561154e+00 2.573920e+00 2.004438e+00 7.554903e-01 7.016651e-02 2.493314e-01 1.957098e-01 2.467668e-01 3.535218e-01 1.012059e+00 6.158561e-01 7.381615e-01 4.424376e-01 4.274647e-01 4.320386e-01 4.024542e-01 1.333474e-01
<GCONST> 1.198655e+02
<TRANSP> 5
 0.000000e+00 1.000000e+00 0.000000e+00 0.000000e+00 0.000000e+00
 0.000000e+00 8.657645e-01 1.342354e-01 0.000000e+00 0.000000e+00
 0.000000e+00 0.000000e+00 8.545556e-01 1.454444e-01 0.000000e+00
 0.000000e+00 0.000000e+00 0.000000e+00 9.157019e-01 8.429818e-02
 0.000000e+00 0.000000e+00 0.000000e+00 0.000000e+00 0.000000e+00
<ENDHMM>
~h "k"
<BEGINHMM>
<NUMSTATES> 5
<STATE> 2
<MEAN> 39
 -8.258141e+00 1.021988e+01 -5.257842e+00 5.226340e+00 -3.880998e+00 -1.394546e+01 -3.801567e+00 -8.785577e+00 -9.344003e+00 3.754285e+00 -8.776591e+00 -3.662300e+00 6.788328e+01 -1.032717e+00 6.223724e-01 5.816521e-01 8.642019e-01 7.511129e-01 2.036030e+00 6.824043e-01 5.126051e-01 9.269305e-01 -9.037095e-02 7.058156e-02 5.823659e-01 -1.670455e+00 -2.770807e-02 -9.619244e-02 -2.950990e-01 -6.541421e-02 -4.590974e-02 3.496040e-01 1.440070e-01 6.551737e-02 2.166453e-01 1.338361e-01 3.006229e-01 2.201233e-01 -1.561517e-01
<VARIANCE> 39
 1.765013e+01 3.515379e+01 4.287897e+01 6.726707e+01 8.531985e+01 1.363311e+02 8.758101e+01 7.133025e+01 7.036537e+01 5.397489e+01 4.653238e+01 6.014623e+01 3.190280e+01 8.086082e-01 1.424993e+00 1.753940e+00 2.162023e+00 2.198180e+00 5.410963e+00 3.234263e+00 3.634659e+00 3.154609e+00 2.370059e+00 2.950070e+00 2.223185e+00 1.923773e+00 1.721876e-01 3.855648e-01 3.202927e-01 3.863573e-01 3.533318e-01 1.028507e+00 5.084147e-01 5.737575e-01 5.660028e-01 5.123635e-01 4.045047e-01 3.912959e-01 4.430631e-01
<GCONST> 1.238385e+02
<STATE> 3
<MEAN> 39
 -1.197013e+01 1.195543e+01 -6.555964e+00 7.544940e+00 -2.571779e+00 -3.483674e+00 1.054383e+00 -6.443452e+00 -5.017376e+00 4.312153e+00 -5.367836e+00 5.248806e-01 5.937732e+01 -8.772624e-01 -5.130284e-01 -4.781697e-01 -1.241934e+00 2.016701e-01 1.318003e+00 5.991048e-01 2.596433e-01 3.075719e-01 6.302767e-01 6.301143e-01 6.238963e-01 -4.586927e-02 -3.966223e-02 -3.775491e-01 -6.310713e-02 -9.144376e-01 4.366850e-03 -2.035079e-01 -8.629555e-02 -1.900351e-01 -2.913328e-01 2.282733e-01 1.167373e-01 -4.463217e-03 9.371327e-01
<VARIANCE> 39
 1.588240e+01 2.096363e+01 2.576500e+01 3.928114e+01 4.429111e+01 4.819501e+01 5.718238e+01 4.638913e+01 4.494481e+01 3.370407e+01 3.443130e+01 3.315426e+01 2.087597e+01 1.375821e+00 1.673048e+00 2.171288e+00 6.893848e+00 2.546935e+00 4.098949e+00 3.452815e+00 3.763325e+00 3.476082e+00 3.191547e+00 2.550057e+00 2.011652e+00 3.675939e+00 2.259209e-01 2.528685e-01 3.365153e-01 8.028931e-01 4.586456e-01 5.004861e-01 5.344572e-01 5.934038e-01 5.026368e-01 4.887095e-01 4.222459e-01 3.764061e-01 3.978913e-01
<GCONST> 1.201933e+02
<STATE> 4
<MEAN> 39
 -1.420080e+01 5.775558e+00 -9.960199e+00 -4.540250e+00 -3.390887e+00 -6.529028e-01 4.407647e+00 -5.842274e+00 -4.975485e+00 8.223004e+00 -1.846304e+00 3.382476e+00 6.711777e+01 4.159499e-02 -9.643615e-01 7.550533e-03 -5.751984e-01 2.624386e-02 -3.123584e-01 4.136271e-02 4.751870e-02 2.079514e-01 3.086291e-01 2.653289e-01 -2.368326e-01 1.337857e+00 2.813947e-01 1.852181e-01 2.233655e-02 5.298569e-01 -1.082046e-01 -2.478427e-01 -6.723439e-02 9.429817e-02 1.209531e-01 -3.445810e-01 -2.684888e-01 -3.038188e-01 -1.956036e-01
<VARIANCE> 39
 1.872161e+01 4.276737e+01 5.349740e+01 8.955839e+01 5.631840e+01 9.896958e+01 9.536298e+01 7.178722e+01 7.462466e+01 6.020391e+01 5.033948e+01 5.470669e+01 2.598313e+01 3.166305e+00 3.774959e+00 2.703541e+00 8.825410e+00 3.392511e+00 6.724662e+00 5.984662e+00 5.040026e+00 3.767836e+00 4.721337e+00 5.028093e+00 4.539163e+00 3.081528e+00 4.646994e-01 5.678294e-01 5.567486e-01 1.168994e+00 5.082721e-01 7.880512e-01 7.817285e-01 7.654902e-01 7.655801e-01 9.120399e-01 8.330765e-01 6.778222e-01 4.944962e-01
<GCONST> 1.383766e+02
<TRANSP> 5
 0.000000e+00 1.000000e+00 0.000000e+00 0.000000e+00 0.000000e+00
 0.000000e+00 5.875722e-01 4.124279e-01 0.000000e+00 0.000000e+00
 0.000000e+00 0.000000e+00 6.967583e-01 3.032417e-01 0.000000e+00
 0.000000e+00 0.000000e+00 0.000000e+00 7.616343e-01 2.383657e-01
 0.000000e+00 0.000000e+00 0.000000e+00 0.000000e+00 0.000000e+00
<ENDHMM>
~h "l"
<BEGINHMM>
<NUMSTATES> 5
<STATE> 2
<MEAN> 39
 -1.698148e+00 7.928596e+00 -1.395736e+01 -6.737058e+00 -1.896350e+01 -8.328179e+00 6.333709e+00 -2.871324e+00 -9.128167e+00 -2.141305e+00 -4.401360e+00 8.757455e-01 7.372291e+01 1.937046e-01 8.689312e-01 8.172345e-01 -5.072495e-02 -1.077270e+00 -3.141663e-01 2.072991e-01 1.496853e-01 -4.363215e-01 -3.836626e-01 3.982082e-02 1.919411e-01 -6.047634e-01 -4.662663e-02 -4.320439e-03 7.262440e-02 1.043841e-01 1.794818e-01 -4.906318e-02 -1.702882e-01 -1.382468e-01 1.950694e-02 1.007020e-01 9.250332e-03 -5.652937e-02 -1.613611e-02
<VARIANCE> 39
 9.462799e+00 5.639524e+01 8.932099e+01 6.999711e+01 7.518414e+01 8.603236e+01 5.948093e+01 9.075186e+01 7.596183e+01 4.073009e+01 4.753709e+01 3.163324e+01 2.435305e+01 2.136645e-01 6.246741e-01 9.975899e-01 1.158911e+00 1.478016e+00 2.036699e+00 2.111332e+00 1.932529e+00 1.945701e+00 1.717375e+00 1.895766e+00 1.458826e+00 1.942803e-01 2.998242e-02 8.321072e-02 1.269571e-01 1.503266e-01 2.164630e-01 2.528219e-01 2.812999e-01 2.661379e-01 2.794664e-01 2.812469e-01 2.525282e-01 2.369035e-01 2.392738e-02
<GCONST> 9.929395e+01
<STATE> 3
<MEAN> 39
 -1.351871e+00 1.728950e+01 -1.175747e+00 1.283771e-01 -2.113000e+01 -1.336726e+01 1.031983e+00 -3.849361e+00 -9.314775e+00 -1.638881e+00 -5.759731e+00 1.166455e+00 6.742006e+01 -1.447968e-01 3.342802e-01 1.657308e-01 4.986477e-01 6.966519e-01 5.748118e-01 1.913251e-02 -5.641081e-01 -1.934920e-01 -1.342251e-01 2.797865e-02 2.165930e-01 -5.307854e-01 -7.335658e-02 -1.712506e-01 -1.493050e-01 -6.170919e-03 2.930973e-01 5.486026e-02 -2.012231e-02 -6.734608e-02 9.972193e-03 1.834566e-01 1.470934e-01 1.704520e-02 9.455305e-02
<VARIANCE> 39
 6.775346e+00 3.476307e+01 8.370985e+01 8.958207e+01 7.155003e+01 6.284161e+01 5.452819e+01 6.290716e+01 6.679065e+01 3.473757e+01 4.288224e+01 3.325156e+01 2.644103e+01 1.717749e-01 4.773445e-01 7.150503e-01 8.643166e-01 1.102397e+00 1.299840e+00 1.339924e+00 1.469862e+00 1.584306e+00 1.330774e+00 1.267808e+00 1.238973e+00 2.382744e-01 2.733125e-02 8.701268e-02 1.017945e-01 1.400138e-01 2.196536e-01 2.295392e-01 3.029383e-01 3.105510e-01 2.449385e-01 2.609131e-01 2.369819e-01 2.571734e-01 4.668718e-02
<GCONST> 9.446253e+01
<STATE> 4
<MEAN> 39
 -3.145575e+00 1.092327e+01 -7.436633e+00 -3.384183e+00 -1.485385e+01 -1.123808e+01 2.904127e+00 -1.018126e+01 -1.566263e+01 4.160869e-01 -1.568146e+00 1.333752e+00 7.081121e+01 -5.220641e-01 -6.707569e-01 1.235388e-01 9.163049e-01 1.888354e+00 -6.150388e-01 -1.132660e+00 -9.766867e-01 2.316884e-01 1.549107e+00 3.917127e-01 -5.032620e-01 2.031731e-01 -6.924718e-02 -7.628296e-02 7.994408e-02 2.084272e-01 1.003872e-01 -4.101470e-01 -2.574810e-01 3.013231e-01 3.452708e-01 9.136871e-02 -2.723768e-01 -2.424026e-01 3.130101e-02
<VARIANCE> 39
 1.040533e+01 5.021537e+01 6.004817e+01 9.080490e+01 1.046667e+02 8.404186e+01 7.660202e+01 8.327269e+01 8.755183e+01 6.160946e+01 7.870364e+01 5.111555e+01 2.745388e+01 2.632939e-01 9.565815e-01 8.788620e-01 1.343050e+00 1.757959e+00 3.354027e+00 2.900037e+00 3.089352e+00 3.452671e+00 2.813488e+00 2.923837e+00 3.102737e+00 6.018280e-01 4.796402e-02 1.426360e-01 1.434549e-01 2.248284e-01 3.496322e-01 4.156879e-01 3.999494e-01 4.891653e-01 4.160342e-01 5.528280e-01 4.982103e-01 4.214034e-01 7.364587e-02
<GCONST> 1.136946e+02
<TRANSP> 5
 0.000000e+00 1.000000e+00 0.000000e+00 0.000000e+00 0.000000e+00
 0.000000e+00 7.419272e-01 2.580727e-01 0.000000e+00 0.000000e+00
 0.000000e+00 0.000000e+00 7.317277e-01 2.682724e-01 0.000000e+00
 0.000000e+00 0.000000e+00 0.000000e+00 6.917430e-01 3.082570e-01
 0.000000e+00 0.000000e+00 0.000000e+00 0.000000e+00 0.000000e+00
<ENDHMM>
~h "m"
<BEGINHMM>
<NUMSTATES> 5
<STATE> 2
<MEAN> 39
 -6.745855e+00 1.303198e+01 -7.911573e+00 7.252260e+00 -2.420791e+00 -2.832600e+00 9.163274e-01 -6.412344e+00 -5.977940e+00 3.429553e+00 -4.225291e+00 -4.058316e-01 6.279743e+01 3.238951e-01 8.920782e-01 7.886879e-01 9.817102e-01 4.424898e-01 5.219439e-01 -3.906435e-01 -7.861976e-01 -7.176466e-01 -5.578069e-01 -8.153790e-01 -6.122957e-01 -7.726949e-01 4.815200e-02 2.515404e-02 8.260710e-02 -6.556351e-02 -3.290625e-02 -1.737119e-01 -1.973154e-01 -1.948602e-01 -1.407709e-01 -8.104804e-03 -4.753973e-02 -1.437992e-01 1.763736e-01
<VARIANCE> 39
 4.352054e+01 3.163260e+01 4.282570e+01 4.768868e+01 3.200900e+01 5.721247e+01 4.426180e+01 5.570343e+01 5.768197e+01 2.901864e+01 3.826058e+01 4.118515e+01 5.739166e+01 1.298362e+00 1.162035e+00 1.397058e+00 1.624246e+00 1.417151e+00 3.456974e+00 3.038158e+00 3.141954e+00 2.957990e+00 2.001273e+00 1.600685e+00 1.751108e+00 1.519180e+00 1.697759e-01 1.228806e-01 1.315956e-01 1.585682e-01 1.889891e-01 3.365060e-01 3.669419e-01 4.130757e-01 3.353679e-01 2.865597e-01 2.451088e-01 2.766725e-01 8.217329e-02
<GCONST> 1.090741e+02
<STATE> 3
<MEAN> 39
 -3.704210e+00 1.574543e+01 -6.980158e+00 7.588171e+00 -2.036774e+00 -3.848366e+00 -2.106703e+00 -1.017371e+01 -1.003364e+01 1.289402e-01 -7.412852e+00 -2.661638e+00 6.375930e+01 3.572821e-01 8.295751e-01 6.697550e-01 5.738567e-01 2.607560e-01 1.667386e-01 -5.248013e-01 -8.099456e-01 -7.398433e-01 -2.262134e-01 -4.617609e-01 -4.417528e-01 -4.621099e-01 -5.156508e-02 -2.294571e-01 -2.334662e-01 -3.251127e-01 -1.680338e-01 -2.358452e-01 1.335886e-02 2.276471e-01 2.481324e-01 3.141101e-01 2.836287e-01 1.412162e-01 2.135694e-01
<VARIANCE> 39
 2.171965e+01 3.148899e+01 4.346831e+01 5.105784e+01 3.381948e+01 4.338260e+01 3.181439e+01 3.883482e+01 6.012043e+01 2.960352e+01 3.227259e+01 4.413125e+01 2.944390e+01 1.231316e+00 7.901570e-01 9.093069e-01 1.070385e+00 1.280756e+00 2.680444e+00 2.495955e+00 2.494827e+00 2.225650e+00 1.420586e+00 1.223422e+00 1.559950e+00 1.213508e+00 5.555950e-02 9.880853e-02 1.584716e-01 1.833708e-01 1.616616e-01 2.505276e-01 2.346515e-01 2.741055e-01 2.630276e-01 2.672325e-01 2.204398e-01 1.883099e-01 4.860875e-02
<GCONST> 9.989278e+01
<STATE> 4
<MEAN> 39
 -3.375991e+00 1.609226e+01 -5.952441e+00 8.624226e+00 -1.406834e+00 -4.211220e+00 -3.895620e+00 -1.357953e+01 -1.161818e+01 2.816505e+00 -7.357122e+00 -5.302629e+00 6.333225e+01 1.193287e-01 -2.143627e-01 -2.269916e-01 6.803107e-03 4.198989e-03 -6.769492e-01 -2.989567e-01 1.059905e-01 2.554708e-01 3.649970e-01 1.470695e-01 2.628576e-01 1.721265e-01 -2.014630e-01 -3.684345e-01 -5.733767e-02 -1.572473e-02 -2.219803e-02 -4.679770e-01 1.199994e-01 3.621158e-01 2.467184e-01 9.468881e-02 1.688944e-01 1.888299e-01 2.151586e-01
<VARIANCE> 39
 1.744179e+01 2.619022e+01 2.942486e+01 3.347234e+01 3.395647e+01 5.332881e+01 4.675593e+01 4.438141e+01 6.168058e+01 2.774354e+01 2.913633e+01 7.156293e+01 1.964303e+01 7.034113e-01 1.064605e+00 9.059438e-01 1.212715e+00 1.001347e+00 3.618017e+00 1.739151e+00 1.906363e+00 1.825152e+00 1.777809e+00 1.607859e+00 1.919071e+00 1.285789e+00 8.706205e-02 1.716738e-01 2.320782e-01 2.175786e-01 1.789912e-01 5.870777e-01 3.549953e-01 3.826180e-01 3.787354e-01 3.237117e-01 2.559962e-01 3.227636e-01 9.428008e-02
<GCONST> 1.043522e+02
<TRANSP> 5
 0.000000e+00 1.000000e+00 0.000000e+00 0.000000e+00 0.000000e+00
 0.000000e+00 3.893216e-01 6.106784e-01 0.000000e+00 0.000000e+00
 0.000000e+00 0.000000e+00 4.976887e-01 5.023113e-01 0.000000e+00
 0.000000e+00 0.000000e+00 0.000000e+00 6.452203e-01 3.547797e-01
 0.000000e+00 0.000000e+00 0.000000e+00 0.000000e+00 0.000000e+00
<ENDHMM>
~h "n"
<BEGINHMM>
<NUMSTATES> 5
<STATE> 2
<MEAN> 39
 -5.833898e+00 7.781195e+00 -7.156598e+00 5.426742e+00 -4.969424e+00 -1.982481e+01 -3.978941e+00 -6.476430e+00 -8.757970e+00 4.904836e+00 -6.467751e+00 -4.362757e+00 7.183108e+01 9.376174e-02 7.864417e-01 2.121298e-01 3.410901e-01 3.801801e-01 7.667889e-01 1.453024e-01 -4.065518e-01 -4.693672e-01 -3.157696e-01 -1.163476e-01 -6.153901e-02 -6.669422e-01 4.755255e-02 1.218061e-01 7.454485e-02 1.229733e-01 -1.083251e-02 2.759996e-01 -4.993099e-02 -7.029245e-02 1.201750e-02 -7.798634e-02 -9.213775e-02 -1.318228e-02 -1.773751e-01
<VARIANCE> 39
 1.063442e+01 3.394730e+01 3.631183e+01 5.316277e+01 8.426553e+01 1.058170e+02 5.928539e+01 7.456431e+01 7.038544e+01 5.348179e+01 6.097521e+01 4.542970e+01 1.725327e+01 3.372618e-01 1.118157e+00 1.212410e+00 1.751645e+00 1.212673e+00 3.066800e+00 1.948529e+00 2.333465e+00 1.896387e+00 1.977106e+00 1.659660e+00 1.478550e+00 6.782355e-01 4.554528e-02 1.214916e-01 1.477880e-01 2.264500e-01 1.895146e-01 4.220666e-01 3.005171e-01 3.159578e-01 3.023373e-01 3.250518e-01 2.681274e-01 2.403950e-01 6.764766e-02
<GCONST> 1.048365e+02
<STATE> 3
<MEAN> 39
 -4.101397e+00 1.521418e+01 -3.960366e+00 9.317818e+00 -2.922105e+00 -1.044162e+01 -4.067521e+00 -9.217526e+00 -1.032659e+01 2.359694e+00 -7.471917e+00 -4.617952e+00 6.541611e+01 2.604283e-02 7.932168e-01 3.505776e-01 4.134128e-01 3.851673e-02 9.348145e-01 6.529702e-02 -1.938155e-01 4.932078e-02 -1.875680e-01 -2.103104e-01 -1.826975e-02 -8.860736e-01 -1.169806e-01 -1.705368e-01 -3.133661e-02 -9.019152e-02 -3.463533e-02 -1.413837e-01 9.282935e-02 1.775613e-01 1.529185e-01 9.928065e-02 1.026631e-01 7.962468e-02 9.162319e-02
<VARIANCE> 39
 8.031381e+00 2.507917e+01 2.250769e+01 4.659604e+01 5.684592e+01 6.168803e+01 3.921902e+01 4.846920e+01 5.862434e+01 3.378756e+01 3.692069e+01 5.987051e+01 1.425489e+01 2.902017e-01 6.552938e-01 7.480800e-01 1.220044e+00 9.706399e-01 1.854605e+00 1.516223e+00 1.651624e+00 1.485643e+00 1.423108e+00 1.312057e+00 1.263801e+00 3.361230e-01 3.284603e-02 7.974207e-02 9.753584e-02 1.824503e-01 1.562659e-01 2.840031e-01 2.381340e-01 2.402934e-01 2.347950e-01 2.252173e-01 1.977686e-01 1.878390e-01 3.639084e-02
<GCONST> 9.202309e+01
<STATE> 4
<MEAN> 39
 -1.231234e+01 1.065026e+01 -5.664528e+00 1.089543e+01 -1.070171e+00 4.114459e-01 3.984066e+00 -2.541789e+00 -1.574025e+00 7.000324e+00 -1.586493e+00 1.525057e+00 5.712846e+01 -3.282560e-01 -8.882082e-02 -9.975821e-04 1.033403e-01 1.141059e-01 4.576476e-01 4.114148e-01 3.410379e-01 2.608304e-01 2.069693e-02 1.065432e-01 1.974154e-01 -3.448120e-01 4.779433e-03 -5.098157e-02 -1.018329e-02 -5.818547e-02 -1.821800e-02 -1.021658e-01 -2.883263e-02 1.049824e-02 -2.643635e-02 2.979348e-04 -8.567848e-03 -1.420756e-02 8.436729e-02
<VARIANCE> 39
 2.800432e+01 5.176292e+01 2.694405e+01 4.376646e+01 3.600287e+01 6.708413e+01 5.524015e+01 4.595977e+01 6.380114e+01 4.271112e+01 3.768322e+01 3.170668e+01 3.186211e+01 4.100240e-01 9.989854e-01 8.390854e-01 9.492057e-01 9.607040e-01 1.505286e+00 1.268082e+00 1.379258e+00 1.447572e+00 1.420312e+00 1.362000e+00 1.142724e+00 4.378442e-01 7.004154e-02 1.286817e-01 1.385279e-01 1.856676e-01 1.685945e-01 2.514231e-01 2.241798e-01 2.498847e-01 2.458850e-01 2.445449e-01 2.249978e-01 1.985644e-01 5.993454e-02
<GCONST> 9.711375e+01
<TRANSP> 5
 0.000000e+00 1.000000e+00 0.000000e+00 0.000000e+00 0.000000e+00
 0.000000e+00 7.143800e-01 2.856200e-01 0.000000e+00 0.000000e+00
 0.000000e+00 0.000000e+00 7.527782e-01 2.472218e-01 0.000000e+00
 0.000000e+00 0.000000e+00 0.000000e+00 8.157076e-01 1.842923e-01
 0.000000e+00 0.000000e+00 0.000000e+00 0.000000e+00 0.000000e+00
<ENDHMM>
~h "p"
<BEGINHMM>
<NUMSTATES> 5
<STATE> 2
<MEAN> 39
 -1.446082e+01 1.047385e+01 -6.636546e+00 1.115581e+01 -1.098519e+00 2.930495e+00 6.014075e+00 -2.191232e+00 -1.433855e+00 6.465858e+00 -7.451349e-01 3.278555e+00 5.394857e+01 -2.797466e-01 -1.123013e-01 7.079963e-02 1.304190e-01 2.662099e-02 1.071970e-01 1.926998e-01 3.250728e-01 2.307484e-01 2.830823e-02 5.462631e-02 7.252259e-02 -2.161916e-01 6.342238e-02 -7.725396e-02 4.660068e-02 -1.536842e-01 -4.325136e-02 -1.793201e-01 -9.797501e-02 -4.662170e-02 -1.049816e-01 -2.089674e-02 -1.320080e-02 -2.444062e-02 2.231873e-01
<VARIANCE> 39
 1.486415e+01 3.142256e+01 2.001772e+01 2.887922e+01 2.384716e+01 2.514540e+01 3.190105e+01 3.707846e+01 3.655357e+01 3.122225e+01 2.735699e+01 1.866931e+01 1.574871e+01 3.286594e-01 9.817184e-01 7.132489e-01 1.051512e+00 9.563825e-01 1.332774e+00 1.269543e+00 1.412394e+00 1.321054e+00 1.517383e+00 1.317530e+00 1.037994e+00 5.186345e-01 8.082303e-02 2.012780e-01 1.693861e-01 2.871716e-01 1.891450e-01 2.872352e-01 2.684535e-01 2.869739e-01 2.696137e-01 2.855681e-01 2.548690e-01 2.006354e-01 2.212792e-01
<GCONST> 9.378403e+01
<STATE> 3
<MEAN> 39
 -1.623930e+01 5.045579e+00 -2.189440e+00 4.573102e+00 -3.334952e+00 -3.366678e+00 3.399461e+00 -5.104301e-01 -2.692702e+00 6.533108e+00 3.621569e-01 4.002080e+00 6.255030e+01 1.920902e-01 -1.908100e+00 -2.300427e-01 -2.038222e+00 -7.935525e-01 -8.159033e-01 2.870775e-01 4.964458e-01 -9.611238e-02 6.854565e-01 7.798116e-01 2.887806e-01 2.265417e+00 2.200135e-01 8.654407e-02 -3.294806e-01 1.747186e-02 -7.717157e-02 3.197304e-01 3.323372e-01 4.155817e-02 7.800995e-02 -1.556258e-01 -2.045558e-01 -1.723064e-01 -1.041940e-01
<VARIANCE> 39
 3.883935e+01 6.219494e+01 5.956816e+01 8.016974e+01 3.436398e+01 5.640024e+01 3.983575e+01 3.890032e+01 4.767129e+01 5.601342e+01 3.520552e+01 2.282155e+01 7.331056e+01 3.207775e+00 3.298473e+00 7.465651e+00 6.069057e+00 2.915560e+00 6.692575e+00 6.193825e+00 4.539495e+00 3.935526e+00 3.992119e+00 2.881577e+00 2.309216e+00 5.730002e+00 5.668375e-01 6.894340e-01 1.148221e+00 1.141174e+00 4.782472e-01 1.067126e+00 8.565597e-01 6.961339e-01 7.067040e-01 9.281123e-01 6.649210e-01 4.842488e-01 1.256686e+00
<GCONST> 1.374168e+02
<STATE> 4
<MEAN> 39
 -8.828963e+00 2.332847e+00 -1.106987e+01 -2.976756e+00 -1.075266e+01 -1.829248e+00 1.025712e+01 1.763454e+00 -3.111958e+00 8.158795e-01 -4.179629e+00 4.780986e-01 6.964867e+01 1.819655e+00 1.126639e+00 -1.249219e+00 -1.104224e+00 -1.675729e+00 -5.600115e-01 1.194172e-01 -1.902446e-01 -4.256102e-01 -1.696554e+00 -1.588210e+00 -1.145010e+00 1.031303e+00 1.984182e-02 2.128710e-01 1.039745e-01 6.780437e-02 -2.103911e-02 -3.340037e-01 -3.676809e-01 -1.229586e-01 -8.682059e-02 4.609472e-02 6.507862e-02 5.422240e-02 1.923835e-02
<VARIANCE> 39
 3.205870e+01 8.282393e+01 3.250119e+01 5.405082e+01 6.329857e+01 6.678403e+01 5.496813e+01 5.636827e+01 4.648526e+01 8.443887e+01 5.781453e+01 4.345670e+01 4.235721e+01 2.383272e+00 4.547829e+00 3.237075e+00 2.607945e+00 3.112835e+00 4.071479e+00 4.444249e+00 4.477931e+00 4.696070e+00 6.201277e+00 3.165066e+00 2.960875e+00 7.162945e-01 4.785746e-01 1.084890e+00 4.307436e-01 5.187204e-01 5.517151e-01 6.228690e-01 7.458021e-01 7.691139e-01 7.638584e-01 1.205711e+00 6.948454e-01 6.132417e-01 1.713281e-01
<GCONST> 1.321156e+02
<TRANSP> 5
 0.000000e+00 1.000000e+00 0.000000e+00 0.000000e+00 0.000000e+00
 0.000000e+00 8.507767e-01 1.492233e-01 0.000000e+00 0.000000e+00
 0.000000e+00 0.000000e+00 7.623419e-01 2.376581e-01 0.000000e+00
 0.000000e+00 0.000000e+00 0.000000e+00 7.694164e-01 2.305836e-01
 0.000000e+00 0.000000e+00 0.000000e+00 0.000000e+00 0.000000e+00
<ENDHMM>
~h "r"
<BEGINHMM>
<NUMSTATES> 5
<STATE> 2
<MEAN> 39
 -3.159923e+00 1.111115e+01 -1.437244e+01 -4.403949e+00 -6.086339e+00 -7.432878e+00 -1.298691e+00 -1.285665e+01 -1.114893e+01 3.009786e+00 -5.555629e+00 -2.001051e+00 7.031390e+01 1.220353e+00 -2.201555e-01 -2.034774e+00 -1.357888e+00 -2.425118e-01 9.692102e-02 1.452210e-01 -6.773244e-01 -1.600525e-01 7.398413e-01 9.067134e-01 1.207828e-01 9.951767e-01 -3.958922e-01 -5.254039e-01 -1.431552e-02 3.135311e-01 1.774996e-01 -7.235019e-02 1.799271e-02 4.245405e-01 3.478304e-01 2.483753e-01 8.683701e-02 -2.752989e-02 3.048141e-02
<VARIANCE> 39
 1.949537e+01 8.068991e+01 5.072578e+01 7.155676e+01 5.963590e+01 8.000728e+01 8.115905e+01 9.999169e+01 8.001971e+01 6.444016e+01 5.679971e+01 5.061752e+01 2.616261e+01 2.396143e+00 3.049924e+00 2.721359e+00 3.161218e+00 3.234899e+00 4.893119e+00 3.536359e+00 4.499812e+00 3.959710e+00 5.560054e+00 4.023359e+00 3.244026e+00 1.785237e+00 5.274482e-01 6.242060e-01 4.650487e-01 7.534458e-01 4.584176e-01 6.337900e-01 6.086401e-01 8.219759e-01 6.382851e-01 7.986931e-01 6.226292e-01 5.840204e-01 3.320101e-01
<GCONST> 1.335170e+02
<STATE> 3
<MEAN> 39
 -7.277068e-01 1.067825e+01 -1.957700e+01 -7.485210e+00 -3.452348e+00 -6.501820e+00 -2.756979e+00 -1.776968e+01 -1.105670e+01 7.328953e+00 -2.520643e+00 -3.125803e+00 7.288549e+01 1.482981e-01 -1.523266e+00 -1.250119e+00 8.364037e-01 4.535989e-01 -6.187870e-01 -3.414086e-01 2.000253e-01 1.191305e+00 1.308704e+00 2.232467e-01 -7.240463e-01 6.972316e-01 -3.885322e-01 -2.103799e-01 5.530927e-01 5.779993e-01 -9.451521e-02 -2.065548e-01 9.983177e-02 6.030888e-01 2.549212e-01 -4.019103e-01 -4.498855e-01 -4.127653e-02 -1.504543e-01
<VARIANCE> 39
 1.148461e+01 4.274991e+01 5.632917e+01 7.328252e+01 5.618316e+01 6.722955e+01 8.756637e+01 1.395467e+02 1.089938e+02 5.487089e+01 5.589400e+01 5.942278e+01 1.478109e+01 4.905928e-01 1.636522e+00 1.511443e+00 2.506656e+00 2.235291e+00 3.067706e+00 2.801465e+00 4.616117e+00 3.129034e+00 3.745538e+00 3.231256e+00 2.759406e+00 4.823044e-01 1.875335e-01 2.146868e-01 2.301440e-01 3.141284e-01 3.700813e-01 3.850826e-01 5.020333e-01 5.374907e-01 5.430098e-01 6.003116e-01 4.630798e-01 4.837130e-01 6.404604e-02
<GCONST> 1.183990e+02
<STATE> 4
<MEAN> 39
 -1.745770e+00 6.122025e+00 -1.849088e+01 3.533786e-01 -3.165754e+00 -1.140305e+01 -5.867991e+00 -1.630835e+01 -7.441881e+00 9.473637e+00 -1.410355e+00 -2.964961e+00 7.192931e+01 -2.622123e-01 -2.040810e-01 1.989239e-01 5.820971e-01 -1.435483e-01 -2.070099e-01 2.189672e-01 6.714365e-01 3.244174e-01 -8.804903e-03 -2.230291e-01 -6.352986e-02 -2.485401e-01 -9.026846e-02 1.302353e-01 2.167977e-01 3.333578e-02 -2.702382e-02 9.972876e-02 3.422699e-02 3.316310e-02 -5.793288e-02 -1.529105e-01 -2.836195e-02 9.007450e-02 -1.212999e-01
<VARIANCE> 39
 1.730236e+01 4.114349e+01 4.187906e+01 4.998956e+01 6.055538e+01 8.613393e+01 7.155438e+01 1.256661e+02 1.077561e+02 7.121470e+01 6.615379e+01 6.620487e+01 2.167929e+01 3.677531e-01 1.474445e+00 1.210770e+00 1.605824e+00 1.230297e+00 2.555060e+00 2.105943e+00 2.441461e+00 2.679614e+00 2.373696e+00 2.000025e+00 1.618544e+00 6.749130e-01 5.468541e-02 1.292449e-01 1.540415e-01 1.805808e-01 1.946810e-01 3.439539e-01 3.085124e-01 3.326638e-01 3.852498e-01 3.459843e-01 2.807883e-01 2.677725e-01 5.664263e-02
<GCONST> 1.084405e+02
<TRANSP> 5
 0.000000e+00 1.000000e+00 0.000000e+00 0.000000e+00 0.000000e+00
 0.000000e+00 5.340017e-01 4.659983e-01 0.000000e+00 0.000000e+00
 0.000000e+00 0.000000e+00 5.331036e-01 4.668964e-01 0.000000e+00
 0.000000e+00 0.000000e+00 0.000000e+00 8.011980e-01 1.988020e-01
 0.000000e+00 0.000000e+00 0.000000e+00 0.000000e+00 0.000000e+00
<ENDHMM>
~h "s"
<BEGINHMM>
<NUMSTATES> 5
<STATE> 2
<MEAN> 39
 -2.053954e+01 8.048343e+00 3.964746e+00 -2.116072e+00 1.262151e+00 -4.798371e+00 -1.298735e+00 -4.430122e+00 -3.781419e+00 6.925673e+00 -3.938420e+00 6.256641e-01 6.842749e+01 -3.951077e+00 -5.349087e-01 2.316710e+00 -2.483662e+00 1.278598e+00 7.911838e-01 4.836591e-01 4.833371e-01 7.271996e-01 8.182822e-01 4.890260e-01 1.317632e-01 1.355207e+00 -1.030501e-02 2.659144e-01 -3.770882e-01 2.493977e-01 -1.330257e-01 -2.105639e-01 2.088626e-01 3.077487e-02 -3.650856e-02 -1.262045e-01 -1.914801e-02 -8.093088e-02 -6.184095e-02
<VARIANCE> 39
 5.516825e+01 3.668653e+01 6.613627e+01 1.114296e+02 5.372735e+01 7.895133e+01 1.038658e+02 7.706303e+01 5.709109e+01 4.926740e+01 4.354507e+01 3.547709e+01 4.259492e+01 2.586051e+00 2.799668e+00 3.255962e+00 4.569914e+00 4.121500e+00 4.844521e+00 4.092463e+00 3.898014e+00 4.573459e+00 3.003790e+00 2.415747e+00 2.012717e+00 1.918058e+00 6.792760e-01 3.232140e-01 7.096261e-01 9.988939e-01 5.595850e-01 6.562502e-01 6.894205e-01 6.612476e-01 6.340291e-01 5.453215e-01 4.605989e-01 3.474638e-01 3.281686e-01
<GCONST> 1.322119e+02
<STATE> 3
<MEAN> 39
 -3.252803e+01 8.845255e+00 6.533935e+00 -6.771075e+00 4.038893e+00 -2.895456e+00 2.744578e+00 -2.724791e+00 -1.816937e+00 8.395431e+00 -2.121657e+00 7.467272e-01 7.093137e+01 -4.798774e-01 -4.839221e-02 -9.363562e-02 1.905500e-01 -1.383362e-01 9.110519e-02 3.219466e-01 1.367325e-01 2.100990e-01 4.286499e-02 1.514527e-01 2.845980e-02 -1.448427e-01 7.267807e-01 -2.055116e-02 -1.662716e-01 3.030654e-01 -2.624604e-01 -1.556916e-01 -2.980153e-01 -2.279419e-01 -1.404813e-01 -8.873505e-02 -1.001028e-01 -6.904124e-02 -1.103535e-01
<VARIANCE> 39
 2.364886e+01 4.942206e+01 3.819395e+01 1.112895e+02 4.918126e+01 3.823432e+01 8.016675e+01 5.385846e+01 3.995654e+01 2.979999e+01 2.272973e+01 2.193830e+01 2.486785e+01 2.246867e+00 1.057507e+00 1.073228e+00 1.618249e+00 2.022142e+00 1.586825e+00 2.003192e+00 1.857205e+00 1.421940e+00 1.301105e+00 1.241534e+00 1.043538e+00 8.831811e-01 3.550122e-01 2.035573e-01 2.406158e-01 3.237080e-01 3.552099e-01 3.066387e-01 3.955149e-01 3.409046e-01 3.197390e-01 2.653811e-01 2.504119e-01 2.247711e-01 1.264378e-01
<GCONST> 1.073475e+02
<STATE> 4
<MEAN> 39
 -2.389137e+01 9.095331e+00 5.821420e+00 -2.623710e+00 -8.021305e-01 -6.771566e+00 -2.841717e+00 -7.407193e+00 -4.518971e+00 6.887921e+00 -3.402261e+00 -1.043733e+00 7.073159e+01 4.977049e+00 7.517445e-01 -1.260447e+00 1.487337e+00 -1.822503e+00 -2.306697e+00 -2.412900e+00 -1.807600e+00 -1.527036e+00 -8.822991e-01 -7.027089e-01 -9.164146e-01 4.030928e-01 3.888106e-01 1.831514e-02 -6.004055e-01 -6.572081e-02 2.619865e-02 -1.956165e-01 1.923764e-01 2.435104e-01 3.719090e-02 -3.974373e-02 -2.087298e-02 -1.886513e-02 1.697837e-01
<VARIANCE> 39
 7.904975e+01 4.624481e+01 4.311128e+01 1.138685e+02 4.873899e+01 6.567641e+01 9.259492e+01 6.727369e+01 5.188948e+01 3.737927e+01 3.051327e+01 3.280051e+01 1.828618e+01 3.493748e+00 3.361337e+00 4.338068e+00 3.815691e+00 4.779884e+00 5.482037e+00 4.837423e+00 4.283834e+00 2.970174e+00 2.941218e+00 2.458118e+00 2.466968e+00 1.645741e+00 1.437550e+00 6.307115e-01 4.636315e-01 5.367345e-01 6.850615e-01 1.017643e+00 1.266443e+00 1.054121e+00 7.067630e-01 5.352002e-01 4.616425e-01 4.327704e-01 1.985951e-01
<GCONST> 1.328484e+02
<TRANSP> 5
 0.000000e+00 1.000000e+00 0.000000e+00 0.000000e+00 0.000000e+00
 0.000000e+00 7.012405e-01 2.987595e-01 0.000000e+00 0.000000e+00
 0.000000e+00 0.000000e+00 8.672166e-01 1.327834e-01 0.000000e+00
 0.000000e+00 0.000000e+00 0.000000e+00 7.025378e-01 2.974623e-01
 0.000000e+00 0.000000e+00 0.000000e+00 0.000000e+00 0.000000e+00
<ENDHMM>
~h "t"
<BEGINHMM>
<NUMSTATES> 5
<STATE> 2
<MEAN> 39
 -4.828897e+00 1.654128e+01 -3.459350e+00 3.324286e+00 -5.543124e+00 -1.439275e+01 -1.132464e+00 -9.617726e+00 -1.385295e+01 -1.462872e-01 -8.866243e+00 -1.279313e-01 6.546094e+01 1.171732e-01 6.134365e-01 -2.614834e-01 -2.192385e-01 -5.099364e-01 4.072991e-01 5.362660e-01 5.179536e-01 2.776165e-01 -5.515815e-01 -4.113950e-01 7.001114e-02 -6.046168e-01 -1.190070e-01 -3.509931e-02 1.002681e-01 9.418042e-02 6.848555e-02 1.237692e-01 -1.995811e-02 2.289422e-02 8.637132e-02 8.075952e-02 8.335399e-02 1.236148e-02 -6.345699e-02
<VARIANCE> 39
 1.999191e+01 3.430288e+01 2.130670e+01 6.851050e+01 6.513564e+01 7.917208e+01 5.786067e+01 6.294913e+01 9.060000e+01 6.522783e+01 5.594815e+01 3.663275e+01 1.934767e+01 3.042713e-01 4.990908e-01 7.242237e-01 1.127664e+00 1.318865e+00 1.808187e+00 1.351377e+00 1.264863e+00 1.720585e+00 1.238908e+00 1.193355e+00 1.279053e+00 3.731077e-01 4.047959e-02 7.482938e-02 9.098887e-02 1.746006e-01 1.838056e-01 2.542431e-01 2.358790e-01 2.281396e-01 2.609606e-01 2.410030e-01 2.226004e-01 2.070760e-01 3.223091e-02
<GCONST> 9.582073e+01
<STATE> 3
<MEAN> 39
 -7.526141e+00 1.831682e+01 -3.487684e+00 6.227211e+00 -4.975992e+00 -6.796881e+00 9.377666e-01 -5.674449e+00 -9.801124e+00 -2.493483e+00 -8.820435e+00 6.849446e-01 5.937809e+01 -1.015777e+00 -4.182039e-01 -1.208205e-01 9.655702e-01 4.053985e-01 1.649091e+00 6.893956e-01 5.535456e-01 1.196894e+00 4.911330e-01 7.562414e-01 5.617085e-01 -1.324382e+00 -1.116990e-01 -2.012143e-01 -6.650146e-02 -4.898371e-03 8.242465e-02 5.969016e-02 3.352804e-02 1.290367e-02 1.381089e-01 2.337616e-01 1.909396e-01 7.637943e-02 1.730821e-02
<VARIANCE> 39
 2.587132e+01 2.181959e+01 1.332072e+01 4.965251e+01 4.950661e+01 4.336187e+01 3.620693e+01 3.774010e+01 6.015718e+01 4.067177e+01 3.568805e+01 2.632108e+01 1.666179e+01 6.054683e-01 9.306622e-01 7.402023e-01 1.382515e+00 1.733929e+00 2.359159e+00 1.537026e+00 2.065101e+00 2.396167e+00 1.339570e+00 1.539729e+00 1.226840e+00 4.692641e-01 8.685488e-02 1.142493e-01 1.179644e-01 1.886936e-01 2.090347e-01 3.585485e-01 2.478900e-01 3.083879e-01 2.936808e-01 2.249519e-01 2.466245e-01 2.166342e-01 7.571013e-02
<GCONST> 9.811143e+01
<STATE> 4
<MEAN> 39
 -1.459751e+01 1.324389e+01 -3.174643e+00 1.045826e+01 -1.162680e+00 1.569029e+00 5.558033e+00 -7.773313e-01 -6.370070e-01 5.181449e+00 -2.220956e+00 3.804937e+00 5.464877e+01 -2.964581e-01 -3.448712e-01 -2.052606e-01 2.748309e-01 1.934652e-01 7.518346e-01 2.990938e-01 1.458284e-01 3.211989e-01 2.633635e-01 4.092197e-01 1.854293e-01 -4.152375e-01 6.147527e-02 -7.665714e-02 4.744986e-02 -1.479014e-01 -8.042445e-02 -2.383868e-01 -9.972924e-02 -9.841007e-02 -2.035490e-01 -4.674305e-02 -4.900122e-02 -7.007173e-02 2.329834e-01
<VARIANCE> 39
 2.031645e+01 1.851593e+01 2.229213e+01 3.762842e+01 2.782228e+01 3.429759e+01 3.073903e+01 3.186569e+01 4.221171e+01 3.963209e+01 2.076542e+01 1.699874e+01 1.516697e+01 5.331112e-01 9.683452e-01 9.864439e-01 1.513500e+00 1.416488e+00 1.675797e+00 1.479834e+00 1.333930e+00 1.776302e+00 1.755015e+00 1.374520e+00 1.175577e+00 5.855505e-01 9.097628e-02 1.573068e-01 2.023263e-01 3.233549e-01 2.652148e-01 3.064820e-01 2.787239e-01 2.629642e-01 3.370682e-01 2.926411e-01 1.920213e-01 1.997466e-01 1.600857e-01
<GCONST> 9.695506e+01
<TRANSP> 5
 0.000000e+00 1.000000e+00 0.000000e+00 0.000000e+00 0.000000e+00
 0.000000e+00 8.023582e-01 1.976418e-01 0.000000e+00 0.000000e+00
 0.000000e+00 0.000000e+00 7.031859e-01 2.968141e-01 0.000000e+00
 0.000000e+00 0.000000e+00 0.000000e+00 8.037044e-01 1.962956e-01
 0.000000e+00 0.000000e+00 0.000000e+00 0.000000e+00 0.000000e+00
<ENDHMM>
~h "v"
<BEGINHMM>
<NUMSTATES> 5
<STATE> 2
<MEAN> 39
 -1.298389e+01 1.132870e+01 -9.482852e+00 6.391600e+00 -4.548811e+00 3.343611e+00 1.105750e+01 3.219500e+00 1.389119e+00 6.117296e+00 -1.103886e+00 3.845482e+00 5.549910e+01 6.338943e-01 -4.772573e-02 -5.002711e-01 -5.762413e-01 -7.879187e-01 2.683328e-01 7.395149e-01 6.773952e-01 -9.459423e-02 -9.207301e-01 -6.306965e-01 -7.084410e-02 3.534559e-01 4.093115e-01 -2.376090e-01 -2.750334e-01 -3.901574e-01 -4.362698e-01 -2.068568e-01 9.495447e-02 4.233537e-02 -2.410748e-01 -3.329681e-01 -8.237687e-02 -6.653402e-03 5.279750e-01
<VARIANCE> 39
 3.161515e+01 1.769518e+01 3.177589e+01 4.946624e+01 6.065778e+01 7.471931e+01 6.172825e+01 4.254539e+01 2.933951e+01 2.811487e+01 2.856281e+01 2.105399e+01 4.210175e+01 3.916470e+00 1.631412e+00 3.218874e+00 5.152634e+00 6.596389e+00 2.766128e+00 3.044927e+00 2.796323e+00 2.599364e+00 3.505110e+00 1.930377e+00 1.282216e+00 3.597389e+00 4.492104e-01 1.929520e-01 3.472265e-01 6.400442e-01 8.470159e-01 3.625542e-01 4.676681e-01 4.646674e-01 3.679962e-01 4.301890e-01 2.754973e-01 2.066570e-01 4.221240e-01
<GCONST> 1.203877e+02
<STATE> 3
<MEAN> 39
 1.874404e+00 1.390647e+00 -2.055812e+01 -5.730164e+00 -2.315631e+01 -2.788680e+00 1.133097e+01 5.272084e+00 -5.261029e+00 -7.577658e+00 -5.460498e+00 2.946149e+00 7.302534e+01 5.385229e-01 -4.646017e-02 -2.046844e-01 -2.254293e-01 -4.481022e-01 -6.388942e-01 -5.545776e-01 -2.990754e-01 -6.546394e-01 -7.490798e-01 -9.655309e-02 -6.293156e-02 1.038653e+00 -4.316588e-01 3.458318e-01 3.335460e-01 2.468143e-01 4.962673e-01 1.909095e-02 -2.079468e-01 -2.234039e-01 5.483446e-02 3.282882e-01 6.288828e-02 -4.185245e-02 -4.114388e-01
<VARIANCE> 39
 7.810953e+00 5.046636e+01 2.978209e+01 2.428742e+01 6.855164e+01 5.122308e+01 6.188980e+01 8.691785e+01 5.386362e+01 4.975727e+01 4.619390e+01 3.885394e+01 1.969134e+01 2.694332e+00 3.527639e+00 2.237373e+00 2.292694e+00 4.507313e+00 1.905420e+00 2.442559e+00 3.104716e+00 2.405610e+00 3.413867e+00 1.661376e+00 1.277140e+00 3.935380e+00 2.738853e-01 3.328068e-01 3.017650e-01 4.226652e-01 6.026121e-01 3.718842e-01 4.023460e-01 4.061365e-01 4.207398e-01 4.095148e-01 3.021058e-01 2.170093e-01 2.704615e-01
<GCONST> 1.180969e+02
<STATE> 4
<MEAN> 39
 -6.362948e+00 1.180918e+01 -1.225891e+01 -4.187868e+00 -1.201112e+01 -8.046976e+00 5.438895e+00 -1.734168e+00 -9.484033e+00 -5.244110e+00 -8.048078e+00 -1.615800e+00 7.096233e+01 -1.435331e+00 8.897148e-01 1.306635e+00 -8.521111e-02 1.401643e+00 1.657208e-02 -3.290106e-01 -9.618237e-01 -5.273391e-01 2.755692e-01 -4.595372e-01 -4.204897e-01 -4.032502e-01 3.630803e-01 -3.329637e-01 -2.617078e-01 -1.622446e-01 -4.914780e-01 -1.497970e-01 -1.877961e-02 1.109953e-01 3.993281e-02 1.400352e-03 1.586314e-01 8.987571e-02 1.982396e-01
<VARIANCE> 39
 4.124979e+01 2.949433e+01 4.374662e+01 2.675118e+01 7.915564e+01 3.459461e+01 2.986019e+01 5.878404e+01 3.536022e+01 4.152919e+01 3.373230e+01 3.870248e+01 1.319367e+01 3.159593e+00 2.641030e+00 1.820657e+00 1.373459e+00 5.406448e+00 2.755045e+00 2.366771e+00 2.682800e+00 1.702774e+00 2.305295e+00 1.828692e+00 1.858918e+00 8.918889e-01 8.229520e-01 3.357229e-01 3.855453e-01 2.437806e-01 1.177256e+00 7.092020e-01 4.608944e-01 4.379414e-01 2.732828e-01 3.901834e-01 3.676193e-01 3.395166e-01 1.252777e-01
<GCONST> 1.165137e+02
<TRANSP> 5
 0.000000e+00 1.000000e+00 0.000000e+00 0.000000e+00 0.000000e+00
 0.000000e+00 8.152525e-01 1.847475e-01 0.000000e+00 0.000000e+00
 0.000000e+00 0.000000e+00 8.528547e-01 1.471453e-01 0.000000e+00
 0.000000e+00 0.000000e+00 0.000000e+00 8.282208e-01 1.717791e-01
 0.000000e+00 0.000000e+00 0.000000e+00 0.000000e+00 0.000000e+00
<ENDHMM>
~h "w"
<BEGINHMM>
<NUMSTATES> 5
<STATE> 2
<MEAN> 39
 -3.835006e+00 9.587090e+00 -1.560540e+01 -2.452688e+00 -1.845002e+01 -5.621601e+00 9.040804e+00 1.616454e+00 -2.337894e+00 -1.186094e+00 -7.458981e+00 -1.022737e+00 6.634550e+01 -4.161359e-01 4.699029e-01 2.180046e-01 5.036179e-01 4.565201e-01 3.329430e-01 2.140654e-02 1.404777e-01 3.012732e-01 3.408919e-01 1.665117e-01 2.699558e-01 -1.027500e+00 -6.715956e-02 -2.136127e-03 1.378191e-01 1.770533e-02 1.101118e-01 7.104565e-03 -7.836051e-02 -6.970104e-02 -5.453956e-02 9.518283e-03 9.244578e-03 -8.532292e-03 -6.361233e-03
<VARIANCE> 39
 2.615776e+01 5.635268e+01 5.899393e+01 3.489152e+01 5.418961e+01 5.446225e+01 4.589802e+01 4.686189e+01 4.561940e+01 4.521318e+01 4.126088e+01 3.863486e+01 7.768457e+01 7.460718e-01 1.392460e+00 1.238702e+00 1.161792e+00 1.812768e+00 2.345331e+00 1.896654e+00 2.005811e+00 1.970167e+00 1.748787e+00 1.421293e+00 1.398114e+00 1.092461e+00 1.021978e-01 2.171078e-01 1.871646e-01 2.265385e-01 2.536305e-01 3.878312e-01 3.686868e-01 3.490388e-01 3.461695e-01 2.924064e-01 2.734330e-01 2.558517e-01 1.567546e-01
<GCONST> 1.086808e+02
<STATE> 3
<MEAN> 39
 -4.456551e+00 2.120761e+01 -4.152548e+00 3.993297e+00 -1.395655e+01 -9.337789e+00 2.056189e+00 -1.752164e+00 -3.222648e+00 1.325037e+00 -7.574907e+00 -1.044421e+00 5.903095e+01 5.361527e-01 1.556847e-01 -2.397346e-01 -6.618192e-01 -6.912982e-02 -7.060638e-01 -2.704590e-01 -2.498453e-01 -6.971293e-01 -7.265374e-01 -8.292354e-01 -2.580959e-01 7.248207e-01 4.519041e-02 -3.145737e-01 -1.955668e-01 -1.665400e-01 5.811870e-02 -6.819685e-03 1.028574e-01 -1.723486e-01 -3.369154e-01 -1.107877e-01 6.163617e-02 2.344502e-01 3.424799e-01
<VARIANCE> 39
 3.043554e+01 3.061226e+01 2.950444e+01 3.343773e+01 5.401980e+01 6.578232e+01 4.046663e+01 3.422346e+01 3.237910e+01 2.113232e+01 3.119465e+01 2.344515e+01 1.594275e+01 1.253348e+00 1.753798e+00 1.855106e+00 2.369827e+00 3.006354e+00 3.245299e+00 4.344556e+00 2.749535e+00 2.775800e+00 2.135812e+00 2.162410e+00 1.794277e+00 1.186350e+00 2.132526e-01 2.844445e-01 1.738414e-01 3.409967e-01 6.693542e-01 6.348490e-01 5.869752e-01 5.537707e-01 5.256416e-01 3.791836e-01 4.786117e-01 4.239919e-01 1.230570e-01
<GCONST> 1.141325e+02
<STATE> 4
<MEAN> 39
 -2.534482e+00 1.551000e+01 -8.617887e+00 3.853835e-01 -1.148230e+01 -1.105524e+01 3.643337e+00 -6.393988e+00 -1.089796e+01 -1.450590e+00 -7.820102e+00 2.626082e+00 6.685190e+01 -6.558219e-01 -1.857348e+00 -1.197547e-01 7.196096e-01 2.213325e+00 3.018494e-01 -8.564166e-01 -1.895640e+00 -1.004929e+00 1.287957e+00 1.262959e+00 8.130152e-01 1.200379e+00 -1.868261e-01 1.474748e-01 3.743110e-01 3.993493e-01 1.289495e-01 2.636415e-02 -3.070998e-01 7.593165e-02 4.946440e-01 4.641149e-01 1.278684e-01 -2.969420e-01 -3.025138e-01
<VARIANCE> 39
 2.484583e+01 3.687246e+01 3.176523e+01 4.080191e+01 7.239132e+01 8.122536e+01 5.396957e+01 8.990655e+01 7.622866e+01 5.777593e+01 7.770625e+01 4.149781e+01 3.795452e+01 6.565657e-01 1.646886e+00 2.095431e+00 2.325595e+00 2.308876e+00 3.241630e+00 4.782550e+00 3.919753e+00 5.104440e+00 4.681375e+00 3.195519e+00 3.584900e+00 1.175501e+00 1.451572e-01 4.240330e-01 2.483751e-01 4.313121e-01 5.954053e-01 5.186427e-01 8.443876e-01 9.841651e-01 7.237389e-01 9.654780e-01 9.566957e-01 6.028814e-01 1.961670e-01
<GCONST> 1.263966e+02
<TRANSP> 5
 0.000000e+00 1.000000e+00 0.000000e+00 0.000000e+00 0.000000e+00
 0.000000e+00 8.926407e-01 1.073593e-01 0.000000e+00 0.000000e+00
 0.000000e+00 0.000000e+00 7.251623e-01 2.748376e-01 0.000000e+00
 0.000000e+00 0.000000e+00 0.000000e+00 6.705428e-01 3.294572e-01
 0.000000e+00 0.000000e+00 0.000000e+00 0.000000e+00 0.000000e+00
<ENDHMM>
~h "y"
<BEGINHMM>
<NUMSTATES> 5
<STATE> 2
<MEAN> 39
 -5.466271e+00 8.414124e+00 -4.656974e+00 6.121040e+00 8.105838e-01 -1.777576e+01 -5.539495e+00 -1.159258e+01 -1.312059e+01 1.205379e+00 -7.779171e+00 -3.335961e+00 7.086145e+01 -6.929956e-01 -1.678450e-01 1.362643e+00 2.321794e+00 1.142372e+00 -9.619035e-01 -8.439005e-01 9.340130e-01 8.063751e-01 -6.778741e-02 -9.775013e-01 -1.084810e+00 -4.516577e-01 2.050810e-02 9.238778e-02 1.092914e-01 -4.070148e-02 -4.881988e-01 1.876775e-02 3.112891e-01 3.747645e-01 1.234651e-01 -2.414925e-01 -7.154019e-02 8.041780e-02 -1.158409e-01
<VARIANCE> 39
 2.466677e+01 3.207407e+01 3.760048e+01 7.570058e+01 7.899719e+01 1.255869e+02 7.037200e+01 6.234351e+01 9.327837e+01 4.299122e+01 6.651234e+01 4.571098e+01 3.042561e+01 2.375985e-01 8.317091e-01 1.298729e+00 2.016453e+00 2.609265e+00 3.179929e+00 3.247454e+00 3.542964e+00 3.208013e+00 2.904718e+00 2.681198e+00 2.286749e+00 4.450119e-01 5.102947e-02 1.057351e-01 1.899871e-01 4.181085e-01 2.905155e-01 4.663358e-01 4.546203e-01 6.702987e-01 6.338868e-01 4.711953e-01 5.247930e-01 5.085630e-01 4.515555e-02
<GCONST> 1.141916e+02
<STATE> 3
<MEAN> 39
 -7.594984e+00 1.080104e+01 4.968229e+00 1.561902e+01 3.424522e-01 -2.416730e+01 -6.470498e+00 -3.791692e+00 -9.976421e+00 -9.275343e-01 -1.222238e+01 -5.060549e+00 6.762649e+01 -8.984905e-02 1.417760e-01 3.067172e-01 2.304661e-01 1.422970e-01 -2.975002e-01 -5.496635e-01 1.908678e-01 3.478905e-01 3.606125e-01 -1.034496e-01 -1.366601e-01 -2.015440e-01 7.353361e-02 -6.667539e-03 -2.320891e-01 -2.482902e-01 3.882761e-02 1.641282e-01 -3.618612e-02 -2.703892e-01 -7.952150e-02 1.803012e-01 1.409994e-01 -1.948096e-02 5.700340e-02
<VARIANCE> 39
 1.273659e+01 3.300541e+01 3.390173e+01 4.140023e+01 8.554667e+01 1.418218e+02 8.385255e+01 3.775760e+01 6.460381e+01 3.560887e+01 3.711959e+01 3.935724e+01 1.670628e+01 2.393992e-01 4.926067e-01 1.470950e+00 9.987901e-01 1.197415e+00 1.827489e+00 1.885912e+00 2.161369e+00 1.254582e+00 1.800409e+00 1.288502e+00 1.159591e+00 3.058374e-01 2.621345e-02 5.288772e-02 1.042588e-01 1.349067e-01 1.567018e-01 3.211763e-01 2.619824e-01 2.585372e-01 2.443410e-01 2.327440e-01 2.645538e-01 1.956542e-01 2.271412e-02
<GCONST> 9.460007e+01
<STATE> 4
<MEAN> 39
 -6.775527e+00 1.197591e+01 -8.719994e-01 1.009815e+01 3.997337e+00 -1.825802e+01 -8.170445e+00 -8.996631e+00 -1.189042e+01 3.716956e+00 -9.485055e+00 -5.503644e+00 6.680085e+01 5.482582e-02 3.660698e-01 -5.897915e-01 -7.083835e-01 -3.765048e-02 1.354381e+00 7.654260e-01 -4.750735e-01 -8.048620e-01 -1.045704e-01 7.099577e-01 5.360223e-01 -3.854360e-01 -3.056135e-02 1.567469e-02 4.581850e-02 -1.546312e-02 -1.590118e-01 4.003460e-02 1.844555e-01 1.262801e-01 -5.081372e-02 -2.588738e-01 -5.104028e-02 1.473264e-01 -4.586283e-02
<VARIANCE> 39
 1.885966e+01 2.858145e+01 2.475513e+01 7.755523e+01 4.587475e+01 1.248797e+02 7.360831e+01 5.208900e+01 7.748026e+01 5.093901e+01 4.167065e+01 7.162794e+01 2.254615e+01 3.685562e-01 4.929296e-01 9.628241e-01 1.572543e+00 1.073543e+00 1.959650e+00 1.442714e+00 2.164703e+00 2.440148e+00 1.999699e+00 1.650865e+00 1.553496e+00 4.554518e-01 4.119534e-02 8.805890e-02 1.132623e-01 1.731261e-01 1.802506e-01 3.093908e-01 2.711075e-01 2.763844e-01 3.500353e-01 2.939922e-01 2.727493e-01 2.801645e-01 6.270474e-02
<GCONST> 1.015181e+02
<TRANSP> 5
 0.000000e+00 1.000000e+00 0.000000e+00 0.000000e+00 0.000000e+00
 0.000000e+00 7.173995e-01 2.826005e-01 0.000000e+00 0.000000e+00
 0.000000e+00 0.000000e+00 8.553898e-01 1.446102e-01 0.000000e+00
 0.000000e+00 0.000000e+00 0.000000e+00 8.094970e-01 1.905030e-01
 0.000000e+00 0.000000e+00 0.000000e+00 0.000000e+00 0.000000e+00
<ENDHMM>
~h "z"
<BEGINHMM>
<NUMSTATES> 5
<STATE> 2
<MEAN> 39
 -1.813145e+01 1.477617e+01 6.664824e+00 1.711673e-01 1.679428e+00 -4.894396e+00 6.092284e-01 -4.332795e+00 -7.670669e+00 3.151145e+00 -6.163531e+00 -1.252385e+00 6.523795e+01 -2.095603e+00 -8.029469e-01 1.321653e+00 -1.617738e+00 2.729173e-01 4.428893e-01 3.476859e-01 7.425689e-02 2.040130e-01 4.237448e-01 4.387341e-01 1.401558e-01 7.340834e-01 1.555415e-01 -1.131928e-01 -1.586104e-01 1.985910e-01 -1.645524e-01 -4.854532e-02 -1.131605e-01 -8.599240e-02 5.707642e-02 -2.365608e-02 6.124718e-02 -1.380283e-02 1.713221e-02
<VARIANCE> 39
 9.617104e+01 3.890866e+01 7.299216e+01 1.134768e+02 5.530548e+01 7.406574e+01 1.009671e+02 9.252138e+01 5.736380e+01 3.958297e+01 3.498082e+01 3.404056e+01 3.507972e+01 6.430272e+00 2.550376e+00 6.208644e+00 9.629117e+00 5.088228e+00 4.809076e+00 4.722994e+00 5.448731e+00 4.234343e+00 2.614932e+00 2.189548e+00 1.972518e+00 1.697001e+00 1.132547e+00 3.903530e-01 9.659692e-01 1.629585e+00 9.021972e-01 6.910979e-01 7.235038e-01 9.262610e-01 7.149983e-01 4.619765e-01 3.927120e-01 3.348189e-01 3.635890e-01
<GCONST> 1.371004e+02
<STATE> 3
<MEAN> 39
 -2.255729e+01 9.559903e+00 6.111717e+00 -2.821010e-01 9.984875e-01 -2.773001e+00 1.116503e+00 -3.341552e+00 -5.662790e+00 4.901343e+00 -3.679869e+00 9.104527e-01 6.412907e+01 5.707310e-01 -2.242462e-01 -9.264019e-01 6.460411e-01 -3.620545e-01 3.465446e-01 8.444007e-02 5.303904e-03 1.599518e-01 1.039719e-02 2.037446e-01 2.095138e-01 -5.861678e-01 1.377331e-01 1.279938e-01 -1.295168e-01 1.214911e-01 4.280286e-02 -3.944108e-03 7.235181e-02 2.767943e-02 -2.927218e-02 1.416390e-02 -4.031721e-02 1.478160e-02 -1.131606e-01
<VARIANCE> 39
 1.031258e+02 4.176055e+01 6.018682e+01 1.289135e+02 4.310934e+01 8.288729e+01 6.934998e+01 6.216100e+01 8.331110e+01 6.070961e+01 3.606351e+01 2.463471e+01 2.935153e+01 1.417603e+00 1.249313e+00 1.575556e+00 2.207384e+00 1.485857e+00 1.996881e+00 1.907337e+00 1.765281e+00 1.833974e+00 1.582667e+00 1.436348e+00 1.201890e+00 8.377706e-01 2.245328e-01 1.796085e-01 2.465372e-01 2.830962e-01 2.526948e-01 3.171685e-01 2.711042e-01 2.776023e-01 3.333910e-01 2.572666e-01 2.550802e-01 2.141797e-01 1.030017e-01
<GCONST> 1.111836e+02
<STATE> 4
<MEAN> 39
 -1.663743e+01 7.222507e+00 -4.428404e+00 8.507470e+00 -3.962904e-01 4.009504e+00 6.809819e+00 -1.101943e+00 -3.805389e-01 8.666969e+00 1.838113e+00 4.354042e+00 5.679519e+01 1.281580e-01 1.826740e-01 -2.707094e-01 3.800634e-01 5.267623e-02 1.810675e-01 2.232557e-01 1.228176e-01 1.884404e-01 2.369367e-02 1.034028e-03 6.339255e-02 -3.217678e-01 -1.151429e-02 8.518862e-03 4.258534e-02 -4.944814e-02 2.572698e-02 -7.399956e-02 -5.362539e-02 -1.760265e-02 -2.596795e-02 -1.726157e-02 -3.633839e-02 -3.363883e-02 4.923924e-02
<VARIANCE> 39
 1.916173e+01 4.884411e+01 4.004684e+01 6.724015e+01 2.985696e+01 3.631563e+01 3.741885e+01 3.724324e+01 6.099916e+01 4.143915e+01 3.898938e+01 1.878469e+01 2.876015e+01 4.984805e-01 8.446414e-01 7.796794e-01 9.939849e-01 9.980580e-01 1.081008e+00 1.163275e+00 1.109230e+00 1.204129e+00 1.402134e+00 1.264413e+00 9.996613e-01 3.748630e-01 8.565391e-02 7.733094e-02 9.967019e-02 1.546005e-01 1.540195e-01 1.891424e-01 1.998899e-01 1.835119e-01 2.158249e-01 2.238298e-01 2.021817e-01 1.878895e-01 3.505053e-02
<GCONST> 9.174065e+01
<TRANSP> 5
 0.000000e+00 1.000000e+00 0.000000e+00 0.000000e+00 0.000000e+00
 0.000000e+00 8.663664e-01 1.336336e-01 0.000000e+00 0.000000e+00
 0.000000e+00 0.000000e+00 8.421644e-01 1.578356e-01 0.000000e+00
 0.000000e+00 0.000000e+00 0.000000e+00 8.871655e-01 1.128345e-01
 0.000000e+00 0.000000e+00 0.000000e+00 0.000000e+00 0.000000e+00
<ENDHMM>
~h "aa"
<BEGINHMM>
<NUMSTATES> 5
<STATE> 2
<MEAN> 39
 -1.004922e+01 4.455990e-01 -1.267954e+01 -4.110785e+00 -9.596370e+00 3.523555e+00 1.127399e+01 -1.187023e+00 -4.100949e+00 1.794807e+00 -5.051775e+00 -1.136524e+00 7.156463e+01 2.133378e+00 5.560957e-01 -1.282668e+00 -1.066743e-01 -1.463549e+00 -8.039849e-01 -4.629788e-01 2.133446e-01 3.701723e-01 -1.824284e+00 -1.654822e+00 -1.391719e+00 7.773933e-01 2.429438e-01 4.230980e-01 -2.695169e-01 -2.594420e-01 -1.431486e-01 -2.435053e-01 -3.697940e-01 -3.007823e-01 -4.533733e-02 1.605341e-01 1.207244e-01 2.340046e-01 5.128822e-02
<VARIANCE> 39
 2.843374e+01 5.702790e+01 1.895219e+01 2.576462e+01 4.292636e+01 5.650699e+01 6.773815e+01 5.062725e+01 3.888339e+01 7.233413e+01 4.645414e+01 3.951114e+01 9.766768e+00 2.106630e+00 5.094495e+00 2.205664e+00 2.605950e+00 2.122696e+00 2.890824e+00 3.803509e+00 4.696672e+00 3.999122e+00 5.854128e+00 2.756180e+00 3.096695e+00 7.725436e-01 4.931442e-01 9.104806e-01 3.242491e-01 3.893248e-01 3.835699e-01 5.025277e-01 7.118682e-01 6.567559e-01 6.414053e-01 8.960124e-01 7.600780e-01 5.509573e-01 1.554471e-01
<GCONST> 1.242248e+02
<STATE> 3
<MEAN> 39
 -5.268148e-01 4.225006e+00 -1.998398e+01 -4.442640e+00 -1.461076e+01 -2.786731e+00 6.293279e+00 -3.458861e+00 -2.493270e+00 -2.433931e-01 -6.794082e+00 -1.945308e+00 7.421935e+01 8.580519e-02 2.723618e-01 1.437705e-01 4.162336e-01 3.956849e-01 -4.371277e-01 -4.761708e-01 -3.254129e-01 -8.734643e-02 4.504751e-01 5.190802e-01 4.519416e-01 -2.577369e-01 -2.986531e-01 6.810991e-02 3.705366e-01 1.776967e-01 3.366466e-01 1.031430e-01 -1.158706e-02 -3.208062e-02 -1.419308e-01 1.070786e-01 8.524384e-02 6.038433e-02 -2.382758e-01
<VARIANCE> 39
 8.179688e+00 4.729651e+01 3.400664e+01 3.419986e+01 5.297369e+01 6.358652e+01 5.868627e+01 8.042434e+01 4.596083e+01 5.879380e+01 5.093085e+01 4.471102e+01 8.623045e+00 6.048309e-01 1.342097e+00 2.215255e+00 1.207881e+00 1.964676e+00 1.791207e+00 2.176705e+00 2.095953e+00 2.030813e+00 1.707731e+00 1.524476e+00 1.328052e+00 4.542202e-01 1.070261e-01 2.387532e-01 2.272343e-01 2.188784e-01 2.352447e-01 3.106266e-01 3.422100e-01 3.818632e-01 3.316479e-01 3.546882e-01 2.934210e-01 2.717189e-01 5.686379e-02
<GCONST> 1.049184e+02
<STATE> 4
<MEAN> 39
 -6.528590e+00 1.049587e+01 -1.351788e+01 -8.970867e-01 -7.470448e+00 8.822004e-01 6.248435e+00 -3.150120e+00 -3.482747e+00 4.437743e+00 -3.310272e+00 1.251076e+00 6.520753e+01 -1.199074e+00 3.328830e-01 6.667531e-01 6.223822e-01 1.002934e+00 1.426640e-01 -1.195766e-01 2.914509e-01 -2.579024e-02 4.806586e-01 9.835108e-02 3.527034e-01 -1.618121e+00 1.489921e-02 -2.834739e-01 -1.326276e-01 7.938890e-03 -5.904950e-02 -1.585947e-01 -1.916768e-01 -2.464435e-02 1.471657e-01 -3.958705e-02 -1.732624e-01 -1.625909e-01 2.438364e-01
<VARIANCE> 39
 2.097714e+01 2.259911e+01 1.604313e+01 2.224283e+01 2.873605e+01 5.522856e+01 4.640822e+01 4.099941e+01 2.265670e+01 3.192244e+01 2.636751e+01 2.220971e+01 3.152885e+01 6.309479e-01 1.571079e+00 1.301682e+00 1.398728e+00 2.985182e+00 2.023462e+00 3.364516e+00 2.990407e+00 1.972864e+00 2.412530e+00 1.727713e+00 1.789742e+00 1.611682e+00 1.189960e-01 1.756277e-01 3.279013e-01 2.861064e-01 4.865297e-01 3.570814e-01 4.588013e-01 4.986621e-01 3.448249e-01 4.567265e-01 2.643245e-01 3.035752e-01 3.322687e-01
<GCONST> 1.079752e+02
<TRANSP> 5
 0.000000e+00 1.000000e+00 0.000000e+00 0.000000e+00 0.000000e+00
 0.000000e+00 8.089527e-01 1.910473e-01 0.000000e+00 0.000000e+00
 0.000000e+00 0.000000e+00 8.869017e-01 1.130983e-01 0.000000e+00
 0.000000e+00 0.000000e+00 0.000000e+00 7.439653e-01 2.560347e-01
 0.000000e+00 0.000000e+00 0.000000e+00 0.000000e+00 0.000000e+00
<ENDHMM>
~h "ae"
<BEGINHMM>
<NUMSTATES> 5
<STATE> 2
<MEAN> 39
 -8.335382e+00 6.290869e+00 -1.055938e+01 2.731319e+00 -7.362518e+00 -8.639937e+00 -9.570587e-03 -4.341242e+00 -1.318519e+00 8.846953e+00 -2.435684e+00 -1.946702e-01 6.656256e+01 9.785505e-01 -1.065246e+00 -9.183351e-01 -8.949563e-02 -4.794599e-01 -8.784196e-01 -1.297064e-01 5.449760e-01 3.499349e-01 -1.004533e-02 -3.580474e-01 -5.846723e-01 1.272935e+00 -1.791498e-01 -6.053123e-02 5.521796e-02 -1.502765e-02 1.581592e-01 6.520238e-02 1.148382e-01 1.269796e-01 -8.522975e-02 -1.179599e-01 -6.336937e-02 -2.469659e-02 8.789565e-02
<VARIANCE> 39
 3.136753e+01 4.857447e+01 4.443808e+01 8.216156e+01 5.815225e+01 9.756520e+01 7.593090e+01 7.962180e+01 7.313145e+01 6.475903e+01 5.552050e+01 4.802325e+01 8.860329e+01 3.604903e+00 3.134903e+00 4.695210e+00 2.951721e+00 4.371616e+00 7.443416e+00 4.249027e+00 3.334856e+00 3.479518e+00 3.448864e+00 3.017986e+00 3.080211e+00 4.978988e+00 7.809144e-01 5.845799e-01 3.787512e-01 4.312238e-01 7.285084e-01 1.230908e+00 6.607628e-01 5.966257e-01 5.956726e-01 5.982597e-01 4.560573e-01 5.359190e-01 7.852960e-01
<GCONST> 1.365838e+02
<STATE> 3
<MEAN> 39
 -4.136391e+00 2.914798e+00 -1.548114e+01 -3.127892e-01 -7.177768e+00 -1.053033e+01 -5.952641e-01 -5.433286e+00 -3.366084e+00 7.156574e+00 -3.507770e+00 -3.405082e+00 7.513249e+01 2.735326e-01 -3.311025e-01 -7.041961e-01 2.294214e-01 4.225106e-01 3.243320e-01 4.395685e-01 6.621759e-01 -1.277326e-01 -7.800870e-01 -2.785899e-01 -1.773296e-01 3.327168e-01 -2.536957e-01 5.082841e-01 4.470654e-01 -8.414238e-03 5.174944e-02 1.930369e-01 -2.345569e-03 -1.377416e-01 -1.827491e-01 -1.489460e-01 8.132917e-02 1.865503e-01 -3.919405e-01
<VARIANCE> 39
 1.122437e+01 3.939286e+01 4.998216e+01 8.268756e+01 5.824030e+01 8.433413e+01 7.337196e+01 8.856763e+01 5.386688e+01 6.279039e+01 5.804559e+01 4.819963e+01 2.873779e+01 4.953452e-01 1.484036e+00 2.195792e+00 1.854688e+00 1.929966e+00 3.340457e+00 2.260193e+00 2.365871e+00 2.784499e+00 2.408922e+00 1.622775e+00 1.757975e+00 1.082026e+00 1.602031e-01 2.127813e-01 3.095609e-01 2.757521e-01 2.878861e-01 4.486050e-01 3.482645e-01 3.473442e-01 3.530847e-01 3.865787e-01 3.011375e-01 3.099061e-01 2.001261e-01
<GCONST> 1.144919e+02
<STATE> 4
<MEAN> 39
 -2.572450e+00 3.007998e+00 -1.856907e+01 -1.033286e+00 -8.923565e+00 -8.932096e+00 1.061801e+00 -4.198988e+00 -4.599856e+00 3.948322e+00 -4.872060e+00 -3.981291e+00 7.471679e+01 1.005459e-01 6.103252e-01 3.319816e-01 2.654417e-01 1.929306e-02 -7.615111e-02 -1.125539e-01 -1.006184e-01 -4.111587e-01 -2.590926e-01 -9.905758e-04 2.031011e-01 -3.987697e-01 -1.238594e-02 2.113436e-01 1.870788e-01 9.256884e-02 -4.292988e-03 3.524201e-02 -3.116594e-02 -1.574533e-01 -8.511025e-02 1.192724e-02 -2.141718e-02 3.723001e-02 -1.823008e-01
<VARIANCE> 39
 1.327397e+01 4.452965e+01 6.916497e+01 5.786568e+01 7.260136e+01 1.110419e+02 6.643021e+01 8.823433e+01 6.516791e+01 7.226855e+01 5.563276e+01 4.352150e+01 2.181909e+01 2.508459e-01 9.626280e-01 9.060217e-01 1.361315e+00 1.396597e+00 1.862717e+00 1.455809e+00 1.831231e+00 1.731231e+00 1.592960e+00 1.433113e+00 1.182190e+00 4.706439e-01 3.612902e-02 1.131781e-01 1.173359e-01 1.840672e-01 1.854813e-01 3.467614e-01 2.292510e-01 2.615258e-01 2.584773e-01 2.782829e-01 2.523236e-01 2.157967e-01 6.976292e-02
<GCONST> 1.017725e+02
<TRANSP> 5
 0.000000e+00 1.000000e+00 0.000000e+00 0.000000e+00 0.000000e+00
 0.000000e+00 6.952114e-01 3.047886e-01 0.000000e+00 0.000000e+00
 0.000000e+00 0.000000e+00 5.037057e-01 4.962943e-01 0.000000e+00
 0.000000e+00 0.000000e+00 0.000000e+00 7.654375e-01 2.345624e-01
 0.000000e+00 0.000000e+00 0.000000e+00 0.000000e+00 0.000000e+00
<ENDHMM>
~h "ah"
<BEGINHMM>
<NUMSTATES> 5
<STATE> 2
<MEAN> 39
 -3.592870e+00 5.198290e+00 -1.317868e+01 2.256913e-01 -4.463059e+00 -7.787786e+00 3.894072e-01 -2.261402e+00 -5.694586e+00 5.508391e+00 -3.983763e-01 -1.361630e+00 7.269894e+01 8.103936e-02 4.081838e-01 7.797539e-01 4.156653e-01 6.653388e-01 -6.042807e-01 -6.150600e-01 -3.817533e-01 -3.484112e-01 -2.899720e-02 -2.033974e-01 -2.665854e-01 3.703057e-01 -4.231866e-02 2.239122e-01 1.819372e-01 2.622171e-01 5.485723e-02 5.641500e-04 -6.802172e-02 -9.663653e-02 -2.797052e-02 -5.519337e-02 -1.036818e-01 -1.566239e-02 -2.390360e-01
<VARIANCE> 39
 9.474202e+00 3.928670e+01 4.343153e+01 4.817929e+01 4.798249e+01 6.459824e+01 8.061395e+01 5.792432e+01 5.921899e+01 4.881198e+01 7.458613e+01 4.006432e+01 2.647024e+01 9.604030e-01 2.387751e+00 2.242736e+00 2.722891e+00 2.132496e+00 2.875327e+00 2.681671e+00 2.721299e+00 2.096242e+00 2.919860e+00 2.186000e+00 1.925477e+00 2.673960e+00 1.614648e-01 2.669294e-01 2.662920e-01 2.892829e-01 3.309501e-01 6.440127e-01 4.826410e-01 4.246289e-01 4.040364e-01 5.883890e-01 3.440099e-01 3.292199e-01 2.963049e-01
<GCONST> 1.179814e+02
<STATE> 3
<MEAN> 39
 -3.230960e+00 1.572950e+01 -3.234355e+00 9.220901e+00 3.025343e-01 -7.502202e+00 -3.702909e+00 -7.311830e+00 -8.146266e+00 2.722589e+00 -5.713571e+00 -3.560904e+00 6.757632e+01 -7.501260e-02 6.186322e-01 9.425769e-01 7.439327e-01 -1.150869e-01 -3.136005e-01 -6.730139e-02 5.337594e-01 -3.183947e-01 -7.964981e-01 -5.517522e-01 -6.896589e-03 -6.268594e-01 -1.048537e-01 -3.247688e-01 -2.236058e-03 -1.320922e-01 -9.611872e-02 -3.991444e-01 -5.959346e-03 3.396504e-01 9.739518e-02 -2.062482e-02 7.710908e-02 1.046395e-01 2.416666e-01
<VARIANCE> 39
 5.780188e+00 2.233819e+01 2.141908e+01 4.775367e+01 4.972782e+01 5.336941e+01 2.924786e+01 3.857632e+01 5.773654e+01 2.501366e+01 3.147404e+01 2.945592e+01 1.152834e+01 4.349454e-01 1.800426e+00 1.065248e+00 1.491303e+00 1.490009e+00 4.497076e+00 1.517786e+00 3.213922e+00 1.627453e+00 1.750713e+00 1.544574e+00 1.346926e+00 9.332886e-01 4.972296e-02 9.704108e-02 1.559241e-01 2.926444e-01 2.129724e-01 4.368167e-01 1.888464e-01 3.971139e-01 3.066914e-01 3.204945e-01 2.095968e-01 1.721909e-01 4.517150e-02
<GCONST> 9.822350e+01
<STATE> 4
<MEAN> 39
 -5.769836e+00 1.144317e+01 -6.025773e-01 1.175709e+01 -4.026108e+00 -2.365266e+01 -2.872576e+00 9.027479e-01 -9.438481e+00 -9.714903e-01 -8.341879e+00 -2.390990e+00 6.907937e+01 -1.370567e-01 -4.392261e-01 -1.369982e-01 4.411787e-02 3.299886e-02 -1.046430e+00 -2.080438e-01 5.651811e-01 6.337718e-01 1.720741e-01 -1.938582e-01 -4.785775e-03 3.007671e-01 6.122148e-02 1.138103e-01 -1.696550e-01 -1.700184e-01 4.572060e-02 4.005513e-01 -2.596400e-02 -3.250786e-01 2.730873e-02 2.104101e-01 8.935808e-02 -1.018140e-01 -4.631718e-02
<VARIANCE> 39
 5.096528e+00 2.655521e+01 4.551503e+01 6.842805e+01 1.086071e+02 1.126951e+02 6.043102e+01 8.191426e+01 6.456122e+01 4.155595e+01 3.395647e+01 6.130264e+01 1.375179e+01 1.719204e-01 7.177185e-01 1.327281e+00 1.138527e+00 1.071347e+00 3.626880e+00 1.348365e+00 2.882147e+00 1.829601e+00 2.341573e+00 1.318855e+00 1.539806e+00 2.895751e-01 2.287989e-02 6.438220e-02 1.258532e-01 1.352636e-01 1.576756e-01 2.733961e-01 2.072120e-01 2.637220e-01 3.052371e-01 2.642615e-01 2.058443e-01 2.024330e-01 2.497079e-02
<GCONST> 9.663431e+01
<TRANSP> 5
 0.000000e+00 1.000000e+00 0.000000e+00 0.000000e+00 0.000000e+00
 0.000000e+00 8.288632e-01 1.711368e-01 0.000000e+00 0.000000e+00
 0.000000e+00 0.000000e+00 7.408242e-01 2.591759e-01 0.000000e+00
 0.000000e+00 0.000000e+00 0.000000e+00 7.554848e-01 2.445152e-01
 0.000000e+00 0.000000e+00 0.000000e+00 0.000000e+00 0.000000e+00
<ENDHMM>
~h "aw"
<BEGINHMM>
<NUMSTATES> 5
<STATE> 2
<MEAN> 39
 -2.609155e+00 1.023136e+00 -2.450727e+01 -5.807939e+00 -8.791010e+00 -9.178785e+00 5.500165e+00 -2.644772e+00 -9.625807e+00 -2.285902e+00 -7.586343e+00 -4.157165e+00 7.867401e+01 -8.191098e-02 1.695484e-01 5.060048e-01 -9.710571e-02 -4.869025e-01 -1.522522e-01 2.482498e-01 7.921904e-02 -4.278935e-01 -6.155285e-01 -3.659213e-01 2.344646e-01 -3.219317e-01 2.039000e-02 1.933190e-01 1.199605e-01 -6.015421e-03 8.428648e-02 2.617298e-02 -1.939081e-01 -2.469932e-01 -8.246932e-02 1.541630e-01 8.524178e-02 8.017955e-03 -1.134051e-01
<VARIANCE> 39
 5.508893e+00 4.455711e+01 4.443787e+01 5.465525e+01 3.875190e+01 3.878292e+01 5.171954e+01 7.952882e+01 7.199233e+01 5.982763e+01 5.247871e+01 4.741009e+01 1.575795e+01 2.275871e-01 1.218314e+00 1.057677e+00 1.354795e+00 1.485338e+00 1.961349e+00 2.101412e+00 3.225758e+00 2.208716e+00 2.483233e+00 2.119277e+00 1.814612e+00 3.289085e-01 3.034584e-02 9.817532e-02 1.361494e-01 2.311543e-01 2.419044e-01 2.743615e-01 2.793785e-01 3.716384e-01 3.527831e-01 3.297684e-01 3.303331e-01 2.812503e-01 2.164685e-02
<GCONST> 1.009415e+02
<STATE> 3
<MEAN> 39
 -4.088515e+00 1.005851e+01 -1.118665e+01 -3.293454e+00 -8.100047e+00 -1.124132e+01 7.624403e-01 -9.680791e+00 -1.811929e+01 -2.292495e+00 -1.157429e+01 -8.590322e+00 7.119386e+01 -3.089952e-02 7.058464e-01 1.172945e+00 1.092917e+00 2.216461e-01 3.614570e-01 -4.904154e-01 -8.796852e-01 -4.422193e-01 3.363506e-01 -3.612585e-01 -4.739504e-01 -9.173289e-01 6.098956e-03 -4.793318e-02 -1.150695e-01 -1.419481e-01 -6.353261e-02 8.804669e-03 1.353825e-01 1.872157e-01 1.351626e-01 1.589240e-03 3.675180e-02 4.998134e-02 6.039739e-02
<VARIANCE> 39
 1.099818e+01 2.556262e+01 4.185376e+01 4.832119e+01 2.627623e+01 2.926691e+01 4.306718e+01 5.567220e+01 5.111365e+01 3.331226e+01 3.413281e+01 4.692209e+01 1.209071e+01 1.594414e-01 3.979324e-01 9.892333e-01 1.753256e+00 1.323021e+00 1.440239e+00 1.805597e+00 2.010156e+00 1.929709e+00 1.500640e+00 1.276354e+00 1.597697e+00 2.265338e-01 3.368705e-02 5.069670e-02 1.583485e-01 2.735166e-01 1.986781e-01 2.454198e-01 2.585596e-01 2.836674e-01 3.197243e-01 2.952695e-01 2.719673e-01 2.842364e-01 3.264592e-02
<GCONST> 9.319700e+01
<STATE> 4
<MEAN> 39
 -4.060177e+00 1.109280e+01 -1.356318e+01 -2.839758e+00 -1.658541e+01 -1.106926e+01 -5.450898e-01 -1.328815e+01 -8.161838e+00 2.510658e+00 -8.286762e+00 3.167589e+00 6.740861e+01 -3.559736e-02 3.709034e-01 5.407068e-01 1.647934e-01 -4.275467e-02 6.195287e-02 -5.229535e-01 -2.778389e-01 2.705375e-01 3.513047e-01 2.825628e-02 1.252402e-01 -3.103606e-01 2.232500e-02 -3.565240e-02 -1.069649e-01 -5.669696e-02 9.546526e-02 1.331588e-01 9.710892e-02 5.976979e-02 -2.207790e-02 -1.609046e-01 -6.191762e-02 -9.926451e-02 5.322199e-02
<VARIANCE> 39
 6.582046e+00 4.425498e+01 5.077806e+01 4.539619e+01 5.459445e+01 4.772266e+01 7.406773e+01 8.667529e+01 7.939445e+01 4.168081e+01 4.164479e+01 9.066326e+01 1.841057e+01 2.833083e-01 7.332987e-01 1.733806e+00 1.656717e+00 1.316479e+00 1.794232e+00 3.053161e+00 2.398451e+00 1.800936e+00 2.233563e+00 1.831190e+00 1.916197e+00 3.985740e-01 4.460697e-02 8.185672e-02 1.930425e-01 2.899064e-01 2.467236e-01 2.673124e-01 3.724701e-01 3.420872e-01 3.076451e-01 3.245632e-01 2.596134e-01 2.948174e-01 4.328685e-02
<GCONST> 1.037535e+02
<TRANSP> 5
 0.000000e+00 1.000000e+00 0.000000e+00 0.000000e+00 0.000000e+00
 0.000000e+00 9.136488e-01 8.635121e-02 0.000000e+00 0.000000e+00
 0.000000e+00 0.000000e+00 8.167109e-01 1.832891e-01 0.000000e+00
 0.000000e+00 0.000000e+00 0.000000e+00 7.876964e-01 2.123036e-01
 0.000000e+00 0.000000e+00 0.000000e+00 0.000000e+00 0.000000e+00
<ENDHMM>
~h "ax"
<BEGINHMM>
<NUMSTATES> 5
<STATE> 2
<MEAN> 39
 -9.481106e+00 8.423993e+00 -5.312054e+00 4.046699e+00 -4.302800e+00 -6.610362e+00 2.455060e-01 -4.076905e+00 -5.512162e+00 3.947106e+00 -4.702505e+00 -9.440336e-01 6.626820e+01 1.063597e+00 -5.504251e-01 -1.300715e+00 -1.044531e+00 -8.942559e-01 -5.067281e-01 -1.885452e-02 -3.096522e-01 -9.917621e-02 1.595570e-01 4.464582e-01 -5.556131e-02 8.853773e-01 2.394572e-02 -9.783611e-02 -1.458756e-01 -6.236818e-02 -6.755239e-02 -4.337505e-02 7.487249e-02 -7.752257e-02 -7.998247e-02 -8.430481e-04 3.134740e-02 1.662198e-02 1.257139e-01
<VARIANCE> 39
 6.056798e+01 7.095961e+01 9.166756e+01 8.703254e+01 6.838176e+01 1.164247e+02 1.133419e+02 8.405081e+01 7.408632e+01 5.725341e+01 4.445481e+01 3.972688e+01 5.326990e+01 5.325624e+00 4.777237e+00 4.987744e+00 5.002226e+00 4.230695e+00 5.934950e+00 4.114535e+00 5.521102e+00 4.659194e+00 4.354708e+00 3.689910e+00 2.692970e+00 4.272200e+00 6.921155e-01 5.997597e-01 6.948816e-01 8.488675e-01 6.493738e-01 6.690496e-01 7.395954e-01 7.932972e-01 6.583834e-01 5.353264e-01 4.305337e-01 4.219686e-01 5.525682e-01
<GCONST> 1.404188e+02
<STATE> 3
<MEAN> 39
 -4.259176e+00 9.548577e+00 -8.730957e+00 1.134887e+00 -7.176746e+00 -1.239746e+01 -3.249307e+00 -6.729873e+00 -7.998338e+00 2.684351e+00 -4.857275e+00 -2.587714e+00 7.088754e+01 8.135085e-01 -4.036881e-01 -1.431479e+00 -4.174649e-01 -4.603376e-01 -6.978785e-01 1.127179e-01 -4.200377e-01 -4.439886e-02 6.952348e-01 6.933601e-01 -9.880456e-02 5.755731e-01 -5.004307e-01 9.758002e-02 3.978900e-01 2.996713e-01 3.713613e-01 4.593796e-01 2.710534e-01 2.331113e-02 -4.969826e-03 -6.271114e-02 -1.569142e-01 1.003647e-01 -3.208464e-01
<VARIANCE> 39
 2.075758e+01 5.647621e+01 7.140031e+01 8.929002e+01 7.831090e+01 8.585983e+01 1.079857e+02 9.675914e+01 8.375903e+01 5.575228e+01 5.069627e+01 4.520510e+01 2.115779e+01 2.207143e+00 1.988343e+00 3.254079e+00 2.799755e+00 2.768349e+00 5.246184e+00 3.488429e+00 4.598920e+00 4.397000e+00 3.476593e+00 3.175732e+00 2.501029e+00 1.522837e+00 2.641214e-01 4.221489e-01 3.666922e-01 3.768363e-01 4.932242e-01 5.500537e-01 4.851330e-01 5.767405e-01 6.063936e-01 6.033333e-01 5.101393e-01 4.341098e-01 1.868185e-01
<GCONST> 1.282272e+02
<STATE> 4
<MEAN> 39
 -3.959840e+00 8.007143e+00 -1.144214e+01 6.062472e-01 -9.472454e+00 -1.290593e+01 -6.438243e-01 -8.130591e+00 -8.773258e+00 1.890187e+00 -6.794923e+00 -2.532848e+00 7.188960e+01 -5.080559e-02 3.517796e-01 1.174832e-01 3.369495e-01 2.359521e-01 -2.238040e-01 -2.057605e-03 -4.030300e-01 -1.986137e-01 2.007245e-01 -1.308355e-01 -5.563856e-03 -2.636217e-01 -1.342544e-01 1.509113e-01 2.465890e-01 1.842861e-01 1.773920e-01 2.708909e-01 4.055818e-02 -1.591429e-02 -7.020220e-02 -9.467554e-02 -9.137622e-02 1.120588e-02 -2.526050e-01
<VARIANCE> 39
 2.058461e+01 5.731419e+01 7.819257e+01 6.872665e+01 8.159772e+01 1.066520e+02 8.465163e+01 9.229615e+01 8.036883e+01 5.644728e+01 5.506381e+01 5.180219e+01 2.382414e+01 9.701847e-01 1.187707e+00 2.876487e+00 2.295546e+00 2.144330e+00 4.827877e+00 3.204346e+00 3.345735e+00 2.731254e+00 2.629371e+00 2.617141e+00 1.870170e+00 1.006808e+00 1.635122e-01 2.166953e-01 3.339583e-01 3.221050e-01 3.754758e-01 6.565623e-01 3.958984e-01 4.814485e-01 4.991439e-01 4.811054e-01 4.199806e-01 3.312733e-01 1.535193e-01
<GCONST> 1.213258e+02
<TRANSP> 5
 0.000000e+00 1.000000e+00 0.000000e+00 0.000000e+00 0.000000e+00
 0.000000e+00 5.084416e-01 4.915584e-01 0.000000e+00 0.000000e+00
 0.000000e+00 0.000000e+00 1.914684e-01 8.085316e-01 0.000000e+00
 0.000000e+00 0.000000e+00 0.000000e+00 6.634148e-01 3.365851e-01
 0.000000e+00 0.000000e+00 0.000000e+00 0.000000e+00 0.000000e+00
<ENDHMM>
~h "ay"
<BEGINHMM>
<NUMSTATES> 5
<STATE> 2
<MEAN> 39
 -5.316595e-02 2.028348e+00 -2.599339e+01 -1.876918e+00 -8.334164e+00 -8.334192e+00 8.507273e-01 -7.321283e+00 -1.721578e+00 4.755841e+00 -5.305378e+00 -4.425497e+00 7.602319e+01 -3.498841e-01 -7.402635e-01 9.403138e-01 1.409079e+00 -3.606702e-01 -1.143596e+00 -7.648550e-01 -7.713403e-02 5.275471e-01 4.837424e-01 4.606925e-03 1.136293e-01 3.727455e-01 -8.651926e-02 3.595547e-01 3.921962e-01 -1.349362e-01 2.089785e-02 -2.287117e-01 -3.447727e-01 -2.290428e-01 -2.172348e-01 2.146959e-01 -3.621323e-03 4.430135e-02 -1.107720e-01
<VARIANCE> 39
 9.083765e+00 4.941374e+01 3.502670e+01 4.222516e+01 6.278720e+01 7.334612e+01 6.666987e+01 8.400893e+01 5.466855e+01 6.492231e+01 4.840166e+01 4.507570e+01 1.325737e+01 1.890841e-01 8.445812e-01 1.221269e+00 8.463165e-01 1.459162e+00 2.130843e+00 3.077288e+00 2.341943e+00 1.977396e+00 2.712500e+00 1.781971e+00 1.510178e+00 1.089214e-01 2.265052e-02 8.447434e-02 1.168593e-01 1.475433e-01 1.814283e-01 2.516826e-01 3.277176e-01 3.534518e-01 3.860588e-01 3.515792e-01 3.636783e-01 2.808626e-01 1.894797e-02
<GCONST> 9.855011e+01
<STATE> 3
<MEAN> 39
 -3.693921e+00 2.930469e+00 -1.471016e+01 4.232325e+00 -7.894799e+00 -1.896703e+01 -7.109141e+00 -1.079275e+01 -2.629693e+00 1.082362e+01 -6.124784e+00 -3.761095e+00 7.698279e+01 -6.126640e-01 7.490306e-01 2.151057e+00 9.121729e-01 2.158241e-01 -1.705858e+00 -1.135628e+00 -6.083206e-01 -1.125129e+00 -2.074428e-01 -7.561210e-01 2.972003e-01 -2.793323e-01 1.428992e-02 2.185006e-01 -8.834692e-03 -9.626193e-02 2.159619e-01 2.816903e-01 3.188950e-01 1.101955e-01 -2.571845e-01 -4.281740e-01 -3.722825e-02 -5.920655e-02 -1.827863e-01
<VARIANCE> 39
 9.843954e+00 2.973148e+01 3.797505e+01 3.270904e+01 9.565406e+01 9.112275e+01 5.695501e+01 8.455782e+01 4.396511e+01 3.813840e+01 5.035398e+01 5.585774e+01 1.063396e+01 1.695889e-01 7.023200e-01 9.028213e-01 9.211382e-01 1.399849e+00 2.105600e+00 2.648569e+00 2.240249e+00 2.315926e+00 2.414504e+00 1.752304e+00 2.003483e+00 1.356243e-01 3.400264e-02 7.763485e-02 1.497579e-01 1.396345e-01 1.952470e-01 3.818538e-01 3.707430e-01 3.543713e-01 3.782448e-01 3.594255e-01 3.434325e-01 3.118478e-01 2.948242e-02
<GCONST> 9.910895e+01
<STATE> 4
<MEAN> 39
 -7.017467e+00 7.764607e+00 -5.428324e+00 6.309565e+00 -5.789721e+00 -2.240503e+01 -8.189870e+00 -1.207283e+01 -8.778404e+00 5.528514e+00 -9.621689e+00 -3.444729e+00 7.430969e+01 -1.254715e+00 8.901584e-01 2.349973e+00 -1.877710e-02 1.307986e+00 1.413829e+00 3.906064e-01 5.619611e-01 -4.695979e-01 -1.120214e+00 -2.009236e-02 6.485240e-03 -9.010312e-01 -4.568983e-01 -2.911260e-01 -1.050711e-02 -4.568065e-01 1.019727e-01 8.612795e-01 2.534400e-01 2.951808e-01 5.281762e-01 2.716661e-01 3.341066e-01 1.403242e-01 1.851542e-02
<VARIANCE> 39
 1.363904e+01 2.086192e+01 4.651824e+01 4.402074e+01 9.284974e+01 1.018855e+02 6.470822e+01 5.577106e+01 3.572126e+01 3.946687e+01 4.267146e+01 4.328040e+01 1.170639e+01 1.421147e+00 1.462213e+00 2.267150e+00 2.455078e+00 2.124826e+00 4.750468e+00 2.785897e+00 2.785119e+00 3.164216e+00 2.067373e+00 2.753979e+00 1.902217e+00 4.736098e-01 2.233807e-01 1.745946e-01 2.539111e-01 3.786042e-01 4.418564e-01 5.830942e-01 5.608731e-01 4.456833e-01 5.298519e-01 4.192299e-01 3.719796e-01 3.381089e-01 9.904281e-02
<GCONST> 1.149081e+02
<TRANSP> 5
 0.000000e+00 1.000000e+00 0.000000e+00 0.000000e+00 0.000000e+00
 0.000000e+00 8.099862e-01 1.900138e-01 0.000000e+00 0.000000e+00
 0.000000e+00 0.000000e+00 7.882054e-01 2.117946e-01 0.000000e+00
 0.000000e+00 0.000000e+00 0.000000e+00 6.983271e-01 3.016728e-01
 0.000000e+00 0.000000e+00 0.000000e+00 0.000000e+00 0.000000e+00
<ENDHMM>
~h "ch"
<BEGINHMM>
<NUMSTATES> 5
<STATE> 2
<MEAN> 39
 -1.658748e+01 3.775612e+00 4.398693e+00 1.020617e+01 -2.781896e+00 -4.149542e+00 8.853688e-01 -6.672544e-02 -4.500450e+00 2.661673e+00 -4.577241e+00 1.366305e+00 6.348227e+01 -3.177881e+00 -3.853701e+00 2.902697e+00 -6.585783e-01 -3.909835e-01 -1.143450e+00 -2.686748e-01 1.719386e+00 1.732067e-01 -1.509124e-01 3.562521e-01 8.915429e-01 2.386701e+00 -2.866233e-01 2.371290e-02 4.196648e-03 4.109572e-02 2.559328e-01 -1.326465e-01 -2.307416e-01 -1.628039e-01 1.064259e-01 1.436063e-01 -2.595451e-02 -1.782975e-01 4.093185e-01
<VARIANCE> 39
 4.644352e+01 7.833961e+01 8.089436e+01 5.994038e+01 4.340808e+01 4.913113e+01 4.559644e+01 3.958721e+01 2.999230e+01 3.498270e+01 3.208948e+01 3.626179e+01 3.814269e+01 3.342277e+00 3.683087e+00 5.018600e+00 3.692671e+00 3.451188e+00 3.234973e+00 2.270724e+00 2.814587e+00 2.874959e+00 3.550862e+00 2.083161e+00 2.019764e+00 2.341366e+00 6.395801e-01 1.176039e+00 1.803461e+00 6.773316e-01 5.467464e-01 7.099956e-01 3.674831e-01 6.786730e-01 4.839174e-01 5.443252e-01 3.411525e-01 3.619679e-01 5.879741e-01
<GCONST> 1.291149e+02
<STATE> 3
<MEAN> 39
 -2.763451e+01 -8.461777e+00 6.017162e+00 9.737569e+00 -2.728218e-01 -8.904300e+00 -3.731449e+00 1.047667e+00 -9.293711e-01 3.740170e+00 -1.921664e+00 3.240023e+00 7.396815e+01 9.416633e-01 3.494889e-01 -1.091595e+00 -2.788747e-02 1.469055e-01 -4.073695e-01 -1.071321e+00 -1.119041e+00 -3.355581e-03 3.676541e-02 -2.943147e-02 -3.498683e-01 9.291508e-02 8.418271e-01 6.522739e-01 -1.717157e-01 3.258150e-02 -1.666762e-01 -1.099448e-01 -9.620427e-02 -3.867770e-01 -3.630776e-01 -1.209113e-01 -1.831156e-01 -2.320021e-01 -2.528389e-01
<VARIANCE> 39
 2.482055e+01 1.717694e+01 5.039120e+01 3.671630e+01 4.846989e+01 3.753341e+01 4.653792e+01 3.694950e+01 2.636649e+01 2.646648e+01 2.656653e+01 2.101082e+01 9.895198e+00 5.168688e+00 3.283149e+00 1.843204e+00 1.518104e+00 1.669124e+00 2.033473e+00 1.853763e+00 2.284333e+00 2.644690e+00 1.512699e+00 2.101408e+00 1.850404e+00 1.410618e+00 2.508783e-01 2.472948e-01 7.588136e-01 3.043704e-01 2.552052e-01 3.541127e-01 3.347446e-01 4.247485e-01 4.257742e-01 2.700374e-01 3.309765e-01 2.939777e-01 2.836222e-01
<GCONST> 1.106374e+02
<STATE> 4
<MEAN> 39
 -9.267178e+00 3.186096e+00 5.444534e-01 9.202932e+00 -3.079251e+00 -1.779697e+01 -1.288217e+01 -1.177894e+01 -9.924644e+00 2.726634e+00 -6.087630e+00 -3.871566e+00 7.371012e+01 2.820142e+00 1.828507e+00 -1.313946e+00 -9.944004e-01 -1.199216e+00 -1.592116e+00 -3.229108e-01 -1.898907e+00 -1.973132e+00 3.049220e-01 -4.214942e-02 -3.742880e-01 7.716712e-01 -6.964769e-01 -6.169941e-01 -2.635412e-01 -4.961271e-01 -1.558865e-01 5.728598e-01 7.950580e-01 5.495552e-01 3.021141e-01 1.176536e-01 4.728556e-01 7.368142e-01 1.534363e-02
<VARIANCE> 39
 2.160307e+01 2.200903e+01 3.009895e+01 5.274004e+01 7.309131e+01 1.088964e+02 4.061572e+01 4.164403e+01 7.036857e+01 4.033351e+01 4.032370e+01 3.020776e+01 9.041173e+00 3.371887e+00 3.899942e+00 3.238874e+00 2.241240e+00 2.335300e+00 4.010492e+00 4.882028e+00 3.835837e+00 4.957159e+00 3.308274e+00 4.811024e+00 3.826321e+00 4.512297e-01 2.681494e-01 3.325441e-01 3.275037e-01 2.866919e-01 3.567156e-01 7.284484e-01 5.895280e-01 4.730183e-01 6.580637e-01 7.831130e-01 6.930010e-01 3.667537e-01 1.817899e-01
<GCONST> 1.223794e+02
<TRANSP> 5
 0.000000e+00 1.000000e+00 0.000000e+00 0.000000e+00 0.000000e+00
 0.000000e+00 7.849413e-01 2.150587e-01 0.000000e+00 0.000000e+00
 0.000000e+00 0.000000e+00 8.776504e-01 1.223497e-01 0.000000e+00
 0.000000e+00 0.000000e+00 0.000000e+00 7.384673e-01 2.615328e-01
 0.000000e+00 0.000000e+00 0.000000e+00 0.000000e+00 0.000000e+00
<ENDHMM>
~h "eh"
<BEGINHMM>
<NUMSTATES> 5
<STATE> 2
<MEAN> 39
 -7.693569e+00 8.449409e+00 -5.924493e+00 -5.843191e+00 -8.863739e+00 -1.196010e+01 -6.524599e+00 -1.414758e+01 -6.275647e+00 7.704745e+00 -2.657995e+00 -1.379564e+00 7.585250e+01 4.292326e+00 -1.409446e+00 -3.920227e+00 5.391827e-01 -1.921206e+00 -8.813282e-01 6.695913e-02 -9.579499e-01 1.509430e-01 -4.210537e-01 -2.503969e-01 -5.662372e-01 1.371289e+00 -1.661782e+00 -2.040095e-01 5.676849e-01 -6.727209e-02 7.569248e-01 8.822606e-01 8.327566e-01 9.489478e-01 5.109866e-01 1.120013e-01 1.526356e-02 2.161890e-01 -3.360263e-01
<VARIANCE> 39
 6.576985e+00 5.005871e+01 3.965806e+01 4.039822e+01 3.575740e+01 5.963341e+01 5.537880e+01 4.689138e+01 4.169377e+01 4.748276e+01 2.470163e+01 3.290524e+01 7.018314e+00 3.730609e+00 6.219297e+00 1.889285e+00 2.519858e+00 4.204354e+00 4.060988e+00 3.473537e+00 3.428204e+00 3.710520e+00 2.060452e+00 2.615164e+00 2.673534e+00 6.024344e-01 1.772401e-01 5.156431e-01 3.963270e-01 3.353328e-01 4.726429e-01 6.902434e-01 8.000265e-01 4.215639e-01 3.632459e-01 4.613187e-01 3.002009e-01 2.620355e-01 9.056517e-02
<GCONST> 1.167629e+02
<STATE> 3
<MEAN> 39
 -4.790830e+00 5.226530e+00 -1.084116e+01 -3.977517e+00 -9.630105e+00 -9.611151e+00 -3.654645e+00 -1.292479e+01 -4.304080e+00 6.474597e+00 -3.259001e+00 -1.389019e+00 7.659010e+01 4.564805e-01 -9.873798e-02 -6.623755e-01 4.213742e-01 2.569776e-01 6.521602e-01 3.719128e-01 1.140237e-01 2.441251e-01 -3.515111e-01 -3.097566e-01 2.609612e-02 -2.019975e-01 -1.185024e+00 4.994430e-01 1.369516e+00 -9.919515e-02 6.019955e-01 2.911427e-01 -7.950246e-03 1.636070e-01 -2.365484e-01 5.488047e-02 1.305022e-02 7.870691e-02 -4.558061e-01
<VARIANCE> 39
 5.046425e+00 5.824121e+01 3.384461e+01 4.188008e+01 3.893530e+01 5.470012e+01 5.459431e+01 4.963490e+01 6.100503e+01 3.687041e+01 3.332018e+01 4.020341e+01 6.954711e+00 5.349078e-01 1.121034e+00 1.900492e+00 8.587326e-01 1.024867e+00 1.629950e+00 1.477289e+00 1.642591e+00 1.479411e+00 1.637845e+00 1.260572e+00 9.468278e-01 2.904212e-01 3.960396e-01 5.485476e-01 3.167220e-01 3.527262e-01 2.699601e-01 6.059950e-01 4.426456e-01 5.004472e-01 4.391707e-01 3.808060e-01 4.182532e-01 2.684865e-01 7.849161e-02
<GCONST> 1.046911e+02
<STATE> 4
<MEAN> 39
 -6.558893e+00 7.142097e+00 -7.892979e+00 -2.449305e+00 -7.366361e+00 -8.796338e+00 -3.127628e+00 -1.343705e+01 -6.245225e+00 5.246873e+00 -4.448616e+00 -2.492888e+00 7.474403e+01 -2.404243e+00 1.095028e+00 3.013141e+00 -6.631450e-01 1.809242e+00 9.858751e-01 5.976189e-01 9.636914e-01 -5.065625e-01 6.583981e-02 1.112276e-01 3.140962e-01 -6.959177e-01 -1.173610e+00 -3.633979e-02 7.049151e-01 -5.702481e-01 3.408941e-01 1.945979e-02 2.513825e-01 4.533865e-01 1.362235e-01 3.359982e-01 1.668572e-01 1.665292e-01 1.031865e-01
<VARIANCE> 39
 7.800484e+00 4.290639e+01 4.537700e+01 4.050748e+01 4.642558e+01 5.315816e+01 5.398229e+01 5.214611e+01 5.664461e+01 2.609256e+01 3.399944e+01 4.358408e+01 6.465513e+00 2.672641e+00 1.758631e+00 2.338595e+00 2.551378e+00 2.592807e+00 2.667100e+00 2.232465e+00 3.692153e+00 2.499351e+00 2.476677e+00 2.340411e+00 1.461851e+00 2.290650e-01 2.172405e-01 2.771766e-01 4.737759e-01 3.215061e-01 5.713682e-01 3.471803e-01 3.480462e-01 5.380444e-01 5.460286e-01 3.594675e-01 3.556247e-01 2.734471e-01 8.359995e-02
<GCONST> 1.117578e+02
<TRANSP> 5
 0.000000e+00 1.000000e+00 0.000000e+00 0.000000e+00 0.000000e+00
 0.000000e+00 5.175474e-01 4.824527e-01 0.000000e+00 0.000000e+00
 0.000000e+00 0.000000e+00 6.135354e-01 3.864646e-01 0.000000e+00
 0.000000e+00 0.000000e+00 0.000000e+00 6.688406e-01 3.311594e-01
 0.000000e+00 0.000000e+00 0.000000e+00 0.000000e+00 0.000000e+00
<ENDHMM>
~h "ey"
<BEGINHMM>
<NUMSTATES> 5
<STATE> 2
<MEAN> 39
 -5.622778e+00 7.811281e+00 -5.648688e+00 8.701597e+00 -6.774069e+00 -2.097843e+01 -8.833636e+00 -5.683754e+00 3.588742e-01 9.655726e+00 -5.746983e+00 -6.232458e-01 6.960052e+01 8.485847e-03 1.921539e-01 9.393993e-02 2.104868e-01 1.466822e-01 -1.304075e-01 -7.642850e-02 2.379566e-01 -5.163513e-02 8.379045e-02 2.035430e-01 1.037784e-01 -3.251100e-01 -2.042850e-01 -4.968716e-03 7.011200e-02 -1.751801e-02 1.010657e-01 2.924930e-01 1.623111e-01 1.032369e-01 -3.113631e-02 -4.642914e-02 2.657649e-02 3.334172e-02 -1.650180e-01
<VARIANCE> 39
 1.037409e+01 3.568109e+01 2.722677e+01 3.237838e+01 9.541640e+01 8.622539e+01 8.941657e+01 1.191495e+02 6.191467e+01 3.487171e+01 3.854436e+01 4.652476e+01 1.652657e+01 3.739103e-01 1.048858e+00 1.035076e+00 6.728446e-01 8.453827e-01 1.470719e+00 9.942676e-01 1.359630e+00 1.928635e+00 1.246049e+00 1.094089e+00 9.998289e-01 3.826675e-01 7.888945e-02 1.986021e-01 1.296278e-01 1.400354e-01 1.671270e-01 3.219376e-01 2.411234e-01 2.585204e-01 2.924305e-01 1.791995e-01 1.927062e-01 1.776874e-01 4.460872e-02
<GCONST> 9.656764e+01
<STATE> 3
<MEAN> 39
 -1.035543e+01 1.134729e+01 -3.436109e+00 1.111189e+01 7.708959e-01 -1.146888e+01 -9.341496e+00 -5.859893e+00 2.591586e+00 9.756945e+00 -4.536829e+00 -1.419863e+00 6.101817e+01 -6.714998e-01 1.979106e-02 -2.284270e-01 2.331770e-01 3.847599e-02 1.243929e+00 8.562286e-01 5.951850e-01 1.102357e-01 -1.908188e-01 3.317868e-01 3.094962e-01 -1.155105e+00 -1.556455e-02 -6.362380e-02 -9.766299e-02 -8.723020e-02 -6.854207e-02 1.106524e-01 1.565908e-01 -1.327770e-02 -5.660087e-02 -1.189935e-03 3.793970e-02 2.738352e-02 1.661799e-02
<VARIANCE> 39
 1.307898e+01 1.588483e+01 1.684913e+01 3.021718e+01 3.790966e+01 6.514233e+01 4.643701e+01 5.029145e+01 4.736121e+01 2.918877e+01 2.107697e+01 3.330722e+01 2.021731e+01 4.233679e-01 8.480858e-01 7.605745e-01 7.530223e-01 1.691638e+00 2.503129e+00 1.674325e+00 1.634694e+00 1.830521e+00 1.149916e+00 1.091955e+00 1.153775e+00 4.455000e-01 5.208561e-02 1.111173e-01 1.193072e-01 1.147560e-01 2.443102e-01 3.217744e-01 2.281782e-01 2.680183e-01 2.604627e-01 2.020711e-01 1.919439e-01 2.132077e-01 4.702880e-02
<GCONST> 9.266324e+01
<STATE> 4
<MEAN> 39
 -1.485752e+01 8.104156e+00 -5.776663e+00 1.149516e+01 -1.492580e+00 -1.367356e+00 2.674379e+00 1.961794e-01 2.017933e+00 9.772873e+00 7.843035e-02 3.713758e+00 5.557598e+01 -3.272514e-01 2.057136e-02 -6.533406e-02 3.370097e-02 2.262106e-01 9.150840e-01 6.589310e-01 1.445273e-01 1.620974e-02 -1.086520e-01 1.732184e-01 1.392545e-01 -4.169740e-01 -3.597035e-03 -9.151415e-03 7.032073e-02 -5.071561e-02 1.275020e-02 -1.111162e-01 -1.006344e-01 -3.203338e-02 -4.624677e-02 -2.043666e-02 -7.662640e-02 -4.566623e-02 8.297422e-02
<VARIANCE> 39
 1.397995e+01 3.723114e+01 1.582796e+01 3.663869e+01 3.520223e+01 7.440354e+01 4.415715e+01 3.878460e+01 4.003550e+01 2.759628e+01 2.248500e+01 3.223038e+01 1.711580e+01 3.120613e-01 1.066772e+00 6.644643e-01 8.770878e-01 1.192227e+00 2.218916e+00 1.521405e+00 1.120539e+00 1.426427e+00 1.288327e+00 1.092139e+00 1.087983e+00 4.289453e-01 6.961961e-02 1.228189e-01 1.310184e-01 1.739826e-01 1.964993e-01 3.198640e-01 2.290428e-01 1.945896e-01 2.565918e-01 1.923983e-01 1.747115e-01 1.758035e-01 6.818525e-02
<GCONST> 9.224780e+01
<TRANSP> 5
 0.000000e+00 1.000000e+00 0.000000e+00 0.000000e+00 0.000000e+00
 0.000000e+00 8.981768e-01 1.018231e-01 0.000000e+00 0.000000e+00
 0.000000e+00 0.000000e+00 8.420143e-01 1.579857e-01 0.000000e+00
 0.000000e+00 0.000000e+00 0.000000e+00 8.849662e-01 1.150338e-01
 0.000000e+00 0.000000e+00 0.000000e+00 0.000000e+00 0.000000e+00
<ENDHMM>
~h "ih"
<BEGINHMM>
<NUMSTATES> 5
<STATE> 2
<MEAN> 39
 -9.389723e+00 1.207714e+01 -4.520784e+00 7.394559e+00 -2.399381e+00 -6.565534e+00 -1.451333e+00 -7.784559e+00 -6.667222e+00 5.099043e+00 -3.749201e+00 1.173012e+00 6.414690e+01 -2.854236e-01 2.422130e-02 -8.284073e-02 3.896720e-01 1.965345e-01 5.475216e-01 4.051966e-01 3.678804e-01 4.309492e-01 9.312700e-02 1.590458e-01 2.502093e-01 -6.416686e-01 -1.172301e-01 2.531507e-02 2.937341e-02 -8.862885e-02 -7.609012e-02 1.200128e-01 1.812096e-01 1.258919e-01 2.587612e-02 -1.011907e-01 -3.195294e-02 5.184287e-03 -7.450795e-02
<VARIANCE> 39
 3.474918e+01 3.390499e+01 3.081652e+01 4.539031e+01 4.692676e+01 1.203085e+02 7.958150e+01 5.680688e+01 6.748769e+01 4.287080e+01 4.081426e+01 3.725334e+01 6.632896e+01 1.140707e+00 1.387444e+00 1.659944e+00 1.821008e+00 1.746439e+00 3.479978e+00 2.151900e+00 2.132055e+00 2.006071e+00 2.059363e+00 1.855586e+00 1.512203e+00 1.283429e+00 2.272182e-01 2.869488e-01 2.241921e-01 2.572025e-01 2.903140e-01 5.504441e-01 4.499825e-01 4.118318e-01 3.690895e-01 3.976079e-01 3.710707e-01 2.860800e-01 1.659544e-01
<GCONST> 1.150713e+02
<STATE> 3
<MEAN> 39
 -9.708295e+00 1.079454e+01 -5.740098e+00 7.457790e+00 -3.559949e+00 -7.034919e+00 -1.717068e+00 -6.777881e+00 -5.364980e+00 4.645027e+00 -3.344260e+00 1.231326e+00 6.280344e+01 4.889040e-02 -1.213402e-02 -1.179188e-01 -1.323384e-01 -2.912918e-01 -1.205318e-01 3.866778e-01 3.584111e-01 8.743630e-02 -1.141134e-02 5.170693e-02 4.857539e-02 -6.407633e-02 1.212505e-01 1.026276e-01 2.281953e-01 -2.941695e-01 -2.638546e-01 -3.620584e-01 -1.245198e-01 -3.020515e-02 -2.674296e-01 -1.915316e-01 -2.181501e-01 -1.464391e-01 3.050831e-01
<VARIANCE> 39
 4.264240e+01 3.311312e+01 3.576026e+01 4.529997e+01 4.798426e+01 1.238953e+02 8.444963e+01 6.622657e+01 6.516415e+01 4.182917e+01 3.815162e+01 3.868588e+01 8.287518e+01 1.380705e+00 2.316069e+00 2.113033e+00 2.071906e+00 2.319105e+00 5.243289e+00 3.728277e+00 2.966747e+00 2.730586e+00 2.634491e+00 2.310468e+00 1.724705e+00 1.887536e+00 5.203505e-01 4.760681e-01 3.734155e-01 5.010827e-01 5.650904e-01 1.122032e+00 7.351681e-01 6.538715e-01 5.399757e-01 4.442802e-01 4.222458e-01 3.336993e-01 4.709677e-01
<GCONST> 1.263963e+02
<STATE> 4
<MEAN> 39
 -6.735822e+00 8.506457e+00 -6.645507e+00 4.516827e+00 -7.543112e+00 -1.344857e+01 -3.565606e+00 -6.953217e+00 -7.577577e+00 4.334942e+00 -4.799887e+00 3.332441e-01 6.773929e+01 3.350958e-01 -2.991168e-01 4.520439e-02 -7.068639e-01 -6.850832e-01 -1.294096e+00 -1.122603e-01 3.623472e-01 -5.089805e-01 -1.833373e-01 -4.239818e-01 -2.762909e-01 1.134691e+00 -1.421258e-01 2.449740e-01 1.582187e-01 4.518069e-02 9.619853e-02 1.943585e-01 2.525079e-02 -4.081477e-02 -5.306706e-02 -1.559569e-01 -1.510923e-01 -8.858508e-02 -1.807088e-01
<VARIANCE> 39
 3.262711e+01 6.616561e+01 5.408628e+01 6.973060e+01 8.497366e+01 1.659736e+02 8.270568e+01 6.144414e+01 8.938756e+01 5.732603e+01 5.901439e+01 4.933196e+01 6.999546e+01 3.559900e+00 5.067372e+00 3.274914e+00 3.310765e+00 3.897715e+00 7.646256e+00 5.442509e+00 4.507096e+00 5.017795e+00 3.891912e+00 3.084845e+00 2.715519e+00 3.801109e+00 3.985411e-01 6.710113e-01 4.947728e-01 6.745507e-01 6.383158e-01 1.142477e+00 6.610748e-01 6.150740e-01 7.669827e-01 6.431662e-01 5.580593e-01 4.371865e-01 5.657853e-01
<GCONST> 1.384283e+02
<TRANSP> 5
 0.000000e+00 1.000000e+00 0.000000e+00 0.000000e+00 0.000000e+00
 0.000000e+00 7.372120e-01 2.627880e-01 0.000000e+00 0.000000e+00
 0.000000e+00 0.000000e+00 2.701509e-01 7.298492e-01 0.000000e+00
 0.000000e+00 0.000000e+00 0.000000e+00 5.352636e-01 4.647364e-01
 0.000000e+00 0.000000e+00 0.000000e+00 0.000000e+00 0.000000e+00
<ENDHMM>
~h "iy"
<BEGINHMM>
<NUMSTATES> 5
<STATE> 2
<MEAN> 39
 -6.817290e+00 1.181963e+01 -1.454721e-01 7.671133e+00 -3.994644e+00 -1.784580e+01 -7.000078e+00 -5.592371e+00 -1.096292e+01 6.995137e-01 -8.112505e+00 -3.472199e+00 6.931898e+01 -3.758868e-01 -5.705862e-01 9.318706e-01 1.184800e+00 -2.926229e-01 -2.358972e+00 7.054687e-02 1.799128e+00 4.378286e-02 -6.340688e-01 -4.162565e-01 1.188945e-01 2.496134e-01 -1.868789e-01 -1.511023e-02 5.252996e-02 -2.088201e-01 -7.660944e-03 4.013055e-01 2.706300e-01 -8.227777e-03 4.455670e-02 3.545374e-03 4.115351e-02 1.064614e-01 -1.043774e-01
<VARIANCE> 39
