~o
<STREAMINFO> 1 39
<VECSIZE> 39<NULLD><MFCC_D_A_0><DIAGC>
~h "a"
<BEGINHMM>
<NUMSTATES> 5
<STATE> 2
<MEAN> 39
 -9.049515e+00 6.842069e+00 -8.084212e+00 2.036914e+00 -2.941949e+00 -8.747533e+00 1.512458e+00 -5.939936e+00 -1.047818e+01 4.736751e+00 -2.204893e+00 -7.710460e-01 6.773670e+01 -3.570997e-01 -4.773308e-01 -3.234398e-02 -3.842120e-01 -5.381243e-03 -4.919310e-02 7.624183e-02 -6.104557e-03 4.088417e-02 2.197778e-01 3.870429e-01 2.207498e-01 3.059381e-01 -4.789810e-02 -6.329663e-02 4.481823e-02 3.633398e-03 4.123539e-02 -1.486938e-02 -7.121095e-02 -1.714743e-02 9.200676e-02 -2.038163e-03 -3.942396e-02 -1.813679e-02 7.157883e-02
<VARIANCE> 39
 4.753840e+01 5.852670e+01 5.462167e+01 9.556584e+01 4.647313e+01 1.019936e+02 5.661337e+01 5.077981e+01 1.112841e+02 4.688092e+01 4.283729e+01 3.346973e+01 7.968129e+01 1.285643e+00 3.503539e+00 1.821429e+00 3.114092e+00 1.444620e+00 5.451885e+00 2.842432e+00 2.546732e+00 2.891288e+00 2.301827e+00 2.075800e+00 1.267948e+00 4.226782e+00 1.670233e-01 4.938996e-01 2.993432e-01 4.638975e-01 2.191767e-01 8.022957e-01 3.957405e-01 4.326842e-01 4.471624e-01 3.928200e-01 3.674016e-01 2.236180e-01 5.764900e-01
<GCONST> 1.236289e+02
<STATE> 3
<MEAN> 39
 -9.283912e+00 6.153928e+00 -8.724946e+00 1.201218e+00 -2.390563e+00 -8.552801e+00 1.344616e+00 -6.811713e+00 -1.018391e+01 4.921465e+00 -1.326200e+00 -3.305174e-01 6.833286e+01 -3.410286e-01 -1.957911e-01 1.073537e-01 -1.698035e-02 1.053290e-01 1.976803e-01 -2.782538e-02 -2.665961e-02 2.010800e-01 8.134871e-02 1.519622e-01 1.133739e-01 -4.123447e-02 -4.223614e-02 -5.000930e-03 8.282278e-02 6.670927e-02 3.768868e-02 3.964598e-02 -2.790013e-02 -1.102432e-02 1.583610e-02 -5.695370e-03 -4.451364e-02 -3.051536e-02 -1.106616e-02
<VARIANCE> 39
 4.313067e+01 5.531429e+01 5.028829e+01 8.558670e+01 5.004120e+01 8.457192e+01 5.132183e+01 5.041258e+01 1.054658e+02 5.119561e+01 3.689759e+01 3.591574e+01 6.979133e+01 1.419375e+00 2.805829e+00 1.439601e+00 2.564965e+00 1.526349e+00 4.384642e+00 2.288642e+00 2.351292e+00 2.774408e+00 2.081442e+00 1.787698e+00 1.332069e+00 3.094787e+00 1.587871e-01 3.618424e-01 2.407139e-01 3.380642e-01 2.445094e-01 6.278135e-01 3.423648e-01 3.805306e-01 4.021359e-01 3.549508e-01 3.033674e-01 2.294719e-01 3.645634e-01
<GCONST> 1.191844e+02
<STATE> 4
<MEAN> 39
 -1.007634e+01 5.337378e+00 -1.005731e+01 2.081767e+00 -1.490940e-01 -8.895751e+00 3.171101e+00 -8.849996e+00 -1.098138e+01 5.800519e+00 -8.250915e-01 -2.650578e-01 6.627548e+01 -3.184193e-01 -1.537560e-01 2.474664e-01 2.349705e-01 7.599955e-02 3.133160e-01 -2.841372e-02 7.488716e-02 2.262276e-01 1.084748e-01 5.207491e-02 6.599793e-02 -2.331632e-01 -4.618997e-02 -1.523297e-02 8.979961e-02 7.480582e-03 1.634128e-02 -1.367206e-02 -1.380665e-02 1.341643e-02 -2.450505e-03 -1.919382e-02 -1.337858e-02 -4.912466e-03 2.244270e-02
<VARIANCE> 39
 3.116043e+01 3.890994e+01 4.034902e+01 5.578812e+01 5.223166e+01 1.187769e+02 5.264902e+01 4.740794e+01 1.053472e+02 5.416266e+01 3.630103e+01 3.566947e+01 7.432777e+01 9.993733e-01 2.044937e+00 1.455920e+00 1.813074e+00 1.434747e+00 3.082344e+00 1.941802e+00 2.146933e+00 2.474998e+00 1.749907e+00 1.562940e+00 1.285977e+00 1.549782e+00 1.035169e-01 2.331034e-01 2.011849e-01 2.334627e-01 2.269002e-01 4.997971e-01 2.673487e-01 3.398595e-01 3.421014e-01 2.711998e-01 2.632370e-01 2.274606e-01 1.735209e-01
<GCONST> 1.120754e+02
<TRANSP> 5
 0.000000e+00 1.000000e+00 0.000000e+00 0.000000e+00 0.000000e+00
 0.000000e+00 6.828056e-01 3.171945e-01 0.000000e+00 0.000000e+00
 0.000000e+00 0.000000e+00 6.861923e-01 3.138077e-01 0.000000e+00
 0.000000e+00 0.000000e+00 0.000000e+00 8.725244e-01 1.274756e-01
 0.000000e+00 0.000000e+00 0.000000e+00 0.000000e+00 0.000000e+00
<ENDHMM>
~h "b"
<BEGINHMM>
<NUMSTATES> 5
<STATE> 2
<MEAN> 39
 -4.621577e+00 1.036585e+01 -1.316628e+01 -5.374752e-01 -1.035674e+01 -7.148980e+00 2.295775e+00 -4.784073e+00 -7.717552e+00 9.191601e-01 -6.370473e+00 -2.918817e+00 6.830445e+01 7.108145e-01 3.647423e-01 -1.356175e-01 -4.401007e-01 -9.895986e-01 -7.347251e-01 -1.154090e-01 1.723608e-01 -3.278948e-01 -1.822205e-01 -1.632543e-01 -1.312764e-01 4.186516e-01 -1.342130e-01 -4.147476e-02 1.135180e-01 4.113496e-02 1.355611e-01 7.645631e-02 -4.144521e-03 -2.386629e-02 6.537357e-05 7.105429e-02 7.059605e-02 6.605709e-02 -5.051632e-02
<VARIANCE> 39
 4.922063e+01 9.322623e+01 1.353822e+02 8.334831e+01 8.982792e+01 8.522342e+01 4.571151e+01 6.475752e+01 5.506835e+01 4.667883e+01 4.343956e+01 4.231261e+01 7.153091e+01 1.731541e+00 2.394119e+00 2.062016e+00 4.436812e+00 3.980272e+00 4.643853e+00 2.735360e+00 3.388089e+00 2.932914e+00 2.750294e+00 2.861197e+00 2.480682e+00 2.236206e+00 3.219504e-01 3.827672e-01 2.792890e-01 6.563063e-01 5.397937e-01 6.241471e-01 4.253584e-01 4.557615e-01 4.823444e-01 4.748872e-01 4.932407e-01 4.032300e-01 2.954984e-01
<GCONST> 1.288189e+02
<STATE> 3
<MEAN> 39
 -3.212703e+00 1.146149e+01 -1.293355e+01 -1.149119e+00 -1.241271e+01 -8.829769e+00 1.959217e+00 -4.507812e+00 -8.208297e+00 8.014410e-01 -6.479543e+00 -2.953216e+00 6.886160e+01 3.873933e-01 4.041761e-01 2.206169e-01 -1.329223e-01 -5.291617e-01 -4.904481e-01 -1.541229e-01 3.132270e-02 -2.904885e-01 -2.838091e-02 -3.381725e-03 5.093162e-03 8.680779e-02 -1.386814e-01 -4.458840e-02 9.958990e-02 7.603751e-02 1.814014e-01 1.103426e-01 2.957219e-03 -4.713383e-02 1.397965e-02 6.391004e-02 7.476021e-02 7.125013e-02 -7.600337e-02
<VARIANCE> 39
 3.909297e+01 8.310635e+01 1.147129e+02 7.656034e+01 1.080297e+02 9.338460e+01 4.412154e+01 7.854607e+01 5.375615e+01 4.879428e+01 4.619254e+01 4.401188e+01 5.496252e+01 1.419105e+00 2.222569e+00 2.217525e+00 3.740568e+00 3.252671e+00 4.062724e+00 2.607967e+00 3.414830e+00 2.787734e+00 2.694524e+00 2.772981e+00 2.167494e+00 2.272098e+00 2.224012e-01 3.279522e-01 2.658697e-01 5.329593e-01 4.684392e-01 6.007194e-01 3.944622e-01 4.666371e-01 4.488087e-01 4.435277e-01 4.523294e-01 3.872574e-01 2.392058e-01
<GCONST> 1.260534e+02
<STATE> 4
<MEAN> 39
 -2.759538e+00 1.274893e+01 -1.194787e+01 -8.908900e-01 -1.273933e+01 -9.537720e+00 1.554200e+00 -5.557550e+00 -9.133325e+00 1.051806e+00 -6.439038e+00 -2.991453e+00 6.810717e+01 -1.836410e-02 3.098298e-01 4.938012e-01 1.256113e-01 -6.530552e-02 -1.942996e-01 -1.456539e-01 -2.702305e-03 -1.036916e-01 1.166369e-01 9.974749e-02 8.306497e-02 -2.078779e-01 -1.650536e-01 -1.049274e-01 8.836033e-02 -7.319822e-03 9.562396e-02 3.156384e-02 1.180433e-02 1.854433e-02 7.377957e-02 6.478027e-02 5.070650e-02 4.918424e-02 3.703779e-02
<VARIANCE> 39
 2.929464e+01 5.521693e+01 8.763264e+01 6.915168e+01 1.149692e+02 1.024014e+02 4.277522e+01 8.972707e+01 5.405748e+01 5.322871e+01 4.924563e+01 4.751701e+01 3.914535e+01 1.587137e+00 1.950024e+00 2.262727e+00 3.361282e+00 2.858914e+00 4.135332e+00 2.407740e+00 3.011304e+00 2.641977e+00 2.583175e+00 2.524520e+00 2.123441e+00 2.248085e+00 1.862892e-01 2.761475e-01 2.728392e-01 4.743722e-01 3.843914e-01 5.857021e-01 3.847879e-01 4.496599e-01 4.094618e-01 4.238940e-01 4.304187e-01 3.828266e-01 2.440531e-01
<GCONST> 1.235889e+02
<TRANSP> 5
 0.000000e+00 1.000000e+00 0.000000e+00 0.000000e+00 0.000000e+00
 0.000000e+00 5.858177e-01 4.141822e-01 0.000000e+00 0.000000e+00
 0.000000e+00 0.000000e+00 5.835189e-01 4.164812e-01 0.000000e+00
 0.000000e+00 0.000000e+00 0.000000e+00 6.983686e-01 3.016314e-01
 0.000000e+00 0.000000e+00 0.000000e+00 0.000000e+00 0.000000e+00
<ENDHMM>
~h "d"
<BEGINHMM>
<NUMSTATES> 5
<STATE> 2
<MEAN> 39
 -7.274495e+00 1.008560e+01 -6.782326e+00 5.817006e+00 -3.831160e+00 -9.789555e+00 -1.668367e+00 -5.317387e+00 -6.179797e+00 5.738229e+00 -3.099220e+00 -2.658342e-01 6.672243e+01 -4.234015e-01 1.502734e-01 2.647693e-01 8.437126e-02 1.787695e-01 4.370560e-01 3.605871e-01 2.669095e-01 1.355653e-01 -1.455782e-02 1.551781e-02 2.113921e-01 -3.738118e-01 -5.828185e-02 -2.862387e-02 2.725237e-03 -1.840954e-02 -1.167685e-02 2.021567e-02 4.251063e-02 -2.084511e-02 -9.354460e-03 -2.060478e-02 -4.649599e-03 1.458974e-02 1.294832e-02
<VARIANCE> 39
 5.472501e+01 4.367175e+01 6.732819e+01 6.310348e+01 6.171496e+01 9.222687e+01 7.442184e+01 5.893446e+01 5.714324e+01 5.505335e+01 5.746416e+01 4.552436e+01 4.928933e+01 1.769789e+00 2.061268e+00 1.948838e+00 2.561611e+00 2.171126e+00 3.722744e+00 2.613379e+00 2.235384e+00 2.350396e+00 2.187973e+00 1.858107e+00 1.516045e+00 1.914161e+00 2.034037e-01 3.024606e-01 2.709527e-01 3.589909e-01 3.423128e-01 5.673363e-01 4.192529e-01 3.489179e-01 3.591987e-01 3.612954e-01 3.085788e-01 2.593873e-01 2.480096e-01
<GCONST> 1.201027e+02
<STATE> 3
<MEAN> 39
 -8.267926e+00 1.032413e+01 -6.421152e+00 6.158936e+00 -3.459289e+00 -8.437002e+00 -6.459408e-01 -4.815584e+00 -5.733846e+00 5.773538e+00 -3.046814e+00 1.915522e-01 6.567765e+01 -4.555316e-01 8.536735e-02 2.158721e-01 9.671684e-02 1.597828e-01 4.048143e-01 3.882726e-01 2.078161e-01 1.080448e-01 -3.925521e-02 6.451530e-03 1.920892e-01 -3.396068e-01 -3.385823e-02 -4.437231e-02 1.179774e-02 -4.024921e-03 -3.431778e-03 -2.863682e-02 -1.142571e-02 -9.827536e-03 -1.472794e-02 -2.015576e-02 -1.346712e-02 -1.265959e-02 2.863122e-02
<VARIANCE> 39
 6.397266e+01 4.731577e+01 6.876170e+01 6.339117e+01 5.932600e+01 8.956435e+01 7.305510e+01 5.585216e+01 5.503838e+01 5.072792e+01 5.144400e+01 4.427095e+01 5.380005e+01 1.778982e+00 2.046391e+00 1.861244e+00 2.131794e+00 2.078535e+00 3.193167e+00 2.337808e+00 2.119960e+00 2.208133e+00 2.039998e+00 1.689656e+00 1.461417e+00 1.745809e+00 2.241554e-01 3.104531e-01 2.808803e-01 3.305274e-01 3.226569e-01 5.043122e-01 3.915243e-01 3.312708e-01 3.458565e-01 3.346435e-01 2.776070e-01 2.551350e-01 2.581206e-01
<GCONST> 1.186863e+02
<STATE> 4
<MEAN> 39
 -1.095299e+01 9.012952e+00 -6.342956e+00 7.637006e+00 -3.290993e+00 -4.941073e+00 2.549004e+00 -2.601934e+00 -2.590577e+00 7.599423e+00 -1.822226e+00 1.580911e+00 6.203749e+01 -3.385030e-01 6.595527e-02 1.615655e-01 2.920260e-02 1.420211e-01 2.594227e-01 2.087244e-01 1.733933e-01 8.946345e-02 -7.932354e-02 -3.711097e-02 8.901516e-02 -2.040001e-01 3.274274e-03 -2.128402e-02 2.444355e-02 -3.753196e-02 -3.145850e-02 -6.785951e-02 -5.095297e-02 1.793506e-04 -2.756820e-02 -2.329583e-02 -2.654311e-02 -2.646011e-02 5.765437e-02
<VARIANCE> 39
 5.990698e+01 5.630949e+01 5.320300e+01 5.706710e+01 5.544571e+01 9.639590e+01 7.197458e+01 5.445340e+01 6.359211e+01 5.176646e+01 4.671654e+01 3.715595e+01 5.943571e+01 1.375409e+00 1.853832e+00 1.540519e+00 1.755925e+00 1.934714e+00 2.910645e+00 1.958738e+00 1.867553e+00 1.905866e+00 1.823035e+00 1.574222e+00 1.396229e+00 1.314071e+00 1.948581e-01 2.583900e-01 2.241474e-01 2.793779e-01 3.022659e-01 4.581145e-01 3.244536e-01 2.967309e-01 3.078559e-01 2.987157e-01 2.581687e-01 2.382870e-01 2.065618e-01
<GCONST> 1.147536e+02
<TRANSP> 5
 0.000000e+00 1.000000e+00 0.000000e+00 0.000000e+00 0.000000e+00
 0.000000e+00 4.653178e-01 5.346823e-01 0.000000e+00 0.000000e+00
 0.000000e+00 0.000000e+00 4.780955e-01 5.219045e-01 0.000000e+00
 0.000000e+00 0.000000e+00 0.000000e+00 7.106014e-01 2.893986e-01
 0.000000e+00 0.000000e+00 0.000000e+00 0.000000e+00 0.000000e+00
<ENDHMM>
~h "f"
<BEGINHMM>
<NUMSTATES> 5
<STATE> 2
<MEAN> 39
 -1.945626e+01 1.124030e+01 -7.567261e+00 3.849002e+00 4.658395e+00 -2.983497e+00 1.729351e+00 -2.786880e+00 -3.098817e+00 6.286385e+00 -1.590657e+00 1.114818e+00 6.682186e+01 -6.401257e-01 -1.325565e-01 -3.657461e-01 -9.198897e-01 -9.490468e-03 -1.869220e-01 7.161894e-02 -1.636472e-01 -8.850601e-02 -1.703001e-01 -3.201743e-02 1.745666e-01 6.778616e-01 3.504076e-01 7.737558e-03 -1.188645e-01 -7.532401e-02 -2.295123e-01 -1.142120e-01 -6.913440e-02 -1.529833e-01 -7.665559e-02 -5.844265e-02 -2.990296e-02 -2.994211e-02 6.316336e-02
<VARIANCE> 39
 1.383708e+02 3.234078e+01 4.003745e+01 5.915382e+01 3.323055e+01 2.780448e+01 5.523161e+01 4.825980e+01 3.548122e+01 2.831305e+01 3.563604e+01 3.130419e+01 3.858171e+01 9.082627e+00 2.235427e+00 1.932348e+00 3.136762e+00 2.754066e+00 2.311496e+00 2.419441e+00 2.533146e+00 2.206046e+00 1.773591e+00 1.798788e+00 1.769889e+00 2.176611e+00 1.043732e+00 3.965591e-01 3.119237e-01 5.595086e-01 4.247777e-01 3.650148e-01 3.515553e-01 4.665275e-01 3.485938e-01 3.184799e-01 2.949579e-01 3.022703e-01 2.988959e-01
<GCONST> 1.198064e+02
<STATE> 3
<MEAN> 39
 -1.881603e+01 1.104594e+01 -1.006905e+01 5.721080e-01 3.435161e+00 -4.233615e+00 1.820626e+00 -3.768188e+00 -4.128819e+00 5.636930e+00 -1.720696e+00 1.691677e+00 6.878526e+01 1.065907e+00 1.266948e-01 -7.339342e-01 -8.656000e-01 -6.783398e-01 -4.988019e-01 -2.332124e-01 -5.559791e-01 -3.942037e-01 -3.005658e-01 -1.284219e-01 -6.774288e-02 5.424154e-01 3.865891e-01 5.566530e-02 -8.735873e-02 2.606851e-02 -1.425122e-01 -5.755225e-02 -5.684464e-02 -1.216299e-01 -3.053308e-02 8.776343e-03 -3.313587e-02 -9.460580e-02 -1.650092e-02
<VARIANCE> 39
 1.618306e+02 3.525560e+01 4.623198e+01 6.306034e+01 4.340408e+01 3.298352e+01 5.311831e+01 4.772100e+01 3.845180e+01 3.250899e+01 3.412677e+01 2.908670e+01 3.001929e+01 1.179949e+01 2.910661e+00 2.616800e+00 3.174886e+00 3.681000e+00 2.607882e+00 2.705686e+00 3.382953e+00 2.625423e+00 2.027271e+00 1.831293e+00 1.991561e+00 1.670728e+00 1.174640e+00 5.416979e-01 3.927378e-01 5.357147e-01 5.178937e-01 3.928611e-01 3.712651e-01 4.961461e-01 4.370346e-01 3.646601e-01 2.995452e-01 3.446164e-01 2.306698e-01
<GCONST> 1.235814e+02
<STATE> 4
<MEAN> 39
 -1.337550e+01 1.182915e+01 -1.296965e+01 -1.441186e+00 5.627154e-01 -6.223918e+00 5.408117e-01 -5.819582e+00 -4.715761e+00 5.270265e+00 -2.211992e+00 1.244647e+00 6.990772e+01 1.811119e+00 2.318933e-01 -6.847152e-01 -7.012503e-01 -9.960765e-01 -5.991555e-01 -4.268774e-01 -7.828898e-01 -4.000795e-01 -2.263478e-01 -3.102025e-01 -3.980214e-01 3.965564e-01 3.664902e-02 -4.443317e-02 -6.198401e-03 9.390745e-02 7.026695e-03 2.148926e-02 1.800766e-02 -2.177234e-02 3.605722e-02 6.143459e-02 -2.120898e-02 -6.893326e-02 -3.319312e-02
<VARIANCE> 39
 1.730463e+02 3.528289e+01 4.860957e+01 6.118546e+01 6.471114e+01 5.682579e+01 6.129940e+01 7.476048e+01 5.668601e+01 4.146861e+01 4.351975e+01 3.870475e+01 2.596105e+01 9.969749e+00 3.120898e+00 3.148195e+00 3.873770e+00 3.841557e+00 3.124962e+00 2.854211e+00 3.846875e+00 3.388825e+00 2.599872e+00 2.237137e+00 2.268444e+00 1.489027e+00 1.240804e+00 5.752506e-01 4.085732e-01 5.330735e-01 6.007543e-01 4.571792e-01 4.212871e-01 5.807269e-01 5.126956e-01 4.322428e-01 3.344566e-01 3.768139e-01 1.912192e-01
<GCONST> 1.287046e+02
<TRANSP> 5
 0.000000e+00 1.000000e+00 0.000000e+00 0.000000e+00 0.000000e+00
 0.000000e+00 7.447565e-01 2.552435e-01 0.000000e+00 0.000000e+00
 0.000000e+00 0.000000e+00 7.322773e-01 2.677227e-01 0.000000e+00
 0.000000e+00 0.000000e+00 0.000000e+00 7.797955e-01 2.202045e-01
 0.000000e+00 0.000000e+00 0.000000e+00 0.000000e+00 0.000000e+00
<ENDHMM>
~h "g"
<BEGINHMM>
<NUMSTATES> 5
<STATE> 2
<MEAN> 39
 -7.522954e+00 1.523300e+01 -4.752075e+00 8.167883e+00 1.101347e+00 -5.948637e+00 -5.999786e-01 -9.686546e+00 -9.542187e+00 2.474140e+00 -8.163309e+00 -2.267381e+00 6.363884e+01 1.812448e-01 8.093981e-02 -2.284425e-01 -4.161309e-01 7.872601e-02 -9.395857e-02 -2.254067e-01 -9.687745e-01 -3.741292e-01 3.153090e-02 -2.807218e-01 -2.617537e-01 3.173196e-01 4.410246e-02 -8.940424e-02 -4.921196e-02 -7.756715e-02 -3.019149e-02 -4.611482e-02 -7.214349e-02 -6.476377e-02 1.301685e-02 5.657740e-02 3.880595e-02 -2.358859e-02 1.094960e-01
<VARIANCE> 39
 2.523163e+01 5.789644e+01 3.632100e+01 7.626442e+01 7.220372e+01 1.470831e+02 7.857439e+01 9.092043e+01 5.769382e+01 4.636096e+01 4.622787e+01 4.828786e+01 4.856143e+01 2.030068e+00 2.799644e+00 3.305310e+00 6.812892e+00 2.705470e+00 6.289386e+00 5.807404e+00 6.044291e+00 3.208455e+00 3.973842e+00 2.549166e+00 2.578521e+00 1.679394e+00 2.904680e-01 4.120441e-01 5.329924e-01 1.152006e+00 4.886903e-01 9.450299e-01 8.069976e-01 9.996233e-01 5.647821e-01 7.021658e-01 4.492472e-01 4.374191e-01 2.142725e-01
<GCONST> 1.330211e+02
<STATE> 3
<MEAN> 39
 -6.550421e+00 1.420550e+01 -5.685271e+00 6.993876e+00 2.164138e+00 -7.962545e+00 -3.163356e+00 -1.355865e+01 -1.037346e+01 3.134463e+00 -9.492653e+00 -3.731802e+00 6.634723e+01 2.376824e-01 -2.136490e-01 -1.218368e-01 -6.805289e-02 1.183475e-01 -5.546334e-01 -6.228360e-01 -5.064705e-01 -1.004491e-01 8.607320e-02 -1.826206e-01 -3.098941e-01 5.053842e-01 -8.020864e-03 -3.843839e-02 2.439274e-02 6.430364e-02 -3.770186e-02 -8.209469e-02 -2.185871e-02 1.605279e-01 4.887334e-02 -3.215872e-02 1.418420e-02 1.172808e-02 6.059727e-03
<VARIANCE> 39
 2.407908e+01 4.634911e+01 4.658377e+01 1.038285e+02 8.763382e+01 1.565760e+02 8.923590e+01 1.166949e+02 6.968421e+01 5.538641e+01 5.736162e+01 5.674101e+01 3.462314e+01 1.765957e+00 2.623356e+00 3.404357e+00 6.992315e+00 3.080173e+00 7.575160e+00 5.794192e+00 8.958293e+00 4.008742e+00 4.484319e+00 2.714777e+00 3.059407e+00 1.467368e+00 2.791143e-01 4.013008e-01 5.508109e-01 1.130780e+00 4.994984e-01 1.007378e+00 8.245230e-01 1.262844e+00 6.974150e-01 8.105086e-01 4.758964e-01 5.037228e-01 1.872782e-01
<GCONST> 1.360558e+02
<STATE> 4
<MEAN> 39
 -6.737285e+00 9.997946e+00 -6.478172e+00 7.383804e+00 -2.933742e+00 -1.755828e+01 -5.110044e+00 -1.016231e+01 -1.177299e+01 2.092177e+00 -1.088444e+01 -6.086930e+00 6.887437e+01 4.607520e-02 -1.905130e-01 -1.285463e-01 -9.092421e-02 -1.895082e-01 -6.868154e-02 9.100600e-02 2.353046e-01 -4.974946e-03 8.650605e-02 1.418891e-01 2.865229e-02 7.756580e-02 -1.122750e-02 -4.036241e-02 -4.117199e-02 -5.780440e-02 -1.215508e-02 6.160122e-02 7.017744e-02 3.598793e-02 1.176173e-02 3.883440e-02 7.192630e-02 3.982605e-02 8.673482e-03
<VARIANCE> 39
 1.753164e+01 4.305768e+01 4.370777e+01 7.876624e+01 1.187398e+02 1.943407e+02 8.781099e+01 1.127487e+02 7.281014e+01 5.773474e+01 5.758839e+01 5.907878e+01 3.278674e+01 9.768408e-01 1.956213e+00 2.227386e+00 3.191756e+00 2.830368e+00 8.123126e+00 4.796996e+00 6.749191e+00 3.351631e+00 3.922884e+00 3.089167e+00 3.186406e+00 1.211395e+00 1.493645e-01 2.928524e-01 3.281700e-01 4.862692e-01 3.908336e-01 1.004625e+00 6.961322e-01 9.719597e-01 5.546765e-01 6.107795e-01 4.591685e-01 4.993676e-01 1.722209e-01
<GCONST> 1.293326e+02
<TRANSP> 5
 0.000000e+00 1.000000e+00 0.000000e+00 0.000000e+00 0.000000e+00
 0.000000e+00 7.882162e-01 2.117838e-01 0.000000e+00 0.000000e+00
 0.000000e+00 0.000000e+00 8.109767e-01 1.890233e-01 0.000000e+00
 0.000000e+00 0.000000e+00 0.000000e+00 9.619649e-01 3.803515e-02
 0.000000e+00 0.000000e+00 0.000000e+00 0.000000e+00 0.000000e+00
<ENDHMM>
~h "k"
<BEGINHMM>
<NUMSTATES> 5
<STATE> 2
<MEAN> 39
 -9.678211e+00 9.678998e+00 -7.944458e+00 3.721795e+00 -3.358642e+00 -7.479027e+00 -1.351588e+00 -7.541083e+00 -6.237213e+00 6.030316e+00 -5.317081e+00 -4.092594e-01 6.555444e+01 -5.349506e-01 -3.115514e-01 1.417635e-01 -8.023117e-02 8.577769e-02 2.513721e-01 2.373062e-02 1.031920e-01 4.568803e-01 2.855361e-01 1.579470e-01 1.721135e-01 3.583505e-02 6.318972e-02 -1.820017e-02 -2.318128e-02 -8.393357e-02 -6.228077e-02 1.137768e-02 4.603370e-02 -2.517247e-02 -3.315973e-03 -2.984802e-02 1.654826e-02 9.472499e-03 9.402550e-02
<VARIANCE> 39
 3.974319e+01 4.106778e+01 4.240243e+01 6.997925e+01 5.619949e+01 1.268482e+02 9.150095e+01 7.532822e+01 7.178853e+01 5.352828e+01 5.221838e+01 4.981620e+01 4.880202e+01 2.259228e+00 2.719654e+00 2.530383e+00 4.793058e+00 2.822633e+00 6.723366e+00 4.473495e+00 3.986354e+00 3.249447e+00 3.393524e+00 3.277564e+00 2.871100e+00 3.978467e+00 3.422710e-01 4.867035e-01 4.210846e-01 8.542536e-01 4.442012e-01 8.163905e-01 6.361523e-01 6.532762e-01 5.619584e-01 6.432155e-01 5.505770e-01 4.791880e-01 6.761006e-01
<GCONST> 1.334957e+02
<STATE> 3
<MEAN> 39
 -1.090952e+01 9.114077e+00 -7.658510e+00 3.596183e+00 -3.240896e+00 -6.475716e+00 -7.277478e-01 -6.981533e+00 -4.922386e+00 6.458391e+00 -4.770336e+00 2.703375e-01 6.543191e+01 -3.191538e-01 -3.003377e-01 -6.211509e-03 -2.771577e-01 3.563289e-02 2.814955e-01 1.464501e-01 1.096601e-01 3.701580e-01 1.928791e-01 1.984430e-01 1.979954e-01 1.766904e-01 6.146283e-02 -2.317346e-02 -5.228278e-02 -1.298491e-01 -1.802228e-02 -2.499644e-02 2.162359e-02 1.855589e-02 -2.757392e-02 -1.769594e-02 2.102105e-02 -2.272966e-02 1.267443e-01
<VARIANCE> 39
 4.082291e+01 3.814141e+01 4.447977e+01 7.279469e+01 5.324371e+01 1.174533e+02 9.297767e+01 7.147185e+01 6.147146e+01 5.119441e+01 4.909427e+01 4.817376e+01 4.958592e+01 2.546520e+00 2.649763e+00 2.518490e+00 5.383381e+00 2.673753e+00 6.051440e+00 4.362518e+00 3.744958e+00 3.150593e+00 3.181699e+00 3.187396e+00 2.677050e+00 3.851220e+00 3.426971e-01 4.341280e-01 4.198080e-01 9.695889e-01 4.284244e-01 7.149925e-01 6.298903e-01 6.074812e-01 5.397804e-01 5.961173e-01 5.379904e-01 4.686628e-01 6.388414e-01
<GCONST> 1.323625e+02
<STATE> 4
<MEAN> 39
 -1.228627e+01 8.166565e+00 -8.193976e+00 2.839271e+00 -3.499184e+00 -4.451781e+00 1.506754e+00 -5.330912e+00 -3.051516e+00 6.925497e+00 -3.789028e+00 1.687582e+00 6.444918e+01 -1.645442e-01 -2.975550e-01 -1.603488e-01 -6.790407e-01 1.154696e-01 2.092117e-01 9.941477e-02 1.534845e-01 1.885969e-01 1.029004e-01 1.588053e-01 1.827310e-02 4.682814e-01 -2.025225e-02 -4.123990e-03 9.545767e-03 -8.183615e-02 3.283500e-02 -2.033426e-02 -1.323083e-02 6.393749e-03 -3.210282e-02 -1.879275e-02 -3.625430e-03 -7.336966e-02 9.696156e-02
<VARIANCE> 39
 4.281984e+01 3.895850e+01 4.677077e+01 9.269379e+01 5.757890e+01 1.387986e+02 1.026843e+02 7.098016e+01 6.353697e+01 4.772409e+01 5.048379e+01 5.075912e+01 6.056590e+01 2.504713e+00 2.438874e+00 2.426009e+00 6.708767e+00 3.020814e+00 5.452745e+00 4.179986e+00 3.530268e+00 3.205890e+00 3.166580e+00 3.429418e+00 2.844339e+00 3.537881e+00 3.380680e-01 3.806686e-01 4.323430e-01 1.116866e+00 4.610748e-01 7.086471e-01 6.574830e-01 5.803659e-01 5.447122e-01 5.501196e-01 5.693516e-01 4.850856e-01 5.641863e-01
<GCONST> 1.333481e+02
<TRANSP> 5
 0.000000e+00 1.000000e+00 0.000000e+00 0.000000e+00 0.000000e+00
 0.000000e+00 6.052770e-01 3.947230e-01 0.000000e+00 0.000000e+00
 0.000000e+00 0.000000e+00 5.807390e-01 4.192610e-01 0.000000e+00
 0.000000e+00 0.000000e+00 0.000000e+00 7.387790e-01 2.612210e-01
 0.000000e+00 0.000000e+00 0.000000e+00 0.000000e+00 0.000000e+00
<ENDHMM>
~h "l"
<BEGINHMM>
<NUMSTATES> 5
<STATE> 2
<MEAN> 39
 -2.847580e+00 1.189786e+01 -6.458193e+00 -4.444933e+00 -2.001220e+01 -1.401278e+01 2.776687e+00 -2.395556e+00 -9.217004e+00 6.134127e-01 -5.073779e+00 -1.089305e+00 7.088243e+01 1.117215e-01 3.794211e-01 3.313808e-01 9.072044e-02 -2.783829e-01 -8.056351e-02 3.392622e-02 -1.582791e-01 -2.297510e-01 -2.091367e-01 -8.746048e-03 1.133069e-01 -2.965850e-01 -6.203010e-02 -3.019070e-02 6.002180e-03 8.806928e-02 1.605849e-01 4.680824e-02 -5.659716e-02 -7.473843e-02 8.944205e-03 3.453208e-02 1.350507e-02 2.735553e-02 -3.258385e-02
<VARIANCE> 39
 3.192834e+01 6.357006e+01 8.620175e+01 8.401612e+01 1.011359e+02 9.296822e+01 5.733815e+01 9.017822e+01 7.179724e+01 5.149964e+01 4.246997e+01 3.947088e+01 2.756091e+01 7.110721e-01 1.028749e+00 1.456154e+00 1.482624e+00 2.205416e+00 2.523438e+00 2.137123e+00 2.060329e+00 2.211484e+00 1.904395e+00 1.732941e+00 1.509045e+00 5.163670e-01 8.782585e-02 1.381049e-01 1.405671e-01 1.956481e-01 2.620052e-01 3.135213e-01 3.072206e-01 3.031314e-01 3.318426e-01 3.161174e-01 2.782334e-01 2.644202e-01 5.993046e-02
<GCONST> 1.096727e+02
<STATE> 3
<MEAN> 39
 -2.661696e+00 1.336434e+01 -5.126112e+00 -3.259591e+00 -1.969325e+01 -1.423178e+01 2.371063e+00 -3.395788e+00 -9.954582e+00 2.890308e-01 -5.109925e+00 -3.906841e-01 6.961146e+01 -1.011974e-01 2.602048e-01 3.051402e-01 3.942156e-01 3.367735e-01 9.556313e-02 -1.554876e-01 -3.563307e-01 -1.667458e-01 -6.418815e-02 2.923863e-02 1.664159e-01 -3.597937e-01 -5.192092e-02 -5.305897e-02 -3.977962e-02 8.454674e-02 1.849603e-01 3.200570e-02 -6.493025e-02 -4.243598e-02 3.139982e-02 5.801805e-02 2.435357e-02 -7.737078e-03 -2.394713e-03
<VARIANCE> 39
 2.428151e+01 5.743665e+01 7.522947e+01 8.626250e+01 1.115947e+02 8.973151e+01 5.414264e+01 8.882191e+01 7.933942e+01 5.097600e+01 4.410319e+01 3.901578e+01 2.909496e+01 5.191770e-01 9.410582e-01 1.142961e+00 1.353590e+00 2.114106e+00 2.329624e+00 1.936690e+00 1.997953e+00 2.107473e+00 1.860214e+00 1.704055e+00 1.588000e+00 5.023574e-01 6.178193e-02 1.229206e-01 1.358676e-01 1.911300e-01 2.689595e-01 3.282042e-01 3.092269e-01 3.180122e-01 3.312304e-01 3.029239e-01 2.802816e-01 2.771708e-01 6.486171e-02
<GCONST> 1.079847e+02
<STATE> 4
<MEAN> 39
 -3.529147e+00 1.393139e+01 -4.801108e+00 -1.009660e+00 -1.853974e+01 -1.566269e+01 2.081666e+00 -5.846537e+00 -1.007568e+01 1.133207e+00 -5.276708e+00 5.941764e-01 6.787814e+01 -2.642422e-01 1.210184e-01 1.736510e-01 5.887613e-01 8.103812e-01 2.328879e-01 -2.683561e-01 -3.017560e-01 3.184007e-03 3.869457e-02 6.309189e-02 8.026359e-02 -3.785020e-01 -3.893538e-02 -5.875260e-02 -4.075105e-02 3.954915e-02 1.133430e-01 2.086310e-02 -2.912170e-02 3.427790e-02 7.438750e-02 4.498008e-02 -7.257865e-03 -3.709809e-02 5.873888e-03
<VARIANCE> 39
 2.403938e+01 5.937834e+01 6.276538e+01 8.028288e+01 1.187713e+02 1.034528e+02 5.936743e+01 9.016299e+01 8.165946e+01 4.936722e+01 4.579107e+01 3.928202e+01 3.434575e+01 5.622253e-01 1.019655e+00 1.287128e+00 1.504979e+00 2.202215e+00 3.020460e+00 2.263807e+00 2.471270e+00 2.440573e+00 2.302349e+00 1.859046e+00 1.903184e+00 6.540123e-01 6.893483e-02 1.403663e-01 1.563563e-01 2.215644e-01 2.989419e-01 4.293016e-01 3.355176e-01 3.684026e-01 3.796759e-01 3.577506e-01 3.078520e-01 3.078001e-01 7.943394e-02
<GCONST> 1.120571e+02
<TRANSP> 5
 0.000000e+00 1.000000e+00 0.000000e+00 0.000000e+00 0.000000e+00
 0.000000e+00 6.939831e-01 3.060169e-01 0.000000e+00 0.000000e+00
 0.000000e+00 0.000000e+00 6.640313e-01 3.359687e-01 0.000000e+00
 0.000000e+00 0.000000e+00 0.000000e+00 7.690812e-01 2.309188e-01
 0.000000e+00 0.000000e+00 0.000000e+00 0.000000e+00 0.000000e+00
<ENDHMM>
~h "m"
<BEGINHMM>
<NUMSTATES> 5
<STATE> 2
<MEAN> 39
 -1.136149e+01 9.541293e+00 -4.152200e+00 6.112792e+00 -9.678690e-01 -5.604788e+00 -1.119549e+00 -7.846645e+00 -6.677358e+00 5.143476e+00 -4.039024e+00 -8.198887e-01 6.557347e+01 -1.212542e-01 1.240792e-01 2.821501e-01 2.144400e-01 1.505919e-01 3.773571e-02 -1.299283e-01 -1.492487e-01 -5.661232e-02 -1.714948e-02 2.598510e-02 -6.604283e-02 -9.470251e-02 7.203724e-02 4.347289e-02 -3.600640e-02 -3.706212e-03 -5.413062e-02 -8.402596e-02 -3.536928e-02 1.474496e-02 -6.990311e-03 -2.678405e-02 -2.571850e-02 -2.833426e-02 3.142091e-03
<VARIANCE> 39
 1.065623e+02 6.590631e+01 8.995525e+01 7.071708e+01 4.257611e+01 7.983173e+01 6.663876e+01 6.421533e+01 7.706638e+01 5.086983e+01 4.265698e+01 4.469678e+01 5.740221e+01 2.814376e+00 2.265402e+00 2.048895e+00 1.963354e+00 1.492626e+00 3.418971e+00 3.162973e+00 2.903837e+00 3.506027e+00 2.248195e+00 1.900286e+00 1.806682e+00 1.711868e+00 2.981569e-01 3.112976e-01 3.198628e-01 3.301022e-01 2.321025e-01 4.562843e-01 4.430426e-01 4.511383e-01 4.902164e-01 3.516921e-01 3.218125e-01 3.051023e-01 2.034308e-01
<GCONST> 1.224378e+02
<STATE> 3
<MEAN> 39
 -1.073604e+01 1.020993e+01 -3.944905e+00 6.762901e+00 -8.177356e-01 -5.616136e+00 -1.738508e+00 -8.200351e+00 -7.005374e+00 4.897479e+00 -3.983303e+00 -1.188360e+00 6.522694e+01 1.770108e-01 2.785395e-01 1.569035e-01 1.854866e-01 -1.022114e-02 -1.624109e-01 -1.762847e-01 -6.206666e-02 -9.698562e-02 -1.018609e-01 -6.115598e-02 -7.578233e-02 -1.587246e-01 3.152199e-02 -5.404855e-03 -5.291126e-02 -3.734079e-02 -6.084052e-02 -9.074404e-02 9.392503e-03 6.172197e-02 3.265253e-02 4.633067e-03 -2.086730e-02 5.217057e-03 1.970216e-02
<VARIANCE> 39
 1.006145e+02 6.484300e+01 8.241595e+01 6.626823e+01 3.994754e+01 8.479716e+01 7.032792e+01 6.134932e+01 8.131956e+01 4.795253e+01 4.051176e+01 4.752870e+01 5.605413e+01 2.919697e+00 2.172845e+00 1.796320e+00 1.714995e+00 1.379669e+00 3.722104e+00 3.319931e+00 2.879407e+00 3.212428e+00 2.061160e+00 1.781851e+00 1.788192e+00 1.432781e+00 2.943291e-01 3.175396e-01 2.720342e-01 2.926116e-01 2.172824e-01 4.970094e-01 4.760719e-01 4.592314e-01 4.638399e-01 3.336878e-01 3.114926e-01 2.987446e-01 1.647679e-01
<GCONST> 1.210059e+02
<STATE> 4
<MEAN> 39
 -1.067191e+01 1.019005e+01 -3.815562e+00 7.294871e+00 -7.750459e-01 -6.221311e+00 -2.192039e+00 -8.511368e+00 -6.807964e+00 5.540895e+00 -3.714918e+00 -1.889735e+00 6.455148e+01 2.433155e-01 2.319857e-01 -3.606383e-02 1.356673e-01 -9.997544e-02 -2.390752e-01 -5.913571e-02 1.260557e-01 1.279579e-02 -1.320212e-01 -9.914180e-02 -1.375665e-02 -1.694348e-01 -2.586823e-02 -4.596318e-02 -4.428599e-02 -3.837065e-02 -2.425292e-02 -3.854503e-02 5.692234e-02 6.707869e-02 2.378017e-02 1.231265e-02 -4.127752e-03 1.530676e-02 3.139398e-02
<VARIANCE> 39
 8.273384e+01 5.815508e+01 6.792582e+01 6.133111e+01 3.737662e+01 9.958480e+01 6.752486e+01 5.937398e+01 8.210618e+01 4.399650e+01 4.098911e+01 5.252806e+01 5.679363e+01 2.654734e+00 2.073364e+00 1.769834e+00 1.811819e+00 1.412442e+00 4.365109e+00 3.320511e+00 2.714156e+00 2.854980e+00 2.017534e+00 1.740249e+00 1.659055e+00 1.358596e+00 2.613016e-01 3.045380e-01 2.541001e-01 3.041609e-01 2.103878e-01 5.840782e-01 4.900540e-01 4.407754e-01 4.441952e-01 3.431018e-01 3.032438e-01 2.840493e-01 1.584982e-01
<GCONST> 1.200259e+02
<TRANSP> 5
 0.000000e+00 1.000000e+00 0.000000e+00 0.000000e+00 0.000000e+00
 0.000000e+00 4.974332e-01 5.025668e-01 0.000000e+00 0.000000e+00
 0.000000e+00 0.000000e+00 4.949766e-01 5.050234e-01 0.000000e+00
 0.000000e+00 0.000000e+00 0.000000e+00 6.318234e-01 3.681765e-01
 0.000000e+00 0.000000e+00 0.000000e+00 0.000000e+00 0.000000e+00
<ENDHMM>
~h "n"
<BEGINHMM>
<NUMSTATES> 5
<STATE> 2
<MEAN> 39
 -5.802349e+00 9.974593e+00 -6.698765e+00 6.676990e+00 -3.060271e+00 -1.149454e+01 -3.063725e+00 -6.852401e+00 -7.554555e+00 4.709088e+00 -5.011165e+00 -2.948175e+00 6.818268e+01 -7.221410e-02 3.491277e-01 2.175673e-01 3.104613e-01 2.148811e-01 2.181987e-01 7.757920e-02 -3.063398e-02 -9.020476e-02 -8.422060e-02 -9.407397e-02 -1.766039e-02 -3.967589e-01 -5.675821e-02 1.267768e-02 4.826159e-02 1.362633e-03 -1.256084e-02 4.830506e-02 2.670459e-02 1.956436e-02 3.543385e-02 -8.234533e-03 4.593193e-03 3.742516e-02 -4.855123e-02
<VARIANCE> 39
 2.294122e+01 5.297871e+01 4.671882e+01 5.799168e+01 5.777208e+01 1.204732e+02 6.923450e+01 7.132151e+01 7.355875e+01 5.513525e+01 5.318093e+01 4.494010e+01 4.796877e+01 7.124261e-01 1.593984e+00 1.499244e+00 1.796274e+00 1.510925e+00 3.497319e+00 2.325076e+00 2.437221e+00 2.251914e+00 2.123734e+00 1.817605e+00 1.521900e+00 1.238602e+00 1.048108e-01 2.195195e-01 1.826006e-01 2.639309e-01 2.226596e-01 5.081434e-01 3.391527e-01 3.622850e-01 3.446472e-01 3.539687e-01 2.975258e-01 2.545677e-01 1.684658e-01
<GCONST> 1.137627e+02
<STATE> 3
<MEAN> 39
 -6.165360e+00 1.093082e+01 -6.004874e+00 7.572263e+00 -2.624747e+00 -1.053116e+01 -2.659691e+00 -6.828907e+00 -7.563514e+00 4.511769e+00 -5.178946e+00 -2.840895e+00 6.684982e+01 -1.796077e-01 2.923463e-01 2.543717e-01 2.638736e-01 1.342571e-01 2.972160e-01 1.657916e-01 4.474456e-02 2.376581e-02 -6.998767e-02 -4.607775e-02 6.965410e-02 -4.266660e-01 -5.014708e-02 -3.581757e-02 1.911973e-02 -3.058414e-02 -2.386038e-02 1.325559e-02 2.955686e-02 4.346044e-02 4.170478e-02 6.340714e-03 1.712112e-02 2.940736e-02 5.960608e-03
<VARIANCE> 39
 2.455281e+01 5.200084e+01 4.195773e+01 5.581878e+01 5.403425e+01 1.151082e+02 6.334758e+01 6.737818e+01 7.197484e+01 5.279758e+01 5.129406e+01 4.475094e+01 5.245473e+01 7.015003e-01 1.606534e+00 1.443390e+00 1.729073e+00 1.413327e+00 3.350234e+00 2.192632e+00 2.359711e+00 2.047488e+00 1.961985e+00 1.762284e+00 1.431876e+00 1.188746e+00 9.842417e-02 2.057758e-01 1.877744e-01 2.718395e-01 2.093612e-01 4.694966e-01 3.210993e-01 3.462459e-01 3.166756e-01 3.283672e-01 2.838296e-01 2.384334e-01 1.540576e-01
<GCONST> 1.121279e+02
<STATE> 4
<MEAN> 39
 -7.805683e+00 1.114786e+01 -5.855738e+00 8.914580e+00 -2.294683e+00 -8.308719e+00 -4.478285e-01 -6.538208e+00 -6.568717e+00 4.882767e+00 -4.953104e+00 -2.609178e+00 6.411478e+01 -2.306179e-01 1.004907e-01 1.761893e-01 1.292009e-01 1.092627e-01 3.363445e-01 2.018018e-01 1.407090e-01 1.218054e-01 -3.473065e-02 9.668578e-03 1.252007e-01 -2.933999e-01 -3.528922e-02 -5.359834e-02 9.280914e-03 -4.032275e-02 -3.813096e-03 -2.616992e-03 9.178161e-04 2.361131e-02 1.683631e-02 7.805879e-03 1.209414e-02 1.496337e-02 4.148432e-02
<VARIANCE> 39
 2.898976e+01 4.963032e+01 3.849084e+01 5.071464e+01 5.584754e+01 1.329831e+02 6.668922e+01 6.517053e+01 7.515788e+01 4.695741e+01 4.770939e+01 5.573381e+01 6.283434e+01 8.407524e-01 1.627869e+00 1.396066e+00 1.502457e+00 1.403341e+00 3.558082e+00 2.076637e+00 2.221862e+00 1.928649e+00 1.841810e+00 1.689603e+00 1.547524e+00 1.248453e+00 1.151685e-01 2.125584e-01 1.964146e-01 2.481825e-01 2.210656e-01 4.906641e-01 3.121321e-01 3.326809e-01 3.046833e-01 3.138447e-01 2.743388e-01 2.471666e-01 1.518612e-01
<GCONST> 1.125123e+02
<TRANSP> 5
 0.000000e+00 1.000000e+00 0.000000e+00 0.000000e+00 0.000000e+00
 0.000000e+00 5.877672e-01 4.122328e-01 0.000000e+00 0.000000e+00
 0.000000e+00 0.000000e+00 5.925660e-01 4.074341e-01 0.000000e+00
 0.000000e+00 0.000000e+00 0.000000e+00 7.931879e-01 2.068122e-01
 0.000000e+00 0.000000e+00 0.000000e+00 0.000000e+00 0.000000e+00
<ENDHMM>
~h "p"
<BEGINHMM>
<NUMSTATES> 5
<STATE> 2
<MEAN> 39
 -1.217362e+01 9.584709e+00 -5.899446e+00 7.572081e+00 -2.722146e+00 -1.566409e+00 2.753300e+00 -4.289636e+00 -4.504498e+00 4.964874e+00 -1.650422e+00 2.359662e+00 5.953185e+01 -1.843260e-01 -9.963615e-02 -7.082126e-02 -1.219891e-01 -8.142424e-02 9.282586e-02 2.984934e-01 3.794571e-01 1.626820e-01 -4.279386e-02 1.017393e-02 8.129834e-02 -1.018801e-01 8.519473e-02 4.473031e-02 -2.898270e-02 -4.391801e-02 -3.019732e-02 -6.729002e-02 -1.250957e-02 1.187411e-02 -4.130173e-02 -2.478573e-02 -5.555332e-02 -4.952564e-02 6.018130e-02
<VARIANCE> 39
 4.004601e+01 5.446326e+01 4.183937e+01 4.647605e+01 3.458335e+01 5.591388e+01 4.858913e+01 5.290312e+01 6.381314e+01 5.838627e+01 4.379617e+01 3.049614e+01 5.646626e+01 1.515139e+00 2.405231e+00 1.876665e+00 2.052012e+00 1.468021e+00 2.475210e+00 2.263522e+00 2.377185e+00 2.327825e+00 2.520792e+00 2.031264e+00 1.578326e+00 1.999113e+00 2.050772e-01 3.371132e-01 2.746552e-01 2.625511e-01 2.208929e-01 4.199804e-01 3.745560e-01 3.807721e-01 3.981970e-01 4.278787e-01 3.223730e-01 2.631054e-01 2.476231e-01
<GCONST> 1.157929e+02
<STATE> 3
<MEAN> 39
 -1.226076e+01 9.217446e+00 -6.352816e+00 6.897959e+00 -3.167419e+00 -1.380181e+00 3.823865e+00 -3.078783e+00 -4.067814e+00 4.696302e+00 -1.898820e+00 2.278027e+00 5.973349e+01 1.195100e-01 1.004365e-01 -1.774556e-01 -2.420520e-01 -2.231029e-01 -1.612755e-02 3.247111e-01 3.700901e-01 1.213780e-01 -1.022870e-01 -1.849231e-01 -7.245328e-02 4.444312e-02 9.132337e-02 7.984345e-02 7.351728e-03 -1.626427e-02 -5.874872e-02 -8.014881e-02 -2.499977e-02 -1.093502e-02 -1.406710e-02 -9.835795e-03 -5.140116e-02 -4.753746e-02 4.778295e-02
<VARIANCE> 39
 4.100813e+01 5.699021e+01 3.885559e+01 5.431242e+01 3.791801e+01 5.712330e+01 4.910356e+01 5.380072e+01 6.501250e+01 5.807822e+01 4.387141e+01 3.105571e+01 6.769438e+01 1.777350e+00 2.505584e+00 2.099388e+00 2.176440e+00 1.820906e+00 2.530708e+00 2.585688e+00 2.451745e+00 2.575086e+00 2.599425e+00 2.095964e+00 1.713511e+00 1.619952e+00 2.386630e-01 3.949602e-01 2.903800e-01 3.047394e-01 2.554072e-01 4.423320e-01 4.232927e-01 3.942576e-01 4.388266e-01 4.446911e-01 3.380417e-01 2.944588e-01 2.368168e-01
<GCONST> 1.182272e+02
<STATE> 4
<MEAN> 39
 -1.222718e+01 8.949803e+00 -7.316039e+00 6.921234e+00 -3.805692e+00 -9.367906e-02 6.433344e+00 -1.187414e+00 -2.117910e+00 5.285578e+00 -2.230085e+00 1.971234e+00 5.927671e+01 2.678380e-01 2.378151e-01 -5.763928e-02 -2.521203e-01 -3.003922e-01 -2.488846e-01 1.164242e-01 1.537499e-01 -6.681120e-03 -1.575847e-01 -2.661473e-01 -1.563280e-01 2.155699e-01 1.417450e-02 3.641194e-02 7.525705e-02 -3.759893e-02 -1.406857e-02 -9.645136e-02 -9.580564e-02 -5.772039e-02 -5.057637e-02 -3.848867e-03 -6.052846e-03 -2.590857e-02 6.844815e-02
<VARIANCE> 39
 3.952038e+01 5.160226e+01 3.532849e+01 7.249491e+01 4.861914e+01 6.739586e+01 5.436391e+01 5.691145e+01 5.785794e+01 4.917723e+01 4.450156e+01 3.326007e+01 7.842450e+01 1.600180e+00 2.319803e+00 1.876397e+00 2.302678e+00 2.172966e+00 2.755391e+00 2.735631e+00 2.557481e+00 2.666365e+00 2.531468e+00 2.203263e+00 1.727989e+00 1.476668e+00 2.252642e-01 3.613854e-01 2.636656e-01 3.489312e-01 2.916356e-01 4.117967e-01 4.499908e-01 3.912466e-01 4.213442e-01 3.925847e-01 3.398577e-01 2.934119e-01 1.854091e-01
<GCONST> 1.184987e+02
<TRANSP> 5
 0.000000e+00 1.000000e+00 0.000000e+00 0.000000e+00 0.000000e+00
 0.000000e+00 6.010242e-01 3.989759e-01 0.000000e+00 0.000000e+00
 0.000000e+00 0.000000e+00 5.903689e-01 4.096311e-01 0.000000e+00
 0.000000e+00 0.000000e+00 0.000000e+00 7.726240e-01 2.273760e-01
 0.000000e+00 0.000000e+00 0.000000e+00 0.000000e+00 0.000000e+00
<ENDHMM>
~h "r"
<BEGINHMM>
<NUMSTATES> 5
<STATE> 2
<MEAN> 39
 -5.090532e+00 8.852021e+00 -1.377381e+01 -1.486730e+00 -3.705344e+00 -7.563491e+00 -2.987307e+00 -1.371572e+01 -9.304626e+00 5.122592e+00 -3.922355e+00 -1.949013e+00 7.001289e+01 8.602683e-01 -1.122820e-01 -9.433958e-01 -5.668203e-01 -2.192231e-01 -2.921147e-01 -9.622773e-02 -5.688609e-01 -1.432129e-01 4.695641e-01 2.492857e-01 -2.413594e-01 6.481438e-01 -2.120727e-01 -1.837305e-01 6.496409e-02 1.600878e-01 6.642635e-02 -4.808248e-02 -1.023946e-02 2.070497e-01 1.767004e-01 4.091007e-02 -1.547454e-02 -1.630871e-02 -1.069475e-03
<VARIANCE> 39
 4.012048e+01 6.638633e+01 6.770341e+01 7.830234e+01 6.022550e+01 9.473238e+01 1.000912e+02 1.272917e+02 8.501366e+01 6.656332e+01 6.780146e+01 5.670304e+01 3.355509e+01 3.687718e+00 3.882299e+00 3.700865e+00 4.465428e+00 2.653405e+00 4.267785e+00 3.565828e+00 5.316148e+00 4.195097e+00 4.416238e+00 3.732475e+00 3.292095e+00 1.923028e+00 4.637595e-01 5.971637e-01 4.671975e-01 6.330272e-01 4.000343e-01 5.444601e-01 5.585292e-01 8.054570e-01 6.658440e-01 7.375523e-01 5.728138e-01 4.836537e-01 2.446987e-01
<GCONST> 1.353402e+02
<STATE> 3
<MEAN> 39
 -3.757740e+00 7.677657e+00 -1.582955e+01 -1.939922e+00 -3.889935e+00 -8.618523e+00 -3.455882e+00 -1.438900e+01 -8.987888e+00 6.524816e+00 -3.533380e+00 -2.763928e+00 7.148256e+01 2.955452e-01 -3.896127e-01 -4.719577e-01 -5.060440e-03 -6.075341e-02 -3.143920e-01 -8.984400e-02 -6.163309e-03 1.918845e-01 3.502001e-01 6.390027e-02 -2.571636e-01 4.388749e-01 -1.885784e-01 -3.622881e-02 1.720534e-01 1.635832e-01 3.253551e-02 1.373667e-02 3.043734e-02 1.901361e-01 9.165265e-02 -7.772907e-02 -6.367052e-02 1.666791e-02 -9.352738e-02
<VARIANCE> 39
 3.280958e+01 6.347496e+01 7.100127e+01 7.184198e+01 6.254402e+01 9.655231e+01 9.692295e+01 1.433647e+02 9.389795e+01 7.155354e+01 6.684614e+01 5.649742e+01 2.746276e+01 2.130826e+00 2.767682e+00 3.242966e+00 3.657612e+00 2.268235e+00 3.909275e+00 3.276905e+00 4.569808e+00 3.724790e+00 4.318023e+00 3.354258e+00 2.854679e+00 1.687014e+00 3.211954e-01 4.618240e-01 3.911731e-01 5.210606e-01 3.660284e-01 5.302640e-01 5.290831e-01 7.034305e-01 5.994616e-01 6.807597e-01 5.222589e-01 4.636765e-01 2.003656e-01
<GCONST> 1.311109e+02
<STATE> 4
<MEAN> 39
 -3.947033e+00 6.011777e+00 -1.636643e+01 -6.008865e-01 -5.263546e+00 -1.017830e+01 -3.710409e+00 -1.412433e+01 -7.480543e+00 7.332735e+00 -4.563336e+00 -3.243223e+00 7.151937e+01 -1.291930e-01 -1.364780e-01 1.685463e-01 3.451172e-01 -1.214554e-02 -1.270341e-01 4.261841e-02 4.124449e-01 1.951771e-01 1.636392e-02 -1.047683e-01 -6.706811e-02 -1.478065e-02 -9.505004e-02 6.962564e-02 1.252668e-01 6.745868e-02 9.131152e-03 6.366628e-02 5.526034e-02 1.061995e-01 1.217937e-02 -9.139667e-02 -8.710159e-03 6.198761e-02 -1.149168e-01
<VARIANCE> 39
 2.853916e+01 5.807292e+01 7.060876e+01 6.761537e+01 6.968611e+01 1.029379e+02 7.863850e+01 1.444447e+02 1.045859e+02 7.966674e+01 6.427437e+01 5.624975e+01 3.417102e+01 1.458740e+00 2.515454e+00 2.861782e+00 3.031182e+00 2.142621e+00 4.158165e+00 3.424818e+00 4.050699e+00 3.686794e+00 4.025387e+00 2.791172e+00 2.587011e+00 1.780956e+00 1.951929e-01 3.399524e-01 3.556747e-01 3.948402e-01 3.316834e-01 5.906695e-01 5.447212e-01 6.051039e-01 5.646712e-01 6.524380e-01 4.742413e-01 4.210933e-01 2.027644e-01
<GCONST> 1.284374e+02
<TRANSP> 5
 0.000000e+00 1.000000e+00 0.000000e+00 0.000000e+00 0.000000e+00
 0.000000e+00 5.957500e-01 4.042500e-01 0.000000e+00 0.000000e+00
 0.000000e+00 0.000000e+00 5.996977e-01 4.003023e-01 0.000000e+00
 0.000000e+00 0.000000e+00 0.000000e+00 7.491943e-01 2.508058e-01
 0.000000e+00 0.000000e+00 0.000000e+00 0.000000e+00 0.000000e+00
<ENDHMM>
~h "s"
<BEGINHMM>
<NUMSTATES> 5
<STATE> 2
<MEAN> 39
 -2.278120e+01 8.739003e+00 2.473334e+00 -2.014965e+00 9.319337e-01 -4.501626e+00 -1.870998e-01 -5.166096e+00 -4.003443e+00 6.538351e+00 -3.273741e+00 3.143405e-01 6.872183e+01 -1.917345e+00 -1.879261e-01 1.155999e+00 -1.071281e+00 5.537478e-01 3.630772e-01 3.713974e-01 3.392761e-01 2.879755e-01 2.766645e-01 2.416835e-01 6.331200e-02 6.262556e-01 9.174370e-02 5.198597e-02 -9.822531e-02 1.147601e-01 -7.043873e-02 -8.512633e-02 5.394935e-02 1.414153e-02 -1.785329e-02 -5.169005e-02 -6.055726e-02 -4.838694e-02 -3.298463e-02
<VARIANCE> 39
 1.170927e+02 4.069875e+01 7.615669e+01 1.306747e+02 5.629560e+01 7.088888e+01 9.353811e+01 6.375334e+01 4.755229e+01 4.256150e+01 3.489158e+01 3.068015e+01 4.669670e+01 6.348429e+00 2.010804e+00 4.042439e+00 6.039813e+00 3.303348e+00 4.089111e+00 3.500284e+00 3.115082e+00 3.053760e+00 2.587943e+00 2.084000e+00 1.716615e+00 2.226597e+00 8.154074e-01 3.076865e-01 5.938419e-01 8.612031e-01 4.662726e-01 5.880417e-01 6.065405e-01 5.176592e-01 4.971279e-01 4.483028e-01 3.685768e-01 3.023835e-01 3.354533e-01
<GCONST> 1.303527e+02
<STATE> 3
<MEAN> 39
 -2.743250e+01 9.076266e+00 4.678014e+00 -4.235409e+00 2.162029e+00 -3.835984e+00 9.584835e-01 -3.913836e+00 -3.167943e+00 7.086453e+00 -2.779299e+00 2.274843e-01 6.964838e+01 -1.469954e-01 7.380036e-02 1.358502e-01 -1.055890e-01 -5.427132e-02 -9.484353e-02 4.354925e-02 1.528109e-02 -2.349941e-02 1.758656e-03 9.935540e-03 -9.631471e-02 1.447730e-01 4.411380e-01 2.601280e-02 -2.181883e-01 1.808632e-01 -1.678976e-01 -1.238897e-01 -1.115367e-01 -8.286043e-02 -7.134441e-02 -6.166182e-02 -5.604711e-02 -3.617205e-02 -5.134420e-02
<VARIANCE> 39
 1.015690e+02 4.497911e+01 5.410733e+01 1.368304e+02 5.711625e+01 5.907529e+01 8.642372e+01 6.167579e+01 4.420082e+01 3.853416e+01 2.920467e+01 2.683390e+01 3.633677e+01 8.220976e+00 1.708303e+00 3.106531e+00 4.172342e+00 3.295732e+00 3.220290e+00 3.465951e+00 2.977180e+00 2.503784e+00 2.064263e+00 1.751798e+00 1.476285e+00 1.764536e+00 6.853869e-01 2.782931e-01 4.162871e-01 5.741590e-01 4.540183e-01 4.976707e-01 5.633711e-01 5.045105e-01 4.273388e-01 3.610655e-01 3.127585e-01 2.727165e-01 2.215752e-01
<GCONST> 1.248058e+02
<STATE> 4
<MEAN> 39
 -2.291356e+01 9.958583e+00 2.860516e+00 -2.115003e+00 -2.759789e-01 -5.761638e+00 1.477433e-03 -4.540962e+00 -3.478831e+00 6.792916e+00 -3.169591e+00 -4.053187e-01 6.892206e+01 1.974674e+00 1.283639e-01 -8.413225e-01 4.214781e-01 -9.623845e-01 -9.283261e-01 -6.309468e-01 -3.869398e-01 -4.304670e-01 -2.820519e-01 -2.534534e-01 -3.390768e-01 2.263854e-01 1.651854e-01 -4.564577e-02 -1.974092e-01 6.809175e-03 -8.911847e-02 -5.901857e-02 5.914313e-02 8.399867e-02 1.803553e-02 -3.103183e-02 -1.920852e-02 -2.032117e-02 4.399174e-02
<VARIANCE> 39
 1.322580e+02 4.622087e+01 6.374986e+01 1.188538e+02 6.764166e+01 8.169660e+01 8.854514e+01 6.679787e+01 4.962965e+01 3.865276e+01 2.941302e+01 3.067718e+01 4.903999e+01 8.230540e+00 2.517650e+00 3.859348e+00 3.657845e+00 4.614167e+00 5.606176e+00 4.767258e+00 3.772441e+00 3.032190e+00 2.364074e+00 2.089475e+00 1.965075e+00 2.066852e+00 1.064140e+00 3.703242e-01 4.535758e-01 4.934465e-01 6.341234e-01 8.547100e-01 8.937233e-01 7.171952e-01 5.352247e-01 4.089488e-01 3.690470e-01 3.312986e-01 2.422762e-01
<GCONST> 1.322928e+02
<TRANSP> 5
 0.000000e+00 1.000000e+00 0.000000e+00 0.000000e+00 0.000000e+00
 0.000000e+00 7.175860e-01 2.824140e-01 0.000000e+00 0.000000e+00
 0.000000e+00 0.000000e+00 7.168034e-01 2.831966e-01 0.000000e+00
 0.000000e+00 0.000000e+00 0.000000e+00 8.079716e-01 1.920284e-01
 0.000000e+00 0.000000e+00 0.000000e+00 0.000000e+00 0.000000e+00
<ENDHMM>
~h "t"
<BEGINHMM>
<NUMSTATES> 5
<STATE> 2
<MEAN> 39
 -8.331460e+00 1.309268e+01 -3.253657e+00 5.687244e+00 -3.774978e+00 -9.610260e+00 -4.208544e-02 -6.111704e+00 -1.019431e+01 6.566952e-01 -6.548882e+00 2.671714e-01 6.469096e+01 5.550471e-02 9.905054e-02 -4.266945e-01 1.210710e-01 -2.570664e-01 4.712627e-01 3.379864e-01 2.571873e-01 3.851252e-01 -8.734050e-02 1.677521e-02 2.177485e-01 -4.779683e-01 -3.385085e-02 -5.656916e-02 2.947643e-03 2.507042e-02 5.823621e-02 2.084201e-02 -1.609780e-02 -1.413250e-02 3.116157e-02 6.138778e-02 5.603994e-02 -2.534925e-03 -3.298020e-02
<VARIANCE> 39
 4.486100e+01 6.368575e+01 4.478096e+01 6.592432e+01 6.342330e+01 1.050193e+02 5.479669e+01 4.933937e+01 9.078171e+01 5.323637e+01 5.632726e+01 3.099024e+01 5.468618e+01 1.231204e+00 1.493991e+00 1.661633e+00 1.619586e+00 1.726828e+00 2.596971e+00 1.825194e+00 1.872123e+00 2.270087e+00 1.832988e+00 1.793457e+00 1.396158e+00 1.171736e+00 1.546247e-01 2.041825e-01 2.088105e-01 2.353203e-01 2.247606e-01 3.720252e-01 2.870191e-01 3.063376e-01 3.440680e-01 3.277685e-01 2.781148e-01 2.349486e-01 1.496142e-01
<GCONST> 1.129204e+02
<STATE> 3
<MEAN> 39
 -8.671807e+00 1.280205e+01 -4.370625e+00 5.978312e+00 -4.234639e+00 -7.653085e+00 1.004489e+00 -5.355377e+00 -8.635695e+00 9.377336e-01 -6.087857e+00 7.709624e-01 6.331569e+01 -4.294070e-02 -9.735430e-02 -3.739447e-01 1.563156e-01 -1.233429e-01 5.254906e-01 2.966504e-01 2.199867e-01 4.178202e-01 6.594084e-02 1.816470e-01 1.902550e-01 -4.310558e-01 -2.738461e-02 -3.604783e-02 3.890254e-02 6.057014e-04 5.623432e-02 2.399421e-02 -5.517922e-03 -1.765062e-02 -2.242994e-02 4.045632e-02 3.232026e-02 -3.083548e-02 1.706192e-02
<VARIANCE> 39
 4.405824e+01 6.652389e+01 4.101209e+01 6.410730e+01 6.301538e+01 9.745910e+01 5.206187e+01 4.565908e+01 8.533624e+01 5.265025e+01 5.696735e+01 2.836338e+01 6.142110e+01 1.043412e+00 1.459415e+00 1.399652e+00 1.589406e+00 1.678137e+00 2.380085e+00 1.810025e+00 1.854942e+00 2.199673e+00 1.884694e+00 1.723134e+00 1.316842e+00 1.225692e+00 1.143532e-01 1.941718e-01 1.933617e-01 2.257469e-01 2.294943e-01 3.661145e-01 2.737756e-01 3.028099e-01 3.316308e-01 3.079082e-01 2.721003e-01 2.286459e-01 1.615164e-01
<GCONST> 1.114201e+02
<STATE> 4
<MEAN> 39
 -1.023806e+01 1.223741e+01 -5.361793e+00 6.571271e+00 -4.514073e+00 -3.431436e+00 3.480134e+00 -4.345992e+00 -5.887569e+00 3.251498e+00 -4.128550e+00 1.547575e+00 6.125831e+01 -1.798215e-01 -2.182814e-01 -1.003630e-01 1.131252e-01 4.789208e-02 5.128417e-01 2.168837e-01 1.519455e-01 2.629545e-01 1.601772e-01 2.072668e-01 6.578790e-02 -2.431182e-01 -2.517425e-02 -2.191780e-02 4.985448e-02 -3.496672e-02 1.866093e-02 -1.755702e-02 -1.597863e-02 -8.696251e-03 -3.707873e-02 1.809528e-02 5.058850e-03 -2.537290e-02 5.699397e-02
<VARIANCE> 39
 3.934653e+01 6.204981e+01 5.463367e+01 7.264325e+01 6.076727e+01 9.887277e+01 5.434330e+01 4.880934e+01 8.933998e+01 6.116702e+01 5.149562e+01 2.580233e+01 6.190216e+01 1.003820e+00 1.639892e+00 1.491055e+00 2.072020e+00 1.776615e+00 2.800548e+00 1.882402e+00 1.924518e+00 2.254163e+00 2.060479e+00 1.598062e+00 1.292271e+00 1.638959e+00 1.133140e-01 2.055942e-01 2.196158e-01 2.815278e-01 2.453010e-01 3.957515e-01 2.850741e-01 3.019512e-01 3.323014e-01 3.124300e-01 2.579004e-01 2.163675e-01 1.998691e-01
<GCONST> 1.134559e+02
<TRANSP> 5
 0.000000e+00 1.000000e+00 0.000000e+00 0.000000e+00 0.000000e+00
 0.000000e+00 6.100607e-01 3.899393e-01 0.000000e+00 0.000000e+00
 0.000000e+00 0.000000e+00 5.970973e-01 4.029027e-01 0.000000e+00
 0.000000e+00 0.000000e+00 0.000000e+00 7.812178e-01 2.187822e-01
 0.000000e+00 0.000000e+00 0.000000e+00 0.000000e+00 0.000000e+00
<ENDHMM>
~h "v"
<BEGINHMM>
<NUMSTATES> 5
<STATE> 2
<MEAN> 39
 -7.878945e+00 6.564703e+00 -1.249377e+01 -3.910007e-02 -1.101737e+01 -1.537418e+00 9.053675e+00 1.016096e+00 -3.089674e+00 2.128036e+00 -2.979957e+00 1.875823e+00 6.508362e+01 7.862526e-01 -2.529647e-01 -6.478763e-01 -7.434315e-01 -1.245609e+00 -2.531638e-01 6.433001e-01 6.205279e-01 -3.197465e-02 -1.037413e+00 -5.691260e-01 -3.958391e-01 8.205680e-01 1.476560e-01 -4.649959e-02 -6.875504e-02 -9.728351e-02 -1.559895e-01 -2.106334e-01 -7.190542e-02 -5.120100e-02 -1.057599e-01 -7.284272e-02 7.328556e-03 -3.574729e-02 2.310796e-01
<VARIANCE> 39
 5.791136e+01 7.611865e+01 6.141285e+01 5.519020e+01 7.925913e+01 6.823496e+01 6.492058e+01 9.526121e+01 4.444750e+01 6.825419e+01 7.402587e+01 3.467782e+01 9.033508e+01 2.972072e+00 3.022149e+00 3.653890e+00 3.510989e+00 4.482623e+00 3.639794e+00 3.447343e+00 4.274062e+00 3.771664e+00 5.056400e+00 2.844482e+00 2.765287e+00 4.119632e+00 4.956972e-01 5.583643e-01 6.193383e-01 6.558753e-01 9.003378e-01 6.150869e-01 5.875608e-01 6.821731e-01 5.997868e-01 7.895160e-01 4.789245e-01 4.527410e-01 6.608160e-01
<GCONST> 1.361685e+02
<STATE> 3
<MEAN> 39
 -4.242069e+00 6.381082e+00 -1.482494e+01 -2.330359e+00 -1.523738e+01 -4.381543e+00 9.324144e+00 2.999110e+00 -4.051897e+00 -1.427740e+00 -4.884258e+00 1.881100e-01 6.932251e+01 6.279393e-01 -9.981161e-02 -4.480819e-01 -4.227787e-01 -7.449856e-01 -4.461856e-01 1.668210e-01 2.822426e-01 -1.860063e-01 -6.201236e-01 -3.349889e-01 -2.717952e-01 7.333159e-01 -5.158282e-02 2.308984e-02 5.822343e-02 6.517206e-02 9.195305e-02 -3.073162e-02 -8.340214e-02 -8.842234e-02 -3.026590e-02 8.783156e-02 4.460509e-02 2.612061e-02 -2.120865e-02
<VARIANCE> 39
 4.692848e+01 7.226225e+01 5.772247e+01 4.419384e+01 7.708260e+01 6.441638e+01 6.891469e+01 9.354295e+01 4.884666e+01 7.361404e+01 6.770910e+01 4.519839e+01 6.542507e+01 3.427448e+00 3.494504e+00 3.182639e+00 3.217453e+00 5.282085e+00 3.152940e+00 3.491085e+00 4.088245e+00 3.116593e+00 4.787426e+00 2.556904e+00 2.470184e+00 4.009306e+00 4.631765e-01 4.880526e-01 4.540273e-01 5.038937e-01 7.812325e-01 5.125557e-01 5.344999e-01 5.823592e-01 4.906572e-01 6.566141e-01 4.119397e-01 3.914973e-01 5.064667e-01
<GCONST> 1.328594e+02
<STATE> 4
<MEAN> 39
 -5.275185e+00 6.584842e+00 -1.431700e+01 -3.690499e+00 -1.527443e+01 -5.655095e+00 7.275652e+00 -2.090362e+00 -6.190534e+00 -6.599392e-01 -4.415655e+00 1.448623e+00 6.911302e+01 3.838702e-02 3.758710e-02 -4.651605e-03 -3.771134e-04 5.948619e-02 -7.902069e-02 -1.142026e-01 -1.025112e-01 -9.775181e-03 6.566960e-02 -1.105461e-02 -1.820001e-02 6.091939e-02 -1.886490e-02 1.434828e-02 2.399310e-02 2.090049e-02 4.172133e-02 -2.081566e-03 -2.888009e-02 -1.453893e-02 -6.570758e-04 2.107418e-02 9.465497e-03 1.096274e-02 -2.271364e-02
<VARIANCE> 39
 5.565076e+01 6.962678e+01 5.674703e+01 5.242412e+01 8.010925e+01 9.030464e+01 7.818909e+01 8.204917e+01 6.050613e+01 7.669375e+01 5.010114e+01 4.791626e+01 5.002975e+01 3.192411e+00 3.384621e+00 2.398953e+00 3.487928e+00 4.692306e+00 4.169326e+00 3.544592e+00 3.647453e+00 3.217783e+00 3.938792e+00 2.910578e+00 2.657720e+00 2.758157e+00 4.426621e-01 5.127755e-01 3.633872e-01 6.564759e-01 7.184181e-01 6.549041e-01 5.717220e-01 5.821813e-01 5.805490e-01 6.146048e-01 5.013782e-01 4.603500e-01 4.234064e-01
<GCONST> 1.332404e+02
<TRANSP> 5
 0.000000e+00 1.000000e+00 0.000000e+00 0.000000e+00 0.000000e+00
 0.000000e+00 7.483171e-01 2.516829e-01 0.000000e+00 0.000000e+00
 0.000000e+00 0.000000e+00 7.995924e-01 2.004076e-01 0.000000e+00
 0.000000e+00 0.000000e+00 0.000000e+00 9.830135e-01 1.698650e-02
 0.000000e+00 0.000000e+00 0.000000e+00 0.000000e+00 0.000000e+00
<ENDHMM>
~h "w"
<BEGINHMM>
<NUMSTATES> 5
<STATE> 2
<MEAN> 39
 -5.424930e+00 1.573822e+01 -6.758356e+00 2.235559e+00 -1.481458e+01 -8.078727e+00 4.406413e+00 -9.588673e-01 -3.107898e+00 1.817993e+00 -6.509181e+00 -5.777604e-01 6.266870e+01 -1.141498e-01 1.814140e-01 -2.296925e-01 2.155367e-01 3.544716e-01 2.745456e-01 8.796246e-02 3.492054e-02 1.804921e-01 1.509765e-02 -4.784602e-02 1.307271e-01 -4.226403e-01 -3.392820e-02 -1.074233e-01 5.695871e-03 -4.931666e-02 5.175460e-02 -9.495480e-03 9.970455e-03 2.882899e-03 -8.743448e-02 -4.564556e-03 2.475214e-02 2.943030e-02 5.040886e-02
<VARIANCE> 39
 4.027038e+01 5.481715e+01 6.130883e+01 5.485353e+01 7.891138e+01 7.289809e+01 5.308506e+01 4.635931e+01 4.416614e+01 3.220860e+01 4.190368e+01 3.498946e+01 6.930595e+01 9.164855e-01 1.369407e+00 1.304296e+00 1.891251e+00 2.524360e+00 2.633854e+00 1.963454e+00 2.068534e+00 2.254848e+00 1.795276e+00 1.748705e+00 1.474117e+00 1.239567e+00 1.094212e-01 2.033121e-01 1.728221e-01 2.921374e-01 3.489813e-01 3.803333e-01 3.461769e-01 3.587015e-01 3.724944e-01 3.245135e-01 3.113272e-01 2.518478e-01 1.296441e-01
<GCONST> 1.121394e+02
<STATE> 3
<MEAN> 39
 -6.282567e+00 1.610231e+01 -7.038521e+00 2.953915e+00 -1.255321e+01 -6.817518e+00 4.352720e+00 -1.288136e+00 -3.449700e+00 1.829764e+00 -6.059453e+00 6.592750e-01 6.086890e+01 -1.670857e-01 -1.176044e-01 -1.747001e-01 3.969978e-02 5.308366e-01 2.347813e-01 1.078735e-01 -1.043733e-01 -1.852255e-01 -3.891514e-02 -1.828792e-02 2.083466e-01 -1.111449e-01 -2.492972e-02 -1.174836e-01 2.168013e-02 -1.746444e-02 6.801201e-02 -2.028224e-02 -4.066150e-02 -8.944336e-02 -1.069768e-01 3.425896e-02 5.258165e-02 2.382424e-02 1.101352e-01
<VARIANCE> 39
 4.928256e+01 4.849485e+01 5.127067e+01 5.487830e+01 7.924682e+01 7.873121e+01 4.659049e+01 4.752833e+01 5.019059e+01 3.669096e+01 4.447079e+01 3.121768e+01 5.692634e+01 8.743454e-01 1.798917e+00 1.508464e+00 2.469915e+00 2.566987e+00 2.634385e+00 2.253807e+00 2.526008e+00 2.874224e+00 2.306605e+00 2.177247e+00 1.727885e+00 1.749070e+00 1.226405e-01 2.420405e-01 2.031765e-01 3.886083e-01 4.267051e-01 4.272830e-01 4.197464e-01 4.499075e-01 4.595651e-01 4.318329e-01 4.007048e-01 3.157217e-01 1.618776e-01
<GCONST> 1.168998e+02
<STATE> 4
<MEAN> 39
 -8.227552e+00 1.419774e+01 -8.011688e+00 2.996223e+00 -1.010133e+01 -5.871635e+00 4.671424e+00 -2.387218e+00 -4.472055e+00 3.154094e+00 -4.317600e+00 2.417686e+00 6.045357e+01 -2.660543e-01 -3.404703e-01 3.984881e-02 1.964110e-01 6.835458e-01 1.059755e-01 -1.561801e-01 -3.092013e-01 -2.707365e-01 2.013614e-01 1.662509e-01 1.447091e-01 1.120720e-01 -2.909207e-02 -3.288691e-02 8.333062e-02 7.000022e-02 4.045406e-02 -2.541176e-02 -9.718875e-02 -5.793942e-02 4.432645e-03 6.987061e-02 4.304939e-02 -3.935557e-02 3.345086e-02
<VARIANCE> 39
 5.617344e+01 4.720523e+01 4.855592e+01 5.579227e+01 7.767434e+01 1.007899e+02 4.905332e+01 5.335957e+01 7.075574e+01 5.068876e+01 4.883168e+01 2.982699e+01 5.852744e+01 1.112604e+00 2.245512e+00 1.802280e+00 2.866095e+00 3.327485e+00 3.263142e+00 2.878557e+00 3.130409e+00 3.469955e+00 3.155839e+00 2.466154e+00 2.046972e+00 1.935172e+00 1.481105e-01 3.012094e-01 2.535358e-01 4.824908e-01 4.857743e-01 5.149052e-01 5.107136e-01 5.314414e-01 5.684057e-01 5.699897e-01 4.719169e-01 3.947813e-01 1.986833e-01
<GCONST> 1.233277e+02
<TRANSP> 5
 0.000000e+00 1.000000e+00 0.000000e+00 0.000000e+00 0.000000e+00
 0.000000e+00 7.142742e-01 2.857257e-01 0.000000e+00 0.000000e+00
 0.000000e+00 0.000000e+00 6.616533e-01 3.383467e-01 0.000000e+00
 0.000000e+00 0.000000e+00 0.000000e+00 8.219190e-01 1.780809e-01
 0.000000e+00 0.000000e+00 0.000000e+00 0.000000e+00 0.000000e+00
<ENDHMM>
~h "y"
<BEGINHMM>
<NUMSTATES> 5
<STATE> 2
<MEAN> 39
 -7.855390e+00 8.800074e+00 3.718501e-01 9.396231e+00 2.556246e-01 -1.886134e+01 -6.882200e+00 -6.633508e+00 -1.242551e+01 -4.331545e-01 -9.799120e+00 -4.726896e+00 7.005516e+01 -2.210462e-01 7.593163e-02 7.647989e-01 1.052274e+00 4.149924e-01 -6.001734e-01 -5.878121e-01 4.383274e-01 3.211277e-01 -8.635365e-02 -4.548821e-01 -4.925741e-01 -2.588626e-01 6.668924e-02 3.859098e-02 -7.660824e-02 -1.426865e-01 -1.459817e-01 8.721952e-02 9.027802e-02 2.746709e-02 2.244098e-02 -1.633448e-02 2.825707e-02 5.344377e-02 -1.791587e-02
<VARIANCE> 39
 4.751207e+01 4.451218e+01 6.106188e+01 8.380429e+01 7.645568e+01 1.186031e+02 6.857747e+01 6.144019e+01 8.485515e+01 4.088459e+01 5.714197e+01 4.462291e+01 1.826808e+01 1.156323e+00 1.435074e+00 1.938494e+00 2.885033e+00 2.082027e+00 2.826116e+00 3.021421e+00 3.627402e+00 2.857466e+00 2.267654e+00 2.447620e+00 2.301614e+00 6.359288e-01 1.224446e-01 1.907191e-01 2.031028e-01 3.249807e-01 3.255354e-01 4.350633e-01 4.919778e-01 5.784787e-01 4.752991e-01 3.728784e-01 4.381385e-01 4.072621e-01 7.368819e-02
<GCONST> 1.180246e+02
<STATE> 3
<MEAN> 39
 -7.880973e+00 9.879497e+00 2.002219e+00 1.122472e+01 7.798088e-01 -1.993070e+01 -8.136297e+00 -5.303734e+00 -1.137952e+01 -3.422780e-01 -1.092346e+01 -5.394864e+00 6.885910e+01 1.144680e-01 2.247785e-01 9.464396e-02 1.060116e-01 1.948442e-01 -1.012771e-01 -2.938609e-01 1.187857e-02 -3.016336e-02 5.247646e-02 -9.267341e-02 -1.352592e-01 -1.631520e-01 4.019538e-02 2.659290e-02 -1.233053e-01 -1.618272e-01 -4.856920e-02 1.256635e-01 9.532759e-02 -5.449632e-02 -4.894765e-02 1.585169e-02 8.436528e-02 7.403471e-02 -4.782720e-03
<VARIANCE> 39
 3.405343e+01 4.208934e+01 5.398410e+01 7.620357e+01 7.828205e+01 1.262729e+02 7.202023e+01 5.263461e+01 7.638032e+01 4.483255e+01 4.990450e+01 4.867012e+01 1.821836e+01 1.232700e+00 1.343322e+00 2.060389e+00 2.413867e+00 1.775674e+00 2.830470e+00 3.046720e+00 3.093570e+00 2.651883e+00 2.243113e+00 2.237717e+00 2.167087e+00 5.321043e-01 1.274433e-01 1.865685e-01 1.933596e-01 2.577219e-01 2.683329e-01 3.959473e-01 4.657500e-01 4.485653e-01 3.976525e-01 3.498273e-01 3.858164e-01 3.661032e-01 6.616344e-02
<GCONST> 1.150486e+02
<STATE> 4
<MEAN> 39
 -7.144244e+00 1.164122e+01 1.074147e-01 8.315622e+00 1.063114e-01 -2.050889e+01 -7.652755e+00 -6.283949e+00 -1.310481e+01 6.404206e-01 -1.064165e+01 -4.751024e+00 6.784781e+01 1.256905e-01 3.219459e-01 -4.050561e-01 -4.418381e-01 6.438270e-02 5.861395e-01 1.774350e-01 -2.576171e-01 -2.255983e-01 5.773889e-02 2.321052e-01 1.866581e-01 -2.602076e-01 -2.277951e-02 1.763926e-02 -3.397047e-02 -4.115403e-02 -6.205694e-02 1.119570e-01 1.087059e-01 7.121706e-04 1.391165e-02 -2.689278e-02 2.420320e-02 5.168381e-02 -4.029119e-02
<VARIANCE> 39
 1.922806e+01 3.875801e+01 4.528291e+01 9.263326e+01 8.220691e+01 1.302947e+02 6.363177e+01 5.804623e+01 8.021845e+01 5.286423e+01 5.041658e+01 5.717126e+01 2.008920e+01 7.232917e-01 1.097789e+00 1.525577e+00 2.084976e+00 1.752489e+00 2.928105e+00 2.781388e+00 2.667737e+00 2.825792e+00 2.589818e+00 2.269120e+00 2.058713e+00 6.031330e-01 8.689670e-02 1.511988e-01 1.825696e-01 2.681305e-01 2.390130e-01 3.765756e-01 3.756870e-01 3.935741e-01 4.124187e-01 3.962002e-01 3.891387e-01 3.465958e-01 7.829620e-02
<GCONST> 1.130065e+02
<TRANSP> 5
 0.000000e+00 1.000000e+00 0.000000e+00 0.000000e+00 0.000000e+00
 0.000000e+00 8.139446e-01 1.860553e-01 0.000000e+00 0.000000e+00
 0.000000e+00 0.000000e+00 7.794018e-01 2.205983e-01 0.000000e+00
 0.000000e+00 0.000000e+00 0.000000e+00 8.674724e-01 1.325277e-01
 0.000000e+00 0.000000e+00 0.000000e+00 0.000000e+00 0.000000e+00
<ENDHMM>
~h "z"
<BEGINHMM>
<NUMSTATES> 5
<STATE> 2
<MEAN> 39
 -1.581067e+01 1.415389e+01 4.040499e+00 5.629006e+00 -2.041361e-01 -5.026855e+00 1.877827e+00 -2.651814e+00 -6.778110e+00 2.872926e+00 -4.403446e+00 1.014281e+00 6.218285e+01 -7.061732e-01 -3.528834e-01 4.456573e-02 -3.083653e-01 2.486629e-01 7.907618e-01 1.912514e-01 1.517081e-01 3.470977e-01 2.046808e-01 3.359937e-01 2.262025e-01 -2.058636e-01 8.940405e-02 -1.434886e-02 -9.527289e-02 -3.800632e-02 -4.196234e-02 -8.665933e-02 -6.887817e-02 -2.445020e-02 -4.023594e-02 2.528332e-02 -9.182620e-03 -1.629773e-02 4.950644e-02
<VARIANCE> 39
 7.409130e+01 4.546075e+01 8.153005e+01 9.495968e+01 4.381134e+01 7.378296e+01 8.760983e+01 4.979405e+01 6.398940e+01 4.532394e+01 2.851305e+01 2.080562e+01 4.417170e+01 3.758396e+00 1.418281e+00 3.383970e+00 5.253857e+00 2.411303e+00 2.930807e+00 2.511836e+00 2.695696e+00 2.344169e+00 1.539630e+00 1.496537e+00 1.278112e+00 1.158880e+00 4.170042e-01 2.046697e-01 3.948128e-01 7.226916e-01 4.052873e-01 3.647131e-01 4.029680e-01 4.382706e-01 3.661510e-01 2.624823e-01 2.534650e-01 2.189015e-01 1.434466e-01
<GCONST> 1.193243e+02
<STATE> 3
<MEAN> 39
 -1.658419e+01 1.223873e+01 5.260583e-01 5.463380e+00 -1.653788e-01 -2.026372e+00 2.644543e+00 -2.677322e+00 -5.138165e+00 4.086076e+00 -2.718572e+00 2.185215e+00 6.025935e+01 -3.345576e-01 -3.777006e-01 -3.199995e-01 -1.729961e-01 9.093109e-02 6.038825e-01 2.321483e-01 1.273935e-01 2.648661e-01 2.842762e-01 3.132034e-01 1.719986e-01 -1.749980e-01 8.709075e-02 6.025629e-03 -3.403584e-02 8.682500e-03 -4.391639e-02 -8.426057e-02 -2.808470e-02 -3.879512e-02 -4.517470e-02 1.512777e-03 -2.675031e-02 -3.077066e-02 4.575785e-02
<VARIANCE> 39
 6.658260e+01 4.975242e+01 7.390114e+01 8.887037e+01 3.773552e+01 5.827187e+01 6.099395e+01 4.101746e+01 6.316937e+01 4.835569e+01 3.446207e+01 1.977124e+01 4.133269e+01 2.501510e+00 1.189048e+00 2.313378e+00 4.127526e+00 1.925729e+00 2.120383e+00 2.120367e+00 2.096826e+00 1.937806e+00 1.586474e+00 1.497022e+00 1.219887e+00 1.102677e+00 2.975115e-01 1.663624e-01 3.084445e-01 5.268756e-01 3.291351e-01 3.146348e-01 3.177943e-01 3.431064e-01 3.297544e-01 2.618229e-01 2.452177e-01 2.173585e-01 1.374549e-01
<GCONST> 1.137593e+02
<STATE> 4
<MEAN> 39
 -1.552476e+01 9.675244e+00 -4.457970e+00 8.693857e+00 -3.879778e-01 2.692679e+00 6.820307e+00 -1.302373e+00 -1.453521e+00 7.585994e+00 2.363473e-01 3.422026e+00 5.716864e+01 -1.576294e-01 -3.488620e-02 -4.243283e-02 1.136744e-03 9.192270e-02 7.993644e-02 8.498532e-02 8.884279e-02 1.173584e-01 5.224743e-02 3.707608e-03 2.879540e-03 -1.367320e-02 2.209526e-02 -4.588739e-03 2.229886e-03 -2.290725e-02 -1.984404e-02 -4.748027e-02 -2.798672e-02 -1.408866e-02 -1.787482e-02 -1.259784e-02 -1.858392e-02 -1.022459e-02 3.640242e-02
<VARIANCE> 39
 4.061501e+01 5.035027e+01 4.966547e+01 7.275715e+01 4.294852e+01 5.813422e+01 4.555178e+01 4.297175e+01 5.769410e+01 4.749105e+01 4.232266e+01 1.862842e+01 3.651862e+01 9.586931e-01 1.034537e+00 1.236693e+00 2.115322e+00 1.491336e+00 1.798619e+00 1.462843e+00 1.449242e+00 1.450002e+00 1.497498e+00 1.368742e+00 1.001146e+00 8.392420e-01 1.322109e-01 1.229304e-01 1.745897e-01 2.920119e-01 2.381004e-01 2.604785e-01 2.441579e-01 2.443126e-01 2.481855e-01 2.416799e-01 2.231837e-01 1.891069e-01 9.728298e-02
<GCONST> 1.036808e+02
<TRANSP> 5
 0.000000e+00 1.000000e+00 0.000000e+00 0.000000e+00 0.000000e+00
 0.000000e+00 7.371669e-01 2.628331e-01 0.000000e+00 0.000000e+00
 0.000000e+00 0.000000e+00 6.942974e-01 3.057026e-01 0.000000e+00
 0.000000e+00 0.000000e+00 0.000000e+00 9.500996e-01 4.990033e-02
 0.000000e+00 0.000000e+00 0.000000e+00 0.000000e+00 0.000000e+00
<ENDHMM>
~h "aa"
<BEGINHMM>
<NUMSTATES> 5
<STATE> 2
<MEAN> 39
 -6.531502e+00 3.566537e+00 -1.536050e+01 -3.482044e+00 -1.048434e+01 -6.507561e-01 5.491209e+00 -6.456444e+00 -2.573970e+00 3.320396e+00 -6.095504e+00 -5.847764e-01 7.135303e+01 6.102828e-01 -5.134770e-02 -4.248673e-01 -9.645014e-02 -5.812888e-01 -7.051273e-02 2.992639e-01 3.796931e-01 1.426355e-01 -6.555292e-01 -3.194861e-01 -2.452034e-01 2.602516e-01 -2.716972e-02 1.346424e-01 6.820456e-02 1.057097e-01 5.622147e-02 -9.004273e-02 -1.043051e-01 -4.717068e-02 -4.730251e-02 -1.343975e-03 -9.601681e-03 8.407180e-03 -1.448535e-01
<VARIANCE> 39
 4.032372e+01 4.859681e+01 4.076687e+01 3.598359e+01 5.658998e+01 8.437598e+01 7.436638e+01 7.221181e+01 4.553867e+01 9.317440e+01 5.691653e+01 5.398383e+01 2.584514e+01 2.585190e+00 3.321642e+00 2.583301e+00 2.921568e+00 2.999375e+00 3.399393e+00 3.893386e+00 3.700639e+00 3.277317e+00 5.379575e+00 3.846376e+00 3.459669e+00 2.239691e+00 3.534586e-01 5.489029e-01 4.342234e-01 6.260785e-01 4.568339e-01 5.172335e-01 6.480688e-01 6.425981e-01 5.924497e-01 8.908540e-01 7.201137e-01 6.014469e-01 3.627823e-01
<GCONST> 1.309186e+02
<STATE> 3
<MEAN> 39
 -4.227308e+00 7.074425e+00 -1.581809e+01 -2.155298e+00 -9.958256e+00 -2.510779e+00 5.251772e+00 -4.104500e+00 -2.709572e+00 2.776659e+00 -5.634799e+00 -5.204979e-01 7.025345e+01 -9.191805e-02 3.664116e-01 1.733645e-01 1.648986e-01 1.172284e-01 -1.163691e-01 -3.587113e-03 2.318461e-01 -4.601703e-02 1.015906e-01 2.256023e-01 1.882873e-01 -4.866970e-01 -1.544401e-01 1.363209e-02 1.333487e-01 5.620836e-02 1.130491e-01 -8.060994e-03 -4.159906e-02 -1.230260e-02 -3.498414e-02 8.259607e-02 2.198606e-02 2.525903e-02 -1.063225e-01
<VARIANCE> 39
 2.775688e+01 4.085211e+01 3.595073e+01 3.408195e+01 4.814216e+01 9.503745e+01 7.947620e+01 6.229728e+01 3.979020e+01 5.774950e+01 4.408537e+01 3.909004e+01 3.449636e+01 1.969124e+00 1.868418e+00 2.284371e+00 1.716072e+00 2.673311e+00 2.574397e+00 2.715565e+00 2.705325e+00 2.202250e+00 2.756169e+00 2.172668e+00 2.043814e+00 1.896870e+00 2.040843e-01 3.402219e-01 3.780306e-01 3.089246e-01 4.022806e-01 4.283043e-01 4.802584e-01 4.539250e-01 3.806340e-01 4.650108e-01 3.962426e-01 3.538598e-01 2.651057e-01
<GCONST> 1.188958e+02
<STATE> 4
<MEAN> 39
 -7.534425e+00 9.080383e+00 -1.256537e+01 1.126147e+00 -8.694815e+00 -2.671391e+00 6.278049e+00 -1.768561e+00 -2.267480e+00 4.449210e+00 -3.769343e+00 2.151789e+00 6.474065e+01 -4.769329e-01 5.261903e-02 4.812743e-01 2.418600e-01 3.159506e-01 -4.174149e-01 -3.084993e-01 1.262310e-01 -2.648623e-02 3.045255e-01 2.130187e-02 1.064565e-01 -3.454496e-01 4.108951e-03 -7.058671e-02 5.704403e-02 1.889949e-02 2.305247e-02 -1.386262e-01 -1.355940e-01 -1.049315e-01 -8.442339e-03 1.787918e-02 -7.460951e-02 -7.016597e-02 1.415220e-01
<VARIANCE> 39
 3.780985e+01 3.559023e+01 3.452712e+01 4.540327e+01 5.025581e+01 1.224832e+02 8.609339e+01 5.047809e+01 3.910984e+01 4.285180e+01 3.640219e+01 3.175679e+01 5.710831e+01 1.612084e+00 1.894907e+00 1.572004e+00 1.976938e+00 3.406202e+00 4.017155e+00 3.029117e+00 2.564135e+00 2.191860e+00 2.557521e+00 2.125601e+00 1.859655e+00 2.725727e+00 2.219094e-01 3.161151e-01 2.740199e-01 3.458757e-01 5.256299e-01 5.809907e-01 5.028713e-01 4.421427e-01 3.647943e-01 4.512660e-01 3.627472e-01 3.197374e-01 3.914763e-01
<GCONST> 1.202814e+02
<TRANSP> 5
 0.000000e+00 1.000000e+00 0.000000e+00 0.000000e+00 0.000000e+00
 0.000000e+00 8.227183e-01 1.772816e-01 0.000000e+00 0.000000e+00
 0.000000e+00 0.000000e+00 7.078362e-01 2.921638e-01 0.000000e+00
 0.000000e+00 0.000000e+00 0.000000e+00 8.517233e-01 1.482767e-01
 0.000000e+00 0.000000e+00 0.000000e+00 0.000000e+00 0.000000e+00
<ENDHMM>
~h "ae"
<BEGINHMM>
<NUMSTATES> 5
<STATE> 2
<MEAN> 39
 -5.439003e+00 6.005161e+00 -1.453034e+01 -2.651809e+00 -7.882075e+00 -6.644481e+00 1.352534e+00 -5.957715e+00 -5.612837e+00 4.518218e+00 -2.888058e+00 -6.831655e-01 7.179266e+01 6.564313e-01 -5.005755e-01 -9.335449e-01 1.165756e-01 -1.414665e-01 2.789834e-01 1.760303e-01 2.723202e-01 1.353754e-01 -2.293421e-01 -8.862446e-02 -1.272879e-01 3.368580e-01 -2.042416e-01 7.286599e-02 2.475099e-01 3.228864e-02 7.170974e-02 -1.565177e-02 -1.856711e-02 5.201689e-02 -1.043175e-02 -1.790026e-02 -3.147036e-02 7.215980e-03 -7.102772e-02
<VARIANCE> 39
 3.821684e+01 4.707489e+01 7.595292e+01 8.734518e+01 5.900180e+01 7.937351e+01 6.596925e+01 8.550460e+01 6.954797e+01 7.185009e+01 5.499473e+01 5.327478e+01 6.565374e+01 2.631690e+00 2.504655e+00 3.731151e+00 2.826813e+00 3.125009e+00 3.928251e+00 3.182275e+00 3.419819e+00 2.977053e+00 3.428966e+00 2.422469e+00 2.423018e+00 2.478912e+00 4.639274e-01 3.649063e-01 4.149712e-01 3.708563e-01 4.301045e-01 6.253911e-01 4.708723e-01 4.782456e-01 4.472546e-01 4.959196e-01 3.981474e-01 4.246006e-01 3.346462e-01
<GCONST> 1.290529e+02
<STATE> 3
<MEAN> 39
 -4.180604e+00 5.541143e+00 -1.561980e+01 -2.075481e+00 -8.197804e+00 -6.468795e+00 1.455791e+00 -5.485154e+00 -5.664673e+00 3.823010e+00 -3.214550e+00 -8.642372e-01 7.223033e+01 2.676463e-01 -7.221644e-02 -1.623328e-01 2.526622e-01 -4.209755e-02 -6.263156e-02 1.553007e-03 2.001994e-01 -1.854021e-02 -1.420628e-01 -1.112005e-01 -9.620651e-02 4.043053e-02 -1.018677e-01 1.430235e-01 2.121342e-01 4.473239e-02 2.495607e-02 -7.814995e-02 -3.901592e-02 -1.191851e-02 -4.710240e-02 3.485068e-03 -3.216068e-02 -2.591751e-03 -1.085424e-01
<VARIANCE> 39
 3.117729e+01 4.913474e+01 7.645144e+01 8.102451e+01 6.137952e+01 8.193075e+01 6.898582e+01 8.733296e+01 6.784760e+01 7.257717e+01 5.973835e+01 5.183820e+01 5.418734e+01 1.484629e+00 1.994492e+00 2.151083e+00 2.059841e+00 2.634774e+00 3.593660e+00 2.693811e+00 2.684970e+00 2.723593e+00 2.853093e+00 2.165365e+00 2.075702e+00 2.234554e+00 2.118586e-01 2.925041e-01 2.749532e-01 3.038676e-01 3.480990e-01 4.984364e-01 3.818121e-01 3.798146e-01 3.913167e-01 4.269021e-01 3.585666e-01 3.468972e-01 2.531650e-01
<GCONST> 1.224666e+02
<STATE> 4
<MEAN> 39
 -3.970177e+00 6.216603e+00 -1.562604e+01 -1.088099e+00 -9.778283e+00 -7.511617e+00 2.201756e+00 -5.463246e+00 -6.149215e+00 3.444874e+00 -4.183622e+00 -1.249298e+00 7.095912e+01 2.389268e-02 3.122427e-01 3.544623e-01 3.435817e-01 5.690958e-02 -3.163225e-01 -1.498070e-01 -7.908287e-03 -1.535901e-01 -2.150697e-02 -1.234040e-01 -4.592145e-02 -2.294747e-01 -4.090015e-02 9.657394e-02 1.069721e-01 3.756217e-02 1.850720e-02 3.140532e-03 -1.554972e-02 -2.914812e-02 -2.703638e-02 -1.966257e-02 -1.833254e-02 5.719488e-03 -8.168052e-02
<VARIANCE> 39
 3.295590e+01 5.042960e+01 7.313129e+01 7.170396e+01 7.411657e+01 9.922163e+01 7.824315e+01 8.832717e+01 7.133979e+01 7.220490e+01 6.589535e+01 5.020427e+01 5.151328e+01 1.017027e+00 1.686652e+00 1.686202e+00 1.935199e+00 2.670498e+00 3.525265e+00 2.396892e+00 2.577606e+00 2.611909e+00 2.679107e+00 2.137105e+00 1.824241e+00 1.699604e+00 1.426770e-01 2.310530e-01 2.148647e-01 2.822033e-01 3.511944e-01 5.166466e-01 3.615898e-01 3.665705e-01 3.722400e-01 4.151508e-01 3.415649e-01 3.011529e-01 2.151169e-01
<GCONST> 1.199957e+02
<TRANSP> 5
 0.000000e+00 1.000000e+00 0.000000e+00 0.000000e+00 0.000000e+00
 0.000000e+00 5.889822e-01 4.110178e-01 0.000000e+00 0.000000e+00
 0.000000e+00 0.000000e+00 5.788800e-01 4.211200e-01 0.000000e+00
 0.000000e+00 0.000000e+00 0.000000e+00 7.335732e-01 2.664267e-01
 0.000000e+00 0.000000e+00 0.000000e+00 0.000000e+00 0.000000e+00
<ENDHMM>
~h "ah"
<BEGINHMM>
<NUMSTATES> 5
<STATE> 2
<MEAN> 39
 -4.300653e+00 1.002555e+01 -6.903301e+00 6.901785e+00 -1.328242e+00 -1.289847e+01 -4.880830e+00 -6.094091e+00 -7.516750e+00 4.718682e+00 -3.879203e+00 -3.430524e+00 7.057852e+01 -3.914089e-02 5.161922e-01 5.156967e-01 5.216973e-01 2.857152e-01 7.280468e-02 -1.270020e-01 6.424644e-02 -6.705324e-02 -1.706865e-01 -1.856095e-01 -4.257302e-02 -5.117953e-01 -1.518590e-03 -4.113971e-02 -4.981121e-02 -4.786371e-02 -9.204911e-02 5.628898e-02 7.869583e-02 6.679180e-02 3.681996e-02 -4.696210e-02 4.814615e-03 3.989771e-02 -7.970846e-03
<VARIANCE> 39
 9.143617e+00 4.159818e+01 4.673324e+01 5.822694e+01 5.424219e+01 1.028410e+02 5.585097e+01 5.773591e+01 5.705653e+01 4.518130e+01 6.226801e+01 3.825455e+01 2.443646e+01 4.552061e-01 1.812757e+00 1.770541e+00 2.195060e+00 1.623279e+00 4.341068e+00 2.417858e+00 2.983517e+00 1.871915e+00 2.653917e+00 2.206892e+00 1.751070e+00 1.419235e+00 7.486227e-02 2.275639e-01 2.071089e-01 3.073760e-01 2.230855e-01 7.622150e-01 3.936019e-01 4.567404e-01 3.422874e-01 4.963968e-01 3.691001e-01 2.691096e-01 2.167982e-01
<GCONST> 1.135327e+02
<STATE> 3
<MEAN> 39
 -4.572140e+00 1.166806e+01 -4.812246e+00 8.532092e+00 -8.494378e-01 -1.252492e+01 -4.722629e+00 -5.041005e+00 -7.564803e+00 3.511888e+00 -5.091107e+00 -3.367279e+00 6.912582e+01 -6.527239e-02 3.317573e-01 3.837017e-01 3.430060e-01 6.015972e-02 -1.153481e-02 2.099287e-02 2.228739e-01 -2.285785e-02 -2.283855e-01 -1.734888e-01 3.836276e-02 -3.734724e-01 -1.357849e-02 -6.060873e-02 -4.302026e-02 -5.368559e-02 -6.104648e-02 -1.514735e-02 4.907422e-02 5.093259e-02 2.064687e-02 7.682825e-03 2.599877e-02 2.339709e-02 3.297148e-02
<VARIANCE> 39
 8.772569e+00 4.098294e+01 5.132122e+01 6.455882e+01 5.548554e+01 1.007699e+02 4.878284e+01 6.035091e+01 6.347345e+01 4.865230e+01 5.637423e+01 3.849862e+01 2.339649e+01 4.497308e-01 1.737927e+00 1.654693e+00 1.954860e+00 1.436079e+00 4.503366e+00 2.180068e+00 3.098106e+00 1.869424e+00 2.596104e+00 2.037028e+00 1.539704e+00 1.276357e+00 7.113861e-02 1.994254e-01 1.933539e-01 2.733066e-01 2.080247e-01 6.643155e-01 3.376151e-01 4.474239e-01 3.238407e-01 4.558976e-01 3.319297e-01 2.431353e-01 1.648261e-01
<GCONST> 1.115280e+02
<STATE> 4
<MEAN> 39
 -6.238537e+00 1.128659e+01 -4.433744e+00 1.144549e+01 -6.764027e-01 -1.393331e+01 -2.230371e+00 -4.218300e+00 -6.997796e+00 3.618017e+00 -5.580628e+00 -4.327725e+00 6.630471e+01 -8.681493e-02 7.290838e-02 3.321625e-02 9.205958e-02 3.092600e-02 2.403114e-01 9.656560e-02 1.255915e-02 8.063881e-02 4.358193e-02 1.907064e-02 2.170511e-02 -2.278024e-01 -1.005426e-02 -1.492802e-02 -6.261961e-03 -1.391714e-02 -5.581870e-03 2.591673e-02 8.814053e-03 -4.964206e-04 7.013726e-03 9.929130e-03 1.045232e-02 8.679508e-03 5.118952e-04
<VARIANCE> 39
 1.469835e+01 4.359872e+01 3.475666e+01 5.038493e+01 4.691983e+01 1.706458e+02 5.262545e+01 7.470100e+01 7.661285e+01 4.651337e+01 4.299903e+01 5.755754e+01 4.278011e+01 4.795108e-01 1.444515e+00 1.225251e+00 1.411930e+00 1.281872e+00 5.046410e+00 1.788430e+00 2.743141e+00 1.987068e+00 2.174204e+00 1.667585e+00 1.614016e+00 1.176345e+00 6.291348e-02 1.713782e-01 1.575589e-01 2.065603e-01 1.958789e-01 6.153342e-01 2.818799e-01 3.588763e-01 3.015186e-01 3.556323e-01 2.665817e-01 2.425106e-01 1.270207e-01
<GCONST> 1.094786e+02
<TRANSP> 5
 0.000000e+00 1.000000e+00 0.000000e+00 0.000000e+00 0.000000e+00
 0.000000e+00 7.097299e-01 2.902701e-01 0.000000e+00 0.000000e+00
 0.000000e+00 0.000000e+00 7.397135e-01 2.602865e-01 0.000000e+00
 0.000000e+00 0.000000e+00 0.000000e+00 9.416767e-01 5.832326e-02
 0.000000e+00 0.000000e+00 0.000000e+00 0.000000e+00 0.000000e+00
<ENDHMM>
~h "aw"
<BEGINHMM>
<NUMSTATES> 5
<STATE> 2
<MEAN> 39
 -2.823116e+00 5.547382e+00 -2.029214e+01 -6.043833e+00 -6.979573e+00 -8.190205e+00 3.146413e+00 -6.531250e+00 -1.140768e+01 -6.725882e-01 -7.103672e+00 -4.935510e+00 7.570794e+01 -3.625739e-02 -4.344738e-02 1.786636e-01 1.184444e-01 -2.075163e-01 -1.269953e-02 2.005968e-01 6.086277e-02 -1.543690e-01 -2.095448e-01 -2.085405e-01 -1.493986e-01 -1.554895e-01 -1.166471e-02 6.483506e-02 8.637780e-02 5.377008e-02 3.209233e-02 1.139704e-02 -5.130952e-02 -2.911398e-02 2.794849e-03 2.067419e-02 -3.900043e-04 1.341209e-02 -7.472748e-02
<VARIANCE> 39
 7.601931e+00 6.772562e+01 7.260097e+01 7.630489e+01 3.985892e+01 4.312099e+01 4.755180e+01 9.490757e+01 8.170922e+01 5.978311e+01 5.130733e+01 6.275684e+01 3.484535e+01 3.232900e-01 1.636990e+00 1.814112e+00 2.949395e+00 1.522518e+00 2.207433e+00 2.165806e+00 3.553295e+00 2.801580e+00 3.142362e+00 2.443693e+00 2.447082e+00 6.837265e-01 5.226929e-02 1.395051e-01 1.674953e-01 3.804617e-01 2.532228e-01 3.703361e-01 3.402218e-01 4.614448e-01 4.449812e-01 5.032684e-01 4.017688e-01 3.979411e-01 4.466106e-02
<GCONST> 1.120730e+02
<STATE> 3
<MEAN> 39
 -2.859225e+00 8.869546e+00 -1.605050e+01 -4.631128e+00 -7.621079e+00 -8.695995e+00 1.570058e+00 -9.047906e+00 -1.443207e+01 1.547035e-01 -9.137410e+00 -5.880255e+00 7.168819e+01 1.942327e-02 2.620471e-01 1.361381e-01 -3.217392e-02 1.200658e-01 2.244652e-02 -2.079545e-01 -2.783284e-01 4.684879e-02 3.184150e-01 6.236009e-02 -4.637659e-02 -2.164950e-01 -4.318752e-03 -3.791529e-02 -4.229757e-02 -8.850641e-03 1.932173e-02 -2.630167e-02 -1.170479e-02 1.668354e-02 7.664692e-02 4.467991e-02 3.023686e-02 1.600709e-02 4.056166e-02
<VARIANCE> 39
 1.023704e+01 6.617589e+01 9.726075e+01 5.829484e+01 4.173484e+01 4.158846e+01 4.773384e+01 7.297984e+01 7.544010e+01 5.203144e+01 4.404628e+01 6.765433e+01 2.590047e+01 3.364264e-01 1.353537e+00 2.665215e+00 3.089199e+00 1.733036e+00 1.856851e+00 2.119767e+00 2.784003e+00 2.649908e+00 2.391405e+00 2.250933e+00 2.158538e+00 8.064527e-01 5.183136e-02 1.199896e-01 2.756685e-01 4.181396e-01 2.787558e-01 2.624383e-01 3.281960e-01 3.574888e-01 4.100243e-01 3.930697e-01 3.702830e-01 3.526987e-01 5.838139e-02
<GCONST> 1.107598e+02
<STATE> 4
<MEAN> 39
 -2.464946e+00 7.949728e+00 -1.929260e+01 -5.424602e+00 -9.349687e+00 -9.491604e+00 4.704741e-01 -1.210107e+01 -8.957546e+00 3.677387e+00 -8.091580e+00 -3.194951e+00 7.185712e+01 -8.341507e-02 -3.556652e-01 6.936584e-04 3.614289e-01 1.444487e-02 -4.546268e-01 -2.618210e-01 4.664995e-04 5.130545e-01 4.406955e-01 4.427191e-02 1.435577e-02 2.819510e-01 -3.670999e-02 3.668987e-03 1.159085e-01 7.951702e-02 -1.456576e-02 -6.559330e-02 -4.802946e-02 -1.727547e-02 -2.265087e-02 -1.680895e-02 -3.958420e-02 3.394957e-02 -1.012589e-02
<VARIANCE> 39
 1.245470e+01 6.921598e+01 9.569429e+01 4.872850e+01 7.848647e+01 7.411234e+01 5.933728e+01 8.634816e+01 9.066215e+01 6.440272e+01 5.070102e+01 7.785650e+01 2.699164e+01 4.544531e-01 1.718177e+00 3.472750e+00 3.298987e+00 2.367193e+00 2.623285e+00 2.871907e+00 2.998823e+00 2.821925e+00 3.074961e+00 2.810962e+00 2.273082e+00 6.901810e-01 5.755992e-02 1.633359e-01 3.262375e-01 4.164146e-01 3.709884e-01 3.050929e-01 4.553337e-01 4.161295e-01 4.596440e-01 5.397841e-01 4.312095e-01 3.646903e-01 5.555942e-02
<GCONST> 1.175184e+02
<TRANSP> 5
 0.000000e+00 1.000000e+00 0.000000e+00 0.000000e+00 0.000000e+00
 0.000000e+00 9.395584e-01 6.044161e-02 0.000000e+00 0.000000e+00
 0.000000e+00 0.000000e+00 8.644685e-01 1.355314e-01 0.000000e+00
 0.000000e+00 0.000000e+00 0.000000e+00 9.245881e-01 7.541183e-02
 0.000000e+00 0.000000e+00 0.000000e+00 0.000000e+00 0.000000e+00
<ENDHMM>
~h "ax"
<BEGINHMM>
<NUMSTATES> 5
<STATE> 2
<MEAN> 39
 -7.809844e+00 9.715036e+00 -5.570486e+00 5.634255e+00 -2.824515e+00 -8.313309e+00 -2.477693e+00 -6.022216e+00 -5.873450e+00 3.363256e+00 -5.450978e+00 -1.813689e+00 6.726381e+01 2.882471e-01 -1.668461e-02 -3.049042e-01 -1.287638e-01 5.834758e-02 -3.340813e-02 1.146894e-02 -3.579819e-01 -1.939133e-01 1.213362e-01 1.441603e-01 -2.251338e-02 7.898374e-02 -2.768604e-02 -4.481405e-02 5.900368e-02 -3.153162e-02 -6.703313e-02 -4.264383e-02 3.603113e-02 2.055149e-02 -5.056072e-02 -3.311914e-02 -5.527732e-03 -1.490935e-02 7.744325e-02
<VARIANCE> 39
 5.831157e+01 5.867889e+01 9.007366e+01 8.489434e+01 5.720437e+01 1.153732e+02 1.041750e+02 9.196638e+01 7.372676e+01 5.648629e+01 5.388086e+01 4.790901e+01 4.843287e+01 2.861996e+00 2.776280e+00 3.769249e+00 3.117800e+00 2.222583e+00 3.934575e+00 3.398600e+00 3.475024e+00 2.882787e+00 2.777135e+00 2.507782e+00 2.008601e+00 1.909127e+00 3.422295e-01 3.786869e-01 4.291053e-01 4.678577e-01 3.205981e-01 5.697205e-01 4.963500e-01 4.958686e-01 4.636226e-01 4.230007e-01 3.873442e-01 3.295858e-01 2.597456e-01
<GCONST> 1.285213e+02
<STATE> 3
<MEAN> 39
 -7.325922e+00 9.560042e+00 -5.877554e+00 5.340472e+00 -2.993481e+00 -8.782917e+00 -2.571179e+00 -6.631653e+00 -6.347385e+00 3.400079e+00 -5.344838e+00 -1.994359e+00 6.779882e+01 2.578977e-01 -3.146834e-02 -2.612012e-01 -1.106817e-01 -3.075521e-02 -1.286720e-01 2.650931e-02 -2.902637e-01 -2.245973e-01 1.080867e-01 1.185002e-01 -5.398399e-02 1.383608e-01 -4.168514e-02 -1.555822e-03 3.489651e-02 6.231481e-03 -3.202736e-02 -2.089294e-02 1.826265e-02 3.634936e-02 -1.772008e-02 -1.838469e-02 -1.093348e-02 6.085502e-03 3.656813e-03
<VARIANCE> 39
 5.615093e+01 5.867140e+01 9.928031e+01 8.113293e+01 5.970443e+01 1.148108e+02 1.009452e+02 9.631468e+01 7.344574e+01 5.776870e+01 5.523038e+01 4.944808e+01 4.489807e+01 2.780420e+00 2.723549e+00 3.089959e+00 2.851988e+00 2.146403e+00 4.213599e+00 3.377296e+00 3.407307e+00 2.861397e+00 2.576046e+00 2.340927e+00 2.041065e+00 2.083391e+00 3.061703e-01 3.498403e-01 4.118601e-01 4.343241e-01 3.167273e-01 5.534067e-01 4.808080e-01 4.686508e-01 4.502283e-01 4.123400e-01 3.803731e-01 3.237786e-01 2.343956e-01
<GCONST> 1.275819e+02
<STATE> 4
<MEAN> 39
 -7.053443e+00 9.338559e+00 -6.395962e+00 4.945696e+00 -3.588239e+00 -9.750388e+00 -2.256602e+00 -6.982162e+00 -7.008892e+00 3.438816e+00 -5.488810e+00 -2.253615e+00 6.823358e+01 1.609952e-01 3.839897e-02 -2.061136e-01 -7.172433e-02 4.959335e-03 -1.216776e-01 -4.822364e-03 -2.309262e-01 -1.963633e-01 1.176533e-01 8.486422e-02 -9.459811e-04 2.613024e-02 -5.814008e-02 2.928145e-02 2.369813e-02 9.758115e-03 2.531143e-02 4.016781e-02 3.056874e-03 1.715760e-02 1.763038e-02 -1.379785e-03 1.391557e-03 3.529932e-02 -5.828879e-02
<VARIANCE> 39
 5.375222e+01 5.859310e+01 1.015498e+02 7.543393e+01 6.340901e+01 1.250556e+02 9.865376e+01 9.618111e+01 7.847678e+01 5.928293e+01 5.749689e+01 5.101716e+01 4.563063e+01 2.168466e+00 2.161805e+00 2.475749e+00 2.549772e+00 2.041714e+00 4.401261e+00 3.168062e+00 3.025883e+00 3.051183e+00 2.361088e+00 2.233627e+00 1.934156e+00 1.749797e+00 2.797946e-01 3.223723e-01 3.719556e-01 4.157483e-01 3.313237e-01 5.912871e-01 4.916218e-01 4.619015e-01 4.777982e-01 4.103607e-01 3.734809e-01 3.283138e-01 2.354871e-01
<GCONST> 1.263437e+02
<TRANSP> 5
 0.000000e+00 1.000000e+00 0.000000e+00 0.000000e+00 0.000000e+00
 0.000000e+00 4.151120e-01 5.848880e-01 0.000000e+00 0.000000e+00
 0.000000e+00 0.000000e+00 4.082935e-01 5.917065e-01 0.000000e+00
 0.000000e+00 0.000000e+00 0.000000e+00 4.950002e-01 5.049998e-01
 0.000000e+00 0.000000e+00 0.000000e+00 0.000000e+00 0.000000e+00
<ENDHMM>
~h "ay"
<BEGINHMM>
<NUMSTATES> 5
<STATE> 2
<MEAN> 39
 -3.895853e+00 4.709393e+00 -1.743687e+01 -1.283087e+00 -5.612418e+00 -1.160588e+01 -3.641384e+00 -9.307290e+00 -4.241219e+00 6.812090e+00 -4.818003e+00 -4.295801e+00 7.546922e+01 -6.592374e-01 -2.734897e-01 1.035290e+00 6.396458e-01 2.034383e-01 -4.152474e-01 -4.670561e-01 1.845725e-01 1.782773e-01 -2.384473e-02 -2.323650e-02 -9.251323e-03 7.437211e-02 -7.794012e-02 1.790008e-01 1.684263e-01 1.034104e-02 -1.665437e-02 -7.648415e-02 1.745052e-02 -4.273702e-02 -1.421252e-01 -1.699685e-02 -4.299800e-03 5.429440e-02 -1.039441e-01
<VARIANCE> 39
 5.610248e+01 4.655051e+01 1.468450e+02 6.737627e+01 7.073018e+01 8.234476e+01 6.698698e+01 7.559762e+01 4.482339e+01 5.536121e+01 5.446670e+01 4.253368e+01 1.517546e+01 1.418239e+00 1.601070e+00 2.647671e+00 2.591868e+00 2.091824e+00 3.329016e+00 3.574136e+00 2.627253e+00 2.805770e+00 2.798922e+00 2.238169e+00 1.675490e+00 5.255039e-01 1.443638e-01 1.560119e-01 3.058187e-01 2.883786e-01 2.760965e-01 4.306336e-01 4.810992e-01 3.710520e-01 4.753151e-01 4.937192e-01 4.069228e-01 3.210777e-01 7.216188e-02
<GCONST> 1.177066e+02
<STATE> 3
<MEAN> 39
 -5.534456e+00 4.813329e+00 -1.359835e+01 1.232715e+00 -5.504970e+00 -1.373394e+01 -5.284016e+00 -9.280084e+00 -4.377521e+00 6.924693e+00 -5.391319e+00 -3.820387e+00 7.513097e+01 -8.019217e-01 2.308254e-01 1.382154e+00 5.059375e-01 1.924800e-01 -4.865617e-01 -2.823201e-01 1.246411e-01 -1.921832e-01 -9.107463e-02 -5.766358e-02 1.006607e-01 -2.047721e-01 -7.028905e-02 1.072404e-01 5.508746e-02 -5.003932e-02 3.268047e-03 4.337372e-02 1.098963e-01 7.410505e-03 -5.063296e-02 -1.552204e-02 -2.847747e-03 4.474932e-02 -6.363810e-02
<VARIANCE> 39
 7.129301e+01 4.332312e+01 1.477314e+02 6.495707e+01 8.614345e+01 8.738673e+01 6.951040e+01 6.632579e+01 4.818564e+01 5.016036e+01 4.953166e+01 4.335807e+01 1.452278e+01 1.368520e+00 1.421126e+00 2.429229e+00 2.239352e+00 1.999397e+00 4.202572e+00 3.472882e+00 2.514645e+00 2.839299e+00 2.744352e+00 2.446021e+00 1.667527e+00 5.620679e-01 1.622406e-01 1.617778e-01 2.569304e-01 2.707068e-01 2.807247e-01 5.399232e-01 4.562402e-01 3.553968e-01 5.144482e-01 4.729401e-01 3.992094e-01 3.027388e-01 7.545340e-02
<GCONST> 1.177971e+02
<STATE> 4
<MEAN> 39
 -5.847299e+00 6.007480e+00 -1.155574e+01 4.158175e+00 -8.932877e+00 -1.761136e+01 -4.672598e+00 -8.297473e+00 -4.578753e+00 6.458101e+00 -6.585961e+00 -2.669385e+00 7.320949e+01 -8.129180e-01 4.587761e-01 1.285317e+00 1.567850e-01 2.708009e-01 -9.964606e-02 9.929016e-02 1.769158e-01 -2.905841e-01 -9.089384e-02 8.392528e-02 2.539254e-01 -3.530803e-01 -1.110569e-01 -2.623952e-02 -7.861129e-03 -1.210618e-01 6.592871e-02 2.328345e-01 1.152016e-01 5.777453e-02 7.053870e-02 7.405602e-04 2.090112e-02 4.203222e-02 -1.656308e-02
<VARIANCE> 39
 6.578085e+01 3.838370e+01 1.222572e+02 6.096501e+01 1.069894e+02 1.011148e+02 7.418849e+01 5.000730e+01 5.458276e+01 4.650452e+01 4.501622e+01 4.160518e+01 1.731363e+01 1.457114e+00 1.548216e+00 2.765148e+00 2.247540e+00 2.385088e+00 5.934678e+00 3.326819e+00 2.311061e+00 3.129338e+00 3.022794e+00 2.616637e+00 2.089428e+00 6.685107e-01 1.726156e-01 2.187036e-01 2.722353e-01 3.108203e-01 3.238607e-01 7.967462e-01 4.905804e-01 3.449511e-01 5.517862e-01 5.589570e-01 4.195808e-01 3.402866e-01 1.095354e-01
<GCONST> 1.208229e+02
<TRANSP> 5
 0.000000e+00 1.000000e+00 0.000000e+00 0.000000e+00 0.000000e+00
 0.000000e+00 6.157593e-01 3.842407e-01 0.000000e+00 0.000000e+00
 0.000000e+00 0.000000e+00 5.760666e-01 4.239335e-01 0.000000e+00
 0.000000e+00 0.000000e+00 0.000000e+00 7.064522e-01 2.935478e-01
 0.000000e+00 0.000000e+00 0.000000e+00 0.000000e+00 0.000000e+00
<ENDHMM>
~h "ch"
<BEGINHMM>
<NUMSTATES> 5
<STATE> 2
<MEAN> 39
 -1.357289e+01 4.169891e+00 1.099965e+00 1.133233e+01 -1.687887e+00 -1.244838e+01 -3.760507e+00 -2.480229e+00 -6.036512e+00 3.081054e+00 -6.606822e+00 -1.421091e+00 6.720434e+01 -7.569361e-01 -8.692851e-01 4.544275e-01 2.027036e-02 1.297676e-02 -1.743484e-01 -2.366262e-01 2.342846e-01 -9.573087e-03 -1.103346e-01 -7.748417e-03 1.676235e-01 3.658135e-01 6.514642e-02 6.578624e-02 -9.156322e-02 -6.436171e-02 3.962113e-02 5.436178e-02 -4.984999e-02 -9.320209e-02 -1.258609e-02 5.436840e-02 3.034573e-02 -4.999278e-02 1.270620e-02
<VARIANCE> 39
 8.165532e+01 1.034562e+02 5.697141e+01 4.938019e+01 6.094030e+01 1.169947e+02 5.300932e+01 5.844434e+01 7.045061e+01 5.293735e+01 4.158642e+01 5.267174e+01 4.812388e+01 3.868078e+00 6.021718e+00 4.147943e+00 1.364859e+00 1.809567e+00 2.820134e+00 2.068689e+00 3.260745e+00 2.442487e+00 2.123549e+00 1.790720e+00 1.925393e+00 2.752558e+00 4.153881e-01 6.478820e-01 6.600241e-01 2.038793e-01 2.696658e-01 3.881488e-01 2.947755e-01 4.595636e-01 3.712397e-01 3.530760e-01 2.956453e-01 2.887940e-01 3.321606e-01
<GCONST> 1.245091e+02
<STATE> 3
<MEAN> 39
 -1.561575e+01 1.670540e+00 1.207476e+00 1.071316e+01 -1.586040e+00 -1.204950e+01 -4.582283e+00 -3.090070e+00 -6.161019e+00 3.477930e+00 -5.821789e+00 -8.285616e-01 6.816469e+01 -7.641634e-02 -2.037837e-01 -1.314013e-01 -1.371918e-01 4.805426e-02 3.992992e-02 -2.618935e-01 -2.780838e-01 -1.276911e-01 5.526983e-02 1.301222e-01 -1.121170e-02 1.144592e-01 1.785430e-01 1.737460e-01 -1.176992e-01 -3.628993e-02 -1.009101e-02 4.004780e-02 1.935543e-02 -8.157165e-02 -3.931518e-02 1.616109e-02 2.252967e-02 -3.527799e-02 -6.788161e-02
<VARIANCE> 39
 8.900271e+01 1.106222e+02 5.132566e+01 4.671984e+01 5.815394e+01 1.122512e+02 5.619117e+01 5.857383e+01 7.349892e+01 4.949002e+01 4.699575e+01 4.997035e+01 5.371093e+01 4.166447e+00 4.788831e+00 3.217246e+00 1.317352e+00 1.541600e+00 2.795906e+00 2.417166e+00 3.222347e+00 3.090779e+00 2.056377e+00 2.034614e+00 2.159968e+00 2.097281e+00 4.126919e-01 5.663356e-01 5.724147e-01 2.150789e-01 2.482804e-01 3.894263e-01 3.395847e-01 4.648552e-01 4.300297e-01 3.677969e-01 3.561441e-01 3.651568e-01 2.631709e-01
<GCONST> 1.245535e+02
<STATE> 4
<MEAN> 39
 -1.246481e+01 2.816714e+00 -2.222959e+00 9.018037e+00 -3.013158e+00 -1.513695e+01 -4.358960e+00 -6.588176e+00 -1.087198e+01 4.024935e+00 -6.307299e+00 -2.037432e+00 6.833619e+01 2.240987e-01 2.962283e-01 -2.244283e-01 -4.574494e-02 -3.258682e-02 2.184212e-01 8.273293e-02 -1.594751e-01 -1.025122e-01 -6.923167e-02 3.054133e-03 1.616943e-02 -2.110019e-01 1.518734e-02 4.356214e-02 3.272239e-03 -1.190756e-02 -1.497579e-02 5.489729e-02 5.055085e-02 1.863503e-02 1.252119e-02 -1.067653e-02 8.740075e-03 2.635469e-02 -2.524522e-02
<VARIANCE> 39
 5.830022e+01 7.756339e+01 3.723894e+01 5.220337e+01 6.842381e+01 1.421888e+02 8.843806e+01 7.142265e+01 1.347599e+02 6.184917e+01 4.608982e+01 6.325509e+01 5.690199e+01 2.360900e+00 2.882596e+00 1.649776e+00 1.616471e+00 1.736560e+00 3.738710e+00 2.935528e+00 3.223230e+00 3.510501e+00 2.559610e+00 2.250775e+00 2.554248e+00 1.463723e+00 2.366828e-01 3.595617e-01 2.630561e-01 2.164447e-01 2.612363e-01 4.628811e-01 4.130375e-01 4.822439e-01 4.492793e-01 4.602393e-01 4.124893e-01 4.206931e-01 1.995811e-01
<GCONST> 1.239947e+02
<TRANSP> 5
 0.000000e+00 1.000000e+00 0.000000e+00 0.000000e+00 0.000000e+00
 0.000000e+00 7.816762e-01 2.183237e-01 0.000000e+00 0.000000e+00
 0.000000e+00 0.000000e+00 7.718321e-01 2.281679e-01 0.000000e+00
 0.000000e+00 0.000000e+00 0.000000e+00 9.144270e-01 8.557297e-02
 0.000000e+00 0.000000e+00 0.000000e+00 0.000000e+00 0.000000e+00
<ENDHMM>
~h "eh"
<BEGINHMM>
<NUMSTATES> 5
<STATE> 2
<MEAN> 39
 -2.037438e+01 9.933273e+00 3.697671e+00 -1.364191e+00 9.683852e-01 -3.602981e+00 8.705527e-01 -5.282405e+00 -5.206574e+00 8.016502e+00 -2.912258e+00 7.017845e-01 6.990112e+01 -1.053219e+00 -1.537213e-01 4.687763e-01 -1.126495e+00 4.293150e-02 -7.188366e-02 -1.478056e-02 2.503108e-02 -3.925129e-02 -6.371284e-02 -4.082577e-02 1.023787e-01 7.529566e-01 1.692261e-01 3.596278e-02 -2.050101e-01 9.806859e-02 -1.013852e-01 -4.732231e-02 -3.867623e-02 -6.910271e-02 1.524269e-02 -5.270890e-02 8.755410e-04 -3.769878e-02 2.364797e-03
<VARIANCE> 39
 1.308216e+02 4.747896e+01 6.287658e+01 7.687747e+01 5.958909e+01 4.593153e+01 8.102433e+01 7.279836e+01 4.811217e+01 2.986427e+01 3.278462e+01 3.451551e+01 3.482251e+01 1.307661e+01 2.410810e+00 5.709715e+00 5.184163e+00 3.597707e+00 3.272502e+00 2.989238e+00 4.026525e+00 2.509566e+00 2.048064e+00 2.017651e+00 1.639430e+00 1.757122e+00 1.550882e+00 4.270149e-01 7.779567e-01 8.482662e-01 5.720700e-01 5.163341e-01 5.078766e-01 6.351966e-01 4.702258e-01 3.688298e-01 3.525361e-01 2.608397e-01 2.659310e-01
<GCONST> 1.298914e+02
<STATE> 3
<MEAN> 39
 -2.073360e+01 1.076651e+01 3.578359e+00 -4.563873e+00 6.937606e-01 -4.567140e+00 -9.472028e-01 -6.113345e+00 -5.537070e+00 7.080490e+00 -2.779957e+00 5.408569e-01 7.199625e+01 -2.201623e-01 -1.699959e-02 -1.045887e-02 -3.966168e-01 -1.781603e-01 -1.546766e-01 -8.824787e-02 -1.929920e-01 1.703964e-02 -8.230120e-02 5.007432e-02 -9.843278e-03 3.750301e-01 2.299656e-01 1.925617e-03 -1.113070e-01 1.631456e-01 -9.179515e-02 -3.872810e-02 -3.712407e-02 -7.994501e-02 -8.697859e-03 -5.234009e-03 5.037867e-03 -2.396023e-02 -5.381779e-02
<VARIANCE> 39
 1.323724e+02 4.414792e+01 6.782172e+01 9.304336e+01 6.113548e+01 4.727633e+01 8.280307e+01 6.695331e+01 4.254507e+01 2.969399e+01 2.881834e+01 2.740619e+01 2.452139e+01 1.341504e+01 2.132366e+00 5.475049e+00 4.360901e+00 3.896431e+00 3.422411e+00 3.131659e+00 4.062766e+00 2.467462e+00 1.940491e+00 1.840103e+00 1.499205e+00 1.306581e+00 1.676481e+00 3.781287e-01 8.416545e-01 6.500245e-01 5.751826e-01 5.741402e-01 5.571183e-01 6.332586e-01 4.568309e-01 3.573875e-01 3.146940e-01 2.690890e-01 1.939867e-01
<GCONST> 1.280813e+02
<STATE> 4
<MEAN> 39
 -1.971329e+01 1.135025e+01 4.674615e+00 -4.130153e+00 -4.269988e-01 -7.855619e+00 -3.811114e+00 -6.902998e+00 -5.285698e+00 5.309617e+00 -4.528386e+00 -1.605299e+00 7.082272e+01 2.384211e-01 3.855844e-02 7.733898e-02 2.801664e-01 -1.231476e-01 -2.102737e-01 -2.179630e-01 -1.140905e-01 -8.344636e-02 -1.187515e-01 -8.116310e-02 -1.361147e-01 -3.826962e-02 8.213824e-02 1.053480e-02 -3.732274e-02 5.765746e-02 -8.186328e-03 -3.439740e-02 -1.337404e-02 2.040716e-02 -2.234412e-02 -2.856466e-02 -1.157174e-02 -9.549580e-04 -1.708456e-02
<VARIANCE> 39
 1.393718e+02 4.791995e+01 8.652644e+01 1.154292e+02 7.148109e+01 8.667816e+01 9.520502e+01 6.625707e+01 5.391351e+01 4.611450e+01 3.511595e+01 3.019877e+01 1.830665e+01 1.132121e+01 2.662493e+00 4.761572e+00 4.274370e+00 4.679628e+00 5.184311e+00 4.524627e+00 4.539279e+00 3.174740e+00 2.454629e+00 1.993318e+00 1.726296e+00 8.094312e-01 1.228126e+00 4.326637e-01 6.852563e-01 6.232327e-01 6.077284e-01 8.075833e-01 7.645938e-01 7.546154e-01 5.188313e-01 4.300307e-01 3.394980e-01 2.891543e-01 1.181708e-01
<GCONST> 1.318727e+02
<TRANSP> 5
 0.000000e+00 1.000000e+00 0.000000e+00 0.000000e+00 0.000000e+00
 0.000000e+00 8.056949e-01 1.943050e-01 0.000000e+00 0.000000e+00
 0.000000e+00 0.000000e+00 8.368740e-01 1.631259e-01 0.000000e+00
 0.000000e+00 0.000000e+00 0.000000e+00 9.689856e-01 3.101443e-02
 0.000000e+00 0.000000e+00 0.000000e+00 0.000000e+00 0.000000e+00
<ENDHMM>
~h "ey"
<BEGINHMM>
<NUMSTATES> 5
<STATE> 2
<MEAN> 39
 -6.687135e+00 8.846592e+00 -5.302321e+00 8.689588e+00 -3.369649e+00 -1.723493e+01 -9.570078e+00 -5.490510e+00 2.468377e+00 9.874593e+00 -4.415442e+00 -1.185367e+00 6.694949e+01 -2.501212e-01 1.187248e-01 3.431210e-02 1.978145e-01 1.867682e-01 3.914596e-01 2.036688e-01 3.033018e-01 9.870207e-02 6.444348e-02 2.330205e-01 1.785176e-01 -5.791345e-01 -1.134225e-01 9.947169e-03 2.958892e-02 -1.912439e-02 2.436627e-02 1.509711e-01 9.529777e-02 7.882869e-03 -8.277026e-02 -4.012666e-02 -2.740583e-02 -1.254759e-02 -9.119795e-02
<VARIANCE> 39
 2.136337e+01 2.520204e+01 2.702130e+01 2.887800e+01 7.540662e+01 9.239793e+01 7.508727e+01 9.684210e+01 4.814721e+01 2.591922e+01 3.078000e+01 3.690581e+01 2.903677e+01 6.079406e-01 9.512692e-01 8.325911e-01 8.678560e-01 1.117752e+00 2.038285e+00 1.360286e+00 1.566568e+00 1.441191e+00 1.083626e+00 1.117336e+00 1.128356e+00 5.809065e-01 8.786569e-02 1.569946e-01 1.246662e-01 1.377064e-01 1.953106e-01 2.919830e-01 2.292740e-01 2.370123e-01 2.195963e-01 1.664224e-01 1.965045e-01 1.893496e-01 7.295371e-02
<GCONST> 9.739776e+01
<STATE> 3
<MEAN> 39
 -1.014036e+01 9.639832e+00 -4.641571e+00 9.868460e+00 -1.453536e+00 -1.130112e+01 -6.832017e+00 -4.316539e+00 2.674103e+00 9.700300e+00 -3.647491e+00 -1.553960e-02 6.245050e+01 -5.434038e-01 1.012428e-01 -1.727461e-03 1.567745e-01 2.290390e-01 8.459526e-01 4.943886e-01 3.942583e-01 -3.436670e-03 -3.884429e-02 2.663746e-01 2.068482e-01 -7.994012e-01 -1.212834e-02 -9.538971e-03 -1.765595e-02 -1.656759e-02 -2.473661e-02 3.004977e-02 6.055848e-02 -5.361010e-03 -6.234077e-02 -2.054021e-02 5.677586e-03 -9.277374e-03 6.077675e-04
<VARIANCE> 39
 2.991065e+01 2.425781e+01 2.410893e+01 3.766854e+01 5.168918e+01 7.855956e+01 6.513561e+01 7.757192e+01 4.419021e+01 2.786233e+01 2.911860e+01 3.504111e+01 3.711922e+01 5.608125e-01 9.912133e-01 8.701199e-01 8.287132e-01 1.372799e+00 2.093482e+00 1.561983e+00 1.543653e+00 1.479349e+00 1.214543e+00 1.087603e+00 1.034329e+00 6.395134e-01 7.855753e-02 1.282157e-01 1.348402e-01 1.247528e-01 2.187841e-01 3.348992e-01 2.334263e-01 2.527157e-01 2.508367e-01 2.052778e-01 1.882258e-01 1.769093e-01 7.556906e-02
<GCONST> 9.777010e+01
<STATE> 4
<MEAN> 39
 -1.177977e+01 1.015879e+01 -6.054516e+00 1.237068e+01 -1.332093e+00 -3.016721e+00 3.141771e+00 1.091063e-01 2.946026e+00 8.709300e+00 -1.557297e+00 2.272358e+00 5.848428e+01 -2.554552e-01 6.643811e-02 -4.653893e-02 3.049203e-02 1.195952e-01 4.831802e-01 4.103767e-01 1.704205e-01 -2.967402e-02 -3.490414e-02 1.158293e-01 1.124977e-01 -2.741051e-01 -1.033650e-02 -9.733614e-03 3.145740e-02 -4.032284e-02 -6.185431e-03 -2.651932e-02 -1.373826e-02 -1.895275e-02 -3.079901e-02 -1.002960e-03 -1.029334e-02 -1.445948e-02 3.244911e-02
<VARIANCE> 39
 4.660156e+01 3.962449e+01 3.534813e+01 4.126920e+01 4.804788e+01 1.173105e+02 6.530876e+01 4.604089e+01 4.015842e+01 2.860178e+01 2.709774e+01 2.816875e+01 3.903526e+01 8.050100e-01 1.167137e+00 1.222806e+00 1.218950e+00 1.636626e+00 2.949948e+00 1.722028e+00 1.378372e+00 1.580178e+00 1.479021e+00 1.182814e+00 1.084903e+00 8.668141e-01 1.155364e-01 1.451390e-01 1.819529e-01 2.135915e-01 2.688593e-01 3.783967e-01 2.683211e-01 2.435345e-01 2.689185e-01 2.491364e-01 1.968605e-01 1.786338e-01 1.068123e-01
<GCONST> 1.035719e+02
<TRANSP> 5
 0.000000e+00 1.000000e+00 0.000000e+00 0.000000e+00 0.000000e+00
 0.000000e+00 8.428920e-01 1.571080e-01 0.000000e+00 0.000000e+00
 0.000000e+00 0.000000e+00 7.063085e-01 2.936915e-01 0.000000e+00
 0.000000e+00 0.000000e+00 0.000000e+00 9.274172e-01 7.258283e-02
 0.000000e+00 0.000000e+00 0.000000e+00 0.000000e+00 0.000000e+00
<ENDHMM>
~h "ih"
<BEGINHMM>
<NUMSTATES> 5
<STATE> 2
<MEAN> 39
 -9.476805e+00 1.076604e+01 -4.941621e+00 7.285735e+00 -3.252876e+00 -7.597764e+00 -1.914498e+00 -6.862674e+00 -7.000804e+00 4.311430e+00 -4.054209e+00 5.530187e-01 6.398755e+01 2.370306e-03 -4.325031e-02 5.752324e-04 2.551842e-01 1.103043e-01 5.923139e-02 4.486974e-02 7.236815e-02 1.001307e-01 1.102266e-01 9.014879e-02 4.338399e-02 -8.992530e-02 -8.006132e-02 2.154249e-03 6.572293e-02 -1.050122e-01 -7.776978e-02 3.106879e-02 9.699915e-02 9.116938e-02 4.901399e-02 -4.058534e-02 -3.343065e-02 -7.285070e-03 2.176636e-02
<VARIANCE> 39
 5.430257e+01 4.948649e+01 4.446316e+01 4.854077e+01 5.441241e+01 1.260692e+02 8.019405e+01 5.977394e+01 7.473553e+01 4.311541e+01 4.254278e+01 3.842670e+01 7.996344e+01 2.320919e+00 2.644258e+00 2.174162e+00 2.390661e+00 2.402113e+00 4.598364e+00 3.284460e+00 3.099808e+00 2.915655e+00 2.478175e+00 2.154870e+00 1.831361e+00 2.279437e+00 3.115079e-01 4.094978e-01 3.260524e-01 3.601115e-01 3.826359e-01 7.213305e-01 5.747437e-01 5.377565e-01 5.008643e-01 4.399923e-01 3.863728e-01 3.300169e-01 3.137785e-01
<GCONST> 1.253834e+02
<STATE> 3
<MEAN> 39
 -9.974619e+00 1.061566e+01 -4.518625e+00 7.459804e+00 -3.286298e+00 -7.603114e+00 -1.779395e+00 -6.496099e+00 -6.696164e+00 4.388269e+00 -3.985435e+00 5.810956e-01 6.397296e+01 3.325310e-02 -6.317992e-02 3.901554e-02 -2.576021e-02 -1.308359e-01 -7.535131e-02 1.446313e-01 1.782389e-01 9.388021e-02 1.532966e-02 1.576730e-04 2.090184e-02 9.804098e-02 -2.164720e-02 -9.720402e-03 2.104220e-02 -1.094832e-01 -5.969615e-02 -1.978439e-02 5.399765e-02 4.460787e-02 -2.028184e-03 -4.504385e-02 -3.883323e-02 -7.830063e-04 5.675976e-02
<VARIANCE> 39
 5.733184e+01 5.343870e+01 4.323859e+01 4.702952e+01 5.709653e+01 1.277504e+02 7.757774e+01 5.940978e+01 7.120876e+01 4.207365e+01 4.227839e+01 3.655711e+01 7.613109e+01 2.647139e+00 3.124409e+00 2.347498e+00 2.621311e+00 2.483759e+00 5.466207e+00 3.515576e+00 3.122761e+00 3.138251e+00 2.424852e+00 2.296369e+00 1.865577e+00 2.953775e+00 3.243035e-01 4.573947e-01 3.679463e-01 4.165128e-01 3.983487e-01 8.094852e-01 5.942689e-01 5.320659e-01 5.171024e-01 4.457741e-01 4.070971e-01 3.314303e-01 4.084489e-01
<GCONST> 1.274018e+02
<STATE> 4
<MEAN> 39
 -1.058530e+01 9.391348e+00 -4.453035e+00 6.665010e+00 -4.580885e+00 -8.823444e+00 -1.178874e+00 -5.383269e+00 -6.117652e+00 4.628561e+00 -4.091646e+00 8.027756e-01 6.462504e+01 1.134188e-01 -1.082703e-01 -7.288917e-03 -2.657444e-01 -2.034404e-01 -2.055073e-01 1.145678e-01 1.687111e-01 -5.190382e-02 -1.016041e-01 -9.397509e-02 -4.681125e-02 3.346622e-01 -4.318133e-02 3.032831e-02 -6.445155e-03 -4.994909e-02 2.660673e-02 5.791754e-02 1.501962e-02 -7.309920e-03 -1.168220e-02 -3.592436e-02 -1.338395e-02 -1.184807e-02 -1.749872e-02
<VARIANCE> 39
 6.310727e+01 6.612749e+01 5.004761e+01 5.243016e+01 6.897401e+01 1.492019e+02 7.707218e+01 6.284808e+01 7.993504e+01 4.511475e+01 4.654520e+01 3.840661e+01 7.567389e+01 3.098178e+00 3.645082e+00 2.815117e+00 3.137856e+00 2.867310e+00 6.414037e+00 3.898548e+00 3.332532e+00 3.775357e+00 2.746510e+00 2.532097e+00 2.121713e+00 4.035295e+00 3.685136e-01 5.567884e-01 4.635988e-01 5.369287e-01 4.564198e-01 8.883424e-01 6.401600e-01 5.473979e-01 6.143076e-01 4.868366e-01 4.385852e-01 3.654797e-01 5.152544e-01
<GCONST> 1.324834e+02
<TRANSP> 5
 0.000000e+00 1.000000e+00 0.000000e+00 0.000000e+00 0.000000e+00
 0.000000e+00 5.418151e-01 4.581849e-01 0.000000e+00 0.000000e+00
 0.000000e+00 0.000000e+00 5.413532e-01 4.586468e-01 0.000000e+00
 0.000000e+00 0.000000e+00 0.000000e+00 7.002349e-01 2.997651e-01
 0.000000e+00 0.000000e+00 0.000000e+00 0.000000e+00 0.000000e+00
<ENDHMM>
~h "iy"
<BEGINHMM>
<NUMSTATES> 5
<STATE> 2
<MEAN> 39
 -1.003580e+01 1.064232e+01 1.283121e+00 8.372252e+00 -1.665358e+00 -1.389023e+01 -4.655708e+00 -5.566199e+00 -8.082842e+00 2.783278e+00 -7.291678e+00 -3.374551e+00 6.771745e+01 -3.135704e-01 -6.281263e-02 3.193410e-01 4.149408e-01 1.056426e-01 -3.613513e-01 2.365044e-02 5.083770e-01 2.365065e-01 -1.654794e-02 -1.128935e-01 -6.229152e-03 -2.106151e-01 -3.900636e-02 1.842451e-02 -9.374087e-02 -8.863221e-02 1.645168e-02 2.154225e-01 1.029004e-01 -2.722643e-02 3.070617e-02 1.646741e-02 5.145976e-02 5.754270e-02 -6.920076e-02
<VARIANCE> 39
