~h "ae"
<BEGINHMM>
<NUMSTATES> 5
<STATE> 2
<MEAN> 39
 -1.050895e+01 9.356773e+00 -5.875150e+00 4.048041e+00 -4.467940e+00 -7.695246e+00 3.178498e-01 -5.016291e+00 -5.711854e+00 4.181917e+00 -4.419950e+00 -4.141842e-01 6.599905e+01 2.838012e-04 3.826968e-03 1.159208e-03 8.399412e-03 1.887910e-03 5.087925e-03 3.182556e-03 3.990711e-03 3.483259e-03 1.315308e-03 1.911431e-03 1.914123e-03 -8.622221e-03 2.765584e-04 -1.071264e-04 -1.140171e-04 1.390390e-04 7.197179e-05 -1.153288e-05 8.728195e-05 2.782226e-04 9.710847e-05 3.633581e-05 9.290614e-05 5.747733e-05 4.707174e-05
<VARIANCE> 39
 9.030790e+01 6.374427e+01 9.265331e+01 9.478106e+01 9.239654e+01 1.289102e+02 8.462318e+01 8.163840e+01 7.646734e+01 5.601252e+01 5.090956e+01 4.693743e+01 7.025858e+01 2.861110e+00 2.264471e+00 2.453416e+00 2.765230e+00 2.489266e+00 3.817811e+00 2.916442e+00 3.031366e+00 2.690944e+00 2.509747e+00 2.130045e+00 1.857868e+00 1.736286e+00 3.265840e-01 3.219693e-01 3.281066e-01 4.097822e-01 3.576114e-01 5.331161e-01 4.612851e-01 4.689287e-01 4.304216e-01 4.181679e-01 3.556864e-01 3.135698e-01 2.196227e-01
<GCONST> 1.272151e+02
<STATE> 3
<MEAN> 39
 -1.050895e+01 9.356773e+00 -5.875150e+00 4.048041e+00 -4.467940e+00 -7.695246e+00 3.178498e-01 -5.016291e+00 -5.711854e+00 4.181917e+00 -4.419950e+00 -4.141842e-01 6.599905e+01 2.838012e-04 3.826968e-03 1.159208e-03 8.399412e-03 1.887910e-03 5.087925e-03 3.182556e-03 3.990711e-03 3.483259e-03 1.315308e-03 1.911431e-03 1.914123e-03 -8.622221e-03 2.765584e-04 -1.071264e-04 -1.140171e-04 1.390390e-04 7.197179e-05 -1.153288e-05 8.728195e-05 2.782226e-04 9.710847e-05 3.633581e-05 9.290614e-05 5.747733e-05 4.707174e-05
<VARIANCE> 39
 9.030790e+01 6.374427e+01 9.265331e+01 9.478106e+01 9.239654e+01 1.289102e+02 8.462318e+01 8.163840e+01 7.646734e+01 5.601252e+01 5.090956e+01 4.693743e+01 7.025858e+01 2.861110e+00 2.264471e+00 2.453416e+00 2.765230e+00 2.489266e+00 3.817811e+00 2.916442e+00 3.031366e+00 2.690944e+00 2.509747e+00 2.130045e+00 1.857868e+00 1.736286e+00 3.265840e-01 3.219693e-01 3.281066e-01 4.097822e-01 3.576114e-01 5.331161e-01 4.612851e-01 4.689287e-01 4.304216e-01 4.181679e-01 3.556864e-01 3.135698e-01 2.196227e-01
<GCONST> 1.272151e+02
<STATE> 4
<MEAN> 39
 -1.050895e+01 9.356773e+00 -5.875150e+00 4.048041e+00 -4.467940e+00 -7.695246e+00 3.178498e-01 -5.016291e+00 -5.711854e+00 4.181917e+00 -4.419950e+00 -4.141842e-01 6.599905e+01 2.838012e-04 3.826968e-03 1.159208e-03 8.399412e-03 1.887910e-03 5.087925e-03 3.182556e-03 3.990711e-03 3.483259e-03 1.315308e-03 1.911431e-03 1.914123e-03 -8.622221e-03 2.765584e-04 -1.071264e-04 -1.140171e-04 1.390390e-04 7.197179e-05 -1.153288e-05 8.728195e-05 2.782226e-04 9.710847e-05 3.633581e-05 9.290614e-05 5.747733e-05 4.707174e-05
<VARIANCE> 39
 9.030790e+01 6.374427e+01 9.265331e+01 9.478106e+01 9.239654e+01 1.289102e+02 8.462318e+01 8.163840e+01 7.646734e+01 5.601252e+01 5.090956e+01 4.693743e+01 7.025858e+01 2.861110e+00 2.264471e+00 2.453416e+00 2.765230e+00 2.489266e+00 3.817811e+00 2.916442e+00 3.031366e+00 2.690944e+00 2.509747e+00 2.130045e+00 1.857868e+00 1.736286e+00 3.265840e-01 3.219693e-01 3.281066e-01 4.097822e-01 3.576114e-01 5.331161e-01 4.612851e-01 4.689287e-01 4.304216e-01 4.181679e-01 3.556864e-01 3.135698e-01 2.196227e-01
<GCONST> 1.272151e+02
<TRANSP> 5
 0.000000e+00 1.000000e+00 0.000000e+00 0.000000e+00 0.000000e+00
 0.000000e+00 6.000000e-01 4.000000e-01 0.000000e+00 0.000000e+00
 0.000000e+00 0.000000e+00 6.000000e-01 4.000000e-01 0.000000e+00
 0.000000e+00 0.000000e+00 0.000000e+00 7.000000e-01 3.000000e-01
 0.000000e+00 0.000000e+00 0.000000e+00 0.000000e+00 0.000000e+00
<ENDHMM>
~h "n"
<BEGINHMM>
<NUMSTATES> 5
<STATE> 2
<MEAN> 39
 -1.050895e+01 9.356773e+00 -5.875150e+00 4.048041e+00 -4.467940e+00 -7.695246e+00 3.178498e-01 -5.016291e+00 -5.711854e+00 4.181917e+00 -4.419950e+00 -4.141842e-01 6.599905e+01 2.838012e-04 3.826968e-03 1.159208e-03 8.399412e-03 1.887910e-03 5.087925e-03 3.182556e-03 3.990711e-03 3.483259e-03 1.315308e-03 1.911431e-03 1.914123e-03 -8.622221e-03 2.765584e-04 -1.071264e-04 -1.140171e-04 1.390390e-04 7.197179e-05 -1.153288e-05 8.728195e-05 2.782226e-04 9.710847e-05 3.633581e-05 9.290614e-05 5.747733e-05 4.707174e-05
<VARIANCE> 39
 9.030790e+01 6.374427e+01 9.265331e+01 9.478106e+01 9.239654e+01 1.289102e+02 8.462318e+01 8.163840e+01 7.646734e+01 5.601252e+01 5.090956e+01 4.693743e+01 7.025858e+01 2.861110e+00 2.264471e+00 2.453416e+00 2.765230e+00 2.489266e+00 3.817811e+00 2.916442e+00 3.031366e+00 2.690944e+00 2.509747e+00 2.130045e+00 1.857868e+00 1.736286e+00 3.265840e-01 3.219693e-01 3.281066e-01 4.097822e-01 3.576114e-01 5.331161e-01 4.612851e-01 4.689287e-01 4.304216e-01 4.181679e-01 3.556864e-01 3.135698e-01 2.196227e-01
<GCONST> 1.272151e+02
<STATE> 3
<MEAN> 39
 -1.050895e+01 9.356773e+00 -5.875150e+00 4.048041e+00 -4.467940e+00 -7.695246e+00 3.178498e-01 -5.016291e+00 -5.711854e+00 4.181917e+00 -4.419950e+00 -4.141842e-01 6.599905e+01 2.838012e-04 3.826968e-03 1.159208e-03 8.399412e-03 1.887910e-03 5.087925e-03 3.182556e-03 3.990711e-03 3.483259e-03 1.315308e-03 1.911431e-03 1.914123e-03 -8.622221e-03 2.765584e-04 -1.071264e-04 -1.140171e-04 1.390390e-04 7.197179e-05 -1.153288e-05 8.728195e-05 2.782226e-04 9.710847e-05 3.633581e-05 9.290614e-05 5.747733e-05 4.707174e-05
<VARIANCE> 39
 9.030790e+01 6.374427e+01 9.265331e+01 9.478106e+01 9.239654e+01 1.289102e+02 8.462318e+01 8.163840e+01 7.646734e+01 5.601252e+01 5.090956e+01 4.693743e+01 7.025858e+01 2.861110e+00 2.264471e+00 2.453416e+00 2.765230e+00 2.489266e+00 3.817811e+00 2.916442e+00 3.031366e+00 2.690944e+00 2.509747e+00 2.130045e+00 1.857868e+00 1.736286e+00 3.265840e-01 3.219693e-01 3.281066e-01 4.097822e-01 3.576114e-01 5.331161e-01 4.612851e-01 4.689287e-01 4.304216e-01 4.181679e-01 3.556864e-01 3.135698e-01 2.196227e-01
<GCONST> 1.272151e+02
<STATE> 4
<MEAN> 39
 -1.050895e+01 9.356773e+00 -5.875150e+00 4.048041e+00 -4.467940e+00 -7.695246e+00 3.178498e-01 -5.016291e+00 -5.711854e+00 4.181917e+00 -4.419950e+00 -4.141842e-01 6.599905e+01 2.838012e-04 3.826968e-03 1.159208e-03 8.399412e-03 1.887910e-03 5.087925e-03 3.182556e-03 3.990711e-03 3.483259e-03 1.315308e-03 1.911431e-03 1.914123e-03 -8.622221e-03 2.765584e-04 -1.071264e-04 -1.140171e-04 1.390390e-04 7.197179e-05 -1.153288e-05 8.728195e-05 2.782226e-04 9.710847e-05 3.633581e-05 9.290614e-05 5.747733e-05 4.707174e-05
<VARIANCE> 39
 9.030790e+01 6.374427e+01 9.265331e+01 9.478106e+01 9.239654e+01 1.289102e+02 8.462318e+01 8.163840e+01 7.646734e+01 5.601252e+01 5.090956e+01 4.693743e+01 7.025858e+01 2.861110e+00 2.264471e+00 2.453416e+00 2.765230e+00 2.489266e+00 3.817811e+00 2.916442e+00 3.031366e+00 2.690944e+00 2.509747e+00 2.130045e+00 1.857868e+00 1.736286e+00 3.265840e-01 3.219693e-01 3.281066e-01 4.097822e-01 3.576114e-01 5.331161e-01 4.612851e-01 4.689287e-01 4.304216e-01 4.181679e-01 3.556864e-01 3.135698e-01 2.196227e-01
<GCONST> 1.272151e+02
<TRANSP> 5
 0.000000e+00 1.000000e+00 0.000000e+00 0.000000e+00 0.000000e+00
 0.000000e+00 6.000000e-01 4.000000e-01 0.000000e+00 0.000000e+00
 0.000000e+00 0.000000e+00 6.000000e-01 4.000000e-01 0.000000e+00
 0.000000e+00 0.000000e+00 0.000000e+00 7.000000e-01 3.000000e-01
 0.000000e+00 0.000000e+00 0.000000e+00 0.000000e+00 0.000000e+00
<ENDHMM>
~h "d"
<BEGINHMM>
<NUMSTATES> 5
<STATE> 2
<MEAN> 39
 -1.050895e+01 9.356773e+00 -5.875150e+00 4.048041e+00 -4.467940e+00 -7.695246e+00 3.178498e-01 -5.016291e+00 -5.711854e+00 4.181917e+00 -4.419950e+00 -4.141842e-01 6.599905e+01 2.838012e-04 3.826968e-03 1.159208e-03 8.399412e-03 1.887910e-03 5.087925e-03 3.182556e-03 3.990711e-03 3.483259e-03 1.315308e-03 1.911431e-03 1.914123e-03 -8.622221e-03 2.765584e-04 -1.071264e-04 -1.140171e-04 1.390390e-04 7.197179e-05 -1.153288e-05 8.728195e-05 2.782226e-04 9.710847e-05 3.633581e-05 9.290614e-05 5.747733e-05 4.707174e-05
<VARIANCE> 39
 9.030790e+01 6.374427e+01 9.265331e+01 9.478106e+01 9.239654e+01 1.289102e+02 8.462318e+01 8.163840e+01 7.646734e+01 5.601252e+01 5.090956e+01 4.693743e+01 7.025858e+01 2.861110e+00 2.264471e+00 2.453416e+00 2.765230e+00 2.489266e+00 3.817811e+00 2.916442e+00 3.031366e+00 2.690944e+00 2.509747e+00 2.130045e+00 1.857868e+00 1.736286e+00 3.265840e-01 3.219693e-01 3.281066e-01 4.097822e-01 3.576114e-01 5.331161e-01 4.612851e-01 4.689287e-01 4.304216e-01 4.181679e-01 3.556864e-01 3.135698e-01 2.196227e-01
<GCONST> 1.272151e+02
<STATE> 3
<MEAN> 39
 -1.050895e+01 9.356773e+00 -5.875150e+00 4.048041e+00 -4.467940e+00 -7.695246e+00 3.178498e-01 -5.016291e+00 -5.711854e+00 4.181917e+00 -4.419950e+00 -4.141842e-01 6.599905e+01 2.838012e-04 3.826968e-03 1.159208e-03 8.399412e-03 1.887910e-03 5.087925e-03 3.182556e-03 3.990711e-03 3.483259e-03 1.315308e-03 1.911431e-03 1.914123e-03 -8.622221e-03 2.765584e-04 -1.071264e-04 -1.140171e-04 1.390390e-04 7.197179e-05 -1.153288e-05 8.728195e-05 2.782226e-04 9.710847e-05 3.633581e-05 9.290614e-05 5.747733e-05 4.707174e-05
<VARIANCE> 39
 9.030790e+01 6.374427e+01 9.265331e+01 9.478106e+01 9.239654e+01 1.289102e+02 8.462318e+01 8.163840e+01 7.646734e+01 5.601252e+01 5.090956e+01 4.693743e+01 7.025858e+01 2.861110e+00 2.264471e+00 2.453416e+00 2.765230e+00 2.489266e+00 3.817811e+00 2.916442e+00 3.031366e+00 2.690944e+00 2.509747e+00 2.130045e+00 1.857868e+00 1.736286e+00 3.265840e-01 3.219693e-01 3.281066e-01 4.097822e-01 3.576114e-01 5.331161e-01 4.612851e-01 4.689287e-01 4.304216e-01 4.181679e-01 3.556864e-01 3.135698e-01 2.196227e-01
<GCONST> 1.272151e+02
<STATE> 4
<MEAN> 39
 -1.050895e+01 9.356773e+00 -5.875150e+00 4.048041e+00 -4.467940e+00 -7.695246e+00 3.178498e-01 -5.016291e+00 -5.711854e+00 4.181917e+00 -4.419950e+00 -4.141842e-01 6.599905e+01 2.838012e-04 3.826968e-03 1.159208e-03 8.399412e-03 1.887910e-03 5.087925e-03 3.182556e-03 3.990711e-03 3.483259e-03 1.315308e-03 1.911431e-03 1.914123e-03 -8.622221e-03 2.765584e-04 -1.071264e-04 -1.140171e-04 1.390390e-04 7.197179e-05 -1.153288e-05 8.728195e-05 2.782226e-04 9.710847e-05 3.633581e-05 9.290614e-05 5.747733e-05 4.707174e-05
<VARIANCE> 39
 9.030790e+01 6.374427e+01 9.265331e+01 9.478106e+01 9.239654e+01 1.289102e+02 8.462318e+01 8.163840e+01 7.646734e+01 5.601252e+01 5.090956e+01 4.693743e+01 7.025858e+01 2.861110e+00 2.264471e+00 2.453416e+00 2.765230e+00 2.489266e+00 3.817811e+00 2.916442e+00 3.031366e+00 2.690944e+00 2.509747e+00 2.130045e+00 1.857868e+00 1.736286e+00 3.265840e-01 3.219693e-01 3.281066e-01 4.097822e-01 3.576114e-01 5.331161e-01 4.612851e-01 4.689287e-01 4.304216e-01 4.181679e-01 3.556864e-01 3.135698e-01 2.196227e-01
<GCONST> 1.272151e+02
<TRANSP> 5
 0.000000e+00 1.000000e+00 0.000000e+00 0.000000e+00 0.000000e+00
 0.000000e+00 6.000000e-01 4.000000e-01 0.000000e+00 0.000000e+00
 0.000000e+00 0.000000e+00 6.000000e-01 4.000000e-01 0.000000e+00
 0.000000e+00 0.000000e+00 0.000000e+00 7.000000e-01 3.000000e-01
 0.000000e+00 0.000000e+00 0.000000e+00 0.000000e+00 0.000000e+00
<ENDHMM>
~h "v"
<BEGINHMM>
<NUMSTATES> 5
<STATE> 2
<MEAN> 39
 -1.050895e+01 9.356773e+00 -5.875150e+00 4.048041e+00 -4.467940e+00 -7.695246e+00 3.178498e-01 -5.016291e+00 -5.711854e+00 4.181917e+00 -4.419950e+00 -4.141842e-01 6.599905e+01 2.838012e-04 3.826968e-03 1.159208e-03 8.399412e-03 1.887910e-03 5.087925e-03 3.182556e-03 3.990711e-03 3.483259e-03 1.315308e-03 1.911431e-03 1.914123e-03 -8.622221e-03 2.765584e-04 -1.071264e-04 -1.140171e-04 1.390390e-04 7.197179e-05 -1.153288e-05 8.728195e-05 2.782226e-04 9.710847e-05 3.633581e-05 9.290614e-05 5.747733e-05 4.707174e-05
<VARIANCE> 39
 9.030790e+01 6.374427e+01 9.265331e+01 9.478106e+01 9.239654e+01 1.289102e+02 8.462318e+01 8.163840e+01 7.646734e+01 5.601252e+01 5.090956e+01 4.693743e+01 7.025858e+01 2.861110e+00 2.264471e+00 2.453416e+00 2.765230e+00 2.489266e+00 3.817811e+00 2.916442e+00 3.031366e+00 2.690944e+00 2.509747e+00 2.130045e+00 1.857868e+00 1.736286e+00 3.265840e-01 3.219693e-01 3.281066e-01 4.097822e-01 3.576114e-01 5.331161e-01 4.612851e-01 4.689287e-01 4.304216e-01 4.181679e-01 3.556864e-01 3.135698e-01 2.196227e-01
<GCONST> 1.272151e+02
<STATE> 3
<MEAN> 39
 -1.050895e+01 9.356773e+00 -5.875150e+00 4.048041e+00 -4.467940e+00 -7.695246e+00 3.178498e-01 -5.016291e+00 -5.711854e+00 4.181917e+00 -4.419950e+00 -4.141842e-01 6.599905e+01 2.838012e-04 3.826968e-03 1.159208e-03 8.399412e-03 1.887910e-03 5.087925e-03 3.182556e-03 3.990711e-03 3.483259e-03 1.315308e-03 1.911431e-03 1.914123e-03 -8.622221e-03 2.765584e-04 -1.071264e-04 -1.140171e-04 1.390390e-04 7.197179e-05 -1.153288e-05 8.728195e-05 2.782226e-04 9.710847e-05 3.633581e-05 9.290614e-05 5.747733e-05 4.707174e-05
<VARIANCE> 39
 9.030790e+01 6.374427e+01 9.265331e+01 9.478106e+01 9.239654e+01 1.289102e+02 8.462318e+01 8.163840e+01 7.646734e+01 5.601252e+01 5.090956e+01 4.693743e+01 7.025858e+01 2.861110e+00 2.264471e+00 2.453416e+00 2.765230e+00 2.489266e+00 3.817811e+00 2.916442e+00 3.031366e+00 2.690944e+00 2.509747e+00 2.130045e+00 1.857868e+00 1.736286e+00 3.265840e-01 3.219693e-01 3.281066e-01 4.097822e-01 3.576114e-01 5.331161e-01 4.612851e-01 4.689287e-01 4.304216e-01 4.181679e-01 3.556864e-01 3.135698e-01 2.196227e-01
<GCONST> 1.272151e+02
<STATE> 4
<MEAN> 39
 -1.050895e+01 9.356773e+00 -5.875150e+00 4.048041e+00 -4.467940e+00 -7.695246e+00 3.178498e-01 -5.016291e+00 -5.711854e+00 4.181917e+00 -4.419950e+00 -4.141842e-01 6.599905e+01 2.838012e-04 3.826968e-03 1.159208e-03 8.399412e-03 1.887910e-03 5.087925e-03 3.182556e-03 3.990711e-03 3.483259e-03 1.315308e-03 1.911431e-03 1.914123e-03 -8.622221e-03 2.765584e-04 -1.071264e-04 -1.140171e-04 1.390390e-04 7.197179e-05 -1.153288e-05 8.728195e-05 2.782226e-04 9.710847e-05 3.633581e-05 9.290614e-05 5.747733e-05 4.707174e-05
<VARIANCE> 39
 9.030790e+01 6.374427e+01 9.265331e+01 9.478106e+01 9.239654e+01 1.289102e+02 8.462318e+01 8.163840e+01 7.646734e+01 5.601252e+01 5.090956e+01 4.693743e+01 7.025858e+01 2.861110e+00 2.264471e+00 2.453416e+00 2.765230e+00 2.489266e+00 3.817811e+00 2.916442e+00 3.031366e+00 2.690944e+00 2.509747e+00 2.130045e+00 1.857868e+00 1.736286e+00 3.265840e-01 3.219693e-01 3.281066e-01 4.097822e-01 3.576114e-01 5.331161e-01 4.612851e-01 4.689287e-01 4.304216e-01 4.181679e-01 3.556864e-01 3.135698e-01 2.196227e-01
<GCONST> 1.272151e+02
<TRANSP> 5
 0.000000e+00 1.000000e+00 0.000000e+00 0.000000e+00 0.000000e+00
 0.000000e+00 6.000000e-01 4.000000e-01 0.000000e+00 0.000000e+00
 0.000000e+00 0.000000e+00 6.000000e-01 4.000000e-01 0.000000e+00
 0.000000e+00 0.000000e+00 0.000000e+00 7.000000e-01 3.000000e-01
 0.000000e+00 0.000000e+00 0.000000e+00 0.000000e+00 0.000000e+00
<ENDHMM>
~h "ax"
<BEGINHMM>
<NUMSTATES> 5
<STATE> 2
<MEAN> 39
 -1.050895e+01 9.356773e+00 -5.875150e+00 4.048041e+00 -4.467940e+00 -7.695246e+00 3.178498e-01 -5.016291e+00 -5.711854e+00 4.181917e+00 -4.419950e+00 -4.141842e-01 6.599905e+01 2.838012e-04 3.826968e-03 1.159208e-03 8.399412e-03 1.887910e-03 5.087925e-03 3.182556e-03 3.990711e-03 3.483259e-03 1.315308e-03 1.911431e-03 1.914123e-03 -8.622221e-03 2.765584e-04 -1.071264e-04 -1.140171e-04 1.390390e-04 7.197179e-05 -1.153288e-05 8.728195e-05 2.782226e-04 9.710847e-05 3.633581e-05 9.290614e-05 5.747733e-05 4.707174e-05
<VARIANCE> 39
 9.030790e+01 6.374427e+01 9.265331e+01 9.478106e+01 9.239654e+01 1.289102e+02 8.462318e+01 8.163840e+01 7.646734e+01 5.601252e+01 5.090956e+01 4.693743e+01 7.025858e+01 2.861110e+00 2.264471e+00 2.453416e+00 2.765230e+00 2.489266e+00 3.817811e+00 2.916442e+00 3.031366e+00 2.690944e+00 2.509747e+00 2.130045e+00 1.857868e+00 1.736286e+00 3.265840e-01 3.219693e-01 3.281066e-01 4.097822e-01 3.576114e-01 5.331161e-01 4.612851e-01 4.689287e-01 4.304216e-01 4.181679e-01 3.556864e-01 3.135698e-01 2.196227e-01
<GCONST> 1.272151e+02
<STATE> 3
<MEAN> 39
 -1.050895e+01 9.356773e+00 -5.875150e+00 4.048041e+00 -4.467940e+00 -7.695246e+00 3.178498e-01 -5.016291e+00 -5.711854e+00 4.181917e+00 -4.419950e+00 -4.141842e-01 6.599905e+01 2.838012e-04 3.826968e-03 1.159208e-03 8.399412e-03 1.887910e-03 5.087925e-03 3.182556e-03 3.990711e-03 3.483259e-03 1.315308e-03 1.911431e-03 1.914123e-03 -8.622221e-03 2.765584e-04 -1.071264e-04 -1.140171e-04 1.390390e-04 7.197179e-05 -1.153288e-05 8.728195e-05 2.782226e-04 9.710847e-05 3.633581e-05 9.290614e-05 5.747733e-05 4.707174e-05
<VARIANCE> 39
 9.030790e+01 6.374427e+01 9.265331e+01 9.478106e+01 9.239654e+01 1.289102e+02 8.462318e+01 8.163840e+01 7.646734e+01 5.601252e+01 5.090956e+01 4.693743e+01 7.025858e+01 2.861110e+00 2.264471e+00 2.453416e+00 2.765230e+00 2.489266e+00 3.817811e+00 2.916442e+00 3.031366e+00 2.690944e+00 2.509747e+00 2.130045e+00 1.857868e+00 1.736286e+00 3.265840e-01 3.219693e-01 3.281066e-01 4.097822e-01 3.576114e-01 5.331161e-01 4.612851e-01 4.689287e-01 4.304216e-01 4.181679e-01 3.556864e-01 3.135698e-01 2.196227e-01
<GCONST> 1.272151e+02
<STATE> 4
<MEAN> 39
 -1.050895e+01 9.356773e+00 -5.875150e+00 4.048041e+00 -4.467940e+00 -7.695246e+00 3.178498e-01 -5.016291e+00 -5.711854e+00 4.181917e+00 -4.419950e+00 -4.141842e-01 6.599905e+01 2.838012e-04 3.826968e-03 1.159208e-03 8.399412e-03 1.887910e-03 5.087925e-03 3.182556e-03 3.990711e-03 3.483259e-03 1.315308e-03 1.911431e-03 1.914123e-03 -8.622221e-03 2.765584e-04 -1.071264e-04 -1.140171e-04 1.390390e-04 7.197179e-05 -1.153288e-05 8.728195e-05 2.782226e-04 9.710847e-05 3.633581e-05 9.290614e-05 5.747733e-05 4.707174e-05
<VARIANCE> 39
 9.030790e+01 6.374427e+01 9.265331e+01 9.478106e+01 9.239654e+01 1.289102e+02 8.462318e+01 8.163840e+01 7.646734e+01 5.601252e+01 5.090956e+01 4.693743e+01 7.025858e+01 2.861110e+00 2.264471e+00 2.453416e+00 2.765230e+00 2.489266e+00 3.817811e+00 2.916442e+00 3.031366e+00 2.690944e+00 2.509747e+00 2.130045e+00 1.857868e+00 1.736286e+00 3.265840e-01 3.219693e-01 3.281066e-01 4.097822e-01 3.576114e-01 5.331161e-01 4.612851e-01 4.689287e-01 4.304216e-01 4.181679e-01 3.556864e-01 3.135698e-01 2.196227e-01
<GCONST> 1.272151e+02
<TRANSP> 5
 0.000000e+00 1.000000e+00 0.000000e+00 0.000000e+00 0.000000e+00
 0.000000e+00 6.000000e-01 4.000000e-01 0.000000e+00 0.000000e+00
 0.000000e+00 0.000000e+00 6.000000e-01 4.000000e-01 0.000000e+00
 0.000000e+00 0.000000e+00 0.000000e+00 7.000000e-01 3.000000e-01
 0.000000e+00 0.000000e+00 0.000000e+00 0.000000e+00 0.000000e+00
<ENDHMM>
~h "k"
<BEGINHMM>
<NUMSTATES> 5
<STATE> 2
<MEAN> 39
 -1.050895e+01 9.356773e+00 -5.875150e+00 4.048041e+00 -4.467940e+00 -7.695246e+00 3.178498e-01 -5.016291e+00 -5.711854e+00 4.181917e+00 -4.419950e+00 -4.141842e-01 6.599905e+01 2.838012e-04 3.826968e-03 1.159208e-03 8.399412e-03 1.887910e-03 5.087925e-03 3.182556e-03 3.990711e-03 3.483259e-03 1.315308e-03 1.911431e-03 1.914123e-03 -8.622221e-03 2.765584e-04 -1.071264e-04 -1.140171e-04 1.390390e-04 7.197179e-05 -1.153288e-05 8.728195e-05 2.782226e-04 9.710847e-05 3.633581e-05 9.290614e-05 5.747733e-05 4.707174e-05
<VARIANCE> 39
 9.030790e+01 6.374427e+01 9.265331e+01 9.478106e+01 9.239654e+01 1.289102e+02 8.462318e+01 8.163840e+01 7.646734e+01 5.601252e+01 5.090956e+01 4.693743e+01 7.025858e+01 2.861110e+00 2.264471e+00 2.453416e+00 2.765230e+00 2.489266e+00 3.817811e+00 2.916442e+00 3.031366e+00 2.690944e+00 2.509747e+00 2.130045e+00 1.857868e+00 1.736286e+00 3.265840e-01 3.219693e-01 3.281066e-01 4.097822e-01 3.576114e-01 5.331161e-01 4.612851e-01 4.689287e-01 4.304216e-01 4.181679e-01 3.556864e-01 3.135698e-01 2.196227e-01
<GCONST> 1.272151e+02
<STATE> 3
<MEAN> 39
 -1.050895e+01 9.356773e+00 -5.875150e+00 4.048041e+00 -4.467940e+00 -7.695246e+00 3.178498e-01 -5.016291e+00 -5.711854e+00 4.181917e+00 -4.419950e+00 -4.141842e-01 6.599905e+01 2.838012e-04 3.826968e-03 1.159208e-03 8.399412e-03 1.887910e-03 5.087925e-03 3.182556e-03 3.990711e-03 3.483259e-03 1.315308e-03 1.911431e-03 1.914123e-03 -8.622221e-03 2.765584e-04 -1.071264e-04 -1.140171e-04 1.390390e-04 7.197179e-05 -1.153288e-05 8.728195e-05 2.782226e-04 9.710847e-05 3.633581e-05 9.290614e-05 5.747733e-05 4.707174e-05
<VARIANCE> 39
 9.030790e+01 6.374427e+01 9.265331e+01 9.478106e+01 9.239654e+01 1.289102e+02 8.462318e+01 8.163840e+01 7.646734e+01 5.601252e+01 5.090956e+01 4.693743e+01 7.025858e+01 2.861110e+00 2.264471e+00 2.453416e+00 2.765230e+00 2.489266e+00 3.817811e+00 2.916442e+00 3.031366e+00 2.690944e+00 2.509747e+00 2.130045e+00 1.857868e+00 1.736286e+00 3.265840e-01 3.219693e-01 3.281066e-01 4.097822e-01 3.576114e-01 5.331161e-01 4.612851e-01 4.689287e-01 4.304216e-01 4.181679e-01 3.556864e-01 3.135698e-01 2.196227e-01
<GCONST> 1.272151e+02
<STATE> 4
<MEAN> 39
 -1.050895e+01 9.356773e+00 -5.875150e+00 4.048041e+00 -4.467940e+00 -7.695246e+00 3.178498e-01 -5.016291e+00 -5.711854e+00 4.181917e+00 -4.419950e+00 -4.141842e-01 6.599905e+01 2.838012e-04 3.826968e-03 1.159208e-03 8.399412e-03 1.887910e-03 5.087925e-03 3.182556e-03 3.990711e-03 3.483259e-03 1.315308e-03 1.911431e-03 1.914123e-03 -8.622221e-03 2.765584e-04 -1.071264e-04 -1.140171e-04 1.390390e-04 7.197179e-05 -1.153288e-05 8.728195e-05 2.782226e-04 9.710847e-05 3.633581e-05 9.290614e-05 5.747733e-05 4.707174e-05
<VARIANCE> 39
 9.030790e+01 6.374427e+01 9.265331e+01 9.478106e+01 9.239654e+01 1.289102e+02 8.462318e+01 8.163840e+01 7.646734e+01 5.601252e+01 5.090956e+01 4.693743e+01 7.025858e+01 2.861110e+00 2.264471e+00 2.453416e+00 2.765230e+00 2.489266e+00 3.817811e+00 2.916442e+00 3.031366e+00 2.690944e+00 2.509747e+00 2.130045e+00 1.857868e+00 1.736286e+00 3.265840e-01 3.219693e-01 3.281066e-01 4.097822e-01 3.576114e-01 5.331161e-01 4.612851e-01 4.689287e-01 4.304216e-01 4.181679e-01 3.556864e-01 3.135698e-01 2.196227e-01
<GCONST> 1.272151e+02
<TRANSP> 5
 0.000000e+00 1.000000e+00 0.000000e+00 0.000000e+00 0.000000e+00
 0.000000e+00 6.000000e-01 4.000000e-01 0.000000e+00 0.000000e+00
 0.000000e+00 0.000000e+00 6.000000e-01 4.000000e-01 0.000000e+00
 0.000000e+00 0.000000e+00 0.000000e+00 7.000000e-01 3.000000e-01
 0.000000e+00 0.000000e+00 0.000000e+00 0.000000e+00 0.000000e+00
<ENDHMM>
~h "aa"
<BEGINHMM>
<NUMSTATES> 5
<STATE> 2
<MEAN> 39
 -1.050895e+01 9.356773e+00 -5.875150e+00 4.048041e+00 -4.467940e+00 -7.695246e+00 3.178498e-01 -5.016291e+00 -5.711854e+00 4.181917e+00 -4.419950e+00 -4.141842e-01 6.599905e+01 2.838012e-04 3.826968e-03 1.159208e-03 8.399412e-03 1.887910e-03 5.087925e-03 3.182556e-03 3.990711e-03 3.483259e-03 1.315308e-03 1.911431e-03 1.914123e-03 -8.622221e-03 2.765584e-04 -1.071264e-04 -1.140171e-04 1.390390e-04 7.197179e-05 -1.153288e-05 8.728195e-05 2.782226e-04 9.710847e-05 3.633581e-05 9.290614e-05 5.747733e-05 4.707174e-05
<VARIANCE> 39
 9.030790e+01 6.374427e+01 9.265331e+01 9.478106e+01 9.239654e+01 1.289102e+02 8.462318e+01 8.163840e+01 7.646734e+01 5.601252e+01 5.090956e+01 4.693743e+01 7.025858e+01 2.861110e+00 2.264471e+00 2.453416e+00 2.765230e+00 2.489266e+00 3.817811e+00 2.916442e+00 3.031366e+00 2.690944e+00 2.509747e+00 2.130045e+00 1.857868e+00 1.736286e+00 3.265840e-01 3.219693e-01 3.281066e-01 4.097822e-01 3.576114e-01 5.331161e-01 4.612851e-01 4.689287e-01 4.304216e-01 4.181679e-01 3.556864e-01 3.135698e-01 2.196227e-01
<GCONST> 1.272151e+02
<STATE> 3
<MEAN> 39
 -1.050895e+01 9.356773e+00 -5.875150e+00 4.048041e+00 -4.467940e+00 -7.695246e+00 3.178498e-01 -5.016291e+00 -5.711854e+00 4.181917e+00 -4.419950e+00 -4.141842e-01 6.599905e+01 2.838012e-04 3.826968e-03 1.159208e-03 8.399412e-03 1.887910e-03 5.087925e-03 3.182556e-03 3.990711e-03 3.483259e-03 1.315308e-03 1.911431e-03 1.914123e-03 -8.622221e-03 2.765584e-04 -1.071264e-04 -1.140171e-04 1.390390e-04 7.197179e-05 -1.153288e-05 8.728195e-05 2.782226e-04 9.710847e-05 3.633581e-05 9.290614e-05 5.747733e-05 4.707174e-05
<VARIANCE> 39
 9.030790e+01 6.374427e+01 9.265331e+01 9.478106e+01 9.239654e+01 1.289102e+02 8.462318e+01 8.163840e+01 7.646734e+01 5.601252e+01 5.090956e+01 4.693743e+01 7.025858e+01 2.861110e+00 2.264471e+00 2.453416e+00 2.765230e+00 2.489266e+00 3.817811e+00 2.916442e+00 3.031366e+00 2.690944e+00 2.509747e+00 2.130045e+00 1.857868e+00 1.736286e+00 3.265840e-01 3.219693e-01 3.281066e-01 4.097822e-01 3.576114e-01 5.331161e-01 4.612851e-01 4.689287e-01 4.304216e-01 4.181679e-01 3.556864e-01 3.135698e-01 2.196227e-01
<GCONST> 1.272151e+02
<STATE> 4
<MEAN> 39
 -1.050895e+01 9.356773e+00 -5.875150e+00 4.048041e+00 -4.467940e+00 -7.695246e+00 3.178498e-01 -5.016291e+00 -5.711854e+00 4.181917e+00 -4.419950e+00 -4.141842e-01 6.599905e+01 2.838012e-04 3.826968e-03 1.159208e-03 8.399412e-03 1.887910e-03 5.087925e-03 3.182556e-03 3.990711e-03 3.483259e-03 1.315308e-03 1.911431e-03 1.914123e-03 -8.622221e-03 2.765584e-04 -1.071264e-04 -1.140171e-04 1.390390e-04 7.197179e-05 -1.153288e-05 8.728195e-05 2.782226e-04 9.710847e-05 3.633581e-05 9.290614e-05 5.747733e-05 4.707174e-05
<VARIANCE> 39
 9.030790e+01 6.374427e+01 9.265331e+01 9.478106e+01 9.239654e+01 1.289102e+02 8.462318e+01 8.163840e+01 7.646734e+01 5.601252e+01 5.090956e+01 4.693743e+01 7.025858e+01 2.861110e+00 2.264471e+00 2.453416e+00 2.765230e+00 2.489266e+00 3.817811e+00 2.916442e+00 3.031366e+00 2.690944e+00 2.509747e+00 2.130045e+00 1.857868e+00 1.736286e+00 3.265840e-01 3.219693e-01 3.281066e-01 4.097822e-01 3.576114e-01 5.331161e-01 4.612851e-01 4.689287e-01 4.304216e-01 4.181679e-01 3.556864e-01 3.135698e-01 2.196227e-01
<GCONST> 1.272151e+02
<TRANSP> 5
 0.000000e+00 1.000000e+00 0.000000e+00 0.000000e+00 0.000000e+00
 0.000000e+00 6.000000e-01 4.000000e-01 0.000000e+00 0.000000e+00
 0.000000e+00 0.000000e+00 6.000000e-01 4.000000e-01 0.000000e+00
 0.000000e+00 0.000000e+00 0.000000e+00 7.000000e-01 3.000000e-01
 0.000000e+00 0.000000e+00 0.000000e+00 0.000000e+00 0.000000e+00
<ENDHMM>
~h "ow"
<BEGINHMM>
<NUMSTATES> 5
<STATE> 2
<MEAN> 39
 -1.050895e+01 9.356773e+00 -5.875150e+00 4.048041e+00 -4.467940e+00 -7.695246e+00 3.178498e-01 -5.016291e+00 -5.711854e+00 4.181917e+00 -4.419950e+00 -4.141842e-01 6.599905e+01 2.838012e-04 3.826968e-03 1.159208e-03 8.399412e-03 1.887910e-03 5.087925e-03 3.182556e-03 3.990711e-03 3.483259e-03 1.315308e-03 1.911431e-03 1.914123e-03 -8.622221e-03 2.765584e-04 -1.071264e-04 -1.140171e-04 1.390390e-04 7.197179e-05 -1.153288e-05 8.728195e-05 2.782226e-04 9.710847e-05 3.633581e-05 9.290614e-05 5.747733e-05 4.707174e-05
<VARIANCE> 39
 9.030790e+01 6.374427e+01 9.265331e+01 9.478106e+01 9.239654e+01 1.289102e+02 8.462318e+01 8.163840e+01 7.646734e+01 5.601252e+01 5.090956e+01 4.693743e+01 7.025858e+01 2.861110e+00 2.264471e+00 2.453416e+00 2.765230e+00 2.489266e+00 3.817811e+00 2.916442e+00 3.031366e+00 2.690944e+00 2.509747e+00 2.130045e+00 1.857868e+00 1.736286e+00 3.265840e-01 3.219693e-01 3.281066e-01 4.097822e-01 3.576114e-01 5.331161e-01 4.612851e-01 4.689287e-01 4.304216e-01 4.181679e-01 3.556864e-01 3.135698e-01 2.196227e-01
<GCONST> 1.272151e+02
<STATE> 3
<MEAN> 39
 -1.050895e+01 9.356773e+00 -5.875150e+00 4.048041e+00 -4.467940e+00 -7.695246e+00 3.178498e-01 -5.016291e+00 -5.711854e+00 4.181917e+00 -4.419950e+00 -4.141842e-01 6.599905e+01 2.838012e-04 3.826968e-03 1.159208e-03 8.399412e-03 1.887910e-03 5.087925e-03 3.182556e-03 3.990711e-03 3.483259e-03 1.315308e-03 1.911431e-03 1.914123e-03 -8.622221e-03 2.765584e-04 -1.071264e-04 -1.140171e-04 1.390390e-04 7.197179e-05 -1.153288e-05 8.728195e-05 2.782226e-04 9.710847e-05 3.633581e-05 9.290614e-05 5.747733e-05 4.707174e-05
<VARIANCE> 39
 9.030790e+01 6.374427e+01 9.265331e+01 9.478106e+01 9.239654e+01 1.289102e+02 8.462318e+01 8.163840e+01 7.646734e+01 5.601252e+01 5.090956e+01 4.693743e+01 7.025858e+01 2.861110e+00 2.264471e+00 2.453416e+00 2.765230e+00 2.489266e+00 3.817811e+00 2.916442e+00 3.031366e+00 2.690944e+00 2.509747e+00 2.130045e+00 1.857868e+00 1.736286e+00 3.265840e-01 3.219693e-01 3.281066e-01 4.097822e-01 3.576114e-01 5.331161e-01 4.612851e-01 4.689287e-01 4.304216e-01 4.181679e-01 3.556864e-01 3.135698e-01 2.196227e-01
<GCONST> 1.272151e+02
<STATE> 4
<MEAN> 39
 -1.050895e+01 9.356773e+00 -5.875150e+00 4.048041e+00 -4.467940e+00 -7.695246e+00 3.178498e-01 -5.016291e+00 -5.711854e+00 4.181917e+00 -4.419950e+00 -4.141842e-01 6.599905e+01 2.838012e-04 3.826968e-03 1.159208e-03 8.399412e-03 1.887910e-03 5.087925e-03 3.182556e-03 3.990711e-03 3.483259e-03 1.315308e-03 1.911431e-03 1.914123e-03 -8.622221e-03 2.765584e-04 -1.071264e-04 -1.140171e-04 1.390390e-04 7.197179e-05 -1.153288e-05 8.728195e-05 2.782226e-04 9.710847e-05 3.633581e-05 9.290614e-05 5.747733e-05 4.707174e-05
<VARIANCE> 39
 9.030790e+01 6.374427e+01 9.265331e+01 9.478106e+01 9.239654e+01 1.289102e+02 8.462318e+01 8.163840e+01 7.646734e+01 5.601252e+01 5.090956e+01 4.693743e+01 7.025858e+01 2.861110e+00 2.264471e+00 2.453416e+00 2.765230e+00 2.489266e+00 3.817811e+00 2.916442e+00 3.031366e+00 2.690944e+00 2.509747e+00 2.130045e+00 1.857868e+00 1.736286e+00 3.265840e-01 3.219693e-01 3.281066e-01 4.097822e-01 3.576114e-01 5.331161e-01 4.612851e-01 4.689287e-01 4.304216e-01 4.181679e-01 3.556864e-01 3.135698e-01 2.196227e-01
<GCONST> 1.272151e+02
<TRANSP> 5
 0.000000e+00 1.000000e+00 0.000000e+00 0.000000e+00 0.000000e+00
 0.000000e+00 6.000000e-01 4.000000e-01 0.000000e+00 0.000000e+00
 0.000000e+00 0.000000e+00 6.000000e-01 4.000000e-01 0.000000e+00
 0.000000e+00 0.000000e+00 0.000000e+00 7.000000e-01 3.000000e-01
 0.000000e+00 0.000000e+00 0.000000e+00 0.000000e+00 0.000000e+00
<ENDHMM>
~h "b"
<BEGINHMM>
<NUMSTATES> 5
<STATE> 2
<MEAN> 39
 -1.050895e+01 9.356773e+00 -5.875150e+00 4.048041e+00 -4.467940e+00 -7.695246e+00 3.178498e-01 -5.016291e+00 -5.711854e+00 4.181917e+00 -4.419950e+00 -4.141842e-01 6.599905e+01 2.838012e-04 3.826968e-03 1.159208e-03 8.399412e-03 1.887910e-03 5.087925e-03 3.182556e-03 3.990711e-03 3.483259e-03 1.315308e-03 1.911431e-03 1.914123e-03 -8.622221e-03 2.765584e-04 -1.071264e-04 -1.140171e-04 1.390390e-04 7.197179e-05 -1.153288e-05 8.728195e-05 2.782226e-04 9.710847e-05 3.633581e-05 9.290614e-05 5.747733e-05 4.707174e-05
<VARIANCE> 39
 9.030790e+01 6.374427e+01 9.265331e+01 9.478106e+01 9.239654e+01 1.289102e+02 8.462318e+01 8.163840e+01 7.646734e+01 5.601252e+01 5.090956e+01 4.693743e+01 7.025858e+01 2.861110e+00 2.264471e+00 2.453416e+00 2.765230e+00 2.489266e+00 3.817811e+00 2.916442e+00 3.031366e+00 2.690944e+00 2.509747e+00 2.130045e+00 1.857868e+00 1.736286e+00 3.265840e-01 3.219693e-01 3.281066e-01 4.097822e-01 3.576114e-01 5.331161e-01 4.612851e-01 4.689287e-01 4.304216e-01 4.181679e-01 3.556864e-01 3.135698e-01 2.196227e-01
<GCONST> 1.272151e+02
<STATE> 3
<MEAN> 39
 -1.050895e+01 9.356773e+00 -5.875150e+00 4.048041e+00 -4.467940e+00 -7.695246e+00 3.178498e-01 -5.016291e+00 -5.711854e+00 4.181917e+00 -4.419950e+00 -4.141842e-01 6.599905e+01 2.838012e-04 3.826968e-03 1.159208e-03 8.399412e-03 1.887910e-03 5.087925e-03 3.182556e-03 3.990711e-03 3.483259e-03 1.315308e-03 1.911431e-03 1.914123e-03 -8.622221e-03 2.765584e-04 -1.071264e-04 -1.140171e-04 1.390390e-04 7.197179e-05 -1.153288e-05 8.728195e-05 2.782226e-04 9.710847e-05 3.633581e-05 9.290614e-05 5.747733e-05 4.707174e-05
<VARIANCE> 39
 9.030790e+01 6.374427e+01 9.265331e+01 9.478106e+01 9.239654e+01 1.289102e+02 8.462318e+01 8.163840e+01 7.646734e+01 5.601252e+01 5.090956e+01 4.693743e+01 7.025858e+01 2.861110e+00 2.264471e+00 2.453416e+00 2.765230e+00 2.489266e+00 3.817811e+00 2.916442e+00 3.031366e+00 2.690944e+00 2.509747e+00 2.130045e+00 1.857868e+00 1.736286e+00 3.265840e-01 3.219693e-01 3.281066e-01 4.097822e-01 3.576114e-01 5.331161e-01 4.612851e-01 4.689287e-01 4.304216e-01 4.181679e-01 3.556864e-01 3.135698e-01 2.196227e-01
<GCONST> 1.272151e+02
<STATE> 4
<MEAN> 39
 -1.050895e+01 9.356773e+00 -5.875150e+00 4.048041e+00 -4.467940e+00 -7.695246e+00 3.178498e-01 -5.016291e+00 -5.711854e+00 4.181917e+00 -4.419950e+00 -4.141842e-01 6.599905e+01 2.838012e-04 3.826968e-03 1.159208e-03 8.399412e-03 1.887910e-03 5.087925e-03 3.182556e-03 3.990711e-03 3.483259e-03 1.315308e-03 1.911431e-03 1.914123e-03 -8.622221e-03 2.765584e-04 -1.071264e-04 -1.140171e-04 1.390390e-04 7.197179e-05 -1.153288e-05 8.728195e-05 2.782226e-04 9.710847e-05 3.633581e-05 9.290614e-05 5.747733e-05 4.707174e-05
<VARIANCE> 39
 9.030790e+01 6.374427e+01 9.265331e+01 9.478106e+01 9.239654e+01 1.289102e+02 8.462318e+01 8.163840e+01 7.646734e+01 5.601252e+01 5.090956e+01 4.693743e+01 7.025858e+01 2.861110e+00 2.264471e+00 2.453416e+00 2.765230e+00 2.489266e+00 3.817811e+00 2.916442e+00 3.031366e+00 2.690944e+00 2.509747e+00 2.130045e+00 1.857868e+00 1.736286e+00 3.265840e-01 3.219693e-01 3.281066e-01 4.097822e-01 3.576114e-01 5.331161e-01 4.612851e-01 4.689287e-01 4.304216e-01 4.181679e-01 3.556864e-01 3.135698e-01 2.196227e-01
<GCONST> 1.272151e+02
<TRANSP> 5
 0.000000e+00 1.000000e+00 0.000000e+00 0.000000e+00 0.000000e+00
 0.000000e+00 6.000000e-01 4.000000e-01 0.000000e+00 0.000000e+00
 0.000000e+00 0.000000e+00 6.000000e-01 4.000000e-01 0.000000e+00
 0.000000e+00 0.000000e+00 0.000000e+00 7.000000e-01 3.000000e-01
 0.000000e+00 0.000000e+00 0.000000e+00 0.000000e+00 0.000000e+00
<ENDHMM>
~h "l"
<BEGINHMM>
<NUMSTATES> 5
<STATE> 2
<MEAN> 39
 -1.050895e+01 9.356773e+00 -5.875150e+00 4.048041e+00 -4.467940e+00 -7.695246e+00 3.178498e-01 -5.016291e+00 -5.711854e+00 4.181917e+00 -4.419950e+00 -4.141842e-01 6.599905e+01 2.838012e-04 3.826968e-03 1.159208e-03 8.399412e-03 1.887910e-03 5.087925e-03 3.182556e-03 3.990711e-03 3.483259e-03 1.315308e-03 1.911431e-03 1.914123e-03 -8.622221e-03 2.765584e-04 -1.071264e-04 -1.140171e-04 1.390390e-04 7.197179e-05 -1.153288e-05 8.728195e-05 2.782226e-04 9.710847e-05 3.633581e-05 9.290614e-05 5.747733e-05 4.707174e-05
<VARIANCE> 39
 9.030790e+01 6.374427e+01 9.265331e+01 9.478106e+01 9.239654e+01 1.289102e+02 8.462318e+01 8.163840e+01 7.646734e+01 5.601252e+01 5.090956e+01 4.693743e+01 7.025858e+01 2.861110e+00 2.264471e+00 2.453416e+00 2.765230e+00 2.489266e+00 3.817811e+00 2.916442e+00 3.031366e+00 2.690944e+00 2.509747e+00 2.130045e+00 1.857868e+00 1.736286e+00 3.265840e-01 3.219693e-01 3.281066e-01 4.097822e-01 3.576114e-01 5.331161e-01 4.612851e-01 4.689287e-01 4.304216e-01 4.181679e-01 3.556864e-01 3.135698e-01 2.196227e-01
<GCONST> 1.272151e+02
<STATE> 3
<MEAN> 39
 -1.050895e+01 9.356773e+00 -5.875150e+00 4.048041e+00 -4.467940e+00 -7.695246e+00 3.178498e-01 -5.016291e+00 -5.711854e+00 4.181917e+00 -4.419950e+00 -4.141842e-01 6.599905e+01 2.838012e-04 3.826968e-03 1.159208e-03 8.399412e-03 1.887910e-03 5.087925e-03 3.182556e-03 3.990711e-03 3.483259e-03 1.315308e-03 1.911431e-03 1.914123e-03 -8.622221e-03 2.765584e-04 -1.071264e-04 -1.140171e-04 1.390390e-04 7.197179e-05 -1.153288e-05 8.728195e-05 2.782226e-04 9.710847e-05 3.633581e-05 9.290614e-05 5.747733e-05 4.707174e-05
<VARIANCE> 39
 9.030790e+01 6.374427e+01 9.265331e+01 9.478106e+01 9.239654e+01 1.289102e+02 8.462318e+01 8.163840e+01 7.646734e+01 5.601252e+01 5.090956e+01 4.693743e+01 7.025858e+01 2.861110e+00 2.264471e+00 2.453416e+00 2.765230e+00 2.489266e+00 3.817811e+00 2.916442e+00 3.031366e+00 2.690944e+00 2.509747e+00 2.130045e+00 1.857868e+00 1.736286e+00 3.265840e-01 3.219693e-01 3.281066e-01 4.097822e-01 3.576114e-01 5.331161e-01 4.612851e-01 4.689287e-01 4.304216e-01 4.181679e-01 3.556864e-01 3.135698e-01 2.196227e-01
<GCONST> 1.272151e+02
<STATE> 4
<MEAN> 39
 -1.050895e+01 9.356773e+00 -5.875150e+00 4.048041e+00 -4.467940e+00 -7.695246e+00 3.178498e-01 -5.016291e+00 -5.711854e+00 4.181917e+00 -4.419950e+00 -4.141842e-01 6.599905e+01 2.838012e-04 3.826968e-03 1.159208e-03 8.399412e-03 1.887910e-03 5.087925e-03 3.182556e-03 3.990711e-03 3.483259e-03 1.315308e-03 1.911431e-03 1.914123e-03 -8.622221e-03 2.765584e-04 -1.071264e-04 -1.140171e-04 1.390390e-04 7.197179e-05 -1.153288e-05 8.728195e-05 2.782226e-04 9.710847e-05 3.633581e-05 9.290614e-05 5.747733e-05 4.707174e-05
<VARIANCE> 39
 9.030790e+01 6.374427e+01 9.265331e+01 9.478106e+01 9.239654e+01 1.289102e+02 8.462318e+01 8.163840e+01 7.646734e+01 5.601252e+01 5.090956e+01 4.693743e+01 7.025858e+01 2.861110e+00 2.264471e+00 2.453416e+00 2.765230e+00 2.489266e+00 3.817811e+00 2.916442e+00 3.031366e+00 2.690944e+00 2.509747e+00 2.130045e+00 1.857868e+00 1.736286e+00 3.265840e-01 3.219693e-01 3.281066e-01 4.097822e-01 3.576114e-01 5.331161e-01 4.612851e-01 4.689287e-01 4.304216e-01 4.181679e-01 3.556864e-01 3.135698e-01 2.196227e-01
<GCONST> 1.272151e+02
<TRANSP> 5
 0.000000e+00 1.000000e+00 0.000000e+00 0.000000e+00 0.000000e+00
 0.000000e+00 6.000000e-01 4.000000e-01 0.000000e+00 0.000000e+00
 0.000000e+00 0.000000e+00 6.000000e-01 4.000000e-01 0.000000e+00
 0.000000e+00 0.000000e+00 0.000000e+00 7.000000e-01 3.000000e-01
 0.000000e+00 0.000000e+00 0.000000e+00 0.000000e+00 0.000000e+00
<ENDHMM>
~h "r"
<BEGINHMM>
<NUMSTATES> 5
<STATE> 2
<MEAN> 39
 -1.050895e+01 9.356773e+00 -5.875150e+00 4.048041e+00 -4.467940e+00 -7.695246e+00 3.178498e-01 -5.016291e+00 -5.711854e+00 4.181917e+00 -4.419950e+00 -4.141842e-01 6.599905e+01 2.838012e-04 3.826968e-03 1.159208e-03 8.399412e-03 1.887910e-03 5.087925e-03 3.182556e-03 3.990711e-03 3.483259e-03 1.315308e-03 1.911431e-03 1.914123e-03 -8.622221e-03 2.765584e-04 -1.071264e-04 -1.140171e-04 1.390390e-04 7.197179e-05 -1.153288e-05 8.728195e-05 2.782226e-04 9.710847e-05 3.633581e-05 9.290614e-05 5.747733e-05 4.707174e-05
<VARIANCE> 39
 9.030790e+01 6.374427e+01 9.265331e+01 9.478106e+01 9.239654e+01 1.289102e+02 8.462318e+01 8.163840e+01 7.646734e+01 5.601252e+01 5.090956e+01 4.693743e+01 7.025858e+01 2.861110e+00 2.264471e+00 2.453416e+00 2.765230e+00 2.489266e+00 3.817811e+00 2.916442e+00 3.031366e+00 2.690944e+00 2.509747e+00 2.130045e+00 1.857868e+00 1.736286e+00 3.265840e-01 3.219693e-01 3.281066e-01 4.097822e-01 3.576114e-01 5.331161e-01 4.612851e-01 4.689287e-01 4.304216e-01 4.181679e-01 3.556864e-01 3.135698e-01 2.196227e-01
<GCONST> 1.272151e+02
<STATE> 3
<MEAN> 39
 -1.050895e+01 9.356773e+00 -5.875150e+00 4.048041e+00 -4.467940e+00 -7.695246e+00 3.178498e-01 -5.016291e+00 -5.711854e+00 4.181917e+00 -4.419950e+00 -4.141842e-01 6.599905e+01 2.838012e-04 3.826968e-03 1.159208e-03 8.399412e-03 1.887910e-03 5.087925e-03 3.182556e-03 3.990711e-03 3.483259e-03 1.315308e-03 1.911431e-03 1.914123e-03 -8.622221e-03 2.765584e-04 -1.071264e-04 -1.140171e-04 1.390390e-04 7.197179e-05 -1.153288e-05 8.728195e-05 2.782226e-04 9.710847e-05 3.633581e-05 9.290614e-05 5.747733e-05 4.707174e-05
<VARIANCE> 39
 9.030790e+01 6.374427e+01 9.265331e+01 9.478106e+01 9.239654e+01 1.289102e+02 8.462318e+01 8.163840e+01 7.646734e+01 5.601252e+01 5.090956e+01 4.693743e+01 7.025858e+01 2.861110e+00 2.264471e+00 2.453416e+00 2.765230e+00 2.489266e+00 3.817811e+00 2.916442e+00 3.031366e+00 2.690944e+00 2.509747e+00 2.130045e+00 1.857868e+00 1.736286e+00 3.265840e-01 3.219693e-01 3.281066e-01 4.097822e-01 3.576114e-01 5.331161e-01 4.612851e-01 4.689287e-01 4.304216e-01 4.181679e-01 3.556864e-01 3.135698e-01 2.196227e-01
<GCONST> 1.272151e+02
<STATE> 4
<MEAN> 39
 -1.050895e+01 9.356773e+00 -5.875150e+00 4.048041e+00 -4.467940e+00 -7.695246e+00 3.178498e-01 -5.016291e+00 -5.711854e+00 4.181917e+00 -4.419950e+00 -4.141842e-01 6.599905e+01 2.838012e-04 3.826968e-03 1.159208e-03 8.399412e-03 1.887910e-03 5.087925e-03 3.182556e-03 3.990711e-03 3.483259e-03 1.315308e-03 1.911431e-03 1.914123e-03 -8.622221e-03 2.765584e-04 -1.071264e-04 -1.140171e-04 1.390390e-04 7.197179e-05 -1.153288e-05 8.728195e-05 2.782226e-04 9.710847e-05 3.633581e-05 9.290614e-05 5.747733e-05 4.707174e-05
<VARIANCE> 39
 9.030790e+01 6.374427e+01 9.265331e+01 9.478106e+01 9.239654e+01 1.289102e+02 8.462318e+01 8.163840e+01 7.646734e+01 5.601252e+01 5.090956e+01 4.693743e+01 7.025858e+01 2.861110e+00 2.264471e+00 2.453416e+00 2.765230e+00 2.489266e+00 3.817811e+00 2.916442e+00 3.031366e+00 2.690944e+00 2.509747e+00 2.130045e+00 1.857868e+00 1.736286e+00 3.265840e-01 3.219693e-01 3.281066e-01 4.097822e-01 3.576114e-01 5.331161e-01 4.612851e-01 4.689287e-01 4.304216e-01 4.181679e-01 3.556864e-01 3.135698e-01 2.196227e-01
<GCONST> 1.272151e+02
<TRANSP> 5
 0.000000e+00 1.000000e+00 0.000000e+00 0.000000e+00 0.000000e+00
 0.000000e+00 6.000000e-01 4.000000e-01 0.000000e+00 0.000000e+00
 0.000000e+00 0.000000e+00 6.000000e-01 4.000000e-01 0.000000e+00
 0.000000e+00 0.000000e+00 0.000000e+00 7.000000e-01 3.000000e-01
 0.000000e+00 0.000000e+00 0.000000e+00 0.000000e+00 0.000000e+00
<ENDHMM>
~h "aw"
<BEGINHMM>
<NUMSTATES> 5
<STATE> 2
<MEAN> 39
 -1.050895e+01 9.356773e+00 -5.875150e+00 4.048041e+00 -4.467940e+00 -7.695246e+00 3.178498e-01 -5.016291e+00 -5.711854e+00 4.181917e+00 -4.419950e+00 -4.141842e-01 6.599905e+01 2.838012e-04 3.826968e-03 1.159208e-03 8.399412e-03 1.887910e-03 5.087925e-03 3.182556e-03 3.990711e-03 3.483259e-03 1.315308e-03 1.911431e-03 1.914123e-03 -8.622221e-03 2.765584e-04 -1.071264e-04 -1.140171e-04 1.390390e-04 7.197179e-05 -1.153288e-05 8.728195e-05 2.782226e-04 9.710847e-05 3.633581e-05 9.290614e-05 5.747733e-05 4.707174e-05
<VARIANCE> 39
 9.030790e+01 6.374427e+01 9.265331e+01 9.478106e+01 9.239654e+01 1.289102e+02 8.462318e+01 8.163840e+01 7.646734e+01 5.601252e+01 5.090956e+01 4.693743e+01 7.025858e+01 2.861110e+00 2.264471e+00 2.453416e+00 2.765230e+00 2.489266e+00 3.817811e+00 2.916442e+00 3.031366e+00 2.690944e+00 2.509747e+00 2.130045e+00 1.857868e+00 1.736286e+00 3.265840e-01 3.219693e-01 3.281066e-01 4.097822e-01 3.576114e-01 5.331161e-01 4.612851e-01 4.689287e-01 4.304216e-01 4.181679e-01 3.556864e-01 3.135698e-01 2.196227e-01
<GCONST> 1.272151e+02
<STATE> 3
<MEAN> 39
 -1.050895e+01 9.356773e+00 -5.875150e+00 4.048041e+00 -4.467940e+00 -7.695246e+00 3.178498e-01 -5.016291e+00 -5.711854e+00 4.181917e+00 -4.419950e+00 -4.141842e-01 6.599905e+01 2.838012e-04 3.826968e-03 1.159208e-03 8.399412e-03 1.887910e-03 5.087925e-03 3.182556e-03 3.990711e-03 3.483259e-03 1.315308e-03 1.911431e-03 1.914123e-03 -8.622221e-03 2.765584e-04 -1.071264e-04 -1.140171e-04 1.390390e-04 7.197179e-05 -1.153288e-05 8.728195e-05 2.782226e-04 9.710847e-05 3.633581e-05 9.290614e-05 5.747733e-05 4.707174e-05
<VARIANCE> 39
 9.030790e+01 6.374427e+01 9.265331e+01 9.478106e+01 9.239654e+01 1.289102e+02 8.462318e+01 8.163840e+01 7.646734e+01 5.601252e+01 5.090956e+01 4.693743e+01 7.025858e+01 2.861110e+00 2.264471e+00 2.453416e+00 2.765230e+00 2.489266e+00 3.817811e+00 2.916442e+00 3.031366e+00 2.690944e+00 2.509747e+00 2.130045e+00 1.857868e+00 1.736286e+00 3.265840e-01 3.219693e-01 3.281066e-01 4.097822e-01 3.576114e-01 5.331161e-01 4.612851e-01 4.689287e-01 4.304216e-01 4.181679e-01 3.556864e-01 3.135698e-01 2.196227e-01
<GCONST> 1.272151e+02
<STATE> 4
<MEAN> 39
 -1.050895e+01 9.356773e+00 -5.875150e+00 4.048041e+00 -4.467940e+00 -7.695246e+00 3.178498e-01 -5.016291e+00 -5.711854e+00 4.181917e+00 -4.419950e+00 -4.141842e-01 6.599905e+01 2.838012e-04 3.826968e-03 1.159208e-03 8.399412e-03 1.887910e-03 5.087925e-03 3.182556e-03 3.990711e-03 3.483259e-03 1.315308e-03 1.911431e-03 1.914123e-03 -8.622221e-03 2.765584e-04 -1.071264e-04 -1.140171e-04 1.390390e-04 7.197179e-05 -1.153288e-05 8.728195e-05 2.782226e-04 9.710847e-05 3.633581e-05 9.290614e-05 5.747733e-05 4.707174e-05
<VARIANCE> 39
 9.030790e+01 6.374427e+01 9.265331e+01 9.478106e+01 9.239654e+01 1.289102e+02 8.462318e+01 8.163840e+01 7.646734e+01 5.601252e+01 5.090956e+01 4.693743e+01 7.025858e+01 2.861110e+00 2.264471e+00 2.453416e+00 2.765230e+00 2.489266e+00 3.817811e+00 2.916442e+00 3.031366e+00 2.690944e+00 2.509747e+00 2.130045e+00 1.857868e+00 1.736286e+00 3.265840e-01 3.219693e-01 3.281066e-01 4.097822e-01 3.576114e-01 5.331161e-01 4.612851e-01 4.689287e-01 4.304216e-01 4.181679e-01 3.556864e-01 3.135698e-01 2.196227e-01
<GCONST> 1.272151e+02
<TRANSP> 5
 0.000000e+00 1.000000e+00 0.000000e+00 0.000000e+00 0.000000e+00
 0.000000e+00 6.000000e-01 4.000000e-01 0.000000e+00 0.000000e+00
 0.000000e+00 0.000000e+00 6.000000e-01 4.000000e-01 0.000000e+00
 0.000000e+00 0.000000e+00 0.000000e+00 7.000000e-01 3.000000e-01
 0.000000e+00 0.000000e+00 0.000000e+00 0.000000e+00 0.000000e+00
<ENDHMM>
~h "ch"
<BEGINHMM>
<NUMSTATES> 5
<STATE> 2
<MEAN> 39
 -1.050895e+01 9.356773e+00 -5.875150e+00 4.048041e+00 -4.467940e+00 -7.695246e+00 3.178498e-01 -5.016291e+00 -5.711854e+00 4.181917e+00 -4.419950e+00 -4.141842e-01 6.599905e+01 2.838012e-04 3.826968e-03 1.159208e-03 8.399412e-03 1.887910e-03 5.087925e-03 3.182556e-03 3.990711e-03 3.483259e-03 1.315308e-03 1.911431e-03 1.914123e-03 -8.622221e-03 2.765584e-04 -1.071264e-04 -1.140171e-04 1.390390e-04 7.197179e-05 -1.153288e-05 8.728195e-05 2.782226e-04 9.710847e-05 3.633581e-05 9.290614e-05 5.747733e-05 4.707174e-05
<VARIANCE> 39
 9.030790e+01 6.374427e+01 9.265331e+01 9.478106e+01 9.239654e+01 1.289102e+02 8.462318e+01 8.163840e+01 7.646734e+01 5.601252e+01 5.090956e+01 4.693743e+01 7.025858e+01 2.861110e+00 2.264471e+00 2.453416e+00 2.765230e+00 2.489266e+00 3.817811e+00 2.916442e+00 3.031366e+00 2.690944e+00 2.509747e+00 2.130045e+00 1.857868e+00 1.736286e+00 3.265840e-01 3.219693e-01 3.281066e-01 4.097822e-01 3.576114e-01 5.331161e-01 4.612851e-01 4.689287e-01 4.304216e-01 4.181679e-01 3.556864e-01 3.135698e-01 2.196227e-01
<GCONST> 1.272151e+02
<STATE> 3
<MEAN> 39
 -1.050895e+01 9.356773e+00 -5.875150e+00 4.048041e+00 -4.467940e+00 -7.695246e+00 3.178498e-01 -5.016291e+00 -5.711854e+00 4.181917e+00 -4.419950e+00 -4.141842e-01 6.599905e+01 2.838012e-04 3.826968e-03 1.159208e-03 8.399412e-03 1.887910e-03 5.087925e-03 3.182556e-03 3.990711e-03 3.483259e-03 1.315308e-03 1.911431e-03 1.914123e-03 -8.622221e-03 2.765584e-04 -1.071264e-04 -1.140171e-04 1.390390e-04 7.197179e-05 -1.153288e-05 8.728195e-05 2.782226e-04 9.710847e-05 3.633581e-05 9.290614e-05 5.747733e-05 4.707174e-05
<VARIANCE> 39
 9.030790e+01 6.374427e+01 9.265331e+01 9.478106e+01 9.239654e+01 1.289102e+02 8.462318e+01 8.163840e+01 7.646734e+01 5.601252e+01 5.090956e+01 4.693743e+01 7.025858e+01 2.861110e+00 2.264471e+00 2.453416e+00 2.765230e+00 2.489266e+00 3.817811e+00 2.916442e+00 3.031366e+00 2.690944e+00 2.509747e+00 2.130045e+00 1.857868e+00 1.736286e+00 3.265840e-01 3.219693e-01 3.281066e-01 4.097822e-01 3.576114e-01 5.331161e-01 4.612851e-01 4.689287e-01 4.304216e-01 4.181679e-01 3.556864e-01 3.135698e-01 2.196227e-01
<GCONST> 1.272151e+02
<STATE> 4
<MEAN> 39
 -1.050895e+01 9.356773e+00 -5.875150e+00 4.048041e+00 -4.467940e+00 -7.695246e+00 3.178498e-01 -5.016291e+00 -5.711854e+00 4.181917e+00 -4.419950e+00 -4.141842e-01 6.599905e+01 2.838012e-04 3.826968e-03 1.159208e-03 8.399412e-03 1.887910e-03 5.087925e-03 3.182556e-03 3.990711e-03 3.483259e-03 1.315308e-03 1.911431e-03 1.914123e-03 -8.622221e-03 2.765584e-04 -1.071264e-04 -1.140171e-04 1.390390e-04 7.197179e-05 -1.153288e-05 8.728195e-05 2.782226e-04 9.710847e-05 3.633581e-05 9.290614e-05 5.747733e-05 4.707174e-05
<VARIANCE> 39
 9.030790e+01 6.374427e+01 9.265331e+01 9.478106e+01 9.239654e+01 1.289102e+02 8.462318e+01 8.163840e+01 7.646734e+01 5.601252e+01 5.090956e+01 4.693743e+01 7.025858e+01 2.861110e+00 2.264471e+00 2.453416e+00 2.765230e+00 2.489266e+00 3.817811e+00 2.916442e+00 3.031366e+00 2.690944e+00 2.509747e+00 2.130045e+00 1.857868e+00 1.736286e+00 3.265840e-01 3.219693e-01 3.281066e-01 4.097822e-01 3.576114e-01 5.331161e-01 4.612851e-01 4.689287e-01 4.304216e-01 4.181679e-01 3.556864e-01 3.135698e-01 2.196227e-01
<GCONST> 1.272151e+02
<TRANSP> 5
 0.000000e+00 1.000000e+00 0.000000e+00 0.000000e+00 0.000000e+00
 0.000000e+00 6.000000e-01 4.000000e-01 0.000000e+00 0.000000e+00
 0.000000e+00 0.000000e+00 6.000000e-01 4.000000e-01 0.000000e+00
 0.000000e+00 0.000000e+00 0.000000e+00 7.000000e-01 3.000000e-01
 0.000000e+00 0.000000e+00 0.000000e+00 0.000000e+00 0.000000e+00
<ENDHMM>
~h "ih"
<BEGINHMM>
<NUMSTATES> 5
<STATE> 2
<MEAN> 39
 -1.050895e+01 9.356773e+00 -5.875150e+00 4.048041e+00 -4.467940e+00 -7.695246e+00 3.178498e-01 -5.016291e+00 -5.711854e+00 4.181917e+00 -4.419950e+00 -4.141842e-01 6.599905e+01 2.838012e-04 3.826968e-03 1.159208e-03 8.399412e-03 1.887910e-03 5.087925e-03 3.182556e-03 3.990711e-03 3.483259e-03 1.315308e-03 1.911431e-03 1.914123e-03 -8.622221e-03 2.765584e-04 -1.071264e-04 -1.140171e-04 1.390390e-04 7.197179e-05 -1.153288e-05 8.728195e-05 2.782226e-04 9.710847e-05 3.633581e-05 9.290614e-05 5.747733e-05 4.707174e-05
<VARIANCE> 39
 9.030790e+01 6.374427e+01 9.265331e+01 9.478106e+01 9.239654e+01 1.289102e+02 8.462318e+01 8.163840e+01 7.646734e+01 5.601252e+01 5.090956e+01 4.693743e+01 7.025858e+01 2.861110e+00 2.264471e+00 2.453416e+00 2.765230e+00 2.489266e+00 3.817811e+00 2.916442e+00 3.031366e+00 2.690944e+00 2.509747e+00 2.130045e+00 1.857868e+00 1.736286e+00 3.265840e-01 3.219693e-01 3.281066e-01 4.097822e-01 3.576114e-01 5.331161e-01 4.612851e-01 4.689287e-01 4.304216e-01 4.181679e-01 3.556864e-01 3.135698e-01 2.196227e-01
<GCONST> 1.272151e+02
<STATE> 3
<MEAN> 39
 -1.050895e+01 9.356773e+00 -5.875150e+00 4.048041e+00 -4.467940e+00 -7.695246e+00 3.178498e-01 -5.016291e+00 -5.711854e+00 4.181917e+00 -4.419950e+00 -4.141842e-01 6.599905e+01 2.838012e-04 3.826968e-03 1.159208e-03 8.399412e-03 1.887910e-03 5.087925e-03 3.182556e-03 3.990711e-03 3.483259e-03 1.315308e-03 1.911431e-03 1.914123e-03 -8.622221e-03 2.765584e-04 -1.071264e-04 -1.140171e-04 1.390390e-04 7.197179e-05 -1.153288e-05 8.728195e-05 2.782226e-04 9.710847e-05 3.633581e-05 9.290614e-05 5.747733e-05 4.707174e-05
<VARIANCE> 39
 9.030790e+01 6.374427e+01 9.265331e+01 9.478106e+01 9.239654e+01 1.289102e+02 8.462318e+01 8.163840e+01 7.646734e+01 5.601252e+01 5.090956e+01 4.693743e+01 7.025858e+01 2.861110e+00 2.264471e+00 2.453416e+00 2.765230e+00 2.489266e+00 3.817811e+00 2.916442e+00 3.031366e+00 2.690944e+00 2.509747e+00 2.130045e+00 1.857868e+00 1.736286e+00 3.265840e-01 3.219693e-01 3.281066e-01 4.097822e-01 3.576114e-01 5.331161e-01 4.612851e-01 4.689287e-01 4.304216e-01 4.181679e-01 3.556864e-01 3.135698e-01 2.196227e-01
<GCONST> 1.272151e+02
<STATE> 4
<MEAN> 39
 -1.050895e+01 9.356773e+00 -5.875150e+00 4.048041e+00 -4.467940e+00 -7.695246e+00 3.178498e-01 -5.016291e+00 -5.711854e+00 4.181917e+00 -4.419950e+00 -4.141842e-01 6.599905e+01 2.838012e-04 3.826968e-03 1.159208e-03 8.399412e-03 1.887910e-03 5.087925e-03 3.182556e-03 3.990711e-03 3.483259e-03 1.315308e-03 1.911431e-03 1.914123e-03 -8.622221e-03 2.765584e-04 -1.071264e-04 -1.140171e-04 1.390390e-04 7.197179e-05 -1.153288e-05 8.728195e-05 2.782226e-04 9.710847e-05 3.633581e-05 9.290614e-05 5.747733e-05 4.707174e-05
<VARIANCE> 39
 9.030790e+01 6.374427e+01 9.265331e+01 9.478106e+01 9.239654e+01 1.289102e+02 8.462318e+01 8.163840e+01 7.646734e+01 5.601252e+01 5.090956e+01 4.693743e+01 7.025858e+01 2.861110e+00 2.264471e+00 2.453416e+00 2.765230e+00 2.489266e+00 3.817811e+00 2.916442e+00 3.031366e+00 2.690944e+00 2.509747e+00 2.130045e+00 1.857868e+00 1.736286e+00 3.265840e-01 3.219693e-01 3.281066e-01 4.097822e-01 3.576114e-01 5.331161e-01 4.612851e-01 4.689287e-01 4.304216e-01 4.181679e-01 3.556864e-01 3.135698e-01 2.196227e-01
<GCONST> 1.272151e+02
<TRANSP> 5
 0.000000e+00 1.000000e+00 0.000000e+00 0.000000e+00 0.000000e+00
 0.000000e+00 6.000000e-01 4.000000e-01 0.000000e+00 0.000000e+00
 0.000000e+00 0.000000e+00 6.000000e-01 4.000000e-01 0.000000e+00
 0.000000e+00 0.000000e+00 0.000000e+00 7.000000e-01 3.000000e-01
 0.000000e+00 0.000000e+00 0.000000e+00 0.000000e+00 0.000000e+00
<ENDHMM>
~h "iy"
<BEGINHMM>
<NUMSTATES> 5
<STATE> 2
<MEAN> 39
 -1.050895e+01 9.356773e+00 -5.875150e+00 4.048041e+00 -4.467940e+00 -7.695246e+00 3.178498e-01 -5.016291e+00 -5.711854e+00 4.181917e+00 -4.419950e+00 -4.141842e-01 6.599905e+01 2.838012e-04 3.826968e-03 1.159208e-03 8.399412e-03 1.887910e-03 5.087925e-03 3.182556e-03 3.990711e-03 3.483259e-03 1.315308e-03 1.911431e-03 1.914123e-03 -8.622221e-03 2.765584e-04 -1.071264e-04 -1.140171e-04 1.390390e-04 7.197179e-05 -1.153288e-05 8.728195e-05 2.782226e-04 9.710847e-05 3.633581e-05 9.290614e-05 5.747733e-05 4.707174e-05
<VARIANCE> 39
 9.030790e+01 6.374427e+01 9.265331e+01 9.478106e+01 9.239654e+01 1.289102e+02 8.462318e+01 8.163840e+01 7.646734e+01 5.601252e+01 5.090956e+01 4.693743e+01 7.025858e+01 2.861110e+00 2.264471e+00 2.453416e+00 2.765230e+00 2.489266e+00 3.817811e+00 2.916442e+00 3.031366e+00 2.690944e+00 2.509747e+00 2.130045e+00 1.857868e+00 1.736286e+00 3.265840e-01 3.219693e-01 3.281066e-01 4.097822e-01 3.576114e-01 5.331161e-01 4.612851e-01 4.689287e-01 4.304216e-01 4.181679e-01 3.556864e-01 3.135698e-01 2.196227e-01
<GCONST> 1.272151e+02
<STATE> 3
<MEAN> 39
 -1.050895e+01 9.356773e+00 -5.875150e+00 4.048041e+00 -4.467940e+00 -7.695246e+00 3.178498e-01 -5.016291e+00 -5.711854e+00 4.181917e+00 -4.419950e+00 -4.141842e-01 6.599905e+01 2.838012e-04 3.826968e-03 1.159208e-03 8.399412e-03 1.887910e-03 5.087925e-03 3.182556e-03 3.990711e-03 3.483259e-03 1.315308e-03 1.911431e-03 1.914123e-03 -8.622221e-03 2.765584e-04 -1.071264e-04 -1.140171e-04 1.390390e-04 7.197179e-05 -1.153288e-05 8.728195e-05 2.782226e-04 9.710847e-05 3.633581e-05 9.290614e-05 5.747733e-05 4.707174e-05
<VARIANCE> 39
 9.030790e+01 6.374427e+01 9.265331e+01 9.478106e+01 9.239654e+01 1.289102e+02 8.462318e+01 8.163840e+01 7.646734e+01 5.601252e+01 5.090956e+01 4.693743e+01 7.025858e+01 2.861110e+00 2.264471e+00 2.453416e+00 2.765230e+00 2.489266e+00 3.817811e+00 2.916442e+00 3.031366e+00 2.690944e+00 2.509747e+00 2.130045e+00 1.857868e+00 1.736286e+00 3.265840e-01 3.219693e-01 3.281066e-01 4.097822e-01 3.576114e-01 5.331161e-01 4.612851e-01 4.689287e-01 4.304216e-01 4.181679e-01 3.556864e-01 3.135698e-01 2.196227e-01
<GCONST> 1.272151e+02
<STATE> 4
<MEAN> 39
 -1.050895e+01 9.356773e+00 -5.875150e+00 4.048041e+00 -4.467940e+00 -7.695246e+00 3.178498e-01 -5.016291e+00 -5.711854e+00 4.181917e+00 -4.419950e+00 -4.141842e-01 6.599905e+01 2.838012e-04 3.826968e-03 1.159208e-03 8.399412e-03 1.887910e-03 5.087925e-03 3.182556e-03 3.990711e-03 3.483259e-03 1.315308e-03 1.911431e-03 1.914123e-03 -8.622221e-03 2.765584e-04 -1.071264e-04 -1.140171e-04 1.390390e-04 7.197179e-05 -1.153288e-05 8.728195e-05 2.782226e-04 9.710847e-05 3.633581e-05 9.290614e-05 5.747733e-05 4.707174e-05
<VARIANCE> 39
 9.030790e+01 6.374427e+01 9.265331e+01 9.478106e+01 9.239654e+01 1.289102e+02 8.462318e+01 8.163840e+01 7.646734e+01 5.601252e+01 5.090956e+01 4.693743e+01 7.025858e+01 2.861110e+00 2.264471e+00 2.453416e+00 2.765230e+00 2.489266e+00 3.817811e+00 2.916442e+00 3.031366e+00 2.690944e+00 2.509747e+00 2.130045e+00 1.857868e+00 1.736286e+00 3.265840e-01 3.219693e-01 3.281066e-01 4.097822e-01 3.576114e-01 5.331161e-01 4.612851e-01 4.689287e-01 4.304216e-01 4.181679e-01 3.556864e-01 3.135698e-01 2.196227e-01
<GCONST> 1.272151e+02
<TRANSP> 5
 0.000000e+00 1.000000e+00 0.000000e+00 0.000000e+00 0.000000e+00
 0.000000e+00 6.000000e-01 4.000000e-01 0.000000e+00 0.000000e+00
 0.000000e+00 0.000000e+00 6.000000e-01 4.000000e-01 0.000000e+00
 0.000000e+00 0.000000e+00 0.000000e+00 7.000000e-01 3.000000e-01
 0.000000e+00 0.000000e+00 0.000000e+00 0.000000e+00 0.000000e+00
<ENDHMM>
~h "y"
<BEGINHMM>
<NUMSTATES> 5
<STATE> 2
<MEAN> 39
 -1.050895e+01 9.356773e+00 -5.875150e+00 4.048041e+00 -4.467940e+00 -7.695246e+00 3.178498e-01 -5.016291e+00 -5.711854e+00 4.181917e+00 -4.419950e+00 -4.141842e-01 6.599905e+01 2.838012e-04 3.826968e-03 1.159208e-03 8.399412e-03 1.887910e-03 5.087925e-03 3.182556e-03 3.990711e-03 3.483259e-03 1.315308e-03 1.911431e-03 1.914123e-03 -8.622221e-03 2.765584e-04 -1.071264e-04 -1.140171e-04 1.390390e-04 7.197179e-05 -1.153288e-05 8.728195e-05 2.782226e-04 9.710847e-05 3.633581e-05 9.290614e-05 5.747733e-05 4.707174e-05
<VARIANCE> 39
 9.030790e+01 6.374427e+01 9.265331e+01 9.478106e+01 9.239654e+01 1.289102e+02 8.462318e+01 8.163840e+01 7.646734e+01 5.601252e+01 5.090956e+01 4.693743e+01 7.025858e+01 2.861110e+00 2.264471e+00 2.453416e+00 2.765230e+00 2.489266e+00 3.817811e+00 2.916442e+00 3.031366e+00 2.690944e+00 2.509747e+00 2.130045e+00 1.857868e+00 1.736286e+00 3.265840e-01 3.219693e-01 3.281066e-01 4.097822e-01 3.576114e-01 5.331161e-01 4.612851e-01 4.689287e-01 4.304216e-01 4.181679e-01 3.556864e-01 3.135698e-01 2.196227e-01
<GCONST> 1.272151e+02
<STATE> 3
<MEAN> 39
 -1.050895e+01 9.356773e+00 -5.875150e+00 4.048041e+00 -4.467940e+00 -7.695246e+00 3.178498e-01 -5.016291e+00 -5.711854e+00 4.181917e+00 -4.419950e+00 -4.141842e-01 6.599905e+01 2.838012e-04 3.826968e-03 1.159208e-03 8.399412e-03 1.887910e-03 5.087925e-03 3.182556e-03 3.990711e-03 3.483259e-03 1.315308e-03 1.911431e-03 1.914123e-03 -8.622221e-03 2.765584e-04 -1.071264e-04 -1.140171e-04 1.390390e-04 7.197179e-05 -1.153288e-05 8.728195e-05 2.782226e-04 9.710847e-05 3.633581e-05 9.290614e-05 5.747733e-05 4.707174e-05
<VARIANCE> 39
 9.030790e+01 6.374427e+01 9.265331e+01 9.478106e+01 9.239654e+01 1.289102e+02 8.462318e+01 8.163840e+01 7.646734e+01 5.601252e+01 5.090956e+01 4.693743e+01 7.025858e+01 2.861110e+00 2.264471e+00 2.453416e+00 2.765230e+00 2.489266e+00 3.817811e+00 2.916442e+00 3.031366e+00 2.690944e+00 2.509747e+00 2.130045e+00 1.857868e+00 1.736286e+00 3.265840e-01 3.219693e-01 3.281066e-01 4.097822e-01 3.576114e-01 5.331161e-01 4.612851e-01 4.689287e-01 4.304216e-01 4.181679e-01 3.556864e-01 3.135698e-01 2.196227e-01
<GCONST> 1.272151e+02
<STATE> 4
<MEAN> 39
 -1.050895e+01 9.356773e+00 -5.875150e+00 4.048041e+00 -4.467940e+00 -7.695246e+00 3.178498e-01 -5.016291e+00 -5.711854e+00 4.181917e+00 -4.419950e+00 -4.141842e-01 6.599905e+01 2.838012e-04 3.826968e-03 1.159208e-03 8.399412e-03 1.887910e-03 5.087925e-03 3.182556e-03 3.990711e-03 3.483259e-03 1.315308e-03 1.911431e-03 1.914123e-03 -8.622221e-03 2.765584e-04 -1.071264e-04 -1.140171e-04 1.390390e-04 7.197179e-05 -1.153288e-05 8.728195e-05 2.782226e-04 9.710847e-05 3.633581e-05 9.290614e-05 5.747733e-05 4.707174e-05
<VARIANCE> 39
 9.030790e+01 6.374427e+01 9.265331e+01 9.478106e+01 9.239654e+01 1.289102e+02 8.462318e+01 8.163840e+01 7.646734e+01 5.601252e+01 5.090956e+01 4.693743e+01 7.025858e+01 2.861110e+00 2.264471e+00 2.453416e+00 2.765230e+00 2.489266e+00 3.817811e+00 2.916442e+00 3.031366e+00 2.690944e+00 2.509747e+00 2.130045e+00 1.857868e+00 1.736286e+00 3.265840e-01 3.219693e-01 3.281066e-01 4.097822e-01 3.576114e-01 5.331161e-01 4.612851e-01 4.689287e-01 4.304216e-01 4.181679e-01 3.556864e-01 3.135698e-01 2.196227e-01
<GCONST> 1.272151e+02
<TRANSP> 5
 0.000000e+00 1.000000e+00 0.000000e+00 0.000000e+00 0.000000e+00
 0.000000e+00 6.000000e-01 4.000000e-01 0.000000e+00 0.000000e+00
 0.000000e+00 0.000000e+00 6.000000e-01 4.000000e-01 0.000000e+00
 0.000000e+00 0.000000e+00 0.000000e+00 7.000000e-01 3.000000e-01
 0.000000e+00 0.000000e+00 0.000000e+00 0.000000e+00 0.000000e+00
<ENDHMM>
~h "uw"
<BEGINHMM>
<NUMSTATES> 5
<STATE> 2
<MEAN> 39
 -1.050895e+01 9.356773e+00 -5.875150e+00 4.048041e+00 -4.467940e+00 -7.695246e+00 3.178498e-01 -5.016291e+00 -5.711854e+00 4.181917e+00 -4.419950e+00 -4.141842e-01 6.599905e+01 2.838012e-04 3.826968e-03 1.159208e-03 8.399412e-03 1.887910e-03 5.087925e-03 3.182556e-03 3.990711e-03 3.483259e-03 1.315308e-03 1.911431e-03 1.914123e-03 -8.622221e-03 2.765584e-04 -1.071264e-04 -1.140171e-04 1.390390e-04 7.197179e-05 -1.153288e-05 8.728195e-05 2.782226e-04 9.710847e-05 3.633581e-05 9.290614e-05 5.747733e-05 4.707174e-05
<VARIANCE> 39
 9.030790e+01 6.374427e+01 9.265331e+01 9.478106e+01 9.239654e+01 1.289102e+02 8.462318e+01 8.163840e+01 7.646734e+01 5.601252e+01 5.090956e+01 4.693743e+01 7.025858e+01 2.861110e+00 2.264471e+00 2.453416e+00 2.765230e+00 2.489266e+00 3.817811e+00 2.916442e+00 3.031366e+00 2.690944e+00 2.509747e+00 2.130045e+00 1.857868e+00 1.736286e+00 3.265840e-01 3.219693e-01 3.281066e-01 4.097822e-01 3.576114e-01 5.331161e-01 4.612851e-01 4.689287e-01 4.304216e-01 4.181679e-01 3.556864e-01 3.135698e-01 2.196227e-01
<GCONST> 1.272151e+02
<STATE> 3
<MEAN> 39
 -1.050895e+01 9.356773e+00 -5.875150e+00 4.048041e+00 -4.467940e+00 -7.695246e+00 3.178498e-01 -5.016291e+00 -5.711854e+00 4.181917e+00 -4.419950e+00 -4.141842e-01 6.599905e+01 2.838012e-04 3.826968e-03 1.159208e-03 8.399412e-03 1.887910e-03 5.087925e-03 3.182556e-03 3.990711e-03 3.483259e-03 1.315308e-03 1.911431e-03 1.914123e-03 -8.622221e-03 2.765584e-04 -1.071264e-04 -1.140171e-04 1.390390e-04 7.197179e-05 -1.153288e-05 8.728195e-05 2.782226e-04 9.710847e-05 3.633581e-05 9.290614e-05 5.747733e-05 4.707174e-05
<VARIANCE> 39
 9.030790e+01 6.374427e+01 9.265331e+01 9.478106e+01 9.239654e+01 1.289102e+02 8.462318e+01 8.163840e+01 7.646734e+01 5.601252e+01 5.090956e+01 4.693743e+01 7.025858e+01 2.861110e+00 2.264471e+00 2.453416e+00 2.765230e+00 2.489266e+00 3.817811e+00 2.916442e+00 3.031366e+00 2.690944e+00 2.509747e+00 2.130045e+00 1.857868e+00 1.736286e+00 3.265840e-01 3.219693e-01 3.281066e-01 4.097822e-01 3.576114e-01 5.331161e-01 4.612851e-01 4.689287e-01 4.304216e-01 4.181679e-01 3.556864e-01 3.135698e-01 2.196227e-01
<GCONST> 1.272151e+02
<STATE> 4
<MEAN> 39
 -1.050895e+01 9.356773e+00 -5.875150e+00 4.048041e+00 -4.467940e+00 -7.695246e+00 3.178498e-01 -5.016291e+00 -5.711854e+00 4.181917e+00 -4.419950e+00 -4.141842e-01 6.599905e+01 2.838012e-04 3.826968e-03 1.159208e-03 8.399412e-03 1.887910e-03 5.087925e-03 3.182556e-03 3.990711e-03 3.483259e-03 1.315308e-03 1.911431e-03 1.914123e-03 -8.622221e-03 2.765584e-04 -1.071264e-04 -1.140171e-04 1.390390e-04 7.197179e-05 -1.153288e-05 8.728195e-05 2.782226e-04 9.710847e-05 3.633581e-05 9.290614e-05 5.747733e-05 4.707174e-05
<VARIANCE> 39
 9.030790e+01 6.374427e+01 9.265331e+01 9.478106e+01 9.239654e+01 1.289102e+02 8.462318e+01 8.163840e+01 7.646734e+01 5.601252e+01 5.090956e+01 4.693743e+01 7.025858e+01 2.861110e+00 2.264471e+00 2.453416e+00 2.765230e+00 2.489266e+00 3.817811e+00 2.916442e+00 3.031366e+00 2.690944e+00 2.509747e+00 2.130045e+00 1.857868e+00 1.736286e+00 3.265840e-01 3.219693e-01 3.281066e-01 4.097822e-01 3.576114e-01 5.331161e-01 4.612851e-01 4.689287e-01 4.304216e-01 4.181679e-01 3.556864e-01 3.135698e-01 2.196227e-01
<GCONST> 1.272151e+02
<TRANSP> 5
 0.000000e+00 1.000000e+00 0.000000e+00 0.000000e+00 0.000000e+00
 0.000000e+00 6.000000e-01 4.000000e-01 0.000000e+00 0.000000e+00
 0.000000e+00 0.000000e+00 6.000000e-01 4.000000e-01 0.000000e+00
 0.000000e+00 0.000000e+00 0.000000e+00 7.000000e-01 3.000000e-01
 0.000000e+00 0.000000e+00 0.000000e+00 0.000000e+00 0.000000e+00
<ENDHMM>
~h "m"
<BEGINHMM>
<NUMSTATES> 5
<STATE> 2
<MEAN> 39
 -1.050895e+01 9.356773e+00 -5.875150e+00 4.048041e+00 -4.467940e+00 -7.695246e+00 3.178498e-01 -5.016291e+00 -5.711854e+00 4.181917e+00 -4.419950e+00 -4.141842e-01 6.599905e+01 2.838012e-04 3.826968e-03 1.159208e-03 8.399412e-03 1.887910e-03 5.087925e-03 3.182556e-03 3.990711e-03 3.483259e-03 1.315308e-03 1.911431e-03 1.914123e-03 -8.622221e-03 2.765584e-04 -1.071264e-04 -1.140171e-04 1.390390e-04 7.197179e-05 -1.153288e-05 8.728195e-05 2.782226e-04 9.710847e-05 3.633581e-05 9.290614e-05 5.747733e-05 4.707174e-05
<VARIANCE> 39
 9.030790e+01 6.374427e+01 9.265331e+01 9.478106e+01 9.239654e+01 1.289102e+02 8.462318e+01 8.163840e+01 7.646734e+01 5.601252e+01 5.090956e+01 4.693743e+01 7.025858e+01 2.861110e+00 2.264471e+00 2.453416e+00 2.765230e+00 2.489266e+00 3.817811e+00 2.916442e+00 3.031366e+00 2.690944e+00 2.509747e+00 2.130045e+00 1.857868e+00 1.736286e+00 3.265840e-01 3.219693e-01 3.281066e-01 4.097822e-01 3.576114e-01 5.331161e-01 4.612851e-01 4.689287e-01 4.304216e-01 4.181679e-01 3.556864e-01 3.135698e-01 2.196227e-01
<GCONST> 1.272151e+02
<STATE> 3
<MEAN> 39
 -1.050895e+01 9.356773e+00 -5.875150e+00 4.048041e+00 -4.467940e+00 -7.695246e+00 3.178498e-01 -5.016291e+00 -5.711854e+00 4.181917e+00 -4.419950e+00 -4.141842e-01 6.599905e+01 2.838012e-04 3.826968e-03 1.159208e-03 8.399412e-03 1.887910e-03 5.087925e-03 3.182556e-03 3.990711e-03 3.483259e-03 1.315308e-03 1.911431e-03 1.914123e-03 -8.622221e-03 2.765584e-04 -1.071264e-04 -1.140171e-04 1.390390e-04 7.197179e-05 -1.153288e-05 8.728195e-05 2.782226e-04 9.710847e-05 3.633581e-05 9.290614e-05 5.747733e-05 4.707174e-05
<VARIANCE> 39
 9.030790e+01 6.374427e+01 9.265331e+01 9.478106e+01 9.239654e+01 1.289102e+02 8.462318e+01 8.163840e+01 7.646734e+01 5.601252e+01 5.090956e+01 4.693743e+01 7.025858e+01 2.861110e+00 2.264471e+00 2.453416e+00 2.765230e+00 2.489266e+00 3.817811e+00 2.916442e+00 3.031366e+00 2.690944e+00 2.509747e+00 2.130045e+00 1.857868e+00 1.736286e+00 3.265840e-01 3.219693e-01 3.281066e-01 4.097822e-01 3.576114e-01 5.331161e-01 4.612851e-01 4.689287e-01 4.304216e-01 4.181679e-01 3.556864e-01 3.135698e-01 2.196227e-01
<GCONST> 1.272151e+02
<STATE> 4
<MEAN> 39
 -1.050895e+01 9.356773e+00 -5.875150e+00 4.048041e+00 -4.467940e+00 -7.695246e+00 3.178498e-01 -5.016291e+00 -5.711854e+00 4.181917e+00 -4.419950e+00 -4.141842e-01 6.599905e+01 2.838012e-04 3.826968e-03 1.159208e-03 8.399412e-03 1.887910e-03 5.087925e-03 3.182556e-03 3.990711e-03 3.483259e-03 1.315308e-03 1.911431e-03 1.914123e-03 -8.622221e-03 2.765584e-04 -1.071264e-04 -1.140171e-04 1.390390e-04 7.197179e-05 -1.153288e-05 8.728195e-05 2.782226e-04 9.710847e-05 3.633581e-05 9.290614e-05 5.747733e-05 4.707174e-05
<VARIANCE> 39
 9.030790e+01 6.374427e+01 9.265331e+01 9.478106e+01 9.239654e+01 1.289102e+02 8.462318e+01 8.163840e+01 7.646734e+01 5.601252e+01 5.090956e+01 4.693743e+01 7.025858e+01 2.861110e+00 2.264471e+00 2.453416e+00 2.765230e+00 2.489266e+00 3.817811e+00 2.916442e+00 3.031366e+00 2.690944e+00 2.509747e+00 2.130045e+00 1.857868e+00 1.736286e+00 3.265840e-01 3.219693e-01 3.281066e-01 4.097822e-01 3.576114e-01 5.331161e-01 4.612851e-01 4.689287e-01 4.304216e-01 4.181679e-01 3.556864e-01 3.135698e-01 2.196227e-01
<GCONST> 1.272151e+02
<TRANSP> 5
 0.000000e+00 1.000000e+00 0.000000e+00 0.000000e+00 0.000000e+00
 0.000000e+00 6.000000e-01 4.000000e-01 0.000000e+00 0.000000e+00
 0.000000e+00 0.000000e+00 6.000000e-01 4.000000e-01 0.000000e+00
 0.000000e+00 0.000000e+00 0.000000e+00 7.000000e-01 3.000000e-01
 0.000000e+00 0.000000e+00 0.000000e+00 0.000000e+00 0.000000e+00
<ENDHMM>
~h "f"
<BEGINHMM>
<NUMSTATES> 5
<STATE> 2
<MEAN> 39
 -1.050895e+01 9.356773e+00 -5.875150e+00 4.048041e+00 -4.467940e+00 -7.695246e+00 3.178498e-01 -5.016291e+00 -5.711854e+00 4.181917e+00 -4.419950e+00 -4.141842e-01 6.599905e+01 2.838012e-04 3.826968e-03 1.159208e-03 8.399412e-03 1.887910e-03 5.087925e-03 3.182556e-03 3.990711e-03 3.483259e-03 1.315308e-03 1.911431e-03 1.914123e-03 -8.622221e-03 2.765584e-04 -1.071264e-04 -1.140171e-04 1.390390e-04 7.197179e-05 -1.153288e-05 8.728195e-05 2.782226e-04 9.710847e-05 3.633581e-05 9.290614e-05 5.747733e-05 4.707174e-05
<VARIANCE> 39
 9.030790e+01 6.374427e+01 9.265331e+01 9.478106e+01 9.239654e+01 1.289102e+02 8.462318e+01 8.163840e+01 7.646734e+01 5.601252e+01 5.090956e+01 4.693743e+01 7.025858e+01 2.861110e+00 2.264471e+00 2.453416e+00 2.765230e+00 2.489266e+00 3.817811e+00 2.916442e+00 3.031366e+00 2.690944e+00 2.509747e+00 2.130045e+00 1.857868e+00 1.736286e+00 3.265840e-01 3.219693e-01 3.281066e-01 4.097822e-01 3.576114e-01 5.331161e-01 4.612851e-01 4.689287e-01 4.304216e-01 4.181679e-01 3.556864e-01 3.135698e-01 2.196227e-01
<GCONST> 1.272151e+02
<STATE> 3
<MEAN> 39
 -1.050895e+01 9.356773e+00 -5.875150e+00 4.048041e+00 -4.467940e+00 -7.695246e+00 3.178498e-01 -5.016291e+00 -5.711854e+00 4.181917e+00 -4.419950e+00 -4.141842e-01 6.599905e+01 2.838012e-04 3.826968e-03 1.159208e-03 8.399412e-03 1.887910e-03 5.087925e-03 3.182556e-03 3.990711e-03 3.483259e-03 1.315308e-03 1.911431e-03 1.914123e-03 -8.622221e-03 2.765584e-04 -1.071264e-04 -1.140171e-04 1.390390e-04 7.197179e-05 -1.153288e-05 8.728195e-05 2.782226e-04 9.710847e-05 3.633581e-05 9.290614e-05 5.747733e-05 4.707174e-05
<VARIANCE> 39
 9.030790e+01 6.374427e+01 9.265331e+01 9.478106e+01 9.239654e+01 1.289102e+02 8.462318e+01 8.163840e+01 7.646734e+01 5.601252e+01 5.090956e+01 4.693743e+01 7.025858e+01 2.861110e+00 2.264471e+00 2.453416e+00 2.765230e+00 2.489266e+00 3.817811e+00 2.916442e+00 3.031366e+00 2.690944e+00 2.509747e+00 2.130045e+00 1.857868e+00 1.736286e+00 3.265840e-01 3.219693e-01 3.281066e-01 4.097822e-01 3.576114e-01 5.331161e-01 4.612851e-01 4.689287e-01 4.304216e-01 4.181679e-01 3.556864e-01 3.135698e-01 2.196227e-01
<GCONST> 1.272151e+02
<STATE> 4
<MEAN> 39
 -1.050895e+01 9.356773e+00 -5.875150e+00 4.048041e+00 -4.467940e+00 -7.695246e+00 3.178498e-01 -5.016291e+00 -5.711854e+00 4.181917e+00 -4.419950e+00 -4.141842e-01 6.599905e+01 2.838012e-04 3.826968e-03 1.159208e-03 8.399412e-03 1.887910e-03 5.087925e-03 3.182556e-03 3.990711e-03 3.483259e-03 1.315308e-03 1.911431e-03 1.914123e-03 -8.622221e-03 2.765584e-04 -1.071264e-04 -1.140171e-04 1.390390e-04 7.197179e-05 -1.153288e-05 8.728195e-05 2.782226e-04 9.710847e-05 3.633581e-05 9.290614e-05 5.747733e-05 4.707174e-05
<VARIANCE> 39
 9.030790e+01 6.374427e+01 9.265331e+01 9.478106e+01 9.239654e+01 1.289102e+02 8.462318e+01 8.163840e+01 7.646734e+01 5.601252e+01 5.090956e+01 4.693743e+01 7.025858e+01 2.861110e+00 2.264471e+00 2.453416e+00 2.765230e+00 2.489266e+00 3.817811e+00 2.916442e+00 3.031366e+00 2.690944e+00 2.509747e+00 2.130045e+00 1.857868e+00 1.736286e+00 3.265840e-01 3.219693e-01 3.281066e-01 4.097822e-01 3.576114e-01 5.331161e-01 4.612851e-01 4.689287e-01 4.304216e-01 4.181679e-01 3.556864e-01 3.135698e-01 2.196227e-01
<GCONST> 1.272151e+02
<TRANSP> 5
 0.000000e+00 1.000000e+00 0.000000e+00 0.000000e+00 0.000000e+00
 0.000000e+00 6.000000e-01 4.000000e-01 0.000000e+00 0.000000e+00
 0.000000e+00 0.000000e+00 6.000000e-01 4.000000e-01 0.000000e+00
 0.000000e+00 0.000000e+00 0.000000e+00 7.000000e-01 3.000000e-01
 0.000000e+00 0.000000e+00 0.000000e+00 0.000000e+00 0.000000e+00
<ENDHMM>
~h "ey"
<BEGINHMM>
<NUMSTATES> 5
<STATE> 2
<MEAN> 39
 -1.050895e+01 9.356773e+00 -5.875150e+00 4.048041e+00 -4.467940e+00 -7.695246e+00 3.178498e-01 -5.016291e+00 -5.711854e+00 4.181917e+00 -4.419950e+00 -4.141842e-01 6.599905e+01 2.838012e-04 3.826968e-03 1.159208e-03 8.399412e-03 1.887910e-03 5.087925e-03 3.182556e-03 3.990711e-03 3.483259e-03 1.315308e-03 1.911431e-03 1.914123e-03 -8.622221e-03 2.765584e-04 -1.071264e-04 -1.140171e-04 1.390390e-04 7.197179e-05 -1.153288e-05 8.728195e-05 2.782226e-04 9.710847e-05 3.633581e-05 9.290614e-05 5.747733e-05 4.707174e-05
<VARIANCE> 39
 9.030790e+01 6.374427e+01 9.265331e+01 9.478106e+01 9.239654e+01 1.289102e+02 8.462318e+01 8.163840e+01 7.646734e+01 5.601252e+01 5.090956e+01 4.693743e+01 7.025858e+01 2.861110e+00 2.264471e+00 2.453416e+00 2.765230e+00 2.489266e+00 3.817811e+00 2.916442e+00 3.031366e+00 2.690944e+00 2.509747e+00 2.130045e+00 1.857868e+00 1.736286e+00 3.265840e-01 3.219693e-01 3.281066e-01 4.097822e-01 3.576114e-01 5.331161e-01 4.612851e-01 4.689287e-01 4.304216e-01 4.181679e-01 3.556864e-01 3.135698e-01 2.196227e-01
<GCONST> 1.272151e+02
<STATE> 3
<MEAN> 39
 -1.050895e+01 9.356773e+00 -5.875150e+00 4.048041e+00 -4.467940e+00 -7.695246e+00 3.178498e-01 -5.016291e+00 -5.711854e+00 4.181917e+00 -4.419950e+00 -4.141842e-01 6.599905e+01 2.838012e-04 3.826968e-03 1.159208e-03 8.399412e-03 1.887910e-03 5.087925e-03 3.182556e-03 3.990711e-03 3.483259e-03 1.315308e-03 1.911431e-03 1.914123e-03 -8.622221e-03 2.765584e-04 -1.071264e-04 -1.140171e-04 1.390390e-04 7.197179e-05 -1.153288e-05 8.728195e-05 2.782226e-04 9.710847e-05 3.633581e-05 9.290614e-05 5.747733e-05 4.707174e-05
<VARIANCE> 39
 9.030790e+01 6.374427e+01 9.265331e+01 9.478106e+01 9.239654e+01 1.289102e+02 8.462318e+01 8.163840e+01 7.646734e+01 5.601252e+01 5.090956e+01 4.693743e+01 7.025858e+01 2.861110e+00 2.264471e+00 2.453416e+00 2.765230e+00 2.489266e+00 3.817811e+00 2.916442e+00 3.031366e+00 2.690944e+00 2.509747e+00 2.130045e+00 1.857868e+00 1.736286e+00 3.265840e-01 3.219693e-01 3.281066e-01 4.097822e-01 3.576114e-01 5.331161e-01 4.612851e-01 4.689287e-01 4.304216e-01 4.181679e-01 3.556864e-01 3.135698e-01 2.196227e-01
<GCONST> 1.272151e+02
<STATE> 4
<MEAN> 39
 -1.050895e+01 9.356773e+00 -5.875150e+00 4.048041e+00 -4.467940e+00 -7.695246e+00 3.178498e-01 -5.016291e+00 -5.711854e+00 4.181917e+00 -4.419950e+00 -4.141842e-01 6.599905e+01 2.838012e-04 3.826968e-03 1.159208e-03 8.399412e-03 1.887910e-03 5.087925e-03 3.182556e-03 3.990711e-03 3.483259e-03 1.315308e-03 1.911431e-03 1.914123e-03 -8.622221e-03 2.765584e-04 -1.071264e-04 -1.140171e-04 1.390390e-04 7.197179e-05 -1.153288e-05 8.728195e-05 2.782226e-04 9.710847e-05 3.633581e-05 9.290614e-05 5.747733e-05 4.707174e-05
<VARIANCE> 39
 9.030790e+01 6.374427e+01 9.265331e+01 9.478106e+01 9.239654e+01 1.289102e+02 8.462318e+01 8.163840e+01 7.646734e+01 5.601252e+01 5.090956e+01 4.693743e+01 7.025858e+01 2.861110e+00 2.264471e+00 2.453416e+00 2.765230e+00 2.489266e+00 3.817811e+00 2.916442e+00 3.031366e+00 2.690944e+00 2.509747e+00 2.130045e+00 1.857868e+00 1.736286e+00 3.265840e-01 3.219693e-01 3.281066e-01 4.097822e-01 3.576114e-01 5.331161e-01 4.612851e-01 4.689287e-01 4.304216e-01 4.181679e-01 3.556864e-01 3.135698e-01 2.196227e-01
<GCONST> 1.272151e+02
<TRANSP> 5
 0.000000e+00 1.000000e+00 0.000000e+00 0.000000e+00 0.000000e+00
 0.000000e+00 6.000000e-01 4.000000e-01 0.000000e+00 0.000000e+00
 0.000000e+00 0.000000e+00 6.000000e-01 4.000000e-01 0.000000e+00
 0.000000e+00 0.000000e+00 0.000000e+00 7.000000e-01 3.000000e-01
 0.000000e+00 0.000000e+00 0.000000e+00 0.000000e+00 0.000000e+00
<ENDHMM>
~h "jh"
<BEGINHMM>
<NUMSTATES> 5
<STATE> 2
<MEAN> 39
 -1.050895e+01 9.356773e+00 -5.875150e+00 4.048041e+00 -4.467940e+00 -7.695246e+00 3.178498e-01 -5.016291e+00 -5.711854e+00 4.181917e+00 -4.419950e+00 -4.141842e-01 6.599905e+01 2.838012e-04 3.826968e-03 1.159208e-03 8.399412e-03 1.887910e-03 5.087925e-03 3.182556e-03 3.990711e-03 3.483259e-03 1.315308e-03 1.911431e-03 1.914123e-03 -8.622221e-03 2.765584e-04 -1.071264e-04 -1.140171e-04 1.390390e-04 7.197179e-05 -1.153288e-05 8.728195e-05 2.782226e-04 9.710847e-05 3.633581e-05 9.290614e-05 5.747733e-05 4.707174e-05
<VARIANCE> 39
 9.030790e+01 6.374427e+01 9.265331e+01 9.478106e+01 9.239654e+01 1.289102e+02 8.462318e+01 8.163840e+01 7.646734e+01 5.601252e+01 5.090956e+01 4.693743e+01 7.025858e+01 2.861110e+00 2.264471e+00 2.453416e+00 2.765230e+00 2.489266e+00 3.817811e+00 2.916442e+00 3.031366e+00 2.690944e+00 2.509747e+00 2.130045e+00 1.857868e+00 1.736286e+00 3.265840e-01 3.219693e-01 3.281066e-01 4.097822e-01 3.576114e-01 5.331161e-01 4.612851e-01 4.689287e-01 4.304216e-01 4.181679e-01 3.556864e-01 3.135698e-01 2.196227e-01
<GCONST> 1.272151e+02
<STATE> 3
<MEAN> 39
 -1.050895e+01 9.356773e+00 -5.875150e+00 4.048041e+00 -4.467940e+00 -7.695246e+00 3.178498e-01 -5.016291e+00 -5.711854e+00 4.181917e+00 -4.419950e+00 -4.141842e-01 6.599905e+01 2.838012e-04 3.826968e-03 1.159208e-03 8.399412e-03 1.887910e-03 5.087925e-03 3.182556e-03 3.990711e-03 3.483259e-03 1.315308e-03 1.911431e-03 1.914123e-03 -8.622221e-03 2.765584e-04 -1.071264e-04 -1.140171e-04 1.390390e-04 7.197179e-05 -1.153288e-05 8.728195e-05 2.782226e-04 9.710847e-05 3.633581e-05 9.290614e-05 5.747733e-05 4.707174e-05
<VARIANCE> 39
 9.030790e+01 6.374427e+01 9.265331e+01 9.478106e+01 9.239654e+01 1.289102e+02 8.462318e+01 8.163840e+01 7.646734e+01 5.601252e+01 5.090956e+01 4.693743e+01 7.025858e+01 2.861110e+00 2.264471e+00 2.453416e+00 2.765230e+00 2.489266e+00 3.817811e+00 2.916442e+00 3.031366e+00 2.690944e+00 2.509747e+00 2.130045e+00 1.857868e+00 1.736286e+00 3.265840e-01 3.219693e-01 3.281066e-01 4.097822e-01 3.576114e-01 5.331161e-01 4.612851e-01 4.689287e-01 4.304216e-01 4.181679e-01 3.556864e-01 3.135698e-01 2.196227e-01
<GCONST> 1.272151e+02
<STATE> 4
<MEAN> 39
 -1.050895e+01 9.356773e+00 -5.875150e+00 4.048041e+00 -4.467940e+00 -7.695246e+00 3.178498e-01 -5.016291e+00 -5.711854e+00 4.181917e+00 -4.419950e+00 -4.141842e-01 6.599905e+01 2.838012e-04 3.826968e-03 1.159208e-03 8.399412e-03 1.887910e-03 5.087925e-03 3.182556e-03 3.990711e-03 3.483259e-03 1.315308e-03 1.911431e-03 1.914123e-03 -8.622221e-03 2.765584e-04 -1.071264e-04 -1.140171e-04 1.390390e-04 7.197179e-05 -1.153288e-05 8.728195e-05 2.782226e-04 9.710847e-05 3.633581e-05 9.290614e-05 5.747733e-05 4.707174e-05
<VARIANCE> 39
 9.030790e+01 6.374427e+01 9.265331e+01 9.478106e+01 9.239654e+01 1.289102e+02 8.462318e+01 8.163840e+01 7.646734e+01 5.601252e+01 5.090956e+01 4.693743e+01 7.025858e+01 2.861110e+00 2.264471e+00 2.453416e+00 2.765230e+00 2.489266e+00 3.817811e+00 2.916442e+00 3.031366e+00 2.690944e+00 2.509747e+00 2.130045e+00 1.857868e+00 1.736286e+00 3.265840e-01 3.219693e-01 3.281066e-01 4.097822e-01 3.576114e-01 5.331161e-01 4.612851e-01 4.689287e-01 4.304216e-01 4.181679e-01 3.556864e-01 3.135698e-01 2.196227e-01
<GCONST> 1.272151e+02
<TRANSP> 5
 0.000000e+00 1.000000e+00 0.000000e+00 0.000000e+00 0.000000e+00
 0.000000e+00 6.000000e-01 4.000000e-01 0.000000e+00 0.000000e+00
 0.000000e+00 0.000000e+00 6.000000e-01 4.000000e-01 0.000000e+00
 0.000000e+00 0.000000e+00 0.000000e+00 7.000000e-01 3.000000e-01
 0.000000e+00 0.000000e+00 0.000000e+00 0.000000e+00 0.000000e+00
<ENDHMM>
~h "s"
<BEGINHMM>
<NUMSTATES> 5
<STATE> 2
<MEAN> 39
 -1.050895e+01 9.356773e+00 -5.875150e+00 4.048041e+00 -4.467940e+00 -7.695246e+00 3.178498e-01 -5.016291e+00 -5.711854e+00 4.181917e+00 -4.419950e+00 -4.141842e-01 6.599905e+01 2.838012e-04 3.826968e-03 1.159208e-03 8.399412e-03 1.887910e-03 5.087925e-03 3.182556e-03 3.990711e-03 3.483259e-03 1.315308e-03 1.911431e-03 1.914123e-03 -8.622221e-03 2.765584e-04 -1.071264e-04 -1.140171e-04 1.390390e-04 7.197179e-05 -1.153288e-05 8.728195e-05 2.782226e-04 9.710847e-05 3.633581e-05 9.290614e-05 5.747733e-05 4.707174e-05
<VARIANCE> 39
 9.030790e+01 6.374427e+01 9.265331e+01 9.478106e+01 9.239654e+01 1.289102e+02 8.462318e+01 8.163840e+01 7.646734e+01 5.601252e+01 5.090956e+01 4.693743e+01 7.025858e+01 2.861110e+00 2.264471e+00 2.453416e+00 2.765230e+00 2.489266e+00 3.817811e+00 2.916442e+00 3.031366e+00 2.690944e+00 2.509747e+00 2.130045e+00 1.857868e+00 1.736286e+00 3.265840e-01 3.219693e-01 3.281066e-01 4.097822e-01 3.576114e-01 5.331161e-01 4.612851e-01 4.689287e-01 4.304216e-01 4.181679e-01 3.556864e-01 3.135698e-01 2.196227e-01
<GCONST> 1.272151e+02
<STATE> 3
<MEAN> 39
 -1.050895e+01 9.356773e+00 -5.875150e+00 4.048041e+00 -4.467940e+00 -7.695246e+00 3.178498e-01 -5.016291e+00 -5.711854e+00 4.181917e+00 -4.419950e+00 -4.141842e-01 6.599905e+01 2.838012e-04 3.826968e-03 1.159208e-03 8.399412e-03 1.887910e-03 5.087925e-03 3.182556e-03 3.990711e-03 3.483259e-03 1.315308e-03 1.911431e-03 1.914123e-03 -8.622221e-03 2.765584e-04 -1.071264e-04 -1.140171e-04 1.390390e-04 7.197179e-05 -1.153288e-05 8.728195e-05 2.782226e-04 9.710847e-05 3.633581e-05 9.290614e-05 5.747733e-05 4.707174e-05
<VARIANCE> 39
 9.030790e+01 6.374427e+01 9.265331e+01 9.478106e+01 9.239654e+01 1.289102e+02 8.462318e+01 8.163840e+01 7.646734e+01 5.601252e+01 5.090956e+01 4.693743e+01 7.025858e+01 2.861110e+00 2.264471e+00 2.453416e+00 2.765230e+00 2.489266e+00 3.817811e+00 2.916442e+00 3.031366e+00 2.690944e+00 2.509747e+00 2.130045e+00 1.857868e+00 1.736286e+00 3.265840e-01 3.219693e-01 3.281066e-01 4.097822e-01 3.576114e-01 5.331161e-01 4.612851e-01 4.689287e-01 4.304216e-01 4.181679e-01 3.556864e-01 3.135698e-01 2.196227e-01
<GCONST> 1.272151e+02
<STATE> 4
<MEAN> 39
 -1.050895e+01 9.356773e+00 -5.875150e+00 4.048041e+00 -4.467940e+00 -7.695246e+00 3.178498e-01 -5.016291e+00 -5.711854e+00 4.181917e+00 -4.419950e+00 -4.141842e-01 6.599905e+01 2.838012e-04 3.826968e-03 1.159208e-03 8.399412e-03 1.887910e-03 5.087925e-03 3.182556e-03 3.990711e-03 3.483259e-03 1.315308e-03 1.911431e-03 1.914123e-03 -8.622221e-03 2.765584e-04 -1.071264e-04 -1.140171e-04 1.390390e-04 7.197179e-05 -1.153288e-05 8.728195e-05 2.782226e-04 9.710847e-05 3.633581e-05 9.290614e-05 5.747733e-05 4.707174e-05
<VARIANCE> 39
 9.030790e+01 6.374427e+01 9.265331e+01 9.478106e+01 9.239654e+01 1.289102e+02 8.462318e+01 8.163840e+01 7.646734e+01 5.601252e+01 5.090956e+01 4.693743e+01 7.025858e+01 2.861110e+00 2.264471e+00 2.453416e+00 2.765230e+00 2.489266e+00 3.817811e+00 2.916442e+00 3.031366e+00 2.690944e+00 2.509747e+00 2.130045e+00 1.857868e+00 1.736286e+00 3.265840e-01 3.219693e-01 3.281066e-01 4.097822e-01 3.576114e-01 5.331161e-01 4.612851e-01 4.689287e-01 4.304216e-01 4.181679e-01 3.556864e-01 3.135698e-01 2.196227e-01
<GCONST> 1.272151e+02
<TRANSP> 5
 0.000000e+00 1.000000e+00 0.000000e+00 0.000000e+00 0.000000e+00
 0.000000e+00 6.000000e-01 4.000000e-01 0.000000e+00 0.000000e+00
 0.000000e+00 0.000000e+00 6.000000e-01 4.000000e-01 0.000000e+00
 0.000000e+00 0.000000e+00 0.000000e+00 7.000000e-01 3.000000e-01
 0.000000e+00 0.000000e+00 0.000000e+00 0.000000e+00 0.000000e+00
<ENDHMM>
~h "ah"
<BEGINHMM>
<NUMSTATES> 5
<STATE> 2
<MEAN> 39
 -1.050895e+01 9.356773e+00 -5.875150e+00 4.048041e+00 -4.467940e+00 -7.695246e+00 3.178498e-01 -5.016291e+00 -5.711854e+00 4.181917e+00 -4.419950e+00 -4.141842e-01 6.599905e+01 2.838012e-04 3.826968e-03 1.159208e-03 8.399412e-03 1.887910e-03 5.087925e-03 3.182556e-03 3.990711e-03 3.483259e-03 1.315308e-03 1.911431e-03 1.914123e-03 -8.622221e-03 2.765584e-04 -1.071264e-04 -1.140171e-04 1.390390e-04 7.197179e-05 -1.153288e-05 8.728195e-05 2.782226e-04 9.710847e-05 3.633581e-05 9.290614e-05 5.747733e-05 4.707174e-05
<VARIANCE> 39
 9.030790e+01 6.374427e+01 9.265331e+01 9.478106e+01 9.239654e+01 1.289102e+02 8.462318e+01 8.163840e+01 7.646734e+01 5.601252e+01 5.090956e+01 4.693743e+01 7.025858e+01 2.861110e+00 2.264471e+00 2.453416e+00 2.765230e+00 2.489266e+00 3.817811e+00 2.916442e+00 3.031366e+00 2.690944e+00 2.509747e+00 2.130045e+00 1.857868e+00 1.736286e+00 3.265840e-01 3.219693e-01 3.281066e-01 4.097822e-01 3.576114e-01 5.331161e-01 4.612851e-01 4.689287e-01 4.304216e-01 4.181679e-01 3.556864e-01 3.135698e-01 2.196227e-01
<GCONST> 1.272151e+02
<STATE> 3
<MEAN> 39
 -1.050895e+01 9.356773e+00 -5.875150e+00 4.048041e+00 -4.467940e+00 -7.695246e+00 3.178498e-01 -5.016291e+00 -5.711854e+00 4.181917e+00 -4.419950e+00 -4.141842e-01 6.599905e+01 2.838012e-04 3.826968e-03 1.159208e-03 8.399412e-03 1.887910e-03 5.087925e-03 3.182556e-03 3.990711e-03 3.483259e-03 1.315308e-03 1.911431e-03 1.914123e-03 -8.622221e-03 2.765584e-04 -1.071264e-04 -1.140171e-04 1.390390e-04 7.197179e-05 -1.153288e-05 8.728195e-05 2.782226e-04 9.710847e-05 3.633581e-05 9.290614e-05 5.747733e-05 4.707174e-05
<VARIANCE> 39
 9.030790e+01 6.374427e+01 9.265331e+01 9.478106e+01 9.239654e+01 1.289102e+02 8.462318e+01 8.163840e+01 7.646734e+01 5.601252e+01 5.090956e+01 4.693743e+01 7.025858e+01 2.861110e+00 2.264471e+00 2.453416e+00 2.765230e+00 2.489266e+00 3.817811e+00 2.916442e+00 3.031366e+00 2.690944e+00 2.509747e+00 2.130045e+00 1.857868e+00 1.736286e+00 3.265840e-01 3.219693e-01 3.281066e-01 4.097822e-01 3.576114e-01 5.331161e-01 4.612851e-01 4.689287e-01 4.304216e-01 4.181679e-01 3.556864e-01 3.135698e-01 2.196227e-01
<GCONST> 1.272151e+02
<STATE> 4
<MEAN> 39
 -1.050895e+01 9.356773e+00 -5.875150e+00 4.048041e+00 -4.467940e+00 -7.695246e+00 3.178498e-01 -5.016291e+00 -5.711854e+00 4.181917e+00 -4.419950e+00 -4.141842e-01 6.599905e+01 2.838012e-04 3.826968e-03 1.159208e-03 8.399412e-03 1.887910e-03 5.087925e-03 3.182556e-03 3.990711e-03 3.483259e-03 1.315308e-03 1.911431e-03 1.914123e-03 -8.622221e-03 2.765584e-04 -1.071264e-04 -1.140171e-04 1.390390e-04 7.197179e-05 -1.153288e-05 8.728195e-05 2.782226e-04 9.710847e-05 3.633581e-05 9.290614e-05 5.747733e-05 4.707174e-05
<VARIANCE> 39
 9.030790e+01 6.374427e+01 9.265331e+01 9.478106e+01 9.239654e+01 1.289102e+02 8.462318e+01 8.163840e+01 7.646734e+01 5.601252e+01 5.090956e+01 4.693743e+01 7.025858e+01 2.861110e+00 2.264471e+00 2.453416e+00 2.765230e+00 2.489266e+00 3.817811e+00 2.916442e+00 3.031366e+00 2.690944e+00 2.509747e+00 2.130045e+00 1.857868e+00 1.736286e+00 3.265840e-01 3.219693e-01 3.281066e-01 4.097822e-01 3.576114e-01 5.331161e-01 4.612851e-01 4.689287e-01 4.304216e-01 4.181679e-01 3.556864e-01 3.135698e-01 2.196227e-01
<GCONST> 1.272151e+02
<TRANSP> 5
 0.000000e+00 1.000000e+00 0.000000e+00 0.000000e+00 0.000000e+00
 0.000000e+00 6.000000e-01 4.000000e-01 0.000000e+00 0.000000e+00
 0.000000e+00 0.000000e+00 6.000000e-01 4.000000e-01 0.000000e+00
 0.000000e+00 0.000000e+00 0.000000e+00 7.000000e-01 3.000000e-01
 0.000000e+00 0.000000e+00 0.000000e+00 0.000000e+00 0.000000e+00
<ENDHMM>
~h "p"
<BEGINHMM>
<NUMSTATES> 5
<STATE> 2
<MEAN> 39
 -1.050895e+01 9.356773e+00 -5.875150e+00 4.048041e+00 -4.467940e+00 -7.695246e+00 3.178498e-01 -5.016291e+00 -5.711854e+00 4.181917e+00 -4.419950e+00 -4.141842e-01 6.599905e+01 2.838012e-04 3.826968e-03 1.159208e-03 8.399412e-03 1.887910e-03 5.087925e-03 3.182556e-03 3.990711e-03 3.483259e-03 1.315308e-03 1.911431e-03 1.914123e-03 -8.622221e-03 2.765584e-04 -1.071264e-04 -1.140171e-04 1.390390e-04 7.197179e-05 -1.153288e-05 8.728195e-05 2.782226e-04 9.710847e-05 3.633581e-05 9.290614e-05 5.747733e-05 4.707174e-05
<VARIANCE> 39
 9.030790e+01 6.374427e+01 9.265331e+01 9.478106e+01 9.239654e+01 1.289102e+02 8.462318e+01 8.163840e+01 7.646734e+01 5.601252e+01 5.090956e+01 4.693743e+01 7.025858e+01 2.861110e+00 2.264471e+00 2.453416e+00 2.765230e+00 2.489266e+00 3.817811e+00 2.916442e+00 3.031366e+00 2.690944e+00 2.509747e+00 2.130045e+00 1.857868e+00 1.736286e+00 3.265840e-01 3.219693e-01 3.281066e-01 4.097822e-01 3.576114e-01 5.331161e-01 4.612851e-01 4.689287e-01 4.304216e-01 4.181679e-01 3.556864e-01 3.135698e-01 2.196227e-01
<GCONST> 1.272151e+02
<STATE> 3
<MEAN> 39
 -1.050895e+01 9.356773e+00 -5.875150e+00 4.048041e+00 -4.467940e+00 -7.695246e+00 3.178498e-01 -5.016291e+00 -5.711854e+00 4.181917e+00 -4.419950e+00 -4.141842e-01 6.599905e+01 2.838012e-04 3.826968e-03 1.159208e-03 8.399412e-03 1.887910e-03 5.087925e-03 3.182556e-03 3.990711e-03 3.483259e-03 1.315308e-03 1.911431e-03 1.914123e-03 -8.622221e-03 2.765584e-04 -1.071264e-04 -1.140171e-04 1.390390e-04 7.197179e-05 -1.153288e-05 8.728195e-05 2.782226e-04 9.710847e-05 3.633581e-05 9.290614e-05 5.747733e-05 4.707174e-05
<VARIANCE> 39
 9.030790e+01 6.374427e+01 9.265331e+01 9.478106e+01 9.239654e+01 1.289102e+02 8.462318e+01 8.163840e+01 7.646734e+01 5.601252e+01 5.090956e+01 4.693743e+01 7.025858e+01 2.861110e+00 2.264471e+00 2.453416e+00 2.765230e+00 2.489266e+00 3.817811e+00 2.916442e+00 3.031366e+00 2.690944e+00 2.509747e+00 2.130045e+00 1.857868e+00 1.736286e+00 3.265840e-01 3.219693e-01 3.281066e-01 4.097822e-01 3.576114e-01 5.331161e-01 4.612851e-01 4.689287e-01 4.304216e-01 4.181679e-01 3.556864e-01 3.135698e-01 2.196227e-01
<GCONST> 1.272151e+02
<STATE> 4
<MEAN> 39
 -1.050895e+01 9.356773e+00 -5.875150e+00 4.048041e+00 -4.467940e+00 -7.695246e+00 3.178498e-01 -5.016291e+00 -5.711854e+00 4.181917e+00 -4.419950e+00 -4.141842e-01 6.599905e+01 2.838012e-04 3.826968e-03 1.159208e-03 8.399412e-03 1.887910e-03 5.087925e-03 3.182556e-03 3.990711e-03 3.483259e-03 1.315308e-03 1.911431e-03 1.914123e-03 -8.622221e-03 2.765584e-04 -1.071264e-04 -1.140171e-04 1.390390e-04 7.197179e-05 -1.153288e-05 8.728195e-05 2.782226e-04 9.710847e-05 3.633581e-05 9.290614e-05 5.747733e-05 4.707174e-05
<VARIANCE> 39
 9.030790e+01 6.374427e+01 9.265331e+01 9.478106e+01 9.239654e+01 1.289102e+02 8.462318e+01 8.163840e+01 7.646734e+01 5.601252e+01 5.090956e+01 4.693743e+01 7.025858e+01 2.861110e+00 2.264471e+00 2.453416e+00 2.765230e+00 2.489266e+00 3.817811e+00 2.916442e+00 3.031366e+00 2.690944e+00 2.509747e+00 2.130045e+00 1.857868e+00 1.736286e+00 3.265840e-01 3.219693e-01 3.281066e-01 4.097822e-01 3.576114e-01 5.331161e-01 4.612851e-01 4.689287e-01 4.304216e-01 4.181679e-01 3.556864e-01 3.135698e-01 2.196227e-01
<GCONST> 1.272151e+02
<TRANSP> 5
 0.000000e+00 1.000000e+00 0.000000e+00 0.000000e+00 0.000000e+00
 0.000000e+00 6.000000e-01 4.000000e-01 0.000000e+00 0.000000e+00
 0.000000e+00 0.000000e+00 6.000000e-01 4.000000e-01 0.000000e+00
 0.000000e+00 0.000000e+00 0.000000e+00 7.000000e-01 3.000000e-01
 0.000000e+00 0.000000e+00 0.000000e+00 0.000000e+00 0.000000e+00
<ENDHMM>
~h "z"
<BEGINHMM>
<NUMSTATES> 5
<STATE> 2
<MEAN> 39
 -1.050895e+01 9.356773e+00 -5.875150e+00 4.048041e+00 -4.467940e+00 -7.695246e+00 3.178498e-01 -5.016291e+00 -5.711854e+00 4.181917e+00 -4.419950e+00 -4.141842e-01 6.599905e+01 2.838012e-04 3.826968e-03 1.159208e-03 8.399412e-03 1.887910e-03 5.087925e-03 3.182556e-03 3.990711e-03 3.483259e-03 1.315308e-03 1.911431e-03 1.914123e-03 -8.622221e-03 2.765584e-04 -1.071264e-04 -1.140171e-04 1.390390e-04 7.197179e-05 -1.153288e-05 8.728195e-05 2.782226e-04 9.710847e-05 3.633581e-05 9.290614e-05 5.747733e-05 4.707174e-05
<VARIANCE> 39
 9.030790e+01 6.374427e+01 9.265331e+01 9.478106e+01 9.239654e+01 1.289102e+02 8.462318e+01 8.163840e+01 7.646734e+01 5.601252e+01 5.090956e+01 4.693743e+01 7.025858e+01 2.861110e+00 2.264471e+00 2.453416e+00 2.765230e+00 2.489266e+00 3.817811e+00 2.916442e+00 3.031366e+00 2.690944e+00 2.509747e+00 2.130045e+00 1.857868e+00 1.736286e+00 3.265840e-01 3.219693e-01 3.281066e-01 4.097822e-01 3.576114e-01 5.331161e-01 4.612851e-01 4.689287e-01 4.304216e-01 4.181679e-01 3.556864e-01 3.135698e-01 2.196227e-01
<GCONST> 1.272151e+02
<STATE> 3
<MEAN> 39
 -1.050895e+01 9.356773e+00 -5.875150e+00 4.048041e+00 -4.467940e+00 -7.695246e+00 3.178498e-01 -5.016291e+00 -5.711854e+00 4.181917e+00 -4.419950e+00 -4.141842e-01 6.599905e+01 2.838012e-04 3.826968e-03 1.159208e-03 8.399412e-03 1.887910e-03 5.087925e-03 3.182556e-03 3.990711e-03 3.483259e-03 1.315308e-03 1.911431e-03 1.914123e-03 -8.622221e-03 2.765584e-04 -1.071264e-04 -1.140171e-04 1.390390e-04 7.197179e-05 -1.153288e-05 8.728195e-05 2.782226e-04 9.710847e-05 3.633581e-05 9.290614e-05 5.747733e-05 4.707174e-05
<VARIANCE> 39
 9.030790e+01 6.374427e+01 9.265331e+01 9.478106e+01 9.239654e+01 1.289102e+02 8.462318e+01 8.163840e+01 7.646734e+01 5.601252e+01 5.090956e+01 4.693743e+01 7.025858e+01 2.861110e+00 2.264471e+00 2.453416e+00 2.765230e+00 2.489266e+00 3.817811e+00 2.916442e+00 3.031366e+00 2.690944e+00 2.509747e+00 2.130045e+00 1.857868e+00 1.736286e+00 3.265840e-01 3.219693e-01 3.281066e-01 4.097822e-01 3.576114e-01 5.331161e-01 4.612851e-01 4.689287e-01 4.304216e-01 4.181679e-01 3.556864e-01 3.135698e-01 2.196227e-01
<GCONST> 1.272151e+02
<STATE> 4
<MEAN> 39
 -1.050895e+01 9.356773e+00 -5.875150e+00 4.048041e+00 -4.467940e+00 -7.695246e+00 3.178498e-01 -5.016291e+00 -5.711854e+00 4.181917e+00 -4.419950e+00 -4.141842e-01 6.599905e+01 2.838012e-04 3.826968e-03 1.159208e-03 8.399412e-03 1.887910e-03 5.087925e-03 3.182556e-03 3.990711e-03 3.483259e-03 1.315308e-03 1.911431e-03 1.914123e-03 -8.622221e-03 2.765584e-04 -1.071264e-04 -1.140171e-04 1.390390e-04 7.197179e-05 -1.153288e-05 8.728195e-05 2.782226e-04 9.710847e-05 3.633581e-05 9.290614e-05 5.747733e-05 4.707174e-05
<VARIANCE> 39
 9.030790e+01 6.374427e+01 9.265331e+01 9.478106e+01 9.239654e+01 1.289102e+02 8.462318e+01 8.163840e+01 7.646734e+01 5.601252e+01 5.090956e+01 4.693743e+01 7.025858e+01 2.861110e+00 2.264471e+00 2.453416e+00 2.765230e+00 2.489266e+00 3.817811e+00 2.916442e+00 3.031366e+00 2.690944e+00 2.509747e+00 2.130045e+00 1.857868e+00 1.736286e+00 3.265840e-01 3.219693e-01 3.281066e-01 4.097822e-01 3.576114e-01 5.331161e-01 4.612851e-01 4.689287e-01 4.304216e-01 4.181679e-01 3.556864e-01 3.135698e-01 2.196227e-01
<GCONST> 1.272151e+02
<TRANSP> 5
 0.000000e+00 1.000000e+00 0.000000e+00 0.000000e+00 0.000000e+00
 0.000000e+00 6.000000e-01 4.000000e-01 0.000000e+00 0.000000e+00
 0.000000e+00 0.000000e+00 6.000000e-01 4.000000e-01 0.000000e+00
 0.000000e+00 0.000000e+00 0.000000e+00 7.000000e-01 3.000000e-01
 0.000000e+00 0.000000e+00 0.000000e+00 0.000000e+00 0.000000e+00
<ENDHMM>
~h "oh"
<BEGINHMM>
<NUMSTATES> 5
<STATE> 2
<MEAN> 39
 -1.050895e+01 9.356773e+00 -5.875150e+00 4.048041e+00 -4.467940e+00 -7.695246e+00 3.178498e-01 -5.016291e+00 -5.711854e+00 4.181917e+00 -4.419950e+00 -4.141842e-01 6.599905e+01 2.838012e-04 3.826968e-03 1.159208e-03 8.399412e-03 1.887910e-03 5.087925e-03 3.182556e-03 3.990711e-03 3.483259e-03 1.315308e-03 1.911431e-03 1.914123e-03 -8.622221e-03 2.765584e-04 -1.071264e-04 -1.140171e-04 1.390390e-04 7.197179e-05 -1.153288e-05 8.728195e-05 2.782226e-04 9.710847e-05 3.633581e-05 9.290614e-05 5.747733e-05 4.707174e-05
<VARIANCE> 39
 9.030790e+01 6.374427e+01 9.265331e+01 9.478106e+01 9.239654e+01 1.289102e+02 8.462318e+01 8.163840e+01 7.646734e+01 5.601252e+01 5.090956e+01 4.693743e+01 7.025858e+01 2.861110e+00 2.264471e+00 2.453416e+00 2.765230e+00 2.489266e+00 3.817811e+00 2.916442e+00 3.031366e+00 2.690944e+00 2.509747e+00 2.130045e+00 1.857868e+00 1.736286e+00 3.265840e-01 3.219693e-01 3.281066e-01 4.097822e-01 3.576114e-01 5.331161e-01 4.612851e-01 4.689287e-01 4.304216e-01 4.181679e-01 3.556864e-01 3.135698e-01 2.196227e-01
<GCONST> 1.272151e+02
<STATE> 3
<MEAN> 39
 -1.050895e+01 9.356773e+00 -5.875150e+00 4.048041e+00 -4.467940e+00 -7.695246e+00 3.178498e-01 -5.016291e+00 -5.711854e+00 4.181917e+00 -4.419950e+00 -4.141842e-01 6.599905e+01 2.838012e-04 3.826968e-03 1.159208e-03 8.399412e-03 1.887910e-03 5.087925e-03 3.182556e-03 3.990711e-03 3.483259e-03 1.315308e-03 1.911431e-03 1.914123e-03 -8.622221e-03 2.765584e-04 -1.071264e-04 -1.140171e-04 1.390390e-04 7.197179e-05 -1.153288e-05 8.728195e-05 2.782226e-04 9.710847e-05 3.633581e-05 9.290614e-05 5.747733e-05 4.707174e-05
<VARIANCE> 39
 9.030790e+01 6.374427e+01 9.265331e+01 9.478106e+01 9.239654e+01 1.289102e+02 8.462318e+01 8.163840e+01 7.646734e+01 5.601252e+01 5.090956e+01 4.693743e+01 7.025858e+01 2.861110e+00 2.264471e+00 2.453416e+00 2.765230e+00 2.489266e+00 3.817811e+00 2.916442e+00 3.031366e+00 2.690944e+00 2.509747e+00 2.130045e+00 1.857868e+00 1.736286e+00 3.265840e-01 3.219693e-01 3.281066e-01 4.097822e-01 3.576114e-01 5.331161e-01 4.612851e-01 4.689287e-01 4.304216e-01 4.181679e-01 3.556864e-01 3.135698e-01 2.196227e-01
<GCONST> 1.272151e+02
<STATE> 4
<MEAN> 39
 -1.050895e+01 9.356773e+00 -5.875150e+00 4.048041e+00 -4.467940e+00 -7.695246e+00 3.178498e-01 -5.016291e+00 -5.711854e+00 4.181917e+00 -4.419950e+00 -4.141842e-01 6.599905e+01 2.838012e-04 3.826968e-03 1.159208e-03 8.399412e-03 1.887910e-03 5.087925e-03 3.182556e-03 3.990711e-03 3.483259e-03 1.315308e-03 1.911431e-03 1.914123e-03 -8.622221e-03 2.765584e-04 -1.071264e-04 -1.140171e-04 1.390390e-04 7.197179e-05 -1.153288e-05 8.728195e-05 2.782226e-04 9.710847e-05 3.633581e-05 9.290614e-05 5.747733e-05 4.707174e-05
<VARIANCE> 39
 9.030790e+01 6.374427e+01 9.265331e+01 9.478106e+01 9.239654e+01 1.289102e+02 8.462318e+01 8.163840e+01 7.646734e+01 5.601252e+01 5.090956e+01 4.693743e+01 7.025858e+01 2.861110e+00 2.264471e+00 2.453416e+00 2.765230e+00 2.489266e+00 3.817811e+00 2.916442e+00 3.031366e+00 2.690944e+00 2.509747e+00 2.130045e+00 1.857868e+00 1.736286e+00 3.265840e-01 3.219693e-01 3.281066e-01 4.097822e-01 3.576114e-01 5.331161e-01 4.612851e-01 4.689287e-01 4.304216e-01 4.181679e-01 3.556864e-01 3.135698e-01 2.196227e-01
<GCONST> 1.272151e+02
<TRANSP> 5
 0.000000e+00 1.000000e+00 0.000000e+00 0.000000e+00 0.000000e+00
 0.000000e+00 6.000000e-01 4.000000e-01 0.000000e+00 0.000000e+00
 0.000000e+00 0.000000e+00 6.000000e-01 4.000000e-01 0.000000e+00
 0.000000e+00 0.000000e+00 0.000000e+00 7.000000e-01 3.000000e-01
 0.000000e+00 0.000000e+00 0.000000e+00 0.000000e+00 0.000000e+00
<ENDHMM>
~h "ay"
<BEGINHMM>
<NUMSTATES> 5
<STATE> 2
<MEAN> 39
 -1.050895e+01 9.356773e+00 -5.875150e+00 4.048041e+00 -4.467940e+00 -7.695246e+00 3.178498e-01 -5.016291e+00 -5.711854e+00 4.181917e+00 -4.419950e+00 -4.141842e-01 6.599905e+01 2.838012e-04 3.826968e-03 1.159208e-03 8.399412e-03 1.887910e-03 5.087925e-03 3.182556e-03 3.990711e-03 3.483259e-03 1.315308e-03 1.911431e-03 1.914123e-03 -8.622221e-03 2.765584e-04 -1.071264e-04 -1.140171e-04 1.390390e-04 7.197179e-05 -1.153288e-05 8.728195e-05 2.782226e-04 9.710847e-05 3.633581e-05 9.290614e-05 5.747733e-05 4.707174e-05
<VARIANCE> 39
 9.030790e+01 6.374427e+01 9.265331e+01 9.478106e+01 9.239654e+01 1.289102e+02 8.462318e+01 8.163840e+01 7.646734e+01 5.601252e+01 5.090956e+01 4.693743e+01 7.025858e+01 2.861110e+00 2.264471e+00 2.453416e+00 2.765230e+00 2.489266e+00 3.817811e+00 2.916442e+00 3.031366e+00 2.690944e+00 2.509747e+00 2.130045e+00 1.857868e+00 1.736286e+00 3.265840e-01 3.219693e-01 3.281066e-01 4.097822e-01 3.576114e-01 5.331161e-01 4.612851e-01 4.689287e-01 4.304216e-01 4.181679e-01 3.556864e-01 3.135698e-01 2.196227e-01
<GCONST> 1.272151e+02
<STATE> 3
<MEAN> 39
 -1.050895e+01 9.356773e+00 -5.875150e+00 4.048041e+00 -4.467940e+00 -7.695246e+00 3.178498e-01 -5.016291e+00 -5.711854e+00 4.181917e+00 -4.419950e+00 -4.141842e-01 6.599905e+01 2.838012e-04 3.826968e-03 1.159208e-03 8.399412e-03 1.887910e-03 5.087925e-03 3.182556e-03 3.990711e-03 3.483259e-03 1.315308e-03 1.911431e-03 1.914123e-03 -8.622221e-03 2.765584e-04 -1.071264e-04 -1.140171e-04 1.390390e-04 7.197179e-05 -1.153288e-05 8.728195e-05 2.782226e-04 9.710847e-05 3.633581e-05 9.290614e-05 5.747733e-05 4.707174e-05
<VARIANCE> 39
 9.030790e+01 6.374427e+01 9.265331e+01 9.478106e+01 9.239654e+01 1.289102e+02 8.462318e+01 8.163840e+01 7.646734e+01 5.601252e+01 5.090956e+01 4.693743e+01 7.025858e+01 2.861110e+00 2.264471e+00 2.453416e+00 2.765230e+00 2.489266e+00 3.817811e+00 2.916442e+00 3.031366e+00 2.690944e+00 2.509747e+00 2.130045e+00 1.857868e+00 1.736286e+00 3.265840e-01 3.219693e-01 3.281066e-01 4.097822e-01 3.576114e-01 5.331161e-01 4.612851e-01 4.689287e-01 4.304216e-01 4.181679e-01 3.556864e-01 3.135698e-01 2.196227e-01
<GCONST> 1.272151e+02
<STATE> 4
<MEAN> 39
 -1.050895e+01 9.356773e+00 -5.875150e+00 4.048041e+00 -4.467940e+00 -7.695246e+00 3.178498e-01 -5.016291e+00 -5.711854e+00 4.181917e+00 -4.419950e+00 -4.141842e-01 6.599905e+01 2.838012e-04 3.826968e-03 1.159208e-03 8.399412e-03 1.887910e-03 5.087925e-03 3.182556e-03 3.990711e-03 3.483259e-03 1.315308e-03 1.911431e-03 1.914123e-03 -8.622221e-03 2.765584e-04 -1.071264e-04 -1.140171e-04 1.390390e-04 7.197179e-05 -1.153288e-05 8.728195e-05 2.782226e-04 9.710847e-05 3.633581e-05 9.290614e-05 5.747733e-05 4.707174e-05
<VARIANCE> 39
 9.030790e+01 6.374427e+01 9.265331e+01 9.478106e+01 9.239654e+01 1.289102e+02 8.462318e+01 8.163840e+01 7.646734e+01 5.601252e+01 5.090956e+01 4.693743e+01 7.025858e+01 2.861110e+00 2.264471e+00 2.453416e+00 2.765230e+00 2.489266e+00 3.817811e+00 2.916442e+00 3.031366e+00 2.690944e+00 2.509747e+00 2.130045e+00 1.857868e+00 1.736286e+00 3.265840e-01 3.219693e-01 3.281066e-01 4.097822e-01 3.576114e-01 5.331161e-01 4.612851e-01 4.689287e-01 4.304216e-01 4.181679e-01 3.556864e-01 3.135698e-01 2.196227e-01
<GCONST> 1.272151e+02
<TRANSP> 5
 0.000000e+00 1.000000e+00 0.000000e+00 0.000000e+00 0.000000e+00
 0.000000e+00 6.000000e-01 4.000000e-01 0.000000e+00 0.000000e+00
 0.000000e+00 0.000000e+00 6.000000e-01 4.000000e-01 0.000000e+00
 0.000000e+00 0.000000e+00 0.000000e+00 7.000000e-01 3.000000e-01
 0.000000e+00 0.000000e+00 0.000000e+00 0.000000e+00 0.000000e+00
<ENDHMM>
~h "sil"
<BEGINHMM>
<NUMSTATES> 5
<STATE> 2
<MEAN> 39
 -1.050895e+01 9.356773e+00 -5.875150e+00 4.048041e+00 -4.467940e+00 -7.695246e+00 3.178498e-01 -5.016291e+00 -5.711854e+00 4.181917e+00 -4.419950e+00 -4.141842e-01 6.599905e+01 2.838012e-04 3.826968e-03 1.159208e-03 8.399412e-03 1.887910e-03 5.087925e-03 3.182556e-03 3.990711e-03 3.483259e-03 1.315308e-03 1.911431e-03 1.914123e-03 -8.622221e-03 2.765584e-04 -1.071264e-04 -1.140171e-04 1.390390e-04 7.197179e-05 -1.153288e-05 8.728195e-05 2.782226e-04 9.710847e-05 3.633581e-05 9.290614e-05 5.747733e-05 4.707174e-05
<VARIANCE> 39
 9.030790e+01 6.374427e+01 9.265331e+01 9.478106e+01 9.239654e+01 1.289102e+02 8.462318e+01 8.163840e+01 7.646734e+01 5.601252e+01 5.090956e+01 4.693743e+01 7.025858e+01 2.861110e+00 2.264471e+00 2.453416e+00 2.765230e+00 2.489266e+00 3.817811e+00 2.916442e+00 3.031366e+00 2.690944e+00 2.509747e+00 2.130045e+00 1.857868e+00 1.736286e+00 3.265840e-01 3.219693e-01 3.281066e-01 4.097822e-01 3.576114e-01 5.331161e-01 4.612851e-01 4.689287e-01 4.304216e-01 4.181679e-01 3.556864e-01 3.135698e-01 2.196227e-01
<GCONST> 1.272151e+02
<STATE> 3
<MEAN> 39
 -1.050895e+01 9.356773e+00 -5.875150e+00 4.048041e+00 -4.467940e+00 -7.695246e+00 3.178498e-01 -5.016291e+00 -5.711854e+00 4.181917e+00 -4.419950e+00 -4.141842e-01 6.599905e+01 2.838012e-04 3.826968e-03 1.159208e-03 8.399412e-03 1.887910e-03 5.087925e-03 3.182556e-03 3.990711e-03 3.483259e-03 1.315308e-03 1.911431e-03 1.914123e-03 -8.622221e-03 2.765584e-04 -1.071264e-04 -1.140171e-04 1.390390e-04 7.197179e-05 -1.153288e-05 8.728195e-05 2.782226e-04 9.710847e-05 3.633581e-05 9.290614e-05 5.747733e-05 4.707174e-05
<VARIANCE> 39
