~o
<STREAMINFO> 1 39
<VECSIZE> 39<NULLD><MFCC_D_A_0><DIAGC>
~h "a"
<BEGINHMM>
<NUMSTATES> 5
<STATE> 2
<MEAN> 39
 -3.928647e+00 7.372021e+00 -9.716654e+00 3.711467e+00 -2.410825e+00 -1.553371e+01 -2.262686e+00 -8.498168e+00 -1.121964e+01 5.455951e+00 -3.306949e+00 -2.892123e+00 7.022528e+01 -2.899064e-01 -1.669950e+00 -1.359120e+00 -1.939642e+00 -3.254447e-01 -5.475388e-01 1.292921e+00 8.414842e-01 5.956181e-02 7.206199e-01 1.267519e+00 4.514064e-01 1.304549e+00 -9.154509e-02 -4.052473e-02 3.980324e-02 -1.651071e-01 -8.014726e-03 1.922085e-01 5.018924e-02 7.840978e-02 2.326709e-01 -8.252363e-02 -1.697350e-01 -3.103046e-03 9.340164e-02
<VARIANCE> 39
 2.313108e+01 4.631478e+01 5.509676e+01 7.537733e+01 4.520345e+01 9.961200e+01 5.303781e+01 8.355422e+01 1.219643e+02 4.939645e+01 6.278428e+01 2.923727e+01 3.058589e+01 5.486647e-01 1.778172e+00 1.695234e+00 3.388282e+00 1.100872e+00 6.061636e+00 3.553370e+00 4.611345e+00 3.348115e+00 2.723809e+00 3.026445e+00 1.793611e+00 1.699278e+00 8.382136e-02 3.982709e-01 3.215113e-01 6.729438e-01 1.967266e-01 1.077185e+00 6.166299e-01 7.518178e-01 5.432591e-01 5.665329e-01 5.873488e-01 2.468271e-01 3.818984e-01
<GCONST> 1.229609e+02
<STATE> 3
<MEAN> 39
 -5.867060e+00 3.214305e+00 -1.284443e+01 -3.652366e+00 -4.058732e+00 -1.281613e+01 4.775901e-01 -6.224655e+00 -1.243541e+01 4.599971e+00 -2.002252e+00 -1.663496e+00 7.338955e+01 -1.791426e-01 -1.766904e-01 -3.434819e-01 -4.637852e-01 -1.412018e-01 7.334433e-01 6.085345e-01 -7.617824e-02 2.799837e-01 -2.562216e-01 -6.181007e-03 3.334895e-01 -1.531398e-02 1.175496e-02 2.187685e-01 2.218970e-01 3.324882e-01 2.675590e-02 1.571905e-01 -1.440421e-01 -1.173256e-01 -7.594558e-03 -1.415389e-01 -1.748390e-01 -5.314052e-02 -2.112149e-01
<VARIANCE> 39
 2.246734e+01 3.755986e+01 5.727603e+01 7.304023e+01 6.304824e+01 7.270480e+01 3.656993e+01 7.876782e+01 1.071339e+02 5.111321e+01 4.115583e+01 3.482856e+01 2.349962e+01 4.965457e-01 1.609681e+00 1.220139e+00 1.890109e+00 1.307765e+00 4.768800e+00 2.782548e+00 2.377883e+00 3.055422e+00 2.071253e+00 1.560832e+00 1.495157e+00 1.199456e+00 5.912956e-02 2.010045e-01 1.931552e-01 3.240463e-01 1.809476e-01 7.170598e-01 3.902627e-01 4.068095e-01 4.067299e-01 3.798012e-01 3.247133e-01 2.633523e-01 1.132737e-01
<GCONST> 1.117982e+02
<STATE> 4
<MEAN> 39
 -9.082918e+00 5.547095e+00 -1.362714e+01 1.153263e+00 -3.892241e+00 -5.305530e+00 5.436487e+00 -7.296501e+00 -7.581512e+00 5.966146e+00 -1.983746e-01 -3.509203e-01 6.494248e+01 -2.875254e-01 1.558832e-01 2.692204e-01 4.128450e-01 8.339186e-02 4.972498e-01 4.423369e-02 1.349369e-01 3.018429e-01 1.513013e-02 4.274224e-02 1.408700e-01 -5.621769e-01 -1.951135e-02 3.251893e-03 7.738548e-02 4.324816e-02 2.721030e-02 -2.728490e-02 -6.220868e-02 1.473989e-02 -6.745588e-03 1.356842e-03 -3.328466e-03 -1.196718e-02 -1.374530e-02
<VARIANCE> 39
 2.962389e+01 3.095777e+01 3.793448e+01 5.110020e+01 5.250195e+01 1.115545e+02 3.729002e+01 5.835972e+01 1.005780e+02 5.583124e+01 3.391032e+01 3.262910e+01 8.489617e+01 2.310751e-01 7.391149e-01 7.705495e-01 1.046499e+00 1.137443e+00 1.755220e+00 1.384616e+00 1.580656e+00 1.599833e+00 1.502412e+00 1.115113e+00 1.041628e+00 5.815618e-01 3.866370e-02 9.634835e-02 1.194415e-01 1.467410e-01 1.746657e-01 2.651725e-01 2.101374e-01 2.554177e-01 2.664079e-01 2.185578e-01 1.928363e-01 1.864469e-01 5.592754e-02
<GCONST> 9.780282e+01
<TRANSP> 5
 0.000000e+00 1.000000e+00 0.000000e+00 0.000000e+00 0.000000e+00
 0.000000e+00 6.729469e-01 3.270531e-01 0.000000e+00 0.000000e+00
 0.000000e+00 0.000000e+00 5.860686e-01 4.139313e-01 0.000000e+00
 0.000000e+00 0.000000e+00 0.000000e+00 9.509409e-01 4.905907e-02
 0.000000e+00 0.000000e+00 0.000000e+00 0.000000e+00 0.000000e+00
<ENDHMM>
~h "b"
<BEGINHMM>
<NUMSTATES> 5
<STATE> 2
<MEAN> 39
 -7.100206e+00 1.397188e+01 -6.128187e+00 3.948734e+00 -7.404049e+00 -5.465452e+00 2.052847e+00 -5.119618e+00 -7.840279e+00 5.152800e-02 -8.373556e+00 -3.069293e+00 6.437132e+01 1.722636e+00 9.531270e-01 -5.288639e-01 -1.480474e+00 -1.985739e+00 -2.075399e+00 -7.435182e-01 -1.029041e-01 -5.108691e-01 -4.304166e-01 -6.226310e-01 -4.518591e-01 1.112471e+00 -1.053860e-01 -9.011889e-02 -5.860087e-02 -7.853579e-02 -1.269535e-01 -1.303932e-01 9.185543e-02 8.283516e-02 8.343492e-02 8.185891e-02 1.542874e-01 8.297297e-02 -1.583344e-02
<VARIANCE> 39
 3.889967e+01 6.395492e+01 9.587918e+01 8.742014e+01 6.768054e+01 7.090204e+01 4.432223e+01 4.155848e+01 4.034353e+01 3.214446e+01 3.304001e+01 3.581562e+01 5.786186e+01 2.658803e+00 2.926650e+00 2.318130e+00 5.266838e+00 6.341845e+00 8.607285e+00 3.194783e+00 4.050151e+00 3.217721e+00 2.815273e+00 2.710254e+00 2.532541e+00 3.694103e+00 5.191971e-01 5.261507e-01 3.067690e-01 7.378511e-01 7.644549e-01 1.162164e+00 5.572920e-01 5.429561e-01 5.449846e-01 5.059005e-01 5.032995e-01 4.524137e-01 4.802944e-01
<GCONST> 1.317789e+02
<STATE> 3
<MEAN> 39
 -2.084661e+00 1.214820e+01 -1.238245e+01 -1.649212e+00 -1.378439e+01 -1.118290e+01 7.682062e-01 -4.291865e+00 -7.947735e+00 7.466068e-02 -7.886062e+00 -2.587245e+00 6.953120e+01 8.202577e-01 8.941181e-01 9.861165e-02 -3.182637e-01 -1.133171e+00 -1.088213e+00 -3.572497e-01 -9.198213e-02 -2.949939e-01 -2.777407e-01 -1.511594e-01 -1.357447e-01 9.242313e-02 -4.507150e-01 -1.902808e-01 2.298817e-01 4.007241e-01 5.965638e-01 6.357326e-01 2.687833e-01 4.963376e-02 1.001299e-01 9.840995e-02 1.993735e-01 1.018495e-01 -3.229091e-01
<VARIANCE> 39
 2.258241e+01 8.764496e+01 9.255518e+01 5.790549e+01 8.061141e+01 8.310732e+01 4.989153e+01 6.166418e+01 4.659984e+01 3.496642e+01 3.940600e+01 4.265689e+01 3.467315e+01 1.641690e+00 2.817291e+00 2.628848e+00 4.801849e+00 4.860108e+00 6.304493e+00 3.045104e+00 4.354026e+00 2.951054e+00 2.549431e+00 2.693292e+00 2.197458e+00 3.321964e+00 3.251768e-01 4.405839e-01 3.376606e-01 5.005161e-01 4.990825e-01 7.124564e-01 4.928805e-01 5.394140e-01 5.304497e-01 4.659069e-01 5.151659e-01 3.866433e-01 2.174221e-01
<GCONST> 1.275185e+02
<STATE> 4
<MEAN> 39
 -2.198258e+00 1.402170e+01 -1.144187e+01 2.182725e+00 -9.783176e+00 -7.254725e+00 1.284681e+00 -6.498429e+00 -9.307556e+00 -1.301653e+00 -8.755989e+00 -3.597762e+00 6.654533e+01 -2.854330e-01 4.855587e-01 7.780222e-01 5.326955e-01 2.973985e-01 3.915900e-01 1.204893e-01 6.066338e-02 6.386838e-02 5.704800e-02 1.485557e-03 1.672922e-02 -6.416470e-01 -3.306419e-01 -3.371256e-01 8.068666e-02 -1.143516e-01 1.573858e-01 8.841814e-02 1.189228e-01 1.479216e-01 1.418404e-01 2.192823e-01 2.118845e-01 1.519183e-01 1.526692e-01
<VARIANCE> 39
 1.519247e+01 4.083091e+01 5.251869e+01 4.893099e+01 6.954286e+01 8.113886e+01 3.644012e+01 5.523018e+01 5.402600e+01 3.655806e+01 3.468993e+01 4.796000e+01 2.355598e+01 1.496497e+00 1.889837e+00 1.956445e+00 3.172228e+00 2.459395e+00 3.647716e+00 1.986749e+00 3.108616e+00 2.519641e+00 2.488989e+00 2.293994e+00 1.927867e+00 2.104322e+00 2.220988e-01 2.885635e-01 2.971008e-01 4.877808e-01 4.341863e-01 6.553625e-01 3.854163e-01 4.823187e-01 4.230114e-01 4.578348e-01 4.208002e-01 3.466064e-01 2.878766e-01
<GCONST> 1.188850e+02
<TRANSP> 5
 0.000000e+00 1.000000e+00 0.000000e+00 0.000000e+00 0.000000e+00
 0.000000e+00 5.710860e-01 4.289139e-01 0.000000e+00 0.000000e+00
 0.000000e+00 0.000000e+00 2.629600e-01 7.370399e-01 0.000000e+00
 0.000000e+00 0.000000e+00 0.000000e+00 6.389315e-01 3.610686e-01
 0.000000e+00 0.000000e+00 0.000000e+00 0.000000e+00 0.000000e+00
<ENDHMM>
~h "d"
<BEGINHMM>
<NUMSTATES> 5
<STATE> 2
<MEAN> 39
 -5.773755e+00 1.160090e+01 -6.640810e+00 7.509115e+00 -3.444012e+00 -1.316298e+01 -5.004647e+00 -7.343161e+00 -7.587396e+00 5.497193e+00 -4.121980e+00 -1.214827e+00 6.615188e+01 -3.676349e-01 2.034471e-01 1.480241e-01 1.933309e-01 1.188279e-01 9.081789e-01 4.582174e-01 3.424228e-01 3.981091e-01 1.333167e-02 9.161606e-02 2.801269e-01 -7.528530e-01 -1.134925e-01 -1.710865e-01 -7.432096e-02 -1.369434e-01 -7.168284e-02 5.882525e-02 1.585265e-01 8.335318e-02 8.873874e-02 6.450110e-02 6.391316e-02 6.724972e-02 5.968924e-02
<VARIANCE> 39
 2.159709e+01 3.823705e+01 4.937408e+01 4.508351e+01 5.423808e+01 8.943165e+01 6.269984e+01 4.788794e+01 5.059396e+01 5.058487e+01 5.535007e+01 4.180455e+01 3.524438e+01 1.271652e+00 2.294779e+00 2.001699e+00 2.922416e+00 2.416658e+00 5.962465e+00 3.383672e+00 2.418842e+00 2.635091e+00 2.789470e+00 2.317279e+00 1.731255e+00 2.365948e+00 1.860018e-01 3.536369e-01 2.965392e-01 4.462366e-01 4.037467e-01 1.036941e+00 5.876641e-01 4.157428e-01 4.315705e-01 4.750631e-01 4.052318e-01 3.085509e-01 3.197995e-01
<GCONST> 1.217769e+02
<STATE> 3
<MEAN> 39
 -7.045237e+00 1.278670e+01 -5.778090e+00 7.616713e+00 -2.886240e+00 -7.333866e+00 -1.740521e+00 -6.173187e+00 -6.253471e+00 5.145126e+00 -4.095205e+00 -4.896069e-01 6.373664e+01 -6.206868e-01 -1.568278e-01 9.331428e-02 3.271579e-02 8.985059e-02 1.094565e+00 9.038642e-01 5.707409e-01 4.699193e-01 5.144465e-02 2.239012e-01 4.175710e-01 -6.386340e-01 -1.314671e-01 -2.184814e-01 1.987173e-03 -1.209248e-01 4.629529e-03 -2.191098e-01 -1.308715e-02 6.610333e-02 -1.628286e-02 2.743203e-02 2.484928e-02 3.448968e-02 1.971609e-01
<VARIANCE> 39
 3.230006e+01 4.247815e+01 7.120811e+01 4.973234e+01 4.623647e+01 5.522714e+01 5.778043e+01 4.172472e+01 4.259426e+01 4.205819e+01 4.567909e+01 4.059814e+01 3.708352e+01 1.551054e+00 2.111964e+00 1.767266e+00 1.877979e+00 2.041525e+00 3.301659e+00 2.381955e+00 2.064914e+00 2.344193e+00 2.345167e+00 1.790735e+00 1.652314e+00 1.925485e+00 2.689781e-01 3.949689e-01 3.316308e-01 3.910353e-01 3.547748e-01 5.501496e-01 4.730134e-01 3.630863e-01 3.816437e-01 4.101481e-01 3.228875e-01 2.964390e-01 2.623716e-01
<GCONST> 1.174482e+02
<STATE> 4
<MEAN> 39
 -1.237325e+01 8.920020e+00 -6.185061e+00 9.874067e+00 -2.613062e+00 -1.307978e+00 4.526917e+00 -5.009992e-01 1.174605e+00 9.045107e+00 -8.454528e-01 2.225261e+00 5.849355e+01 -2.911161e-01 -5.703267e-02 4.891050e-02 4.778845e-03 1.099479e-01 2.854599e-01 3.025229e-01 2.611507e-01 1.669815e-01 -1.759341e-02 3.735475e-02 9.572039e-02 -1.404435e-01 -5.213284e-03 -5.292510e-02 3.279087e-02 -8.811142e-02 -2.828877e-02 -1.512799e-01 -7.937512e-02 -1.884505e-02 -6.521732e-02 -2.016606e-02 -3.021321e-02 -2.978813e-02 1.344257e-01
<VARIANCE> 39
 3.573173e+01 5.605339e+01 3.221286e+01 4.429973e+01 4.259273e+01 6.223260e+01 5.510967e+01 4.556955e+01 5.288022e+01 4.344701e+01 4.119709e+01 2.975322e+01 4.648962e+01 9.775997e-01 1.442184e+00 1.067970e+00 1.376609e+00 1.779163e+00 2.639063e+00 1.738821e+00 1.571117e+00 1.607120e+00 1.634168e+00 1.425843e+00 1.356303e+00 1.118271e+00 1.623557e-01 2.131617e-01 1.800812e-01 2.554703e-01 2.965255e-01 4.092135e-01 2.919737e-01 2.569352e-01 2.746885e-01 2.716295e-01 2.289113e-01 2.206752e-01 1.685629e-01
<GCONST> 1.074583e+02
<TRANSP> 5
 0.000000e+00 1.000000e+00 0.000000e+00 0.000000e+00 0.000000e+00
 0.000000e+00 5.921009e-01 4.078991e-01 0.000000e+00 0.000000e+00
 0.000000e+00 0.000000e+00 3.766185e-01 6.233815e-01 0.000000e+00
 0.000000e+00 0.000000e+00 0.000000e+00 8.391458e-01 1.608541e-01
 0.000000e+00 0.000000e+00 0.000000e+00 0.000000e+00 0.000000e+00
<ENDHMM>
~h "f"
<BEGINHMM>
<NUMSTATES> 5
<STATE> 2
<MEAN> 39
 -2.342631e+01 1.168335e+01 -7.334784e+00 4.800302e+00 5.817404e+00 -2.104229e+00 3.731613e+00 -2.119752e+00 -2.385938e+00 5.861281e+00 -2.026953e+00 1.084064e+00 6.640462e+01 -1.567144e+00 -3.919531e-01 -2.817168e-01 -9.641523e-01 3.801669e-01 -1.787344e-01 1.363152e-01 2.342121e-01 1.059436e-01 -1.037060e-01 5.981687e-02 2.419950e-01 8.132856e-01 3.832552e-01 -6.134218e-02 -8.539537e-02 -6.165557e-02 -2.542675e-01 -9.241465e-02 -1.310443e-01 -1.541282e-01 -1.353742e-01 -1.187630e-01 -5.655810e-02 -3.167794e-02 3.536126e-02
<VARIANCE> 39
 9.685374e+01 2.783274e+01 3.425272e+01 4.245710e+01 2.798049e+01 1.939163e+01 5.390388e+01 3.933947e+01 3.286802e+01 2.438170e+01 2.997459e+01 2.613115e+01 4.328214e+01 4.471659e+00 1.366513e+00 1.313495e+00 2.320605e+00 1.761776e+00 1.730260e+00 2.070241e+00 1.872759e+00 1.829031e+00 1.556330e+00 1.561877e+00 1.476731e+00 1.689749e+00 7.157453e-01 2.565419e-01 2.358259e-01 4.219976e-01 3.709044e-01 3.219206e-01 3.604829e-01 3.907083e-01 2.944130e-01 2.844459e-01 2.534352e-01 2.468180e-01 2.652071e-01
<GCONST> 1.110662e+02
<STATE> 3
<MEAN> 39
 -2.656067e+01 7.728338e+00 -9.057867e+00 -1.469975e+00 5.109879e+00 -3.497982e+00 3.902352e+00 -1.744590e+00 -4.226394e+00 4.278688e+00 -2.649795e+00 2.738431e+00 6.895900e+01 2.629557e+00 2.125367e-01 -7.829173e-01 -1.263663e+00 -1.676849e+00 -8.539041e-01 -7.389717e-01 -1.017833e+00 -1.084998e+00 -9.858740e-01 -5.008911e-01 -3.850536e-01 4.609235e-01 1.285844e+00 5.971315e-01 -1.880142e-01 -1.693372e-01 -4.999413e-01 -1.726796e-01 -2.372862e-01 -5.005220e-01 -2.636715e-01 -9.817757e-02 -6.486742e-02 -3.038641e-01 2.756561e-02
<VARIANCE> 39
 3.257079e+01 3.429752e+01 2.891523e+01 5.581921e+01 2.450063e+01 2.681318e+01 4.739868e+01 3.126719e+01 3.369481e+01 3.544139e+01 3.340021e+01 2.170844e+01 2.399180e+01 7.684721e+00 3.237640e+00 1.923408e+00 2.686985e+00 2.503840e+00 2.428628e+00 2.805693e+00 2.862510e+00 2.085975e+00 1.747576e+00 1.534608e+00 1.518221e+00 1.492888e+00 5.309252e-01 4.699348e-01 5.335805e-01 5.453698e-01 4.527052e-01 4.903150e-01 4.348744e-01 5.316705e-01 4.165265e-01 3.182485e-01 3.582611e-01 3.687223e-01 1.830761e-01
<GCONST> 1.166700e+02
<STATE> 4
<MEAN> 39
 -1.345114e+01 1.323644e+01 -1.092914e+01 -5.524097e+00 -2.379791e+00 -6.831891e+00 -5.828478e-02 -5.574745e+00 -8.229301e+00 1.450630e+00 -4.783475e+00 -7.213584e-02 6.937484e+01 5.585406e+00 1.768526e+00 -1.595708e+00 -1.939160e+00 -2.568238e+00 -1.306359e+00 -1.276949e+00 -2.258785e+00 -1.412612e+00 -6.146678e-01 -4.616586e-01 -1.212295e+00 8.290728e-01 -1.953451e-01 -1.311956e-01 -2.274874e-01 2.860326e-01 3.103420e-01 1.527210e-01 2.240669e-01 7.864507e-03 3.895696e-01 4.856609e-01 1.620020e-01 -3.868281e-03 -1.239870e-02
<VARIANCE> 39
 9.162862e+01 4.189305e+01 3.067100e+01 4.216402e+01 4.443309e+01 3.608804e+01 4.402843e+01 3.863911e+01 3.101672e+01 4.184274e+01 3.379678e+01 3.104893e+01 1.452222e+01 3.965255e+00 3.558458e+00 6.117320e+00 4.381008e+00 4.195946e+00 4.137696e+00 3.927617e+00 4.050576e+00 3.476380e+00 2.842651e+00 3.440897e+00 3.041333e+00 1.213654e+00 1.457450e+00 1.077657e+00 5.191988e-01 5.089793e-01 7.051175e-01 5.984169e-01 4.124222e-01 6.509768e-01 5.915607e-01 4.071634e-01 4.134260e-01 4.753870e-01 1.311568e-01
<GCONST> 1.269639e+02
<TRANSP> 5
 0.000000e+00 1.000000e+00 0.000000e+00 0.000000e+00 0.000000e+00
 0.000000e+00 8.687704e-01 1.312296e-01 0.000000e+00 0.000000e+00
 0.000000e+00 0.000000e+00 6.150335e-01 3.849665e-01 0.000000e+00
 0.000000e+00 0.000000e+00 0.000000e+00 5.343928e-01 4.656071e-01
 0.000000e+00 0.000000e+00 0.000000e+00 0.000000e+00 0.000000e+00
<ENDHMM>
~h "g"
<BEGINHMM>
<NUMSTATES> 5
<STATE> 2
<MEAN> 39
 -9.697729e+00 1.813075e+01 -3.663229e+00 8.940055e+00 3.813978e-01 -9.441837e-01 3.438149e+00 -6.326815e+00 -6.795965e+00 1.028606e+00 -7.743849e+00 -2.686771e-01 5.906570e+01 1.315293e-01 -2.582741e-01 -9.547048e-01 -1.748133e+00 7.714207e-02 2.653308e-01 2.395926e-01 -1.144119e+00 -5.469392e-01 -1.443676e-01 -1.678760e-01 2.762661e-01 8.903176e-01 1.821000e-01 -8.934040e-02 -1.686448e-01 -2.505976e-01 5.808281e-02 -1.106193e-01 -3.135695e-01 -4.770059e-01 -1.404838e-01 1.464375e-01 7.706870e-02 -2.577097e-02 3.141986e-01
<VARIANCE> 39
 2.467828e+01 3.916880e+01 3.466768e+01 6.141509e+01 4.992071e+01 6.536402e+01 6.356374e+01 4.946263e+01 4.695476e+01 3.827667e+01 3.895403e+01 3.713933e+01 2.374723e+01 3.030650e+00 3.618829e+00 4.335730e+00 7.629471e+00 3.247517e+00 5.191126e+00 6.633921e+00 5.580086e+00 3.282938e+00 4.281038e+00 2.680776e+00 2.870952e+00 1.453731e+00 4.098440e-01 5.417330e-01 7.652578e-01 1.481012e+00 5.982774e-01 8.994600e-01 1.057694e+00 8.775655e-01 6.160414e-01 7.205857e-01 4.279052e-01 4.947595e-01 2.516836e-01
<GCONST> 1.318664e+02
<STATE> 3
<MEAN> 39
 -5.932909e+00 1.470038e+01 -1.084956e+01 5.632882e-01 3.728604e+00 -2.456489e+00 -4.714447e+00 -2.158374e+01 -9.450016e+00 3.851581e+00 -7.004685e+00 -1.627832e+00 6.771093e+01 6.555020e-01 -5.143974e-01 -2.448903e-01 1.044756e+00 7.193819e-01 -2.172500e+00 -2.251693e+00 -1.364050e+00 3.505172e-01 7.228789e-01 -4.450851e-01 -1.355665e+00 1.057622e+00 -1.076681e-01 -6.161109e-02 3.493557e-01 4.951488e-01 -1.951246e-01 -5.178666e-01 -5.755716e-03 8.113183e-01 2.034847e-01 -1.444837e-01 -2.304503e-01 -1.512053e-01 -1.636224e-01
<VARIANCE> 39
 3.166370e+01 3.136121e+01 5.065572e+01 1.169760e+02 1.002172e+02 8.973042e+01 1.065613e+02 1.040954e+02 8.504149e+01 7.214480e+01 7.616391e+01 6.910027e+01 1.234871e+01 1.936477e+00 2.701391e+00 3.836004e+00 6.778514e+00 3.253217e+00 6.997783e+00 5.300266e+00 1.134523e+01 6.133911e+00 5.450232e+00 3.259676e+00 3.938748e+00 7.276044e-01 3.688941e-01 4.723850e-01 7.552869e-01 1.084577e+00 6.226027e-01 9.287828e-01 1.191771e+00 1.386743e+00 9.898917e-01 1.149463e+00 5.181519e-01 8.500307e-01 1.060576e-01
<GCONST> 1.384390e+02
<STATE> 4
<MEAN> 39
 -6.391311e+00 9.532022e+00 -5.126997e+00 9.604753e+00 -4.300517e+00 -2.377029e+01 -7.943608e+00 -7.556331e+00 -1.046002e+01 7.251680e-02 -1.342958e+01 -7.124648e+00 7.149810e+01 6.478992e-03 -1.660753e-01 4.270710e-02 -2.590130e-01 -6.412432e-01 4.361785e-02 5.162340e-01 7.259094e-01 -3.271262e-01 -1.612573e-01 1.912394e-01 2.552965e-01 -7.374368e-02 2.237840e-02 -3.931269e-02 -1.834268e-01 -1.946738e-01 4.914209e-02 2.775475e-01 1.231229e-01 -1.585674e-01 -2.116181e-02 1.682247e-01 2.323122e-01 1.002420e-01 1.387583e-02
<VARIANCE> 39
 1.133227e+01 2.841479e+01 5.465544e+01 6.793452e+01 1.414104e+02 1.136271e+02 9.549724e+01 1.129274e+02 8.626654e+01 6.444141e+01 4.687841e+01 6.588035e+01 1.107582e+01 6.272602e-01 1.499453e+00 2.291166e+00 1.810293e+00 3.151742e+00 8.344266e+00 4.414575e+00 7.204609e+00 2.932773e+00 4.059556e+00 3.554393e+00 2.372299e+00 8.312334e-01 7.614636e-02 2.775713e-01 2.140475e-01 2.577604e-01 4.174502e-01 1.069191e+00 6.981949e-01 8.648890e-01 4.934698e-01 5.398374e-01 4.764204e-01 4.250530e-01 1.469291e-01
<GCONST> 1.233171e+02
<TRANSP> 5
 0.000000e+00 1.000000e+00 0.000000e+00 0.000000e+00 0.000000e+00
 0.000000e+00 8.364862e-01 1.635139e-01 0.000000e+00 0.000000e+00
 0.000000e+00 0.000000e+00 8.473420e-01 1.526580e-01 0.000000e+00
 0.000000e+00 0.000000e+00 0.000000e+00 9.252363e-01 7.476373e-02
 0.000000e+00 0.000000e+00 0.000000e+00 0.000000e+00 0.000000e+00
<ENDHMM>
~h "k"
<BEGINHMM>
<NUMSTATES> 5
<STATE> 2
<MEAN> 39
 -9.460351e+00 9.953794e+00 -6.587810e+00 4.069317e+00 -3.334980e+00 -1.198672e+01 -3.422867e+00 -7.647842e+00 -9.075857e+00 5.343450e+00 -7.018066e+00 -2.476194e+00 6.639365e+01 -1.011736e+00 -3.490351e-01 4.830355e-01 4.328040e-01 3.279268e-01 8.249696e-01 7.307460e-02 2.078798e-01 8.603286e-01 3.560424e-01 1.802363e-01 2.737927e-01 -3.771336e-01 4.972965e-02 -1.193914e-02 -5.656189e-02 -1.717164e-01 -1.272720e-01 1.618600e-01 1.451503e-01 -3.440456e-02 7.787925e-02 -9.605373e-03 9.309682e-02 1.405507e-01 1.059761e-01
<VARIANCE> 39
 2.644660e+01 4.074784e+01 3.772681e+01 5.740355e+01 6.345515e+01 1.371549e+02 7.982146e+01 6.287909e+01 7.862376e+01 5.817207e+01 4.888083e+01 5.070624e+01 4.411583e+01 1.512992e+00 2.742594e+00 2.456156e+00 3.634673e+00 2.726189e+00 8.975922e+00 4.793641e+00 4.191060e+00 3.481410e+00 3.670474e+00 3.184130e+00 2.804909e+00 4.384655e+00 3.351737e-01 5.966530e-01 4.421365e-01 8.305828e-01 4.492620e-01 1.025308e+00 6.312591e-01 7.064585e-01 6.539891e-01 7.845120e-01 5.584026e-01 4.688428e-01 7.893156e-01
<GCONST> 1.335501e+02
<STATE> 3
<MEAN> 39
 -1.297609e+01 1.005298e+01 -5.294891e+00 4.880146e+00 -2.519933e+00 -5.978240e+00 -1.070639e+00 -7.336590e+00 -5.501110e+00 5.467561e+00 -5.232368e+00 5.558112e-02 6.344059e+01 -5.577137e-01 -3.994623e-01 -4.678329e-02 -5.759838e-01 1.224135e-02 7.850368e-01 3.440652e-01 5.833281e-02 5.287592e-01 5.211663e-01 5.568345e-01 4.860922e-01 2.103371e-01 1.605815e-01 -1.572922e-01 -1.670510e-01 -5.216711e-01 -7.423699e-02 -1.321461e-01 3.716882e-02 -9.402054e-03 -1.402572e-01 1.097891e-01 9.046540e-02 -1.574184e-02 4.955135e-01
<VARIANCE> 39
 2.650256e+01 3.171803e+01 4.174853e+01 5.725285e+01 4.484855e+01 6.655325e+01 6.785698e+01 5.623806e+01 4.795810e+01 4.620312e+01 3.758632e+01 3.768057e+01 3.462225e+01 3.362123e+00 3.120568e+00 2.884312e+00 6.395780e+00 2.723972e+00 7.269112e+00 4.783618e+00 4.011789e+00 3.337372e+00 3.501115e+00 2.932177e+00 2.484481e+00 4.195819e+00 4.057994e-01 5.221536e-01 4.358689e-01 1.121756e+00 4.583477e-01 6.296629e-01 6.574617e-01 6.606689e-01 5.828647e-01 6.022581e-01 5.053877e-01 4.124478e-01 7.851374e-01
<GCONST> 1.308256e+02
<STATE> 4
<MEAN> 39
 -1.486907e+01 6.936985e+00 -7.810225e+00 -5.261557e-01 -3.966991e+00 -1.515698e+00 4.130581e+00 -4.740277e+00 -3.342833e+00 7.392383e+00 -2.416191e+00 3.823068e+00 6.440826e+01 -5.880708e-03 -7.604961e-01 -3.727508e-01 -1.204162e+00 1.360922e-02 1.191126e-01 1.730777e-01 6.268060e-02 1.412183e-02 4.108282e-01 2.899983e-01 -2.664640e-02 1.140844e+00 9.266165e-02 -1.082769e-02 -4.794048e-03 1.188038e-01 3.293550e-02 -1.693860e-01 -1.066876e-01 7.679463e-03 -1.601010e-02 -1.012788e-01 -9.947876e-02 -2.210428e-01 8.683370e-02
<VARIANCE> 39
 3.443761e+01 4.021230e+01 6.327868e+01 1.234622e+02 6.021713e+01 1.116060e+02 8.549666e+01 6.489835e+01 7.155966e+01 4.852457e+01 4.770861e+01 4.642467e+01 4.936666e+01 2.796924e+00 2.942815e+00 2.627796e+00 9.624966e+00 3.754014e+00 5.978504e+00 4.870196e+00 4.000568e+00 3.735343e+00 3.908311e+00 4.623865e+00 3.694659e+00 3.644639e+00 4.550599e-01 4.379653e-01 5.275089e-01 1.685047e+00 5.792034e-01 7.890145e-01 7.370835e-01 7.147187e-01 7.260653e-01 6.918482e-01 7.350618e-01 5.838044e-01 7.224880e-01
<GCONST> 1.382800e+02
<TRANSP> 5
 0.000000e+00 1.000000e+00 0.000000e+00 0.000000e+00 0.000000e+00
 0.000000e+00 6.186419e-01 3.813581e-01 0.000000e+00 0.000000e+00
 0.000000e+00 0.000000e+00 5.103502e-01 4.896498e-01 0.000000e+00
 0.000000e+00 0.000000e+00 0.000000e+00 7.454551e-01 2.545448e-01
 0.000000e+00 0.000000e+00 0.000000e+00 0.000000e+00 0.000000e+00
<ENDHMM>
~h "l"
<BEGINHMM>
<NUMSTATES> 5
<STATE> 2
<MEAN> 39
 -1.938180e+00 8.864939e+00 -1.163750e+01 -6.530761e+00 -1.998820e+01 -1.031993e+01 5.684643e+00 -2.523002e+00 -9.192935e+00 -9.491765e-01 -4.728829e+00 -2.091370e-01 7.317990e+01 1.723668e-01 7.228103e-01 6.235684e-01 -1.182496e-01 -9.475877e-01 -1.178834e-01 3.151180e-01 2.705723e-02 -4.187052e-01 -4.018360e-01 3.982433e-02 2.229445e-01 -5.104641e-01 -5.150633e-02 -2.244489e-02 4.620937e-02 1.188305e-01 1.617707e-01 1.456706e-02 -1.329761e-01 -1.329479e-01 1.925339e-03 3.553045e-02 9.609731e-03 -4.219356e-03 -2.399159e-02
<VARIANCE> 39
 1.056492e+01 5.842458e+01 8.945912e+01 7.651698e+01 8.035132e+01 8.692161e+01 6.751997e+01 8.937105e+01 7.530270e+01 5.311488e+01 4.866571e+01 3.582801e+01 2.127060e+01 2.567953e-01 7.392893e-01 1.128480e+00 1.117702e+00 1.499544e+00 2.107606e+00 2.148439e+00 1.815696e+00 2.071558e+00 1.808504e+00 1.761191e+00 1.255968e+00 2.273683e-01 4.099873e-02 1.009212e-01 1.239839e-01 1.599261e-01 2.104578e-01 2.301743e-01 2.852385e-01 2.641797e-01 2.905129e-01 2.808679e-01 2.549890e-01 2.250049e-01 3.188813e-02
<GCONST> 1.011906e+02
<STATE> 3
<MEAN> 39
 -1.396779e+00 1.477835e+01 -3.673004e+00 -3.766512e+00 -2.156828e+01 -1.288297e+01 2.973337e+00 -2.905998e+00 -1.046609e+01 -1.148687e+00 -4.470426e+00 3.469601e-01 6.962681e+01 -1.076161e-01 3.097166e-01 3.165297e-01 4.789293e-01 4.934672e-01 2.661164e-01 -1.267888e-01 -6.588038e-01 -2.481986e-01 -9.534739e-02 6.425713e-02 2.615699e-01 -4.237979e-01 -7.077364e-02 -1.216315e-01 -1.042410e-01 1.038829e-01 3.395921e-01 9.126539e-03 -1.149964e-01 -1.258149e-01 3.547074e-02 1.891970e-01 1.094657e-01 -3.940908e-03 5.055448e-02
<VARIANCE> 39
 9.226435e+00 4.216245e+01 8.500065e+01 8.642915e+01 8.764504e+01 6.603793e+01 5.816346e+01 7.909180e+01 8.811395e+01 4.681226e+01 5.071088e+01 3.981251e+01 2.129367e+01 1.711927e-01 6.102792e-01 6.494475e-01 7.883917e-01 1.281141e+00 1.419547e+00 1.437090e+00 1.544666e+00 1.767018e+00 1.555887e+00 1.399684e+00 1.331235e+00 2.736183e-01 2.471071e-02 8.941432e-02 9.992290e-02 1.279279e-01 1.867312e-01 2.209866e-01 2.869283e-01 2.573690e-01 2.541854e-01 2.680990e-01 2.444026e-01 2.433422e-01 4.226726e-02
<GCONST> 9.649848e+01
<STATE> 4
<MEAN> 39
 -4.024760e+00 1.311561e+01 -5.234393e+00 -8.051912e-02 -1.586722e+01 -1.580224e+01 2.030092e+00 -1.015869e+01 -1.336760e+01 1.058522e+00 -5.055908e+00 1.583844e+00 6.856429e+01 -3.643939e-01 -1.110889e-01 1.584799e-01 8.296364e-01 1.329516e+00 -4.412785e-02 -6.725581e-01 -4.508761e-01 9.190399e-02 6.077340e-01 1.577531e-01 -2.003125e-01 -2.366393e-01 -3.783801e-02 -8.210091e-02 -2.328938e-02 8.248418e-02 9.655370e-02 -9.226625e-02 -8.685196e-02 1.811913e-01 2.066253e-01 8.059899e-02 -7.168762e-02 -1.657898e-01 1.842757e-02
<VARIANCE> 39
 1.521483e+01 5.027402e+01 5.775988e+01 7.601623e+01 1.041166e+02 1.250463e+02 6.817201e+01 8.386268e+01 8.482577e+01 5.320449e+01 5.540476e+01 4.437638e+01 3.293435e+01 3.363322e-01 9.933204e-01 1.073264e+00 1.261367e+00 1.985446e+00 3.075194e+00 2.406824e+00 3.162189e+00 2.601085e+00 3.049336e+00 2.304124e+00 2.436401e+00 6.964861e-01 5.023801e-02 1.220877e-01 1.470626e-01 2.054454e-01 3.025462e-01 4.570878e-01 3.824431e-01 4.314589e-01 4.097985e-01 4.429288e-01 3.650995e-01 3.855435e-01 7.187025e-02
<GCONST> 1.123523e+02
<TRANSP> 5
 0.000000e+00 1.000000e+00 0.000000e+00 0.000000e+00 0.000000e+00
 0.000000e+00 7.274272e-01 2.725728e-01 0.000000e+00 0.000000e+00
 0.000000e+00 0.000000e+00 7.338611e-01 2.661389e-01 0.000000e+00
 0.000000e+00 0.000000e+00 0.000000e+00 7.647545e-01 2.352455e-01
 0.000000e+00 0.000000e+00 0.000000e+00 0.000000e+00 0.000000e+00
<ENDHMM>
~h "m"
<BEGINHMM>
<NUMSTATES> 5
<STATE> 2
<MEAN> 39
 -8.400959e+00 1.156604e+01 -6.386493e+00 6.620990e+00 -1.569875e+00 -3.410442e+00 -3.373189e-02 -7.971583e+00 -6.873581e+00 3.939026e+00 -4.501710e+00 -7.384531e-01 6.397732e+01 2.415247e-01 4.667483e-01 2.864942e-01 5.808786e-01 2.362946e-01 1.574511e-01 -2.642763e-01 -3.927246e-01 -2.813053e-01 -2.344161e-01 -3.660692e-01 -1.930659e-01 -3.739958e-01 6.375184e-02 2.538803e-02 -1.800069e-02 -8.974049e-02 -9.101163e-02 -2.334691e-01 -2.039513e-01 -8.971149e-02 -4.279836e-02 4.587602e-02 -7.120897e-03 -8.096042e-02 1.256329e-01
<VARIANCE> 39
 6.588332e+01 5.687770e+01 6.566991e+01 5.751721e+01 3.420930e+01 6.243838e+01 5.146328e+01 5.978840e+01 7.373484e+01 4.085116e+01 4.064203e+01 4.832443e+01 5.897250e+01 1.496732e+00 1.407244e+00 1.659183e+00 1.165655e+00 1.080096e+00 2.944061e+00 2.750004e+00 3.070020e+00 2.828294e+00 2.103049e+00 1.794999e+00 1.921218e+00 1.479173e+00 2.041548e-01 2.515275e-01 2.146455e-01 2.189993e-01 1.898938e-01 3.842223e-01 3.397561e-01 4.794902e-01 4.203092e-01 3.792505e-01 3.167128e-01 3.359683e-01 1.415537e-01
<GCONST> 1.151276e+02
<STATE> 3
<MEAN> 39
 -6.313261e+00 1.357223e+01 -6.456495e+00 7.291882e+00 -1.258029e+00 -3.559220e+00 -1.476205e+00 -9.651912e+00 -8.765901e+00 2.928849e+00 -5.021952e+00 -1.608889e+00 6.360772e+01 4.821992e-01 5.558770e-01 2.149371e-01 4.029866e-01 7.513267e-03 -3.144483e-01 -5.810652e-01 -4.450860e-01 -3.470550e-01 -2.039050e-01 -3.662787e-01 -3.400882e-01 -1.754201e-01 -2.783705e-02 -1.291761e-01 -9.416466e-02 -1.560720e-01 -1.384194e-01 -3.081153e-01 -5.284338e-02 1.614100e-01 1.236244e-01 1.221538e-01 1.099263e-01 3.470096e-02 1.629284e-01
<VARIANCE> 39
 4.239508e+01 4.734914e+01 4.783012e+01 5.608599e+01 3.332361e+01 5.960520e+01 5.045601e+01 5.839180e+01 7.138982e+01 3.755720e+01 3.472822e+01 5.017581e+01 4.656698e+01 1.601069e+00 1.327034e+00 1.344529e+00 9.388013e-01 1.102520e+00 2.982732e+00 2.959490e+00 3.027246e+00 2.968007e+00 2.067712e+00 1.522467e+00 2.001003e+00 1.367876e+00 1.545561e-01 2.217769e-01 2.348294e-01 2.100359e-01 1.744050e-01 4.103102e-01 3.738285e-01 4.731770e-01 3.924264e-01 3.450513e-01 2.890205e-01 2.916022e-01 1.169207e-01
<GCONST> 1.121964e+02
<STATE> 4
<MEAN> 39
 -5.589718e+00 1.356067e+01 -6.155962e+00 8.450850e+00 -5.487502e-01 -5.675455e+00 -3.507109e+00 -1.164291e+01 -1.014092e+01 4.140497e+00 -5.753784e+00 -4.662893e+00 6.365999e+01 1.207771e-01 6.616766e-02 -4.798046e-02 1.419641e-01 -1.342120e-01 -5.866643e-01 -1.602251e-01 3.184465e-01 2.378998e-01 6.456859e-03 -9.124513e-02 7.533438e-02 -1.144206e-02 -1.332794e-01 -2.058814e-01 -3.112364e-02 -5.996113e-02 -3.963178e-02 -2.736792e-01 7.423328e-02 2.315321e-01 1.357682e-01 6.876932e-02 1.222787e-01 1.180999e-01 1.289121e-01
<VARIANCE> 39
 3.066378e+01 4.225778e+01 3.524274e+01 4.311388e+01 3.007081e+01 7.848357e+01 5.333085e+01 5.830392e+01 7.211212e+01 3.408672e+01 3.211938e+01 6.633234e+01 3.520639e+01 1.204823e+00 1.399309e+00 1.120035e+00 1.154889e+00 1.100113e+00 4.626093e+00 2.607908e+00 2.370447e+00 2.079771e+00 1.920602e+00 1.586844e+00 1.894679e+00 1.367580e+00 1.229564e-01 2.225310e-01 2.577460e-01 1.994698e-01 1.713562e-01 6.990107e-01 4.217355e-01 4.324189e-01 3.718055e-01 3.465324e-01 2.835457e-01 2.797151e-01 1.354477e-01
<GCONST> 1.110654e+02
<TRANSP> 5
 0.000000e+00 1.000000e+00 0.000000e+00 0.000000e+00 0.000000e+00
 0.000000e+00 2.435852e-01 7.564148e-01 0.000000e+00 0.000000e+00
 0.000000e+00 0.000000e+00 2.812897e-01 7.187103e-01 0.000000e+00
 0.000000e+00 0.000000e+00 0.000000e+00 5.577266e-01 4.422734e-01
 0.000000e+00 0.000000e+00 0.000000e+00 0.000000e+00 0.000000e+00
<ENDHMM>
~h "n"
<BEGINHMM>
<NUMSTATES> 5
<STATE> 2
<MEAN> 39
 -5.130316e+00 8.358249e+00 -7.755748e+00 5.047490e+00 -4.921657e+00 -1.733218e+01 -4.573062e+00 -7.411080e+00 -8.684983e+00 4.786637e+00 -5.999296e+00 -4.476623e+00 7.105671e+01 3.604102e-02 6.447634e-01 2.251989e-01 3.192690e-01 3.176213e-01 4.464801e-01 1.148999e-01 -2.135926e-01 -3.137283e-01 -2.432927e-01 -1.920593e-01 -4.097247e-02 -5.279639e-01 -1.577683e-02 6.638923e-02 8.234519e-02 6.988017e-02 -9.629070e-03 1.439636e-01 5.973826e-03 -2.045407e-03 2.364446e-02 -3.983597e-02 -3.572769e-02 2.481409e-02 -1.051119e-01
<VARIANCE> 39
 1.144479e+01 4.478589e+01 3.929543e+01 5.127201e+01 7.568057e+01 1.109151e+02 6.019603e+01 7.822514e+01 7.298759e+01 5.791563e+01 5.724752e+01 4.391006e+01 2.196952e+01 3.802085e-01 1.148072e+00 1.210569e+00 1.698903e+00 1.224529e+00 3.076070e+00 1.915504e+00 2.254827e+00 2.066345e+00 2.064393e+00 1.667526e+00 1.425032e+00 7.717083e-01 5.659215e-02 1.490969e-01 1.415970e-01 2.335320e-01 1.866813e-01 4.409689e-01 2.831564e-01 3.266079e-01 3.259470e-01 3.270445e-01 2.809365e-01 2.311901e-01 9.228597e-02
<GCONST> 1.066064e+02
<STATE> 3
<MEAN> 39
 -4.324047e+00 1.375264e+01 -5.020593e+00 8.081246e+00 -2.702443e+00 -1.151478e+01 -4.166178e+00 -8.811677e+00 -9.462329e+00 3.121221e+00 -6.690498e+00 -3.662377e+00 6.699593e+01 -4.569431e-02 6.526350e-01 3.720971e-01 4.450594e-01 6.600552e-02 7.083201e-01 2.043649e-01 -6.566785e-02 -1.110485e-02 -1.795149e-01 -1.634228e-01 1.279209e-02 -7.449774e-01 -8.748974e-02 -1.199521e-01 -2.663594e-03 -4.189176e-02 -4.093238e-02 -3.058968e-02 6.756064e-02 1.218002e-01 1.206517e-01 6.812487e-02 5.812867e-02 3.626629e-02 3.327951e-02
<VARIANCE> 39
 1.045638e+01 3.423007e+01 3.071133e+01 4.810058e+01 5.743504e+01 7.794889e+01 4.554297e+01 5.433697e+01 6.288924e+01 4.435984e+01 4.544336e+01 4.091716e+01 2.306599e+01 3.518875e-01 9.062366e-01 9.721776e-01 1.466864e+00 1.124560e+00 2.346781e+00 1.710839e+00 1.892417e+00 1.653377e+00 1.601292e+00 1.480580e+00 1.160953e+00 5.776573e-01 4.909826e-02 1.148099e-01 1.308764e-01 2.286558e-01 1.762528e-01 3.683447e-01 2.698675e-01 2.881349e-01 2.665862e-01 2.706952e-01 2.400047e-01 1.950651e-01 6.943178e-02
<GCONST> 9.966600e+01
<STATE> 4
<MEAN> 39
 -9.823906e+00 1.224181e+01 -5.238388e+00 1.101891e+01 -1.686982e+00 -2.281500e+00 2.591017e+00 -4.862647e+00 -4.211297e+00 5.374982e+00 -3.461519e+00 6.736938e-02 5.971190e+01 -3.030065e-01 1.350932e-02 5.711266e-02 1.427024e-01 1.110629e-01 4.460138e-01 3.187357e-01 2.908174e-01 2.683183e-01 1.876090e-02 6.463067e-02 1.748600e-01 -3.837146e-01 -2.425161e-02 -7.459246e-02 -1.046532e-02 -5.558269e-02 4.164994e-03 -6.874950e-02 -1.139835e-02 2.759013e-02 1.941070e-03 1.342311e-02 1.475435e-02 1.203938e-02 6.926954e-02
<VARIANCE> 39
 3.320205e+01 4.808490e+01 2.787140e+01 3.869019e+01 4.488165e+01 9.248194e+01 5.642228e+01 5.425277e+01 6.709532e+01 3.864814e+01 4.060864e+01 4.894774e+01 4.635347e+01 4.673669e-01 1.040729e+00 9.127603e-01 1.012201e+00 1.087319e+00 2.123600e+00 1.456295e+00 1.630167e+00 1.561107e+00 1.402353e+00 1.442862e+00 1.334794e+00 6.306694e-01 7.471471e-02 1.435241e-01 1.474502e-01 1.812112e-01 1.835828e-01 3.110950e-01 2.346708e-01 2.601683e-01 2.577318e-01 2.487211e-01 2.368926e-01 2.256349e-01 7.541233e-02
<GCONST> 1.014872e+02
<TRANSP> 5
 0.000000e+00 1.000000e+00 0.000000e+00 0.000000e+00 0.000000e+00
 0.000000e+00 7.146199e-01 2.853801e-01 0.000000e+00 0.000000e+00
 0.000000e+00 0.000000e+00 6.462157e-01 3.537843e-01 0.000000e+00
 0.000000e+00 0.000000e+00 0.000000e+00 8.338379e-01 1.661621e-01
 0.000000e+00 0.000000e+00 0.000000e+00 0.000000e+00 0.000000e+00
<ENDHMM>
~h "p"
<BEGINHMM>
<NUMSTATES> 5
<STATE> 2
<MEAN> 39
 -1.286609e+01 1.082204e+01 -6.427196e+00 9.967737e+00 -1.270343e+00 -6.334980e-02 2.409013e+00 -5.420280e+00 -4.493832e+00 5.755847e+00 -9.658816e-01 2.826347e+00 5.609697e+01 -4.519902e-01 -4.907619e-01 1.745550e-01 -1.390795e-01 -4.448041e-02 -2.988043e-02 3.027026e-01 5.353869e-01 2.198532e-01 1.695469e-01 3.408576e-01 2.990418e-01 1.203484e-01 6.949929e-02 -9.315215e-02 -1.831684e-02 -1.361853e-01 -1.622941e-02 -1.189972e-01 1.735088e-03 2.505746e-02 -6.670074e-02 -3.145980e-03 -4.083562e-02 -3.871272e-02 2.133531e-01
<VARIANCE> 39
 2.317320e+01 3.745825e+01 2.194342e+01 2.768377e+01 2.023809e+01 2.982849e+01 2.802691e+01 3.602881e+01 3.573208e+01 4.539225e+01 2.792911e+01 2.024015e+01 2.730562e+01 7.413790e-01 2.323162e+00 1.165928e+00 2.100985e+00 1.151766e+00 2.851809e+00 1.675158e+00 1.937516e+00 1.985878e+00 2.659926e+00 1.933957e+00 1.387265e+00 3.129288e+00 1.070171e-01 2.573245e-01 2.057297e-01 2.635082e-01 1.974580e-01 4.328261e-01 2.975789e-01 3.309651e-01 3.104488e-01 4.039784e-01 3.012165e-01 2.288331e-01 3.372243e-01
<GCONST> 1.056850e+02
<STATE> 3
<MEAN> 39
 -1.413398e+01 6.111073e+00 -5.033477e+00 6.046780e+00 -2.567266e+00 -2.319256e+00 4.158589e+00 -8.923494e-01 -3.465988e+00 5.675144e+00 -4.753463e-01 4.100876e+00 6.149707e+01 3.603445e-01 -6.899799e-01 -6.365623e-01 -1.100863e+00 -5.678872e-01 6.814118e-02 8.195167e-01 6.908199e-01 3.957001e-01 3.426219e-01 -6.486379e-02 -1.772114e-01 8.107417e-01 2.930325e-01 3.436258e-01 -1.755457e-01 4.540049e-02 -1.764892e-01 1.032062e-01 1.569982e-01 -3.456191e-02 8.796988e-02 -1.989722e-01 -3.170510e-01 -2.763256e-01 -1.242246e-01
<VARIANCE> 39
 2.648504e+01 7.441578e+01 3.797035e+01 5.624845e+01 2.984395e+01 4.811016e+01 3.171694e+01 4.163974e+01 5.485633e+01 6.060775e+01 3.180793e+01 2.504750e+01 6.559737e+01 1.809084e+00 3.432927e+00 3.475935e+00 4.000379e+00 2.255344e+00 3.924867e+00 3.870634e+00 3.299706e+00 3.144054e+00 3.642083e+00 2.828856e+00 2.188053e+00 3.087554e+00 3.355743e-01 6.575939e-01 5.421513e-01 5.635782e-01 3.796201e-01 8.550107e-01 6.467245e-01 5.587825e-01 6.864896e-01 8.814916e-01 5.247839e-01 3.847546e-01 5.927456e-01
<GCONST> 1.274682e+02
<STATE> 4
<MEAN> 39
 -1.232999e+01 7.116512e+00 -8.248789e+00 5.283102e+00 -5.474409e+00 1.839702e+00 1.019961e+01 2.276357e+00 3.712696e-01 5.909026e+00 -1.796525e+00 2.661397e+00 6.023620e+01 7.376065e-01 5.087427e-01 -3.319404e-01 -6.094918e-01 -7.499840e-01 -4.144653e-01 1.076068e-01 -3.891380e-02 -1.967666e-01 -6.424112e-01 -6.617097e-01 -5.078806e-01 5.610864e-01 7.403141e-02 1.106947e-01 3.871989e-02 -1.895098e-02 -2.017058e-02 -2.011673e-01 -2.541485e-01 -1.629231e-01 -1.391314e-01 -4.490335e-02 7.698123e-03 1.600132e-03 6.383895e-02
<VARIANCE> 39
 2.740666e+01 5.887332e+01 2.817630e+01 8.971397e+01 5.423590e+01 6.034895e+01 4.586491e+01 4.007072e+01 4.260654e+01 4.721265e+01 3.859016e+01 3.297987e+01 7.491440e+01 1.993134e+00 3.300419e+00 1.886146e+00 2.919472e+00 3.105117e+00 3.239056e+00 3.559346e+00 3.029387e+00 2.953859e+00 3.791658e+00 2.832687e+00 2.207159e+00 1.410836e+00 2.505313e-01 5.112611e-01 2.609429e-01 4.684129e-01 3.961793e-01 4.937686e-01 6.159401e-01 4.749120e-01 4.492522e-01 5.422845e-01 4.005119e-01 3.543707e-01 1.944264e-01
<GCONST> 1.224292e+02
<TRANSP> 5
 0.000000e+00 1.000000e+00 0.000000e+00 0.000000e+00 0.000000e+00
 0.000000e+00 7.775026e-01 2.224974e-01 0.000000e+00 0.000000e+00
 0.000000e+00 0.000000e+00 5.689452e-01 4.310549e-01 0.000000e+00
 0.000000e+00 0.000000e+00 0.000000e+00 8.062285e-01 1.937715e-01
 0.000000e+00 0.000000e+00 0.000000e+00 0.000000e+00 0.000000e+00
<ENDHMM>
~h "r"
<BEGINHMM>
<NUMSTATES> 5
<STATE> 2
<MEAN> 39
 -3.933990e+00 1.195663e+01 -1.367723e+01 -4.472025e+00 -4.917322e+00 -6.039803e+00 -1.562144e+00 -1.319964e+01 -1.106620e+01 2.697837e+00 -4.615895e+00 -1.154659e+00 6.931007e+01 1.581284e+00 -2.795942e-02 -2.070911e+00 -1.398736e+00 -3.170288e-01 -3.632952e-01 -2.044100e-01 -1.253998e+00 -4.614255e-01 8.962963e-01 8.400365e-01 -1.632123e-01 1.208480e+00 -3.445839e-01 -4.824291e-01 -5.029242e-02 3.329012e-01 1.929742e-01 -7.816089e-02 -9.823526e-03 3.566599e-01 3.785339e-01 2.655978e-01 3.082489e-02 -8.623760e-02 4.016227e-02
<VARIANCE> 39
 3.115256e+01 7.071800e+01 4.937672e+01 7.372913e+01 5.685326e+01 7.833266e+01 9.077962e+01 9.423696e+01 7.632250e+01 6.047997e+01 6.099279e+01 5.155837e+01 2.586178e+01 3.146244e+00 4.329822e+00 3.083642e+00 4.842743e+00 3.351038e+00 4.698558e+00 3.976450e+00 5.301047e+00 4.808518e+00 5.759212e+00 4.931924e+00 4.314206e+00 1.914866e+00 6.173709e-01 6.909719e-01 5.089061e-01 8.485209e-01 5.011223e-01 6.093951e-01 6.340126e-01 9.369975e-01 7.995381e-01 8.491495e-01 7.210447e-01 6.016298e-01 2.968095e-01
<GCONST> 1.370868e+02
<STATE> 3
<MEAN> 39
 -1.166755e+00 9.911127e+00 -1.881688e+01 -5.727988e+00 -3.671899e+00 -7.539828e+00 -3.217794e+00 -1.710757e+01 -1.070385e+01 7.341537e+00 -2.252168e+00 -2.288465e+00 7.229720e+01 2.893586e-01 -1.208062e+00 -1.202895e+00 4.614550e-01 3.113137e-01 -5.059304e-01 -2.203690e-01 3.791204e-02 8.785462e-01 1.150130e+00 2.050135e-01 -5.887204e-01 6.745208e-01 -3.815013e-01 -1.840897e-01 4.667844e-01 4.950771e-01 -1.069892e-02 -8.748265e-02 7.383806e-02 5.435038e-01 2.489913e-01 -3.310036e-01 -3.399091e-01 -2.636114e-02 -1.648343e-01
<VARIANCE> 39
 1.773618e+01 5.068804e+01 5.176266e+01 7.063669e+01 5.787283e+01 7.391465e+01 9.715909e+01 1.371975e+02 9.874084e+01 5.571312e+01 6.870042e+01 5.626093e+01 1.444432e+01 7.110295e-01 2.034067e+00 1.833338e+00 2.850686e+00 2.250081e+00 3.528555e+00 2.978567e+00 4.484706e+00 3.313978e+00 4.113698e+00 3.365635e+00 2.885989e+00 7.440314e-01 2.120969e-01 3.236957e-01 2.849673e-01 3.889890e-01 3.653996e-01 4.467626e-01 5.458261e-01 5.987188e-01 4.894809e-01 6.133884e-01 5.501694e-01 4.823855e-01 1.032648e-01
<GCONST> 1.227521e+02
<STATE> 4
<MEAN> 39
 -2.489716e+00 4.818140e+00 -1.836008e+01 -7.902503e-01 -5.101465e+00 -1.203092e+01 -5.483369e+00 -1.550277e+01 -7.885473e+00 9.383898e+00 -3.339750e+00 -3.572320e+00 7.234962e+01 -2.527174e-01 -2.130756e-01 2.472268e-01 5.962442e-01 -6.377302e-02 -9.910469e-02 1.591334e-01 6.413392e-01 2.789589e-01 -1.439487e-01 -2.329969e-01 -1.530390e-02 -1.881799e-01 -9.414096e-02 1.425134e-01 2.090859e-01 5.618216e-02 -1.952515e-02 1.001184e-01 5.531380e-02 6.878268e-02 -5.042420e-02 -1.789156e-01 -2.765895e-02 9.654150e-02 -1.442044e-01
<VARIANCE> 39
 1.601563e+01 4.842446e+01 4.433082e+01 5.600084e+01 7.029088e+01 9.493139e+01 7.036587e+01 1.526115e+02 1.184075e+02 7.816507e+01 7.589156e+01 6.154519e+01 2.331012e+01 5.765420e-01 1.992785e+00 1.689759e+00 2.057973e+00 1.590088e+00 3.938801e+00 2.854921e+00 3.257464e+00 3.400714e+00 3.197728e+00 2.324409e+00 2.153637e+00 1.216762e+00 9.714713e-02 2.130576e-01 2.291469e-01 2.560105e-01 2.613103e-01 5.213205e-01 4.376425e-01 4.834154e-01 4.980720e-01 5.529628e-01 3.799333e-01 3.518315e-01 1.468235e-01
<GCONST> 1.191285e+02
<TRANSP> 5
 0.000000e+00 1.000000e+00 0.000000e+00 0.000000e+00 0.000000e+00
 0.000000e+00 5.922871e-01 4.077129e-01 0.000000e+00 0.000000e+00
 0.000000e+00 0.000000e+00 4.663551e-01 5.336449e-01 0.000000e+00
 0.000000e+00 0.000000e+00 0.000000e+00 8.041694e-01 1.958306e-01
 0.000000e+00 0.000000e+00 0.000000e+00 0.000000e+00 0.000000e+00
<ENDHMM>
~h "s"
<BEGINHMM>
<NUMSTATES> 5
<STATE> 2
<MEAN> 39
 -1.940991e+01 8.308585e+00 2.507567e+00 -1.296516e+00 7.814187e-01 -4.801539e+00 -1.216977e+00 -5.171023e+00 -3.948029e+00 6.629298e+00 -3.833077e+00 6.308944e-01 6.813319e+01 -3.694874e+00 -5.636767e-01 2.229071e+00 -2.406212e+00 1.206525e+00 7.772821e-01 4.802123e-01 5.202556e-01 6.670182e-01 8.337693e-01 5.678781e-01 2.214251e-01 1.296027e+00 -1.314631e-01 1.960372e-01 -2.078859e-01 1.311263e-01 -9.412769e-02 -1.866345e-01 1.984584e-01 4.841060e-02 -2.847695e-02 -8.928433e-02 -3.064219e-02 -8.336666e-02 1.615032e-02
<VARIANCE> 39
 6.695260e+01 3.699491e+01 6.955978e+01 1.082589e+02 5.241915e+01 7.483926e+01 9.822112e+01 7.336317e+01 5.388703e+01 4.767675e+01 4.100014e+01 3.472868e+01 4.471153e+01 3.077844e+00 2.614639e+00 3.526736e+00 5.365056e+00 3.994930e+00 4.988385e+00 4.007678e+00 3.958341e+00 4.361844e+00 3.022734e+00 2.473099e+00 2.071262e+00 2.146847e+00 7.630219e-01 3.460381e-01 7.811190e-01 1.094779e+00 5.490122e-01 6.604156e-01 6.688969e-01 6.408203e-01 6.323723e-01 5.490727e-01 4.443824e-01 3.484575e-01 3.807968e-01
<GCONST> 1.330088e+02
<STATE> 3
<MEAN> 39
 -3.187848e+01 8.859990e+00 6.324687e+00 -6.094048e+00 3.785402e+00 -2.768322e+00 2.773867e+00 -2.828526e+00 -1.955060e+00 8.210746e+00 -2.123563e+00 6.968952e-01 7.042785e+01 -3.911583e-01 2.159228e-03 -6.063406e-02 2.157389e-01 -1.180515e-01 9.948044e-02 2.778574e-01 1.136813e-01 1.360204e-01 1.291579e-02 1.133929e-01 8.325564e-03 -1.913776e-01 6.998673e-01 8.661821e-03 -1.789736e-01 2.882037e-01 -2.504660e-01 -1.578876e-01 -2.814811e-01 -2.133819e-01 -1.390266e-01 -9.844586e-02 -1.009337e-01 -6.636536e-02 -9.500647e-02
<VARIANCE> 39
 3.036770e+01 4.795626e+01 3.832076e+01 1.186881e+02 4.844794e+01 3.819500e+01 8.019891e+01 5.283638e+01 4.048943e+01 2.971691e+01 2.278150e+01 2.151615e+01 3.145117e+01 3.036115e+00 1.115973e+00 1.221906e+00 1.969539e+00 2.096720e+00 1.646941e+00 2.117769e+00 1.981611e+00 1.522743e+00 1.356175e+00 1.272707e+00 1.079530e+00 1.040364e+00 3.782876e-01 2.207889e-01 2.648467e-01 3.679656e-01 3.656708e-01 3.191676e-01 4.040007e-01 3.514555e-01 3.302578e-01 2.728729e-01 2.549640e-01 2.309855e-01 1.491076e-01
<GCONST> 1.097959e+02
<STATE> 4
<MEAN> 39
 -2.178786e+01 9.603090e+00 3.918019e+00 -1.642392e+00 -1.503575e+00 -6.728703e+00 -2.344960e+00 -6.918983e+00 -4.450461e+00 6.635343e+00 -3.368272e+00 -9.452947e-01 6.925757e+01 4.480819e+00 5.844772e-01 -1.415345e+00 1.032610e+00 -1.832823e+00 -2.137376e+00 -2.004494e+00 -1.446649e+00 -1.296559e+00 -7.788319e-01 -7.323099e-01 -8.844556e-01 5.506933e-01 2.083810e-01 -1.471521e-03 -4.469009e-01 -1.116190e-01 -2.975050e-02 -1.484878e-01 2.456038e-01 2.746911e-01 6.422417e-02 -3.325232e-02 -2.518301e-02 -2.280675e-02 1.752848e-01
<VARIANCE> 39
 8.773804e+01 4.537629e+01 5.390413e+01 1.034941e+02 5.129438e+01 7.144003e+01 8.655008e+01 6.733042e+01 4.990453e+01 3.636677e+01 2.852781e+01 3.172397e+01 4.348280e+01 4.734233e+00 3.833929e+00 4.536726e+00 4.335541e+00 5.025189e+00 5.973295e+00 5.450943e+00 4.429140e+00 3.358382e+00 2.847331e+00 2.461082e+00 2.438403e+00 2.265325e+00 1.460271e+00 5.823696e-01 5.125514e-01 4.986690e-01 8.205818e-01 1.200436e+00 1.273911e+00 1.034050e+00 6.932749e-01 4.939360e-01 4.322172e-01 4.192061e-01 2.529511e-01
<GCONST> 1.354650e+02
<TRANSP> 5
 0.000000e+00 1.000000e+00 0.000000e+00 0.000000e+00 0.000000e+00
 0.000000e+00 7.233634e-01 2.766366e-01 0.000000e+00 0.000000e+00
 0.000000e+00 0.000000e+00 8.715056e-01 1.284944e-01 0.000000e+00
 0.000000e+00 0.000000e+00 0.000000e+00 7.517399e-01 2.482601e-01
 0.000000e+00 0.000000e+00 0.000000e+00 0.000000e+00 0.000000e+00
<ENDHMM>
~h "t"
<BEGINHMM>
<NUMSTATES> 5
<STATE> 2
<MEAN> 39
 -5.902347e+00 1.540158e+01 -2.667662e+00 3.371555e+00 -4.368878e+00 -1.411651e+01 -2.463345e+00 -9.188015e+00 -1.531450e+01 4.104567e-01 -7.320726e+00 -9.562682e-01 6.613441e+01 5.626875e-03 4.721543e-01 -4.228455e-01 -5.260808e-02 -2.244719e-01 6.159396e-01 4.837005e-01 4.676631e-01 4.034032e-01 -3.341359e-01 -2.602575e-01 2.281637e-01 -7.073346e-01 -1.535209e-01 -7.781427e-02 5.222838e-02 7.580430e-02 3.006647e-02 1.548597e-01 6.242634e-02 1.290368e-02 1.265919e-01 9.166829e-02 9.902181e-02 4.251989e-02 -9.691055e-02
<VARIANCE> 39
 2.569808e+01 4.029706e+01 2.596716e+01 5.854141e+01 6.443793e+01 7.995514e+01 5.523244e+01 6.214149e+01 8.853574e+01 5.540091e+01 4.769593e+01 2.749675e+01 2.611621e+01 8.640696e-01 7.538752e-01 1.108132e+00 1.464542e+00 1.582085e+00 2.404353e+00 1.592352e+00 1.727499e+00 2.199609e+00 1.379945e+00 1.489111e+00 1.259853e+00 5.482360e-01 8.929437e-02 1.396021e-01 1.374069e-01 1.835444e-01 2.021338e-01 2.973998e-01 2.441481e-01 2.746210e-01 2.950517e-01 2.522165e-01 2.331752e-01 2.026744e-01 5.104659e-02
<GCONST> 1.029121e+02
<STATE> 3
<MEAN> 39
 -7.609461e+00 1.647968e+01 -3.810851e+00 5.495628e+00 -4.851341e+00 -7.211747e+00 6.813613e-01 -5.379857e+00 -8.680103e+00 -5.881568e-01 -7.689555e+00 7.917383e-01 6.204793e+01 -4.902194e-01 -3.176535e-02 -2.908446e-01 5.890993e-01 -1.063514e-02 1.043279e+00 4.928259e-01 3.699861e-01 9.919106e-01 1.404546e-01 3.022985e-01 3.635675e-01 -1.087147e+00 -6.997510e-02 -1.195136e-01 2.372518e-02 4.178289e-02 9.214229e-02 2.577432e-02 1.731182e-02 -1.033793e-02 -1.460975e-03 1.238146e-01 9.423869e-02 2.337821e-03 7.034616e-03
<VARIANCE> 39
 4.278423e+01 4.388481e+01 2.544289e+01 5.316814e+01 7.078371e+01 5.759138e+01 4.269438e+01 4.867815e+01 5.968569e+01 4.618076e+01 4.138362e+01 2.394814e+01 3.954062e+01 8.750374e-01 8.643913e-01 8.865116e-01 1.317486e+00 1.564385e+00 2.408328e+00 1.553320e+00 1.794425e+00 2.066837e+00 1.289139e+00 1.638819e+00 1.219753e+00 6.034243e-01 7.836924e-02 1.196292e-01 1.245393e-01 1.645006e-01 2.123543e-01 3.129137e-01 2.286629e-01 2.902035e-01 2.733001e-01 2.526740e-01 2.493347e-01 2.203961e-01 7.520301e-02
<GCONST> 1.021266e+02
<STATE> 4
<MEAN> 39
 -1.151856e+01 1.444492e+01 -3.855810e+00 9.042881e+00 -3.733067e+00 -1.065969e+00 4.938993e+00 -2.114924e+00 -2.291614e+00 3.405562e+00 -4.192397e+00 2.228014e+00 5.759748e+01 -3.441083e-01 -1.316309e-01 -6.651735e-02 4.192571e-01 2.248468e-01 7.024428e-01 2.846840e-01 1.335041e-01 3.995099e-01 1.812062e-01 1.953368e-01 1.892787e-01 -5.820045e-01 1.073951e-02 -7.211409e-02 4.884765e-02 -1.327417e-01 -4.756046e-02 -1.859643e-01 -6.372903e-02 -6.338112e-02 -1.399966e-01 2.724016e-02 -6.506767e-03 -4.397665e-02 1.779306e-01
<VARIANCE> 39
 4.273563e+01 2.873771e+01 3.474973e+01 5.126978e+01 6.296198e+01 6.770544e+01 4.422889e+01 5.084066e+01 5.587824e+01 4.584814e+01 3.252058e+01 1.973991e+01 4.068597e+01 7.895686e-01 1.140014e+00 1.091875e+00 1.545653e+00 1.624367e+00 2.590665e+00 1.988824e+00 1.997956e+00 2.189391e+00 1.678658e+00 1.548396e+00 1.218104e+00 9.215179e-01 1.008722e-01 1.905110e-01 2.064138e-01 2.971357e-01 2.760201e-01 4.152549e-01 3.398745e-01 3.090279e-01 3.616394e-01 2.983063e-01 2.590598e-01 2.173537e-01 1.761248e-01
<GCONST> 1.074564e+02
<TRANSP> 5
 0.000000e+00 1.000000e+00 0.000000e+00 0.000000e+00 0.000000e+00
 0.000000e+00 7.396668e-01 2.603332e-01 0.000000e+00 0.000000e+00
 0.000000e+00 0.000000e+00 5.356307e-01 4.643692e-01 0.000000e+00
 0.000000e+00 0.000000e+00 0.000000e+00 7.191700e-01 2.808299e-01
 0.000000e+00 0.000000e+00 0.000000e+00 0.000000e+00 0.000000e+00
<ENDHMM>
~h "v"
<BEGINHMM>
<NUMSTATES> 5
<STATE> 2
<MEAN> 39
 -1.153108e+01 1.211458e+01 -9.761345e+00 3.955390e+00 -5.691188e+00 1.860271e+00 1.104168e+01 2.997469e+00 -2.964916e-01 4.807804e+00 -2.058157e+00 3.274637e+00 5.760172e+01 1.024601e+00 -3.579055e-01 -8.606036e-01 -1.191596e+00 -1.377193e+00 -2.030149e-01 9.662122e-01 6.680619e-01 -3.997794e-01 -1.273992e+00 -7.298806e-01 -1.677655e-01 9.731364e-01 5.305310e-01 -3.136574e-01 -3.138550e-01 -4.110853e-01 -5.737612e-01 -3.048287e-01 4.560339e-02 2.044178e-02 -2.895783e-01 -3.890583e-01 -7.013172e-02 -2.312147e-02 6.910555e-01
<VARIANCE> 39
 3.836684e+01 3.355673e+01 3.907069e+01 6.505136e+01 6.641859e+01 7.256601e+01 7.007830e+01 4.717868e+01 4.401205e+01 4.096309e+01 3.613719e+01 2.370447e+01 4.964870e+01 5.228979e+00 2.254853e+00 3.696249e+00 6.094752e+00 8.270398e+00 4.093433e+00 3.691224e+00 3.930431e+00 3.884511e+00 4.718412e+00 2.388533e+00 2.286108e+00 4.296144e+00 6.184037e-01 3.505523e-01 5.207065e-01 9.270467e-01 1.120431e+00 5.027437e-01 6.433329e-01 5.834830e-01 5.596207e-01 5.916178e-01 3.706249e-01 3.794156e-01 4.792978e-01
<GCONST> 1.316464e+02
<STATE> 3
<MEAN> 39
 3.286395e-01 3.843220e+00 -1.847270e+01 -4.556367e+00 -1.949883e+01 -5.242866e+00 1.119344e+01 8.003807e+00 -4.686474e+00 -6.385084e+00 -4.868958e+00 1.285421e+00 7.220710e+01 8.481816e-01 -6.074139e-01 -4.896923e-01 -5.029289e-01 -8.063038e-01 -5.965894e-01 -1.687166e-01 5.364193e-02 -6.967160e-01 -9.817095e-01 -1.888490e-01 -9.365112e-02 1.608372e+00 -4.341182e-01 2.400941e-01 2.895071e-01 3.018994e-01 4.703296e-01 1.097595e-01 -2.917614e-01 -2.777369e-01 8.854070e-02 3.381919e-01 1.328723e-01 4.710547e-02 -3.741277e-01
<VARIANCE> 39
 2.188777e+01 7.591901e+01 3.951124e+01 2.926596e+01 8.132097e+01 4.900288e+01 7.083781e+01 7.967896e+01 3.259984e+01 5.395144e+01 5.865656e+01 3.937647e+01 2.812275e+01 4.256860e+00 3.987038e+00 2.580847e+00 2.765221e+00 5.547839e+00 2.447230e+00 2.993423e+00 3.883864e+00 2.729151e+00 3.456598e+00 1.901453e+00 2.284060e+00 3.937767e+00 4.560888e-01 5.328023e-01 4.107801e-01 5.024518e-01 6.981798e-01 4.334905e-01 4.702919e-01 4.888500e-01 4.166681e-01 5.010372e-01 3.071421e-01 2.725831e-01 4.079121e-01
<GCONST> 1.259689e+02
<STATE> 4
<MEAN> 39
 -3.844751e+00 7.731359e+00 -1.494138e+01 -5.920437e+00 -1.774582e+01 -7.983411e+00 5.946691e+00 -2.643399e+00 -8.321033e+00 -4.942769e+00 -5.619925e+00 1.465241e+00 7.142003e+01 -3.498175e-01 4.442772e-01 4.779517e-01 1.889097e-02 2.913058e-01 -3.879705e-01 -3.280028e-01 -7.115805e-01 -3.721335e-01 2.594505e-01 3.416855e-03 -7.729620e-02 -1.683359e-01 -3.320840e-02 1.154077e-02 3.619707e-02 8.809155e-02 7.314578e-02 9.122466e-02 1.647015e-02 3.120614e-02 6.558487e-02 3.311658e-02 -8.983666e-03 1.028568e-02 -1.283404e-01
<VARIANCE> 39
 4.564404e+01 6.304850e+01 4.860054e+01 3.441909e+01 1.003348e+02 6.368357e+01 5.405879e+01 8.961356e+01 6.297220e+01 5.917377e+01 4.061280e+01 4.773786e+01 2.607141e+01 4.015830e+00 3.447384e+00 2.604554e+00 2.254427e+00 7.185600e+00 3.846356e+00 2.762824e+00 3.685623e+00 2.559425e+00 2.771872e+00 2.637779e+00 2.343886e+00 1.923345e+00 7.117130e-01 5.349304e-01 4.699869e-01 4.771120e-01 1.328519e+00 7.896966e-01 4.753011e-01 6.413193e-01 4.956816e-01 4.576107e-01 4.986340e-01 4.440962e-01 3.624572e-01
<GCONST> 1.302323e+02
<TRANSP> 5
 0.000000e+00 1.000000e+00 0.000000e+00 0.000000e+00 0.000000e+00
 0.000000e+00 7.518659e-01 2.481341e-01 0.000000e+00 0.000000e+00
 0.000000e+00 0.000000e+00 7.870736e-01 2.129264e-01 0.000000e+00
 0.000000e+00 0.000000e+00 0.000000e+00 9.204064e-01 7.959357e-02
 0.000000e+00 0.000000e+00 0.000000e+00 0.000000e+00 0.000000e+00
<ENDHMM>
~h "w"
<BEGINHMM>
<NUMSTATES> 5
<STATE> 2
<MEAN> 39
 -4.698586e+00 1.382435e+01 -1.029766e+01 4.675919e-01 -1.597220e+01 -6.810909e+00 6.795358e+00 -4.233299e-01 -2.017614e+00 8.305498e-01 -7.848328e+00 -1.616598e+00 6.376850e+01 -2.251498e-01 3.280923e-01 -5.666185e-03 4.035988e-01 3.276429e-01 2.535262e-01 2.557501e-02 8.770035e-02 2.622565e-01 9.158726e-02 3.182821e-02 1.467161e-01 -7.178324e-01 -4.320252e-02 -5.820085e-02 5.136206e-02 -1.847648e-02 6.007236e-02 -1.152386e-02 -8.307197e-03 1.222446e-02 -6.600405e-02 -3.221896e-03 1.850793e-02 1.867341e-02 2.242876e-02
<VARIANCE> 39
 2.789850e+01 5.643785e+01 6.913236e+01 4.871350e+01 5.118876e+01 5.361687e+01 5.390834e+01 4.176762e+01 3.931903e+01 3.173938e+01 3.970385e+01 3.989715e+01 7.443783e+01 6.560789e-01 9.397838e-01 1.208303e+00 1.186308e+00 1.846712e+00 2.208928e+00 1.682972e+00 1.813344e+00 1.805434e+00 1.399195e+00 1.333458e+00 1.278375e+00 8.874549e-01 8.838739e-02 1.550499e-01 1.509113e-01 2.099448e-01 2.522135e-01 3.407255e-01 2.940610e-01 3.089781e-01 3.017344e-01 2.512546e-01 2.543580e-01 2.186850e-01 1.048693e-01
<GCONST> 1.050252e+02
<STATE> 3
<MEAN> 39
 -6.424355e+00 1.874499e+01 -5.237244e+00 4.752048e+00 -1.217255e+01 -6.192766e+00 4.211148e+00 -8.398533e-01 -2.306396e+00 1.612949e+00 -7.165530e+00 3.541651e-01 5.866880e+01 -5.171857e-03 -3.033515e-01 -3.572229e-01 -2.344378e-01 3.422256e-01 7.301360e-02 2.481959e-01 8.787591e-04 -4.704061e-01 -4.418770e-01 -4.040926e-01 1.216298e-01 3.157760e-01 -1.341641e-02 -2.621775e-01 -5.314957e-02 -4.649901e-02 1.360095e-01 2.843025e-02 -1.621928e-02 -2.312486e-01 -3.182707e-01 -3.459472e-03 1.365779e-01 1.724436e-01 2.434652e-01
<VARIANCE> 39
 4.704214e+01 4.325636e+01 3.414711e+01 4.426328e+01 6.242145e+01 7.180162e+01 3.982903e+01 4.315771e+01 3.600483e+01 2.719847e+01 4.121758e+01 2.726843e+01 3.361081e+01 1.017234e+00 1.468562e+00 1.452713e+00 2.202659e+00 2.412873e+00 2.420064e+00 2.506451e+00 2.567655e+00 2.453741e+00 2.109293e+00 2.485456e+00 1.746439e+00 1.523258e+00 1.455483e-01 2.647388e-01 1.645973e-01 2.815909e-01 5.075690e-01 4.275138e-01 4.454177e-01 5.240032e-01 4.329237e-01 3.652677e-01 4.718096e-01 3.847722e-01 1.230057e-01
<GCONST> 1.136667e+02
<STATE> 4
<MEAN> 39
 -7.976959e+00 1.509597e+01 -7.230322e+00 3.360076e+00 -8.678568e+00 -6.366590e+00 4.238373e+00 -3.788671e+00 -6.132459e+00 2.819973e+00 -4.673950e+00 3.435828e+00 6.143324e+01 -3.163258e-01 -7.357996e-01 -7.790151e-03 3.349829e-01 1.088310e+00 5.442118e-02 -3.625588e-01 -8.240156e-01 -6.058811e-01 4.484045e-01 4.948387e-01 3.381568e-01 4.365705e-01 -3.764229e-02 2.603599e-02 1.540142e-01 1.567028e-01 5.850761e-02 -6.922664e-02 -1.997860e-01 -5.636303e-02 1.344983e-01 1.883993e-01 6.151024e-02 -1.411575e-01 -4.486314e-02
<VARIANCE> 39
 6.227523e+01 3.984325e+01 3.349986e+01 5.341134e+01 7.429528e+01 1.112144e+02 4.585180e+01 6.401533e+01 7.848893e+01 5.982567e+01 6.310750e+01 3.108487e+01 5.717315e+01 1.009385e+00 2.587502e+00 1.630821e+00 2.263909e+00 3.935011e+00 3.725927e+00 3.672422e+00 4.179648e+00 4.090513e+00 3.546487e+00 3.077775e+00 2.669817e+00 1.500773e+00 1.540261e-01 3.088997e-01 2.502789e-01 4.359625e-01 5.436411e-01 5.524574e-01 6.066701e-01 6.665209e-01 6.702767e-01 6.824997e-01 6.083534e-01 4.836897e-01 1.554788e-01
<GCONST> 1.257030e+02
<TRANSP> 5
 0.000000e+00 1.000000e+00 0.000000e+00 0.000000e+00 0.000000e+00
 0.000000e+00 8.694941e-01 1.305059e-01 0.000000e+00 0.000000e+00
 0.000000e+00 0.000000e+00 6.135783e-01 3.864217e-01 0.000000e+00
 0.000000e+00 0.000000e+00 0.000000e+00 7.894585e-01 2.105415e-01
 0.000000e+00 0.000000e+00 0.000000e+00 0.000000e+00 0.000000e+00
<ENDHMM>
~h "y"
<BEGINHMM>
<NUMSTATES> 5
<STATE> 2
<MEAN> 39
 -5.947221e+00 7.668605e+00 -3.489515e+00 6.683689e+00 -2.351918e-01 -1.883069e+01 -7.163692e+00 -9.743417e+00 -1.381579e+01 1.251040e-01 -9.707028e+00 -5.287460e+00 7.161250e+01 -4.355032e-01 2.621437e-02 1.225312e+00 1.879904e+00 6.844509e-01 -9.928746e-01 -7.925998e-01 7.464533e-01 6.072865e-01 -2.134721e-01 -8.626010e-01 -8.021489e-01 -3.803354e-01 3.024100e-02 3.608857e-02 1.399230e-02 -1.349371e-01 -3.156103e-01 8.545499e-02 2.423804e-01 2.533587e-01 7.971001e-02 -1.083869e-01 2.437991e-02 1.194827e-01 -6.215125e-02
<VARIANCE> 39
 2.624026e+01 3.667351e+01 5.657242e+01 8.633685e+01 8.576643e+01 1.026352e+02 5.865457e+01 5.627525e+01 7.375065e+01 4.193887e+01 6.516904e+01 4.336023e+01 1.786480e+01 8.194984e-01 1.292423e+00 1.538644e+00 2.452505e+00 2.915777e+00 3.751941e+00 3.207202e+00 4.093132e+00 2.982576e+00 2.723898e+00 2.694898e+00 2.553245e+00 6.327565e-01 7.393349e-02 1.457143e-01 2.024981e-01 4.079742e-01 3.893843e-01 5.877918e-01 4.694572e-01 6.612345e-01 5.389566e-01 5.123641e-01 5.618999e-01 4.692227e-01 7.387219e-02
<GCONST> 1.181158e+02
<STATE> 3
<MEAN> 39
 -7.602620e+00 9.154372e+00 5.457075e+00 1.586758e+01 2.086943e+00 -2.271576e+01 -9.671266e+00 -3.262903e+00 -9.415708e+00 -1.455055e+00 -1.259972e+01 -6.434460e+00 6.887255e+01 3.180119e-02 2.596409e-02 1.740382e-01 1.682522e-01 1.199703e-01 -4.542022e-01 -6.626743e-01 1.559565e-01 3.218962e-01 3.531991e-01 -1.764415e-01 -2.194350e-01 -8.339207e-02 6.227602e-02 -6.841531e-03 -2.864234e-01 -2.993063e-01 4.472785e-02 1.877228e-01 2.737867e-02 -2.556203e-01 -9.038030e-02 2.000893e-01 1.427104e-01 1.297587e-02 4.476038e-02
<VARIANCE> 39
 1.856244e+01 2.459008e+01 4.097857e+01 4.983995e+01 7.316035e+01 1.277124e+02 5.657995e+01 4.192799e+01 6.473780e+01 3.911924e+01 3.782827e+01 3.574097e+01 1.086546e+01 5.431491e-01 6.465398e-01 1.801653e+00 1.224238e+00 1.343217e+00 2.417361e+00 2.133096e+00 2.529549e+00 1.745774e+00 1.741440e+00 1.438567e+00 1.272877e+00 3.938067e-01 6.813388e-02 8.029264e-02 1.193681e-01 1.703657e-01 2.340829e-01 4.214525e-01 4.449197e-01 3.309344e-01 2.785904e-01 2.626245e-01 3.196714e-01 2.838636e-01 3.974530e-02
<GCONST> 1.015858e+02
<STATE> 4
<MEAN> 39
 -6.257752e+00 1.188508e+01 -8.234320e-01 8.733091e+00 1.472378e+00 -2.013721e+01 -8.413744e+00 -7.684540e+00 -1.323766e+01 2.412239e+00 -1.052760e+01 -5.993354e+00 6.757068e+01 1.113512e-01 4.411512e-01 -5.362212e-01 -6.298025e-01 -3.241691e-02 1.077690e+00 5.649020e-01 -3.597061e-01 -4.874220e-01 -8.056611e-02 4.424213e-01 3.850242e-01 -3.908865e-01 -4.856218e-02 4.744769e-02 3.452858e-02 1.865057e-02 -9.723231e-02 8.240857e-02 1.615238e-01 6.486158e-02 7.046552e-03 -1.375484e-01 -2.031316e-02 9.392135e-02 -8.068363e-02
<VARIANCE> 39
 1.567375e+01 3.541303e+01 3.328080e+01 9.161037e+01 7.360432e+01 1.113301e+02 6.033315e+01 5.246508e+01 7.399467e+01 4.155756e+01 4.366665e+01 5.722397e+01 1.746668e+01 3.216141e-01 6.207106e-01 1.074499e+00 1.565465e+00 1.422712e+00 1.981665e+00 2.087092e+00 2.070401e+00 2.493271e+00 2.314158e+00 1.696849e+00 1.535371e+00 4.839692e-01 4.863280e-02 9.511998e-02 1.145402e-01 1.815447e-01 1.890323e-01 2.770610e-01 2.859941e-01 2.996496e-01 3.499372e-01 3.199291e-01 2.866105e-01 2.609393e-01 5.304515e-02
<GCONST> 1.028234e+02
<TRANSP> 5
 0.000000e+00 1.000000e+00 0.000000e+00 0.000000e+00 0.000000e+00
 0.000000e+00 7.954329e-01 2.045671e-01 0.000000e+00 0.000000e+00
 0.000000e+00 0.000000e+00 7.935376e-01 2.064625e-01 0.000000e+00
 0.000000e+00 0.000000e+00 0.000000e+00 8.898889e-01 1.101111e-01
 0.000000e+00 0.000000e+00 0.000000e+00 0.000000e+00 0.000000e+00
<ENDHMM>
~h "z"
<BEGINHMM>
<NUMSTATES> 5
<STATE> 2
<MEAN> 39
 -1.799100e+01 1.461286e+01 7.266654e+00 2.592291e+00 1.479344e+00 -4.982356e+00 1.101616e+00 -4.224926e+00 -7.705443e+00 3.021067e+00 -5.851820e+00 -4.520944e-01 6.477907e+01 -1.552475e+00 -7.413939e-01 6.459426e-01 -1.238428e+00 2.584176e-01 4.606310e-01 2.002466e-01 1.493524e-01 2.474398e-01 3.094114e-01 3.870025e-01 2.219101e-01 4.083234e-01 1.246689e-01 -6.299505e-02 -1.653890e-01 5.763911e-02 -1.001868e-01 -5.493943e-02 -1.173689e-01 -2.044519e-02 4.912155e-02 2.613343e-02 4.292787e-02 -5.850821e-03 2.060585e-02
<VARIANCE> 39
 9.131059e+01 3.776230e+01 6.945164e+01 1.256957e+02 4.827525e+01 7.437087e+01 9.890051e+01 7.625559e+01 6.245132e+01 4.008972e+01 2.779103e+01 2.441486e+01 3.866478e+01 6.174227e+00 1.930529e+00 5.720029e+00 8.613837e+00 4.025219e+00 4.163624e+00 3.680852e+00 4.347034e+00 3.444012e+00 2.031979e+00 1.985689e+00 1.562495e+00 1.648318e+00 8.642013e-01 2.924427e-01 7.080020e-01 1.445749e+00 7.147530e-01 5.607168e-01 5.937623e-01 7.726398e-01 5.590845e-01 3.460603e-01 3.487385e-01 2.662070e-01 2.983994e-01
<GCONST> 1.312821e+02
<STATE> 3
<MEAN> 39
 -2.242207e+01 1.033392e+01 4.105296e+00 -9.945329e-01 9.892624e-01 -8.589693e-01 1.063424e+00 -2.188150e+00 -3.287513e+00 5.291451e+00 -2.918780e+00 2.362761e+00 6.225215e+01 3.151806e-01 -3.295272e-01 -7.444879e-01 5.047501e-01 -3.035140e-01 5.606516e-01 2.843370e-01 1.008011e-01 2.444364e-01 1.607239e-01 3.134397e-01 2.491861e-01 -5.182725e-01 1.212008e-01 9.201968e-02 -6.175576e-02 1.123774e-01 3.151699e-02 -5.097318e-02 1.629928e-02 8.759056e-03 -8.448175e-02 9.184695e-05 -2.276738e-02 -2.589195e-02 -6.490006e-02
<VARIANCE> 39
 1.175341e+02 4.282956e+01 5.813903e+01 1.385864e+02 4.812695e+01 4.515290e+01 5.892976e+01 4.420666e+01 5.546302e+01 5.628679e+01 3.473966e+01 2.172333e+01 2.894404e+01 1.564190e+00 1.206667e+00 1.740555e+00 2.963986e+00 1.811313e+00 1.754001e+00 1.979609e+00 1.783888e+00 1.788105e+00 1.668160e+00 1.498791e+00 1.361694e+00 9.690713e-01 1.958583e-01 1.604099e-01 2.391436e-01 3.690216e-01 2.703945e-01 2.921418e-01 2.963837e-01 2.695006e-01 3.248213e-01 2.705612e-01 2.640494e-01 2.416496e-01 1.207334e-01
<GCONST> 1.109994e+02
<STATE> 4
<MEAN> 39
 -1.636290e+01 8.004724e+00 -4.706618e+00 8.740286e+00 2.317768e-01 4.387130e+00 7.669192e+00 -6.833369e-01 -4.930356e-01 8.541586e+00 1.545024e+00 4.110012e+00 5.671097e+01 6.980685e-03 1.192702e-01 -1.725291e-01 2.849570e-01 9.886558e-02 1.316583e-01 1.621801e-01 1.214695e-01 1.454852e-01 3.424978e-02 6.773987e-04 1.865821e-02 -2.127745e-01 -5.005011e-03 8.781345e-03 3.465502e-02 -4.866567e-02 5.976168e-03 -7.365312e-02 -4.447380e-02 -2.396302e-02 -2.955396e-02 -2.860302e-02 -3.421830e-02 -2.645595e-02 5.369976e-02
<VARIANCE> 39
 2.573815e+01 5.334999e+01 3.351093e+01 6.592481e+01 3.695593e+01 3.747165e+01 4.232315e+01 3.251941e+01 5.267396e+01 4.944149e+01 3.973874e+01 1.763059e+01 2.513176e+01 4.889555e-01 9.239033e-01 7.748464e-01 1.105762e+00 1.084286e+00 1.145325e+00 1.222792e+00 1.125833e+00 1.216077e+00 1.422959e+00 1.213937e+00 9.341804e-01 4.500262e-01 8.124530e-02 9.435137e-02 9.939312e-02 1.826707e-01 1.695265e-01 1.896687e-01 2.116366e-01 1.887348e-01 2.180379e-01 2.300830e-01 1.944657e-01 1.746658e-01 5.195069e-02
<GCONST> 9.329720e+01
<TRANSP> 5
 0.000000e+00 1.000000e+00 0.000000e+00 0.000000e+00 0.000000e+00
 0.000000e+00 8.649004e-01 1.350996e-01 0.000000e+00 0.000000e+00
 0.000000e+00 0.000000e+00 7.722802e-01 2.277199e-01 0.000000e+00
 0.000000e+00 0.000000e+00 0.000000e+00 9.149098e-01 8.509017e-02
 0.000000e+00 0.000000e+00 0.000000e+00 0.000000e+00 0.000000e+00
<ENDHMM>
~h "aa"
<BEGINHMM>
<NUMSTATES> 5
<STATE> 2
<MEAN> 39
 -9.508229e+00 6.570771e-01 -1.367990e+01 -5.258682e+00 -1.016583e+01 2.905843e+00 9.868354e+00 -3.326215e+00 -3.857096e+00 2.877082e+00 -4.529394e+00 -4.212987e-01 7.195579e+01 1.479055e+00 -1.085980e-01 -1.026119e+00 1.081951e-02 -1.103354e+00 -4.165078e-01 7.308983e-02 5.114637e-01 4.140482e-01 -1.423601e+00 -1.068875e+00 -9.221240e-01 6.182327e-01 1.612167e-01 2.923205e-01 -1.207027e-01 6.516578e-02 -4.291263e-02 -2.010290e-01 -2.480944e-01 -1.367876e-01 -3.403410e-02 -6.904665e-02 -5.278006e-02 4.807160e-02 -1.198968e-01
<VARIANCE> 39
 3.643783e+01 5.262706e+01 3.462374e+01 2.631728e+01 5.431237e+01 6.584414e+01 7.207553e+01 5.327443e+01 4.478065e+01 9.363737e+01 5.818088e+01 5.300600e+01 1.044387e+01 2.723340e+00 5.416867e+00 2.690722e+00 2.833690e+00 2.645733e+00 3.293808e+00 4.922077e+00 4.708421e+00 3.911509e+00 5.767353e+00 3.723965e+00 3.664824e+00 9.943269e-01 5.082409e-01 8.309594e-01 4.267437e-01 6.796863e-01 4.615054e-01 5.323895e-01 7.314378e-01 6.984125e-01 6.419135e-01 1.162324e+00 9.255635e-01 7.185450e-01 2.355316e-01
<GCONST> 1.306404e+02
<STATE> 3
<MEAN> 39
 -1.033459e+00 5.414623e+00 -1.941937e+01 -3.796130e+00 -1.350014e+01 -3.071225e+00 6.078302e+00 -4.151741e+00 -2.850613e+00 6.731713e-01 -6.355355e+00 -1.715887e+00 7.319300e+01 -9.589565e-02 4.581804e-01 3.738087e-01 4.166111e-01 5.336906e-01 -3.421877e-01 -3.544755e-01 -1.729866e-01 -1.839369e-01 4.541547e-01 5.459948e-01 4.217701e-01 -5.114709e-01 -2.417093e-01 4.366611e-02 2.334751e-01 9.910636e-02 2.326635e-01 7.632376e-02 1.549625e-03 -3.034575e-03 -8.503713e-02 6.659655e-02 4.906415e-02 5.982902e-02 -2.138331e-01
<VARIANCE> 39
 1.036998e+01 4.236052e+01 3.218903e+01 3.506593e+01 5.187787e+01 6.916171e+01 5.890958e+01 7.810777e+01 4.117705e+01 5.687652e+01 4.630891e+01 4.184210e+01 1.514877e+01 8.528894e-01 1.172453e+00 1.924348e+00 1.218122e+00 2.067152e+00 2.108005e+00 2.262436e+00 2.518284e+00 2.063519e+00 2.019982e+00 1.516905e+00 1.483966e+00 8.392345e-01 9.557839e-02 2.131108e-01 3.002419e-01 2.064729e-01 2.797218e-01 3.301881e-01 3.241096e-01 4.107806e-01 3.539294e-01 3.582595e-01 2.866969e-01 2.738359e-01 7.736325e-02
<GCONST> 1.073421e+02
<STATE> 4
<MEAN> 39
 -7.650775e+00 1.074909e+01 -1.286583e+01 4.146564e-01 -7.127697e+00 -1.548810e-01 6.194256e+00 -1.867625e+00 -2.886513e+00 4.496827e+00 -2.532170e+00 2.472055e+00 6.276411e+01 -9.400652e-01 -8.800835e-02 5.245778e-01 4.856526e-01 8.155577e-01 -3.514726e-01 -6.106348e-01 1.474257e-01 1.472189e-01 4.452330e-01 -1.580178e-02 1.640317e-01 -8.128026e-01 6.203568e-02 -3.126189e-01 1.275856e-02 -6.863439e-02 -2.159245e-02 -3.291591e-01 -3.371769e-01 -1.703496e-01 4.197216e-02 7.232066e-02 -1.138170e-01 -1.825544e-01 4.902094e-01
<VARIANCE> 39
 2.761161e+01 2.019611e+01 1.873254e+01 2.824729e+01 3.185485e+01 6.963065e+01 5.745053e+01 3.760998e+01 2.607329e+01 2.812754e+01 2.451214e+01 1.947095e+01 3.709222e+01 1.030130e+00 1.857624e+00 1.219669e+00 1.680986e+00 3.184950e+00 3.502080e+00 3.511637e+00 2.839118e+00 2.085402e+00 2.520107e+00 1.959469e+00 1.735078e+00 2.837718e+00 1.285064e-01 2.506005e-01 2.959579e-01 3.672559e-01 5.421751e-01 5.344290e-01 5.262527e-01 4.620818e-01 3.613284e-01 5.002246e-01 3.766914e-01 3.237530e-01 3.935812e-01
<GCONST> 1.129834e+02
<TRANSP> 5
 0.000000e+00 1.000000e+00 0.000000e+00 0.000000e+00 0.000000e+00
 0.000000e+00 8.616268e-01 1.383732e-01 0.000000e+00 0.000000e+00
 0.000000e+00 0.000000e+00 8.924861e-01 1.075140e-01 0.000000e+00
 0.000000e+00 0.000000e+00 0.000000e+00 7.850488e-01 2.149511e-01
 0.000000e+00 0.000000e+00 0.000000e+00 0.000000e+00 0.000000e+00
<ENDHMM>
~h "ae"
<BEGINHMM>
<NUMSTATES> 5
<STATE> 2
<MEAN> 39
 -6.525955e+00 6.619241e+00 -1.317710e+01 -8.851979e-01 -7.973284e+00 -7.717503e+00 4.647532e-01 -4.732274e+00 -3.936504e+00 6.496965e+00 -1.855649e+00 -4.982987e-02 6.906593e+01 9.938034e-01 -1.133481e+00 -1.371118e+00 -6.170005e-02 -2.087087e-01 -2.264540e-01 2.196867e-02 4.743110e-01 2.996587e-01 -2.332465e-01 -2.775600e-01 -4.807054e-01 1.110680e+00 -2.794050e-01 1.979268e-02 2.416845e-01 2.044748e-02 1.652639e-01 5.564167e-02 4.567003e-02 6.944911e-02 -5.270885e-02 -8.512240e-02 -6.735700e-02 1.208801e-02 -1.572598e-02
<VARIANCE> 39
 2.998524e+01 4.476871e+01 5.084750e+01 8.691138e+01 5.399384e+01 8.797868e+01 6.643541e+01 7.949077e+01 6.857755e+01 6.219823e+01 5.314038e+01 5.751372e+01 8.703867e+01 2.908483e+00 2.944589e+00 4.091721e+00 3.480714e+00 4.037092e+00 7.030341e+00 4.121033e+00 3.741789e+00 3.633497e+00 4.107546e+00 2.935985e+00 2.893451e+00 4.705355e+00 7.250184e-01 5.686098e-01 4.775471e-01 4.807177e-01 6.195745e-01 1.041442e+00 6.051247e-01 5.574744e-01 5.605219e-01 5.737169e-01 4.819669e-01 5.431653e-01 7.519221e-01
<GCONST> 1.357947e+02
<STATE> 3
<MEAN> 39
 -3.327014e+00 3.766135e+00 -1.766464e+01 -2.138955e+00 -7.375984e+00 -7.529834e+00 4.501697e-01 -5.384302e+00 -4.615940e+00 4.665248e+00 -2.894391e+00 -2.184300e+00 7.448921e+01 1.669899e-01 -3.011943e-01 -3.923147e-01 3.528592e-01 2.050905e-01 1.513975e-01 1.782286e-01 4.072088e-01 -1.161827e-03 -3.737628e-01 -1.507802e-01 -1.291735e-01 1.406308e-01 -1.642504e-01 3.714982e-01 4.054367e-01 1.591200e-02 -1.650119e-02 -5.863564e-02 -7.156003e-02 -8.165986e-02 -1.363142e-01 -3.404168e-02 -1.933156e-02 6.801207e-02 -2.548886e-01
<VARIANCE> 39
 1.584459e+01 4.505365e+01 6.471159e+01 7.422723e+01 5.593476e+01 8.193227e+01 6.826883e+01 8.825304e+01 5.865181e+01 6.788708e+01 6.051426e+01 5.295414e+01 3.746463e+01 5.115263e-01 1.339902e+00 1.408849e+00 1.560087e+00 2.099449e+00 2.999876e+00 2.410692e+00 2.299941e+00 2.796095e+00 2.727592e+00 1.833267e+00 1.833134e+00 1.178069e+00 1.113986e-01 2.277374e-01 2.095324e-01 2.534194e-01 2.711892e-01 4.311353e-01 3.245028e-01 3.358887e-01 3.433142e-01 3.924018e-01 3.223845e-01 3.079867e-01 2.128875e-01
<GCONST> 1.143805e+02
<STATE> 4
<MEAN> 39
 -2.223576e+00 4.573539e+00 -1.820187e+01 -9.013809e-01 -1.002863e+01 -8.163817e+00 2.112650e+00 -4.587649e+00 -5.440860e+00 3.259200e+00 -4.893486e+00 -2.768119e+00 7.319543e+01 -1.046855e-02 5.737458e-01 4.928198e-01 3.711289e-01 1.159343e-01 -2.152019e-01 -1.850125e-01 -7.684454e-02 -2.777501e-01 -1.395361e-01 -1.266559e-01 8.498294e-02 -4.351542e-01 -1.915918e-02 1.702066e-01 1.404820e-01 4.940306e-02 9.522714e-05 3.519567e-02 -8.047082e-03 -8.598674e-02 -5.861861e-02 -2.520457e-02 -1.678906e-02 2.635958e-02 -1.369753e-01
<VARIANCE> 39
 1.683547e+01 4.978034e+01 6.399642e+01 5.296597e+01 7.135202e+01 1.167383e+02 7.857885e+01 9.239365e+01 6.435772e+01 7.177476e+01 6.630588e+01 4.574384e+01 3.200262e+01 4.017966e-01 1.190107e+00 1.077573e+00 1.585968e+00 1.778485e+00 2.468928e+00 1.758008e+00 2.148215e+00 2.119985e+00 2.031885e+00 1.771865e+00 1.500157e+00 7.918117e-01 5.672609e-02 1.476111e-01 1.376071e-01 2.154987e-01 2.244661e-01 3.778597e-01 2.700756e-01 3.065541e-01 3.112964e-01 3.517895e-01 2.778966e-01 2.580165e-01 1.049562e-01
<GCONST> 1.088260e+02
<TRANSP> 5
 0.000000e+00 1.000000e+00 0.000000e+00 0.000000e+00 0.000000e+00
 0.000000e+00 6.421697e-01 3.578303e-01 0.000000e+00 0.000000e+00
 0.000000e+00 0.000000e+00 4.504800e-01 5.495200e-01 0.000000e+00
 0.000000e+00 0.000000e+00 0.000000e+00 8.033339e-01 1.966661e-01
 0.000000e+00 0.000000e+00 0.000000e+00 0.000000e+00 0.000000e+00
<ENDHMM>
~h "ah"
<BEGINHMM>
<NUMSTATES> 5
<STATE> 2
<MEAN> 39
 -3.791364e+00 6.891995e+00 -1.013359e+01 3.344746e+00 -1.717251e+00 -1.138097e+01 -2.613457e+00 -4.396910e+00 -6.117043e+00 6.048594e+00 -1.022080e+00 -2.872781e+00 7.297054e+01 -9.662088e-03 9.663501e-01 9.360998e-01 8.464190e-01 6.497327e-01 -7.743657e-02 -4.576973e-01 -4.534396e-01 -2.220431e-01 -1.378186e-01 -3.133179e-01 -2.516443e-01 -4.983909e-01 4.262024e-02 1.324442e-01 1.915760e-02 8.739610e-02 -1.325704e-01 1.882212e-01 9.847371e-02 2.594982e-02 -1.024130e-02 -1.410253e-01 -1.023509e-01 2.812429e-02 -1.957059e-01
<VARIANCE> 39
 6.728537e+00 3.822628e+01 3.822839e+01 4.591862e+01 4.938623e+01 7.590684e+01 5.794427e+01 5.452282e+01 5.469915e+01 4.103768e+01 6.977749e+01 3.067413e+01 1.741244e+01 3.981628e-01 1.728284e+00 1.713405e+00 2.363724e+00 1.900020e+00 3.620174e+00 2.448989e+00 2.560801e+00 1.729199e+00 2.927094e+00 2.217139e+00 1.589225e+00 1.654353e+00 7.439266e-02 2.238852e-01 2.037984e-01 3.344536e-01 2.618051e-01 6.324155e-01 3.753239e-01 4.340153e-01 3.195682e-01 5.261514e-01 3.352676e-01 2.429703e-01 2.091116e-01
<GCONST> 1.111516e+02
<STATE> 3
<MEAN> 39
 -3.886813e+00 1.457297e+01 -1.581699e+00 1.023670e+01 2.097248e-01 -1.018503e+01 -4.800988e+00 -5.562582e+00 -8.650279e+00 1.622188e+00 -7.229230e+00 -3.155413e+00 6.851019e+01 -9.862641e-02 4.204533e-01 7.633208e-01 4.645475e-01 -1.589917e-01 -3.853342e-01 -7.533640e-02 6.122563e-01 -2.309486e-01 -6.221473e-01 -4.172432e-01 7.223302e-02 -4.252358e-01 -4.968178e-02 -1.813225e-01 -9.975033e-02 -1.503819e-01 -7.438599e-02 -2.000203e-01 3.303431e-02 1.521511e-01 7.494039e-02 8.500873e-02 9.220298e-02 5.133704e-02 1.549081e-01
<VARIANCE> 39
 5.940305e+00 2.221395e+01 3.414125e+01 5.956858e+01 6.129170e+01 7.388760e+01 3.281070e+01 4.948470e+01 5.899483e+01 3.163620e+01 3.754551e+01 2.696074e+01 1.016147e+01 3.827359e-01 1.640785e+00 1.247493e+00 1.359972e+00 1.232448e+00 4.176337e+00 1.659137e+00 3.318396e+00 1.588410e+00 1.981646e+00 1.523028e+00 1.268666e+00 8.982683e-01 5.480909e-02 1.349067e-01 1.713751e-01 2.436727e-01 1.877359e-01 5.084249e-01 2.448546e-01 5.005761e-01 2.863615e-01 3.755068e-01 2.527582e-01 1.760843e-01 7.220839e-02
<GCONST> 1.013624e+02
<STATE> 4
<MEAN> 39
 -5.493867e+00 1.153377e+01 -3.123760e+00 1.280199e+01 -1.176709e+00 -1.891114e+01 -2.474510e+00 -5.087540e+00 -1.021762e+01 1.536110e+00 -7.372312e+00 -6.168333e+00 6.777277e+01 -1.067674e-02 7.044449e-02 -1.249009e-01 5.162979e-02 -1.651584e-02 1.013994e-01 -3.424142e-02 -1.948164e-02 1.958099e-01 1.938515e-01 1.029820e-01 1.136167e-03 -2.061110e-01 -1.032398e-02 -5.867810e-03 -2.863917e-02 -1.843709e-02 2.421474e-02 6.280454e-02 -9.260961e-03 -4.472475e-02 2.324095e-02 2.321368e-02 1.816696e-02 1.141572e-02 -7.804808e-03
<VARIANCE> 39
 6.448021e+00 3.196407e+01 2.500547e+01 4.236293e+01 5.899887e+01 1.405855e+02 4.000882e+01 9.096723e+01 7.294148e+01 3.886640e+01 2.869262e+01 7.458804e+01 1.727717e+01 2.158817e-01 9.542807e-01 8.113458e-01 1.101085e+00 1.013934e+00 5.450307e+00 1.385422e+00 2.528376e+00 1.892872e+00 1.729839e+00 1.332283e+00 1.698513e+00 5.611331e-01 3.059935e-02 1.177101e-01 1.014949e-01 1.592606e-01 1.465790e-01 6.366535e-01 2.252923e-01 3.257212e-01 2.670171e-01 2.621191e-01 2.041380e-01 2.407002e-01 5.575405e-02
<GCONST> 9.906276e+01
<TRANSP> 5
 0.000000e+00 1.000000e+00 0.000000e+00 0.000000e+00 0.000000e+00
 0.000000e+00 7.923235e-01 2.076765e-01 0.000000e+00 0.000000e+00
 0.000000e+00 0.000000e+00 7.299108e-01 2.700891e-01 0.000000e+00
 0.000000e+00 0.000000e+00 0.000000e+00 8.715917e-01 1.284083e-01
 0.000000e+00 0.000000e+00 0.000000e+00 0.000000e+00 0.000000e+00
<ENDHMM>
~h "aw"
<BEGINHMM>
<NUMSTATES> 5
<STATE> 2
<MEAN> 39
 -2.648681e+00 1.804392e+00 -2.410980e+01 -6.273727e+00 -7.874714e+00 -9.112007e+00 4.717554e+00 -3.345998e+00 -9.497122e+00 -1.937891e+00 -7.038489e+00 -4.857329e+00 7.845694e+01 -8.145650e-02 -1.973033e-02 3.999209e-01 1.023141e-01 -4.509672e-01 -1.418321e-01 3.672300e-01 1.905875e-01 -3.539486e-01 -6.550078e-01 -4.584476e-01 1.462126e-01 -2.553279e-01 1.653695e-02 1.799641e-01 1.267078e-01 -5.117656e-03 6.049493e-02 3.405347e-02 -1.433611e-01 -2.051760e-01 -1.043660e-01 9.640778e-02 4.627823e-02 3.125426e-02 -1.119879e-01
<VARIANCE> 39
 5.551886e+00 4.702590e+01 4.399878e+01 5.995970e+01 3.831165e+01 4.109285e+01 4.924842e+01 8.492446e+01 6.753352e+01 6.095784e+01 5.370788e+01 5.387424e+01 1.655398e+01 2.289277e-01 1.355485e+00 1.064894e+00 1.645697e+00 1.336523e+00 2.137412e+00 1.976420e+00 3.609838e+00 2.368891e+00 2.608337e+00 2.085248e+00 1.944532e+00 3.860627e-01 3.163708e-02 9.615056e-02 1.208680e-01 2.261448e-01 2.130634e-01 3.068978e-01 2.883869e-01 3.891535e-01 3.698629e-01 3.762344e-01 3.334551e-01 3.225764e-01 2.380982e-02
<GCONST> 1.023455e+02
<STATE> 3
<MEAN> 39
 -4.007220e+00 1.079926e+01 -1.084389e+01 -3.361942e+00 -8.347136e+00 -1.026419e+01 1.085087e+00 -1.069136e+01 -1.817017e+01 -1.444924e+00 -1.141509e+01 -7.342603e+00 6.998074e+01 3.499773e-02 7.249063e-01 6.926274e-01 4.183091e-01 1.153160e-01 2.631848e-01 -4.046368e-01 -7.234053e-01 -2.078690e-01 3.106613e-01 -4.510605e-02 -1.585071e-01 -6.574309e-01 1.175834e-02 -4.579766e-02 -1.719346e-01 -1.471983e-01 7.770939e-03 2.218181e-03 8.306175e-02 1.259583e-01 1.069409e-01 9.272831e-03 5.878210e-02 2.920258e-02 7.905921e-02
<VARIANCE> 39
 9.127027e+00 4.046155e+01 5.646741e+01 4.625257e+01 2.960777e+01 3.583011e+01 3.756243e+01 5.566031e+01 6.052884e+01 3.576196e+01 3.135660e+01 7.030994e+01 1.271726e+01 2.089142e-01 4.865448e-01 2.189901e+00 2.694610e+00 1.447209e+00 1.296597e+00 2.030927e+00 1.906278e+00 1.922157e+00 1.549348e+00 1.733525e+00 1.836107e+00 3.886470e-01 3.475289e-02 6.908745e-02 2.070533e-01 3.110336e-01 2.429430e-01 2.088909e-01 2.749138e-01 2.922229e-01 2.968899e-01 2.807907e-01 2.734634e-01 3.056121e-01 3.476753e-02
<GCONST> 9.816331e+01
<STATE> 4
<MEAN> 39
 -3.932225e+00 1.002361e+01 -1.748637e+01 -6.064874e+00 -1.219345e+01 -8.322441e+00 -1.146476e+00 -1.553868e+01 -8.631351e+00 2.442107e+00 -7.837535e+00 6.367009e-01 6.933311e+01 -9.841858e-02 7.538734e-03 2.316965e-01 3.094638e-01 1.290861e-01 -1.830834e-01 -4.965966e-01 -1.867925e-01 6.990968e-01 4.679992e-01 -1.139900e-01 -3.659072e-02 -1.168767e-02 -2.196547e-02 -5.350658e-02 8.173495e-02 1.348529e-01 2.482197e-02 2.392652e-02 5.111499e-02 3.566986e-02 -1.953886e-03 -1.170380e-01 -1.288189e-01 -5.677139e-02 1.760305e-02
<VARIANCE> 39
 6.328940e+00 4.650590e+01 5.251562e+01 4.579434e+01 9.237831e+01 6.026730e+01 7.220607e+01 5.966664e+01 8.544479e+01 6.734316e+01 4.610128e+01 1.225309e+02 1.777427e+01 3.196360e-01 1.391668e+00 2.577103e+00 2.185013e+00 1.715236e+00 2.299931e+00 2.510724e+00 2.746096e+00 1.971986e+00 2.436335e+00 2.175055e+00 2.185972e+00 6.892018e-01 4.583752e-02 1.044674e-01 2.943625e-01 3.676366e-01 2.840832e-01 3.028126e-01 3.399044e-01 3.746881e-01 3.181281e-01 3.419974e-01 3.557628e-01 3.044614e-01 4.500586e-02
<GCONST> 1.096717e+02
<TRANSP> 5
 0.000000e+00 1.000000e+00 0.000000e+00 0.000000e+00 0.000000e+00
 0.000000e+00 9.184223e-01 8.157760e-02 0.000000e+00 0.000000e+00
 0.000000e+00 0.000000e+00 8.753926e-01 1.246074e-01 0.000000e+00
 0.000000e+00 0.000000e+00 0.000000e+00 7.439139e-01 2.560861e-01
 0.000000e+00 0.000000e+00 0.000000e+00 0.000000e+00 0.000000e+00
<ENDHMM>
~h "ax"
<BEGINHMM>
<NUMSTATES> 5
<STATE> 2
<MEAN> 39
 -7.859348e+00 1.090700e+01 -5.419178e+00 5.159968e+00 -3.321522e+00 -7.718038e+00 -1.217031e+00 -5.291161e+00 -5.901461e+00 3.220063e+00 -5.339419e+00 -1.416870e+00 6.646221e+01 6.429642e-01 -3.972038e-01 -1.082834e+00 -6.402282e-01 -2.324478e-01 -9.834583e-02 1.041946e-01 -2.824579e-01 -1.834558e-02 3.461443e-01 4.488243e-01 -6.263461e-02 4.515022e-01 -4.813115e-02 -1.892599e-01 -1.349889e-02 -4.788966e-02 -7.984209e-02 -3.696304e-02 1.212542e-01 4.296623e-02 -6.507692e-02 -6.668099e-02 2.760719e-02 1.104297e-02 1.279286e-01
<VARIANCE> 39
 4.474579e+01 5.460942e+01 6.989159e+01 8.889680e+01 6.103712e+01 1.170871e+02 1.131461e+02 8.975233e+01 7.975964e+01 5.162563e+01 4.725592e+01 4.616515e+01 4.941586e+01 3.886774e+00 3.413870e+00 5.005338e+00 4.926777e+00 3.038997e+00 5.250169e+00 3.907330e+00 4.708048e+00 4.045794e+00 3.752444e+00 3.090882e+00 2.404384e+00 3.192014e+00 5.392084e-01 4.565114e-01 5.842793e-01 7.362887e-01 4.329113e-01 7.869078e-01 6.812229e-01 6.340440e-01 6.606038e-01 5.161965e-01 4.399713e-01 4.163275e-01 4.500166e-01
<GCONST> 1.358497e+02
<STATE> 3
<MEAN> 39
 -6.236081e+00 9.759158e+00 -6.882623e+00 3.540570e+00 -4.643457e+00 -9.905571e+00 -2.422501e+00 -6.373017e+00 -6.787529e+00 3.218486e+00 -5.174934e+00 -2.182635e+00 6.883739e+01 4.624927e-01 -4.936420e-01 -8.428252e-01 -2.819707e-01 -1.893226e-01 -2.559827e-01 1.951689e-01 -2.713681e-01 -1.049817e-01 3.557564e-01 4.010305e-01 -1.950075e-01 4.353477e-01 -2.068327e-01 5.384119e-02 2.074225e-01 1.153976e-01 6.530165e-02 1.216763e-01 1.260241e-01 3.178614e-02 -4.733996e-02 -1.115247e-01 -8.446108e-02 6.524757e-02 -1.250260e-01
<VARIANCE> 39
 3.799303e+01 6.056104e+01 8.139162e+01 8.156412e+01 6.370596e+01 1.010175e+02 1.065120e+02 9.780740e+01 7.378036e+01 5.641162e+01 5.008639e+01 4.898561e+01 3.132733e+01 2.717564e+00 2.846226e+00 3.096368e+00 3.043612e+00 2.557480e+00 6.318396e+00 3.494304e+00 4.364402e+00 3.916340e+00 2.996984e+00 2.929703e+00 2.515590e+00 3.251836e+00 3.465094e-01 3.475316e-01 4.827447e-01 4.979854e-01 3.684631e-01 5.464182e-01 5.169826e-01 5.139167e-01 5.452094e-01 4.933059e-01 4.383776e-01 3.710696e-01 2.407292e-01
<GCONST> 1.302350e+02
<STATE> 4
<MEAN> 39
 -5.676053e+00 8.372190e+00 -8.940660e+00 2.211645e+00 -6.502601e+00 -1.141607e+01 -1.375391e+00 -7.321126e+00 -7.956756e+00 3.024987e+00 -6.009218e+00 -3.024683e+00 7.040281e+01 3.853314e-02 9.011436e-02 -1.979914e-01 1.024584e-01 1.009532e-01 -4.030883e-02 1.325947e-01 -3.223101e-01 -1.162522e-01 1.985001e-01 8.638235e-02 -1.282797e-02 -1.378812e-01 -8.349761e-02 1.626924e-01 1.373662e-01 7.833286e-02 9.604549e-02 1.292368e-01 -8.485277e-03 -4.441615e-03 -4.079705e-02 -7.420464e-02 -5.267066e-02 7.737485e-02 -1.725174e-01
<VARIANCE> 39
 3.538039e+01 6.534365e+01 9.439415e+01 7.028532e+01 7.312610e+01 1.170215e+02 9.694290e+01 9.842161e+01 7.687273e+01 5.905894e+01 5.625580e+01 5.435265e+01 3.399448e+01 1.309215e+00 1.445800e+00 2.438284e+00 2.351439e+00 2.095111e+00 4.884637e+00 3.212431e+00 3.417073e+00 2.920350e+00 2.240386e+00 2.411332e+00 1.987294e+00 1.588190e+00 2.507809e-01 3.014497e-01 3.841125e-01 3.876891e-01 3.693146e-01 6.415144e-01 4.538999e-01 5.246791e-01 5.005873e-01 4.697254e-01 4.160815e-01 3.503266e-01 2.435920e-01
<GCONST> 1.252799e+02
<TRANSP> 5
 0.000000e+00 1.000000e+00 0.000000e+00 0.000000e+00 0.000000e+00
 0.000000e+00 3.317359e-01 6.682642e-01 0.000000e+00 0.000000e+00
 0.000000e+00 0.000000e+00 2.167171e-01 7.832829e-01 0.000000e+00
 0.000000e+00 0.000000e+00 0.000000e+00 4.765555e-01 5.234445e-01
 0.000000e+00 0.000000e+00 0.000000e+00 0.000000e+00 0.000000e+00
<ENDHMM>
~h "ay"
<BEGINHMM>
<NUMSTATES> 5
<STATE> 2
<MEAN> 39
 -3.541886e-01 2.525575e+00 -2.488661e+01 -2.205004e+00 -7.033793e+00 -9.572649e+00 -9.318976e-01 -7.863502e+00 -2.387039e+00 6.263428e+00 -4.233074e+00 -4.691318e+00 7.643855e+01 -4.006791e-01 -6.303433e-01 1.116015e+00 1.376346e+00 -1.707489e-01 -1.121309e+00 -9.748496e-01 -4.146536e-02 3.944581e-01 3.172025e-01 -1.099452e-01 -2.093881e-02 3.037973e-01 -8.639585e-02 3.216547e-01 3.896639e-01 -7.086661e-02 6.823629e-03 -1.709739e-01 -2.069653e-01 -1.626568e-01 -2.561147e-01 6.498843e-02 -6.206272e-02 3.640605e-02 -1.270846e-01
<VARIANCE> 39
 9.063481e+00 4.575425e+01 4.677392e+01 4.430943e+01 5.692827e+01 6.719349e+01 6.610589e+01 8.864745e+01 4.962679e+01 6.544228e+01 4.903737e+01 4.289921e+01 1.110099e+01 1.946546e-01 9.849454e-01 1.495441e+00 9.748365e-01 1.473703e+00 1.854907e+00 3.382547e+00 2.389933e+00 2.051508e+00 2.564089e+00 1.793574e+00 1.580232e+00 1.732834e-01 2.874447e-02 8.467668e-02 1.419917e-01 1.676099e-01 2.058278e-01 2.603799e-01 4.091482e-01 3.563862e-01 3.799033e-01 4.317909e-01 3.500083e-01 3.053485e-01 2.420867e-02
<GCONST> 1.008078e+02
<STATE> 3
<MEAN> 39
 -3.703747e+00 3.053878e+00 -1.373798e+01 4.039461e+00 -4.974567e+00 -1.685909e+01 -8.578004e+00 -1.165835e+01 -3.477449e+00 1.003865e+01 -6.105088e+00 -5.068174e+00 7.714127e+01 -6.351410e-01 7.301593e-01 2.211449e+00 9.811085e-01 3.054977e-01 -1.557509e+00 -8.968726e-01 -2.951568e-01 -9.517202e-01 -3.071336e-01 -9.007491e-01 8.515187e-02 -3.314603e-01 -3.992132e-02 2.256967e-01 -1.495577e-02 -1.454070e-01 1.096904e-01 2.116105e-01 3.442239e-01 8.094448e-02 -1.980706e-01 -3.265105e-01 4.070767e-02 9.269989e-02 -1.648328e-01
<VARIANCE> 39
 1.072002e+01 3.329881e+01 5.598558e+01 3.202608e+01 7.129738e+01 7.878976e+01 5.445989e+01 8.315195e+01 4.869167e+01 3.883691e+01 4.728217e+01 4.525331e+01 7.078736e+00 2.225936e-01 6.568603e-01 1.055223e+00 9.967719e-01 1.612133e+00 2.441824e+00 2.753793e+00 2.567837e+00 2.187961e+00 2.523096e+00 1.842894e+00 1.704393e+00 1.817068e-01 6.151979e-02 8.095228e-02 1.631076e-01 1.644318e-01 1.832304e-01 3.760668e-01 3.741152e-01 3.567621e-01 3.975540e-01 3.450860e-01 3.723004e-01 2.723859e-01 3.361502e-02
<GCONST> 1.005929e+02
<STATE> 4
<MEAN> 39
 -5.835646e+00 6.106259e+00 -9.178528e+00 6.554355e+00 -8.725864e+00 -2.331387e+01 -7.070050e+00 -9.651995e+00 -6.631941e+00 5.891303e+00 -8.804902e+00 -2.597412e+00 7.374832e+01 -8.581067e-01 7.257071e-01 1.734455e+00 1.857698e-03 6.163470e-01 5.026495e-01 2.406994e-01 1.669886e-01 -5.940831e-01 -4.946747e-01 1.849269e-01 3.926491e-01 -6.585506e-01 -2.653940e-01 -1.535644e-01 -4.877172e-02 -3.399636e-01 1.304221e-01 6.835808e-01 2.383176e-01 1.850399e-01 3.044833e-01 1.080936e-01 2.137603e-01 2.226541e-02 -1.446424e-02
<VARIANCE> 39
 1.598115e+01 2.604446e+01 6.488075e+01 4.057517e+01 1.157953e+02 7.221268e+01 6.883067e+01 4.859891e+01 5.264993e+01 4.826650e+01 4.797615e+01 4.141935e+01 9.638596e+00 1.127396e+00 1.676505e+00 3.278469e+00 2.238481e+00 2.452899e+00 6.472790e+00 3.303218e+00 2.794598e+00 3.722643e+00 3.627376e+00 3.027414e+00 2.306739e+00 6.328925e-01 1.971737e-01 2.467883e-01 2.895695e-01 3.398172e-01 3.864766e-01 8.123627e-01 6.519755e-01 4.485309e-01 6.582554e-01 6.898721e-01 4.889551e-01 4.118338e-01 1.457764e-01
<GCONST> 1.200904e+02
<TRANSP> 5
 0.000000e+00 1.000000e+00 0.000000e+00 0.000000e+00 0.000000e+00
 0.000000e+00 8.287875e-01 1.712125e-01 0.000000e+00 0.000000e+00
 0.000000e+00 0.000000e+00 6.502790e-01 3.497210e-01 0.000000e+00
 0.000000e+00 0.000000e+00 0.000000e+00 7.858406e-01 2.141594e-01
 0.000000e+00 0.000000e+00 0.000000e+00 0.000000e+00 0.000000e+00
<ENDHMM>
~h "ch"
<BEGINHMM>
<NUMSTATES> 5
<STATE> 2
<MEAN> 39
 -1.501653e+01 4.663439e+00 3.166724e+00 9.467385e+00 -3.287225e+00 -6.014102e+00 -1.018075e+00 -8.858904e-01 -4.522842e+00 3.100552e+00 -5.662380e+00 2.981492e-01 6.551531e+01 -2.482480e+00 -2.783684e+00 2.017431e+00 -2.716182e-01 -1.054108e-01 -6.431734e-01 -1.759013e-01 1.193456e+00 1.428018e-01 -1.405120e-01 1.944062e-01 7.037504e-01 1.659253e+00 -1.405665e-01 5.339213e-02 -9.121658e-02 8.629834e-03 1.498944e-01 -5.582203e-02 -1.548548e-01 -1.349508e-01 6.501409e-02 9.027392e-02 -7.471034e-03 -1.071892e-01 1.920597e-01
<VARIANCE> 39
 7.818876e+01 8.699278e+01 1.004595e+02 4.945376e+01 4.743712e+01 6.627558e+01 5.240726e+01 4.283201e+01 3.177532e+01 3.586961e+01 3.914865e+01 3.626429e+01 4.620959e+01 4.697961e+00 6.282728e+00 5.763327e+00 2.767925e+00 2.833518e+00 3.667965e+00 2.422502e+00 3.326130e+00 2.678940e+00 2.952215e+00 2.381067e+00 2.069303e+00 3.984336e+00 7.175732e-01 1.124528e+00 1.502181e+00 4.757715e-01 4.566268e-01 6.203432e-01 3.809228e-01 6.116571e-01 4.582556e-01 4.680708e-01 3.550221e-01 3.606817e-01 6.615521e-01
<GCONST> 1.312634e+02
<STATE> 3
<MEAN> 39
 -2.653556e+01 -7.490166e+00 5.866822e+00 9.942691e+00 -4.409673e-02 -8.668473e+00 -4.414765e+00 2.778574e-01 -1.432553e+00 3.530530e+00 -2.273507e+00 2.672833e+00 7.389526e+01 1.358038e+00 6.005709e-01 -1.102417e+00 -1.013025e-01 3.135331e-03 -5.467833e-01 -1.112293e+00 -1.203577e+00 -2.036634e-01 2.578127e-02 -3.839360e-02 -4.082436e-01 4.798851e-02 7.142022e-01 5.320723e-01 -1.250294e-01 -1.446766e-02 -1.851738e-01 -1.152294e-01 -3.398844e-02 -2.994501e-01 -3.253891e-01 -7.245532e-02 -1.336669e-01 -1.736576e-01 -1.893564e-01
<VARIANCE> 39
 3.998006e+01 2.592411e+01 4.561138e+01 3.576694e+01 4.845433e+01 4.434985e+01 4.808375e+01 4.190401e+01 2.925282e+01 2.726997e+01 2.796600e+01 2.317863e+01 1.011476e+01 5.254554e+00 3.789319e+00 2.027343e+00 1.407951e+00 1.628586e+00 2.187146e+00 1.674948e+00 2.433549e+00 2.841134e+00 1.451793e+00 2.125686e+00 2.001282e+00 1.239493e+00 3.484934e-01 3.658095e-01 6.323102e-01 3.084944e-01 2.423794e-01 3.240145e-01 3.255758e-01 4.028021e-01 4.095173e-01 3.024139e-01 3.687384e-01 3.459423e-01 2.792944e-01
<GCONST> 1.128709e+02
<STATE> 4
<MEAN> 39
 -9.832835e+00 2.225309e+00 -6.459354e-01 6.989563e+00 -3.402394e+00 -1.994755e+01 -1.053436e+01 -1.172993e+01 -1.258534e+01 2.210904e+00 -5.867216e+00 -4.237397e+00 7.305713e+01 1.641600e+00 1.268913e+00 -6.888377e-01 -6.671039e-01 -6.104934e-01 -8.419912e-01 8.058273e-03 -1.251740e+00 -1.616526e+00 3.213541e-02 -5.866304e-02 -2.689603e-01 2.659908e-01 -3.686017e-01 -2.301206e-01 -6.623142e-02 -2.495280e-01 -1.038228e-01 3.530441e-01 4.510170e-01 3.116161e-01 1.747698e-01 -4.617356e-02 2.131145e-01 4.200220e-01 7.258795e-03
<VARIANCE> 39
 2.823439e+01 3.379309e+01 2.842647e+01 6.675902e+01 8.418129e+01 1.184771e+02 5.485342e+01 6.621953e+01 6.481420e+01 5.539970e+01 4.926109e+01 4.463807e+01 1.269085e+01 3.490618e+00 3.209924e+00 2.153887e+00 2.180412e+00 2.477798e+00 6.080095e+00 4.148289e+00 4.630062e+00 5.027514e+00 3.362924e+00 3.595621e+00 3.762246e+00 9.033918e-01 2.952785e-01 4.433005e-01 2.898572e-01 3.423690e-01 3.175681e-01 7.152995e-01 6.060050e-01 6.202463e-01 6.480125e-01 7.006472e-01 7.001581e-01 6.363586e-01 1.524382e-01
<GCONST> 1.265929e+02
<TRANSP> 5
 0.000000e+00 1.000000e+00 0.000000e+00 0.000000e+00 0.000000e+00
 0.000000e+00 8.462000e-01 1.537999e-01 0.000000e+00 0.000000e+00
 0.000000e+00 0.000000e+00 8.753583e-01 1.246416e-01 0.000000e+00
 0.000000e+00 0.000000e+00 0.000000e+00 7.218944e-01 2.781057e-01
 0.000000e+00 0.000000e+00 0.000000e+00 0.000000e+00 0.000000e+00
<ENDHMM>
~h "eh"
<BEGINHMM>
<NUMSTATES> 5
<STATE> 2
<MEAN> 39
 -1.266429e+01 8.688752e+00 -2.947643e+00 -3.693730e+00 -4.590938e+00 -7.854545e+00 -3.384471e+00 -1.016296e+01 -7.404005e+00 6.679823e+00 -3.489709e+00 -5.598564e-01 7.350188e+01 1.928167e+00 -2.866918e-01 -1.784186e+00 -4.151840e-01 -6.159754e-01 3.208968e-01 2.676642e-01 -2.443237e-01 2.287082e-01 -3.855550e-01 -3.638596e-01 7.819506e-02 9.478595e-01 -8.132209e-01 1.080833e-01 4.764125e-01 -1.403693e-01 3.101994e-01 3.368430e-01 2.012465e-01 2.100110e-01 2.770900e-01 1.577078e-01 6.009898e-02 1.370376e-01 -1.675092e-01
<VARIANCE> 39
 1.020939e+02 6.645135e+01 7.823793e+01 6.144179e+01 7.538177e+01 5.520213e+01 5.582013e+01 6.006655e+01 4.475238e+01 3.155337e+01 3.157828e+01 3.383733e+01 2.914673e+01 1.224475e+01 3.617302e+00 5.105155e+00 3.656196e+00 3.844176e+00 2.963909e+00 2.690729e+00 3.714033e+00 2.627980e+00 1.821933e+00 1.985931e+00 1.616969e+00 1.018999e+00 1.812930e+00 6.619433e-01 7.909955e-01 5.178080e-01 8.064641e-01 6.770865e-01 5.296134e-01 5.711813e-01 4.083606e-01 3.731340e-01 3.340828e-01 2.815444e-01 2.949494e-01
<GCONST> 1.292547e+02
<STATE> 3
<MEAN> 39
 -1.312647e+01 1.033532e+01 -2.205319e+00 -7.792962e+00 -4.462661e+00 -5.286699e+00 -5.327381e+00 -1.091271e+01 -5.803071e+00 5.597377e+00 -2.736340e+00 6.258948e-01 7.488951e+01 5.512826e-01 -1.148239e-02 -4.893872e-01 -1.352797e-01 -1.947538e-01 2.578233e-01 9.699395e-02 -2.561325e-01 1.006858e-01 2.110296e-02 -1.081612e-01 1.303637e-01 1.543140e-01 -6.315166e-01 9.907943e-02 5.994362e-01 7.769147e-02 2.582289e-01 2.514804e-02 4.318773e-02 1.468525e-01 -4.948031e-02 6.334507e-02 1.509198e-02 -1.564695e-02 -2.703888e-01
<VARIANCE> 39
 1.379296e+02 4.728480e+01 8.897790e+01 7.424799e+01 4.729536e+01 4.702573e+01 6.672239e+01 4.970303e+01 4.325814e+01 2.466286e+01 2.663541e+01 2.458493e+01 1.140467e+01 1.023267e+01 1.439653e+00 5.791052e+00 2.261753e+00 3.061471e+00 2.744831e+00 2.199199e+00 3.304933e+00 1.833553e+00 1.438060e+00 1.377952e+00 1.058465e+00 8.805223e-01 1.952633e+00 4.273078e-01 1.316839e+00 5.368984e-01 4.490934e-01 6.244505e-01 4.047751e-01 5.693917e-01 4.014650e-01 2.984705e-01 3.196188e-01 2.096500e-01 1.403995e-01
<GCONST> 1.215001e+02
<STATE> 4
<MEAN> 39
 -8.927849e+00 8.832729e+00 -5.330022e+00 -5.772773e+00 -8.397095e+00 -1.135447e+01 -7.429371e+00 -1.208020e+01 -6.759206e+00 3.974758e+00 -5.649323e+00 -3.255353e+00 7.358079e+01 -6.261455e-01 5.745460e-01 1.100110e+00 7.152951e-02 8.898098e-01 2.672020e-01 1.995238e-01 3.079527e-01 -1.908668e-01 -3.497432e-01 -1.790635e-01 -2.228297e-02 -3.584652e-01 -7.428253e-01 9.657124e-02 5.428163e-01 -2.552690e-01 3.678134e-01 1.942111e-01 1.961744e-01 3.144220e-01 9.184534e-02 1.731589e-01 1.187137e-01 1.269233e-01 -4.928922e-02
<VARIANCE> 39
 6.109752e+01 6.212809e+01 1.050139e+02 5.409897e+01 4.669071e+01 6.190416e+01 8.275632e+01 5.709666e+01 6.118304e+01 5.766943e+01 3.485150e+01 3.858575e+01 1.239232e+01 8.228317e+00 3.156209e+00 5.957741e+00 3.301837e+00 4.319397e+00 4.719287e+00 3.080889e+00 4.123155e+00 3.057204e+00 2.551963e+00 1.952176e+00 1.603917e+00 5.352312e-01 7.357133e-01 4.786666e-01 7.884682e-01 5.750666e-01 5.320939e-01 7.668265e-01 5.563841e-01 6.873974e-01 5.889197e-01 4.692978e-01 3.821964e-01 2.791309e-01 9.668390e-02
<GCONST> 1.276943e+02
<TRANSP> 5
 0.000000e+00 1.000000e+00 0.000000e+00 0.000000e+00 0.000000e+00
 0.000000e+00 2.723914e-01 7.276086e-01 0.000000e+00 0.000000e+00
 0.000000e+00 0.000000e+00 6.781781e-01 3.218219e-01 0.000000e+00
 0.000000e+00 0.000000e+00 0.000000e+00 7.903742e-01 2.096259e-01
 0.000000e+00 0.000000e+00 0.000000e+00 0.000000e+00 0.000000e+00
<ENDHMM>
~h "ey"
<BEGINHMM>
<NUMSTATES> 5
<STATE> 2
<MEAN> 39
 -5.645206e+00 8.113786e+00 -5.695398e+00 8.689014e+00 -5.764506e+00 -2.034847e+01 -9.358379e+00 -5.794672e+00 1.055012e+00 1.001930e+01 -5.438331e+00 -1.036383e+00 6.903971e+01 -7.693004e-02 2.042015e-01 1.206488e-01 2.505602e-01 1.928611e-01 4.436611e-02 1.442857e-02 2.928148e-01 -4.856934e-02 5.221917e-02 2.068248e-01 1.027638e-01 -4.166090e-01 -1.760030e-01 1.795369e-02 7.222793e-02 3.313768e-03 8.207481e-02 2.546659e-01 1.332020e-01 5.736667e-02 -5.526670e-02 -6.460683e-02 4.856613e-03 2.142677e-02 -1.496807e-01
<VARIANCE> 39
 1.013912e+01 3.479521e+01 2.617917e+01 3.159785e+01 9.668880e+01 8.056267e+01 8.586493e+01 1.133883e+02 6.001542e+01 3.339479e+01 3.422941e+01 4.604716e+01 1.783483e+01 3.460717e-01 9.551951e-01 8.457509e-01 6.588588e-01 8.307303e-01 1.367739e+00 9.450992e-01 1.340208e+00 1.631436e+00 1.163963e+00 1.040569e+00 1.027017e+00 3.751667e-01 6.948201e-02 1.682450e-01 1.108240e-01 1.270932e-01 1.660470e-01 2.570205e-01 2.090289e-01 2.224284e-01 2.497804e-01 1.670173e-01 1.745720e-01 1.798834e-01 4.233857e-02
<GCONST> 9.391791e+01
<STATE> 3
<MEAN> 39
 -1.077459e+01 1.086535e+01 -3.699095e+00 1.096410e+01 2.213625e-01 -1.061236e+01 -8.302013e+00 -5.049388e+00 2.220058e+00 9.967093e+00 -3.785296e+00 -9.949982e-01 6.053175e+01 -6.609384e-01 -2.858158e-02 -2.113706e-01 1.652919e-01 4.769770e-02 1.224696e+00 8.669609e-01 4.964106e-01 -9.888506e-03 -1.439237e-01 3.700428e-01 3.104692e-01 -1.061377e+00 6.158643e-03 -4.496352e-02 -6.610122e-02 -6.555031e-02 -5.082927e-02 6.267557e-02 1.281641e-01 -2.436598e-02 -5.147252e-02 -1.075191e-02 4.381540e-03 7.134296e-03 3.534976e-02
<VARIANCE> 39
 1.336645e+01 1.986155e+01 1.631796e+01 3.049489e+01 4.209196e+01 5.964813e+01 4.748652e+01 5.577937e+01 4.553646e+01 2.848687e+01 2.284248e+01 3.114450e+01 2.091942e+01 3.862772e-01 9.338901e-01 7.573317e-01 6.995112e-01 1.676961e+00 2.096124e+00 1.695179e+00 1.616366e+00 1.625266e+00 1.197378e+00 1.066216e+00 1.134707e+00 4.878783e-01 4.789196e-02 1.155689e-01 1.166584e-01 1.032045e-01 2.421874e-01 2.965652e-01 2.278272e-01 2.730203e-01 2.512202e-01 2.075682e-01 1.896566e-01 1.996708e-01 4.731356e-02
<GCONST> 9.239789e+01
<STATE> 4
<MEAN> 39
 -1.473530e+01 7.839829e+00 -5.713338e+00 1.159088e+01 -1.602853e+00 -1.282470e+00 2.782081e+00 -2.457137e-01 1.706640e+00 9.853090e+00 7.174786e-02 3.694228e+00 5.591417e+01 -3.305813e-01 5.316996e-02 -7.235324e-02 1.508667e-02 2.341016e-01 9.139034e-01 6.131686e-01 1.787429e-01 9.054524e-02 -9.285808e-02 1.402470e-01 1.158881e-01 -4.113926e-01 -2.617181e-02 -1.326309e-02 6.820349e-02 -7.611921e-02 -1.098106e-03 -1.020055e-01 -8.071043e-02 -1.623684e-02 -4.248484e-02 -1.417672e-02 -5.084255e-02 -2.944850e-02 8.137149e-02
<VARIANCE> 39
 1.619617e+01 4.048967e+01 1.622899e+01 3.377069e+01 3.682867e+01 9.353764e+01 4.600081e+01 3.713018e+01 4.610544e+01 2.937422e+01 2.316176e+01 3.425055e+01 1.855757e+01 3.552833e-01 1.091757e+00 7.317196e-01 9.450872e-01 1.291019e+00 2.581905e+00 1.591382e+00 1.124128e+00 1.610611e+00 1.331562e+00 1.088837e+00 1.105406e+00 5.046312e-01 7.875365e-02 1.282376e-01 1.474662e-01 1.873163e-01 2.139016e-01 3.292261e-01 2.419362e-01 2.075701e-01 2.780296e-01 1.986128e-01 1.837726e-01 1.851753e-01 7.780106e-02
<GCONST> 9.493976e+01
<TRANSP> 5
 0.000000e+00 1.000000e+00 0.000000e+00 0.000000e+00 0.000000e+00
 0.000000e+00 8.976760e-01 1.023240e-01 0.000000e+00 0.000000e+00
 0.000000e+00 0.000000e+00 8.286084e-01 1.713916e-01 0.000000e+00
 0.000000e+00 0.000000e+00 0.000000e+00 8.579655e-01 1.420345e-01
 0.000000e+00 0.000000e+00 0.000000e+00 0.000000e+00 0.000000e+00
<ENDHMM>
~h "ih"
<BEGINHMM>
<NUMSTATES> 5
<STATE> 2
<MEAN> 39
 -9.148783e+00 1.179807e+01 -3.935590e+00 7.906731e+00 -1.440940e+00 -8.173231e+00 -3.265144e+00 -8.681219e+00 -7.612172e+00 4.723727e+00 -4.280528e+00 1.723406e-01 6.525265e+01 -6.013830e-02 6.182074e-02 -1.105751e-01 4.122943e-01 1.679114e-01 2.891392e-01 2.376834e-01 2.150254e-01 2.734599e-01 1.199774e-01 1.600853e-01 1.755850e-01 -4.232253e-01 -1.511663e-01 1.152056e-02 5.537331e-02 -1.333191e-01 -1.148744e-01 1.175224e-01 2.059374e-01 1.702719e-01 6.644005e-02 -9.607912e-02 -3.415958e-02 3.484241e-02 -5.825463e-02
<VARIANCE> 39
 4.461802e+01 3.405579e+01 3.436411e+01 4.335917e+01 4.357462e+01 1.153353e+02 8.082575e+01 5.771576e+01 6.593443e+01 4.071642e+01 4.000725e+01 4.004287e+01 7.029994e+01 1.892959e+00 1.937997e+00 1.976684e+00 1.990608e+00 1.986608e+00 4.030580e+00 2.745054e+00 2.654108e+00 2.305642e+00 2.327226e+00 1.938065e+00 1.671704e+00 1.600499e+00 3.105581e-01 4.029434e-01 2.568944e-01 2.755341e-01 3.527795e-01 6.845403e-01 5.536636e-01 5.340282e-01 4.621770e-01 4.259748e-01 3.811201e-01 3.248231e-01 2.311964e-01
<GCONST> 1.203242e+02
<STATE> 3
<MEAN> 39
 -9.479556e+00 1.150548e+01 -4.291808e+00 8.581681e+00 -2.444923e+00 -7.652700e+00 -2.709327e+00 -7.732285e+00 -6.764025e+00 4.493480e+00 -3.921843e+00 5.579337e-01 6.368889e+01 3.784710e-02 -1.231609e-02 -1.678730e-01 -1.075417e-01 -3.442588e-01 -6.371781e-02 3.136853e-01 3.151629e-01 2.073921e-01 1.528668e-02 6.047388e-02 9.199411e-02 -7.217278e-02 -6.347600e-02 -7.225588e-02 1.196901e-01 -2.740148e-01 -1.252162e-01 -1.397052e-01 7.882834e-02 1.076369e-01 -7.695040e-02 -9.194238e-02 -9.009738e-02 -5.574430e-02 1.804549e-01
<VARIANCE> 39
 4.917282e+01 3.764486e+01 3.703460e+01 3.975105e+01 5.058206e+01 1.220122e+02 8.179391e+01 5.748169e+01 6.378838e+01 3.762700e+01 3.715656e+01 3.768199e+01 7.441399e+01 2.086324e+00 2.674840e+00 2.211347e+00 2.205573e+00 2.183917e+00 5.691172e+00 3.559666e+00 2.971998e+00 2.940305e+00 2.560408e+00 2.224999e+00 1.716802e+00 2.148858e+00 3.880353e-01 4.448063e-01 3.581816e-01 3.986760e-01 4.397987e-01 9.527280e-01 6.418031e-01 5.506673e-01 5.178939e-01 4.321511e-01 4.230616e-01 3.149041e-01 3.927633e-01
<GCONST> 1.252623e+02
<STATE> 4
<MEAN> 39
 -8.307805e+00 8.976629e+00 -5.395428e+00 5.982152e+00 -6.880328e+00 -1.282386e+01 -2.778495e+00 -6.228496e+00 -6.588041e+00 4.431502e+00 -4.513531e+00 4.273529e-01 6.610692e+01 3.222212e-01 -1.737378e-01 -1.125560e-02 -6.553702e-01 -5.072334e-01 -8.199946e-01 1.553205e-01 2.851183e-01 -4.161699e-01 -2.245522e-01 -2.973101e-01 -1.448736e-01 8.236275e-01 -1.256143e-01 6.149092e-02 4.143577e-02 -7.840130e-02 1.089976e-01 2.050431e-01 5.994215e-02 2.250577e-03 -2.979349e-02 -5.779346e-02 -4.842702e-02 -3.200425e-02 -5.302685e-02
<VARIANCE> 39
 4.427081e+01 7.119372e+01 4.537479e+01 5.630405e+01 8.670291e+01 1.581783e+02 7.725443e+01 6.050541e+01 8.422162e+01 5.250138e+01 5.432688e+01 4.254659e+01 7.618019e+01 3.331602e+00 4.776538e+00 3.061116e+00 3.398394e+00 3.868145e+00 8.082493e+00 5.112547e+00 4.102428e+00 5.004752e+00 3.446186e+00 3.174882e+00 2.525510e+00 4.429797e+00 4.051067e-01 7.557833e-01 5.260318e-01 6.772587e-01 5.938631e-01 1.159410e+00 7.633545e-01 6.660527e-01 8.117939e-01 6.078231e-01 5.436431e-01 4.211279e-01 6.939078e-01
<GCONST> 1.382290e+02
<TRANSP> 5
 0.000000e+00 1.000000e+00 0.000000e+00 0.000000e+00 0.000000e+00
 0.000000e+00 6.273815e-01 3.726185e-01 0.000000e+00 0.000000e+00
 0.000000e+00 0.000000e+00 3.592810e-01 6.407191e-01 0.000000e+00
 0.000000e+00 0.000000e+00 0.000000e+00 6.029618e-01 3.970382e-01
 0.000000e+00 0.000000e+00 0.000000e+00 0.000000e+00 0.000000e+00
<ENDHMM>
~h "iy"
<BEGINHMM>
<NUMSTATES> 5
<STATE> 2
<MEAN> 39
 -7.946073e+00 1.100066e+01 1.302281e+00 8.163201e+00 -3.306415e+00 -1.752928e+01 -6.652108e+00 -5.437127e+00 -1.137057e+01 4.711199e-01 -8.023554e+00 -3.915861e+00 6.930574e+01 -3.602879e-01 -3.533305e-01 7.715090e-01 8.804253e-01 -1.322560e-02 -1.547017e+00 -9.921188e-02 1.334683e+00 2.354010e-01 -4.015477e-01 -3.511531e-01 -4.890920e-02 5.485686e-02 -1.320664e-01 2.019380e-02 -6.367147e-02 -1.813053e-01 1.524196e-02 4.009618e-01 2.171275e-01 -6.137826e-02 1.205918e-01 6.501935e-02 4.964512e-02 9.892426e-02 -1.298933e-01
<VARIANCE> 39
